1000 300
advocates -0.0023 -0.0155 0.0124 0.021 -0.0356 -0.0056 -0.0009 -0.0315 -0.0012 0.0165 -0.0047 -0.0091 -0.0022 0.0013 0.0026 -0.0058 0.0205 0.0036 0.0295 -0.0048 -0.0156 0.0091 0.0152 0.0119 -0.0203 -0.0211 0.002 0.0214 0.0039 -0.0041 0.0068 -0.0116 -0.0169 0.008 -0.0021 0.0198 0.0102 -0.0217 -0.0119 -0.0097 -0.0111 -0.0259 -0.0165 0.0151 0.0038 0.0163 -0.0012 0.0183 0.0194 -0.0115 -0.002 0.0143 -0.0085 -0.0201 -0.0097 0.0022 0.0092 0.0041 -0.0002 0.0102 -0.0014 -0.005 0.0371 -0.0082 0.0002 0.0026 -0.0015 -0.0299 -0.0032 0.0011 0.0037 -0.0201 0.0352 -0.0144 -0.0018 -0.0102 -0.0066 -0.0211 0.0069 -0.0074 0.0032 0.0206 -0.0044 0.015 -0.0072 -0.0066 0.0013 0.0013 -0.0032 0.006 0.0026 -0.0077 -0.0267 -0.023 0.0126 0.0215 -0.0049 -0.0002 0.0043 0.0016 -0.0265 -0.0209 0.0287 0.0034 0.0182 -0.0365 0.0126 -0.0098 -0.0178 -0.0126 -0.0059 0.0256 0.0206 -0.0057 -0.0064 0.0072 0.007 -0.0103 -0.0085 0.0086 -0.0005 -0.0054 0.0096 -0.0148 0.067 -0.0157 -0.0003 0.0051 0.0139 0.0435 0.0166 0.0304 0.0202 0.0152 -0.0011 -0.0112 -0.0035 0.0142 -0.0183 -0.0074 0.0116 -0.006 0.0012 0.0101 -0.0182 -0.0071 0.0035 0.0188 -0.0079 0.0021 0.0341 0.0165 -0.0135 -0.0339 0.0066 -0.0045 0.0003 0.0019 -0.004 -0.0038 0.0143 0.0132 0.0044 -0.0077 -0.0095 -0.0113 0.0115 0.014 0.0045 -0.0206 -0.0063 -0.0044 0.0013 -0.0017 -0.0107 0.0154 -0.0228 0.003 -0.0231 0.0123 -0.0031 -0.0025 0.0104 0.0159 0.0145 -0.0066 0.0067 0.0331 -0.0089 0.0001 -0.0139 0.029 -0.0419 -0.0129 0.0113 -0.024 0.0219 -0.0004 -0.0135 -0.0091 -0.0358 0.0177 0.0128 0.0168 0.0105 -0.0067 -0.0018 0.0044 -0.0041 -0.0236 0.0086 0.0158 0.0087 0.0049 -0.0461 0.0129 0.0342 -0.0087 -0.0038 -0.0353 -0.0055 -0.0239 0.0039 0.0292 0.0182 -0.0102 0.0141 0.0421 0.0189 0.0056 0.0104 -0.0085 -0.0165 -0.0288 0.0231 -0.0055 -0.0067 0.0123 -0.0017 0.0042 0.0313 -0.0028 0.0011 0.0068 0.0008 -0.0024 0.0004 -0.0093 -0.0001 -0.0117 0.0384 0.0168 -0.0059 0.002 0.0094 -0.0069 -0.012 0.0142 -0.0233 0.0002 0.0054 0.0189 -0.0073 0.0128 0.0263 0.0071 0.0128 0.0073 0.0039 0.0134 -0.0042 0.025 -0.0431 0.0041 -0.0007 0.004 -0.0181 0.003 0.0031 -0.0046 -0.0153 -0.0021 -0.0003 -0.0007 -0.0052 -0.0042 -0.0278 -0.012 0.0153 0.0093 -0.0027 -0.019 -0.0101 -0.0051 -0.005 -0.0006 -0.0112 0.0205 -0.0089 0.002
torts -0.0274 -0.0471 0.0512 0.0288 0.0195 -0.0209 0.0339 -0.0649 0.0478 -0.0011 0.0068 -0.0516 0.0336 -0.0174 -0.0734 0.029 0.0362 0.0318 0.0164 0.0246 -0.044 0.0231 0.0362 0.0225 0.0165 -0.0547 0.0121 0.0113 0.0718 -0.0487 0.0221 -0.0065 -0.0301 0.0029 0.0406 0.0211 -0.0462 -0.007 0.0345 0.0322 -0.001 -0.0489 -0.0209 0.0077 0.0104 0.0297 0.0393 0.0344 -0.0114 -0.0163 -0.0217 0.0292 0.0181 -0.0003 -0.0228 -0.0038 -0.058 0.026 -0.008 -0.0385 0.0127 0.0093 0.0538 0.0317 0.0098 0.0257 0.0348 0.0323 0.0217 0.0114 -0.0087 -0.0313 0.0322 0.0315 0.0032 -0.0905 0.003 -0.0204 -0.0084 -0.0034 -0.0221 0.0082 -0.0118 0.0129 -0.0217 0.0308 0.0187 0.0337 -0.009 0.0575 0.0319 -0.0059 -0.0429 -0.0013 0.0309 0.0451 -0.0242 -0.0163 -0.0152 -0.0723 0.0027 0.0043 -0.0249 0.0273 0.0714 -0.0114 0.041 0.0405 0.0564 -0.0452 0.0003 0.0194 0.0104 -0.0206 0.0263 0.0126 -0.0165 -0.0097 -0.0367 0.0392 -0.0123 0.0091 0.0461 -0.0159 0.1092 0.0554 0.0333 -0.0282 -0.0595 0.0469 0.0279 0.0112 -0.0094 0.019 -0.0151 0.0094 0.0429 0.0394 -0.0087 -0.0671 0.0285 -0.0441 -0.0504 -0.0031 0.0013 -0.0142 0.0329 0.0032 0.0038 -0.0189 0.0052 0.0527 0.047 0.0087 0.014 -0.0005 -0.0353 0.0138 0.0015 -0.0402 0.0144 -0.0005 -0.0236 0.0145 0.0046 -0.0319 0.0248 -0.0137 0.0018 -0.0516 0.008 -0.0107 0.0476 0.0004 -0.0443 0.0294 0.0023 -0.0045 0.0237 -0.0068 0.0103 0.0093 -0.0061 0.0238 0.0509 -0.0032 0.0179 0.0616 0.0534 0.0208 -0.1042 0.0423 -0.0004 -0.0473 -0.0204 0.0106 0.0491 -0.0083 -0.0061 0.0279 -0.0923 -0.0186 0.041 -0.0328 -0.0138 0.0082 0.0086 0.0199 0.0533 0.0082 0.0797 0.0131 -0.031 -0.0614 0.035 0.0533 -0.001 -0.0019 -0.0411 -0.0312 0.0142 -0.0451 -0.0386 0.0472 -0.0075 -0.0204 0.0121 0.0472 -0.0386 -0.0016 -0.0138 -0.0165 -0.0583 -0.0328 0.0433 0.0052 -0.0513 -0.0077 -0.0185 -0.0018 -0.0044 0.0103 -0.018 -0.0229 -0.0443 -0.0533 0.0364 0.0103 0.0148 0.0562 -0.0523 -0.036 -0.0466 -0.0126 -0.049 0.0268 0.0293 0.0205 -0.0072 -0.0157 0.013 -0.0363 -0.0303 0.0059 -0.0354 0.0343 0.0076 0.0362 -0.0093 -0.0339 0.02 0.0429 -0.0114 -0.0097 0.0222 -0.0338 -0.012 0.0438 0.0334 0.002 0.0161 0.0686 -0.0483 -0.0266 -0.0012 -0.0136 -0.0104 0.0271 -0.0372 0.0589 -0.0141 -0.0296 -0.0431 -0.0277 -0.0108 -0.0337 -0.0067 0.0245 0.0354 -0.031
universes -0.0071 -0.0043 0.012 -0.0065 -0.0223 -0.0179 0.0164 -0.0161 0.005 0.0088 0.0016 -0.0271 -0.0164 0.0081 -0.0103 0.0125 0.0131 0.0165 0.0149 -0.0296 0.0013 0.0083 0.0076 0.0252 0.0022 -0.0041 0.0069 0.003 0.0279 0.0183 -0.0131 -0.0124 -0.0007 -0.0087 0.026 -0.0012 0.0009 -0.0249 -0.011 0.0018 -0.0483 -0.0318 -0.0009 0.0132 -0.0341 -0.0281 0.0109 -0.0028 0.0048 -0.0016 -0.003 -0.0202 -0.0177 0.0036 -0.0228 0.0125 0.0021 0.0124 -0.0037 -0.0121 0.0063 -0.02 0.0574 -0.0064 0.0394 0.0028 -0.0154 -0.0068 -0.0279 -0.0061 0.0072 -0.0427 0.0188 0.0014 0.0038 -0.0143 0.017 -0.0158 0.0099 0.001 -0.0015 -0.01 0.0002 0.012 0.0156 -0.0059 0.0169 0.0019 0.0017 -0.0028 0.0385 0.0084 -0.0174 0.0172 -0.0066 0.0259 0.0381 -0.0249 0.0114 0.0174 0.0096 0.0076 -0.0121 -0.0098 0.0237 -0.0197 0.0081 -0.0095 0.0091 -0.0035 -0.0065 0.0079 0.0218 -0.0155 0.0019 0.0213 -0.0169 0.0077 -0.011 -0.0065 -0.0113 -0.0106 -0.0183 0.0142 0.0223 -0.005 0.005 -0.0138 -0.0022 0.0267 -0.0002 0.0333 0.0098 -0.0056 0.0138 0.0111 0.0074 0.0101 -0.009 -0.0018 -0.0009 -0.0015 0.0276 0.0079 0.0201 -0.008 -0.0146 -0.0199 -0.0177 0.0172 -0.0067 0.0379 -0.0234 0.0115 0.0069 0.0113 -0.0047 0.0005 0.0115 0.0158 0.0174 0.0092 0.0174 0.0 0.018 0.0014 -0.009 0.006 0.0013 -0.017 -0.0151 -0.0249 -0.0339 -0.0347 -0.0316 0.0259 -0.0044 -0.0086 -0.012 -0.0031 0.0229 0.0206 -0.0076 -0.0003 -0.0174 0.0064 0.031 0.0474 0.0239 -0.0073 0.0181 0.0079 -0.0131 -0.0026 -0.0016 -0.0192 -0.0242 0.0096 -0.0033 0.0078 -0.0453 0.0198 -0.0129 0.0246 0.0033 -0.0245 0.0103 -0.0009 0.0311 -0.0032 0.0334 -0.0015 0.008 0.0077 -0.0011 -0.0011 -0.0081 -0.0109 -0.005 0.0128 0.0302 0.0288 -0.0133 0.0272 -0.0005 0.0087 0.0277 0.0029 -0.0009 -0.0115 -0.0355 0.0071 -0.0391 0.009 -0.0016 0.0138 0.0095 0.025 0.0112 0.0071 -0.0093 -0.008 0.0107 0.0147 0.0147 -0.0032 -0.0058 0.0062 -0.0298 0.0102 -0.0094 -0.0217 0.0037 0.0113 -0.0386 0.032 -0.0187 0.0088 0.0369 0.0068 0.0412 -0.0057 -0.0084 -0.0264 -0.0059 0.0287 0.0218 0.0052 0.0435 0.0026 -0.0188 0.0245 -0.0236 -0.0116 0.0004 -0.0085 -0.0141 -0.0174 0.0114 0.0213 -0.0 -0.0026 -0.003 -0.0269 0.0018 0.0034 0.0048 -0.0068 -0.0174 0.0187 0.0059 -0.0045 -0.0185 -0.0396 -0.0095 -0.0014 0.0358 -0.0163 0.0139 0.0172
haplotype -0.0113 -0.0099 0.0054 -0.0022 -0.0085 0.0295 0.021 -0.0215 -0.0225 0.0031 -0.0101 0.0042 0.0018 -0.0267 -0.0031 -0.0178 0.0152 -0.0028 0.0131 -0.0172 -0.0154 0.0187 -0.0281 0.0156 0.0077 -0.0072 -0.0062 -0.0112 0.0174 0.0097 -0.0143 0.0097 0.0629 -0.0146 -0.0028 0.0089 -0.0054 0.0105 0.033 0.008 -0.0096 -0.0407 0.0033 -0.046 -0.0099 -0.0131 -0.0206 0.0064 0.0318 -0.0065 0.0114 0.005 -0.0246 0.0135 0.0031 -0.0272 0.0292 0.0338 0.0087 0.0159 0.008 -0.0077 0.0368 -0.001 0.0159 -0.0258 -0.0055 0.031 -0.0151 -0.0137 -0.0162 -0.0281 -0.0229 -0.0319 0.0227 0.0214 0.0153 -0.0073 0.022 0.0 0.0065 -0.0071 0.0119 0.0042 -0.0056 -0.0108 -0.0114 0.0021 -0.0074 0.001 -0.0332 0.0181 -0.0006 0.02 -0.0074 0.0142 0.0008 0.025 0.0075 -0.0155 0.0176 -0.0102 -0.0062 0.0097 -0.0201 -0.0223 -0.0198 -0.027 -0.0082 0.0316 -0.0072 0.0134 -0.0025 -0.0002 -0.035 0.0199 0.0061 0.0158 -0.0032 0.0272 0.0352 0.0106 0.0299 0.0039 0.0295 -0.0298 0.007 -0.0087 -0.006 0.0335 0.0049 -0.0297 -0.0105 0.0109 0.0103 0.0128 0.0153 0.0111 -0.0042 0.0001 -0.0051 -0.0159 -0.0336 0.014 -0.0146 -0.0073 -0.0125 -0.0049 -0.0139 -0.0206 0.0047 0.0224 0.0196 -0.0246 0.0381 0.0029 0.0112 -0.0175 -0.0149 0.0026 0.0078 -0.0068 -0.0134 -0.0094 -0.0169 0.0021 -0.0029 0.0482 -0.0133 -0.0115 -0.0067 -0.0012 0.0198 -0.0132 -0.0252 0.0204 -0.0008 -0.0157 -0.0126 -0.0167 0.004 -0.0165 -0.0113 0.0174 0.0105 -0.0194 -0.0264 0.0359 0.0079 0.0155 0.0286 0.0191 0.0044 0.0051 -0.0136 0.031 -0.0148 0.0316 0.0116 0.0102 -0.0363 0.0164 -0.0061 -0.009 -0.0436 0.0321 0.0304 -0.0321 -0.0165 -0.0036 0.0405 -0.0063 0.0004 -0.0128 -0.0073 -0.0066 -0.043 -0.008 0.0025 0.0023 0.0047 0.0191 0.0221 0.0244 0.0148 0.0127 0.0096 0.0124 0.0364 0.0025 0.0107 -0.0124 0.0113 -0.0056 0.0044 -0.0166 0.0242 0.0166 0.0101 0.0011 0.0193 0.0088 -0.007 -0.0075 -0.0129 0.0241 0.0236 0.0127 -0.0135 -0.0022 -0.0107 0.009 -0.0129 -0.0254 0.0061 0.0149 -0.0348 0.0024 0.0394 0.0021 0.0013 -0.0148 -0.021 -0.0166 0.0139 -0.0315 -0.0246 -0.0141 -0.0228 -0.0138 -0.0071 0.0203 -0.0046 -0.0186 -0.0117 0.006 0.0017 -0.0004 -0.0322 -0.0087 0.032 0.0009 0.0069 0.0176 0.0075 0.0185 -0.0177 0.0198 -0.0076 -0.0346 0.0152 0.0213 -0.0174 -0.0407 0.0387 0.003 0.0005 -0.0227 -0.0067 0.0087
debugger -0.0153 -0.0111 0.0308 0.0136 -0.018 -0.0123 -0.0322 -0.0508 -0.0181 -0.0225 0.0224 -0.0008 -0.0239 0.0315 0.0202 -0.0123 0.0418 0.004 0.02 -0.0084 -0.0095 -0.0271 -0.0169 0.0235 -0.0131 0.0671 0.0085 0.0349 -0.0302 0.0104 0.004 -0.0073 0.0226 -0.015 0.0019 0.0004 0.0219 0.01 -0.0274 0.0063 0.0093 -0.0454 -0.0084 0.0006 -0.024 -0.0179 0.0461 -0.0155 0.0266 0.0045 -0.0008 0.0398 0.0202 -0.0464 -0.0167 -0.0137 0.0151 0.0162 -0.0025 0.0058 0.0042 -0.0425 0.0315 -0.0035 -0.0106 -0.0142 0.0081 -0.0052 0.0277 0.0384 -0.0017 0.0044 0.0048 0.0217 -0.0366 -0.0151 0.0162 -0.0123 -0.0114 -0.003 -0.0089 -0.0052 -0.0277 0.0134 0.0296 -0.0215 0.0287 -0.0084 -0.0091 -0.0035 0.026 -0.0058 -0.0206 -0.017 -0.0003 0.0357 0.0354 -0.0174 0.0091 -0.0149 -0.0105 -0.0122 0.0018 0.0417 -0.0081 -0.0453 0.0161 0.0137 0.0015 -0.0338 -0.0447 0.0218 0.0295 -0.0048 0.0207 0.0041 -0.0056 -0.027 -0.0045 0.0062 -0.0042 -0.028 0.0116 0.0249 0.0283 0.017 -0.0103 -0.0332 0.0012 0.0306 -0.0386 0.0004 0.0016 -0.0108 -0.0041 0.0019 0.0258 0.0098 -0.0198 0.0072 -0.0099 0.0634 -0.0034 0.0006 0.0021 0.0185 -0.0135 0.0055 0.0176 -0.0052 0.014 0.0144 0.003 -0.041 -0.0186 -0.0069 0.0257 0.0088 0.0098 -0.0048 0.0277 0.0323 -0.0173 -0.0111 -0.0209 0.0041 -0.0117 0.0131 -0.0128 -0.0068 0.0184 -0.0252 -0.0007 0.025 -0.0094 0.0167 -0.0227 -0.0108 -0.0032 -0.0012 -0.0028 -0.0106 -0.0358 -0.0206 0.043 -0.0189 -0.0143 0.0399 0.0403 -0.016 0.0079 0.0199 0.0037 0.026 0.0016 -0.0394 0.0031 0.0308 0.0005 -0.009 -0.0577 0.0075 -0.0297 -0.0252 -0.0164 0.0028 0.019 -0.0095 -0.0343 -0.0164 0.03 0.0138 0.0163 -0.0373 -0.0174 0.0092 -0.0377 0.0261 -0.003 0.004 -0.0002 0.0218 0.0192 0.0375 0.0391 -0.0001 -0.0097 -0.006 -0.0078 0.001 -0.0324 -0.0197 -0.0025 0.0024 -0.0035 -0.0322 0.0102 -0.0153 0.0432 -0.0214 0.0361 0.0103 -0.0164 -0.021 0.0155 0.0137 -0.0093 -0.0031 -0.0058 -0.0191 -0.0097 0.0107 0.0091 0.0076 -0.0075 -0.0141 -0.0026 0.0118 -0.0008 0.003 -0.0033 0.0213 0.0029 0.0048 -0.0146 -0.0467 -0.0109 0.0118 -0.002 -0.0116 -0.0037 0.0268 -0.0194 -0.0356 -0.0057 -0.0023 0.0102 -0.0352 -0.0146 -0.0088 0.0228 0.0162 -0.0198 0.02 -0.0153 0.0081 0.0176 -0.0144 0.0218 -0.0108 -0.0029 0.0048 -0.0007 -0.009 0.0267 -0.0027 0.0068 -0.0238 -0.0046 0.0196
surfers -0.0284 -0.0152 0.0413 0.0294 -0.0429 -0.0224 -0.0323 -0.0347 -0.0095 0.0111 0.0013 0.0033 -0.0194 -0.0225 -0.0542 0.0176 0.0196 0.0153 0.0108 -0.0058 0.0109 -0.0153 -0.0165 0.0097 0.0191 -0.0247 0.0095 -0.0113 0.0209 0.0232 -0.0269 -0.0101 0.0164 0.0244 0.0041 0.0282 0.0388 -0.0107 -0.0019 -0.0077 -0.0071 -0.023 -0.036 0.0166 0.0102 0.0114 -0.0165 0.0061 -0.0118 -0.0094 -0.0045 -0.0283 0.0147 0.0377 -0.0043 0.0242 0.0273 0.0238 -0.0131 -0.0211 0.0054 -0.012 0.0343 0.017 -0.0217 0.0216 -0.0087 -0.0098 -0.0033 0.0047 0.0102 0.0113 0.0827 -0.0062 0.0327 -0.0559 0.0166 -0.0128 -0.0274 -0.0217 -0.0111 0.0225 0.0355 0.0094 0.0076 0.01 0.0411 -0.0078 -0.007 0.0135 0.0022 -0.0176 -0.0418 -0.0376 0.0252 0.0333 0.016 -0.0185 0.0188 -0.013 -0.0058 0.0125 0.0392 -0.0341 0.0358 -0.0208 0.0056 0.0184 -0.0026 0.0298 -0.002 0.0392 0.0321 -0.0066 -0.0134 0.0396 -0.0115 0.0141 -0.0167 0.062 -0.0097 0.0221 0.0247 -0.0275 0.0575 -0.037 -0.0068 -0.0096 -0.0259 0.0128 -0.0165 0.0525 0.019 -0.0191 0.0126 0.0021 0.0128 0.0329 -0.0193 0.0219 0.0016 0.0005 0.0499 0.0048 -0.0058 0.0121 -0.0155 -0.0523 -0.0391 -0.0105 0.0362 0.0416 -0.0296 -0.0081 0.0272 -0.0388 0.0136 0.0331 -0.0114 -0.0184 0.0261 0.0023 0.0254 0.0039 0.0186 0.0148 0.0206 -0.0086 -0.0496 0.0124 -0.0236 0.0217 -0.0074 0.0044 -0.0027 0.0233 -0.0186 -0.0214 -0.0205 0.0032 0.0026 -0.0019 -0.0103 -0.0275 0.0134 -0.0378 -0.0147 0.0537 -0.0283 -0.0009 -0.0095 0.0156 -0.0327 0.0341 -0.0126 -0.0123 0.0543 -0.0168 0.0145 0.0421 -0.0543 0.0306 0.0034 0.0436 0.048 0.0192 -0.0089 0.0359 -0.0223 -0.0325 0.0117 -0.0071 0.0402 -0.002 -0.0369 -0.0156 -0.0179 0.0138 -0.0062 -0.0149 -0.0039 -0.0437 -0.0268 0.0258 -0.0017 0.0135 -0.0304 0.0338 -0.0244 -0.0017 0.0134 0.0021 -0.0276 0.0145 0.0269 0.0136 -0.0297 0.0419 -0.0045 0.0081 -0.0037 -0.028 0.0037 -0.0241 0.0029 0.0389 -0.0133 -0.0098 -0.0211 -0.0279 0.0371 -0.0022 0.0219 0.0053 0.0102 0.0223 -0.0129 0.0132 0.0351 -0.0047 0.0023 0.0163 0.0327 0.01 0.0176 -0.0173 0.0234 0.0151 0.0412 0.0068 0.0053 0.0267 -0.0545 -0.0034 -0.01 0.0023 0.0011 0.0079 0.0129 -0.0014 -0.0218 0.0144 0.0134 0.0333 0.013 -0.0351 -0.014 -0.0378 0.0241 0.0003 0.0124 -0.0332 -0.0416 0.0089 -0.0071 0.0024 0.0074 0.026 -0.029 0.0174
crocs -0.0773 -0.0131 -0.0349 -0.0361 0.0124 0.004 -0.0292 -0.0028 0.0128 0.0143 0.0023 -0.0064 0.0001 -0.005 0.0099 -0.0358 0.0354 -0.0121 0.0082 -0.0177 -0.0003 -0.0299 -0.0086 0.0003 0.0149 -0.0081 0.0478 -0.0328 0.0535 0.0671 0.0257 -0.0201 0.0362 0.0183 0.0048 -0.0092 0.0422 -0.0543 -0.0263 0.017 -0.0035 -0.0551 0.0083 0.0146 0.0089 -0.0065 0.0396 -0.0079 0.0058 -0.0105 -0.0089 0.0053 0.0325 -0.0601 -0.0154 0.0226 0.0154 -0.0158 -0.0244 -0.0027 -0.0272 -0.0125 0.0334 -0.0221 -0.0003 0.0257 -0.009 -0.043 -0.0636 -0.0243 0.0017 -0.0042 0.0278 -0.0163 0.0236 0.0401 0.0285 -0.0188 -0.0334 0.0191 -0.0264 0.0004 0.0074 0.02 0.0448 -0.0282 -0.0115 0.0018 -0.0276 -0.0163 0.0231 0.0068 -0.0429 0.0069 0.0473 0.0284 0.0011 -0.0109 -0.0107 -0.0659 -0.0343 -0.0151 0.0181 -0.0281 0.0356 -0.0313 0.0024 -0.0184 -0.0157 0.0161 -0.0214 0.013 -0.0191 -0.022 0.0172 0.0425 -0.0425 0.0484 -0.0379 0.0213 0.0258 0.0671 -0.0059 -0.031 0.06 0.0058 -0.0055 -0.0142 -0.0342 0.0361 -0.0011 0.0462 0.0136 -0.0333 -0.0027 -0.0016 0.0049 0.0418 -0.0068 -0.0033 -0.0276 -0.0255 0.0564 0.013 0.0143 0.0064 0.0174 0.0145 -0.0344 -0.0939 -0.0135 0.0453 -0.0027 0.0378 -0.0026 -0.0137 -0.0226 -0.0167 -0.018 -0.021 0.0504 -0.0263 -0.0035 0.0156 0.0648 0.0032 0.0023 -0.0314 -0.0237 0.0367 0.0002 0.0123 0.0072 0.0102 -0.0348 0.0397 0.0138 0.0072 0.0111 -0.0496 0.0393 -0.0149 -0.022 -0.0805 0.0104 -0.0353 0.034 0.0769 -0.0425 -0.0556 -0.0319 0.019 -0.0747 0.0135 -0.0491 0.0021 0.0048 -0.011 -0.0593 0.0295 -0.0786 0.0502 -0.0167 -0.0025 0.0224 -0.0046 -0.0374 -0.0304 -0.022 -0.0268 0.0368 -0.0059 0.0434 -0.0154 0.0115 -0.0017 -0.0211 -0.033 0.0106 -0.0087 -0.0193 0.0056 -0.0245 0.0134 0.0009 -0.0213 -0.0336 0.0163 -0.0104 0.0087 -0.006 0.0199 -0.0448 0.0234 0.0086 -0.0013 0.0083 0.0392 0.0037 0.0022 -0.0 -0.0027 -0.0127 0.0035 0.0082 0.0565 -0.026 0.0212 -0.0368 -0.0241 -0.0177 -0.0015 0.0528 -0.0625 0.0124 0.0133 0.0057 -0.0105 0.0634 -0.0282 -0.0007 0.0161 -0.0184 -0.0262 -0.0008 0.0294 0.0068 0.0046 0.0066 -0.0076 -0.0238 0.0246 -0.0677 -0.0123 0.014 -0.0194 -0.028 0.0029 -0.0033 -0.0145 0.0421 0.0238 0.0407 0.0511 -0.0257 -0.0073 0.0267 0.0152 0.0181 0.0077 -0.0197 0.0488 -0.0512 -0.0155 0.015 -0.067 -0.0067 0.0505 -0.0255 -0.0313
pitifully 0.0042 0.0164 -0.0002 0.0005 -0.0087 -0.0255 -0.0058 -0.0239 -0.0114 -0.0004 -0.003 -0.0171 0.0034 -0.0117 -0.0163 -0.0153 0.0266 0.0012 0.0128 -0.0065 -0.0143 -0.0011 -0.0328 0.0233 -0.0132 -0.006 0.0187 -0.016 0.0343 -0.0235 0.0104 -0.0056 -0.016 -0.0205 0.0035 0.0158 0.0288 -0.0058 0.0044 -0.0045 -0.014 -0.035 0.0081 0.0131 -0.001 -0.0059 0.0035 0.0029 0.0108 0.0159 0.0177 0.0133 0.0157 0.0017 -0.0242 0.0145 -0.0212 -0.0022 -0.0153 0.0145 -0.0093 0.0011 0.0176 0.0095 0.0028 0.0019 -0.0069 -0.0033 -0.0151 -0.0029 -0.0226 0.0169 -0.0059 -0.0086 -0.016 -0.0162 -0.0177 -0.0145 0.0306 0.0126 0.011 -0.0309 -0.0027 0.0375 0.0102 -0.0071 -0.0115 0.0242 -0.0278 0.0135 -0.0068 -0.0261 -0.0361 -0.0138 -0.0009 -0.0076 0.008 0.0031 0.0071 -0.0017 -0.0067 -0.0051 -0.0062 0.0125 0.009 -0.0394 -0.0022 -0.0089 0.0153 -0.0078 0.011 0.0111 0.0093 0.0077 0.0216 0.0022 -0.0006 0.0005 -0.0198 -0.0081 0.0026 -0.0044 -0.0181 -0.0092 0.014 -0.0083 -0.007 -0.0178 -0.0039 -0.0237 0.001 0.016 -0.0054 0.0067 0.0006 -0.0227 0.0121 0.0312 0.0116 -0.0124 -0.0011 -0.0219 -0.001 -0.0251 0.005 -0.0097 -0.013 0.0217 0.0096 -0.0203 0.0231 0.0138 0.0001 0.0021 -0.0017 -0.0049 0.0049 -0.0085 -0.0096 -0.0031 0.0144 -0.0074 -0.0182 0.0009 -0.0214 0.0327 -0.0006 0.0087 0.003 0.0116 -0.0252 -0.0013 -0.0008 0.0139 0.0012 0.0155 0.0041 -0.0187 0.019 0.0124 -0.0139 0.0067 -0.0068 -0.0083 -0.0086 0.0272 0.0003 0.0433 0.003 0.0087 -0.0056 0.0002 -0.0113 -0.0234 0.014 0.002 -0.0072 0.0095 -0.0093 0.0175 -0.0454 -0.0034 0.0151 -0.0105 0.0131 0.0066 -0.0016 0.0077 -0.0014 -0.0666 0.0084 -0.0141 0.0158 0.0228 0.0209 -0.0089 0.0037 0.007 -0.0231 0.0104 0.0014 0.0111 -0.0035 0.0255 0.0004 -0.0148 0.0033 0.0292 -0.011 -0.0009 0.0094 -0.0097 -0.0099 0.004 0.0367 -0.0294 0.0032 -0.0013 0.015 -0.0229 0.07 -0.0087 -0.0105 0.0166 -0.0404 -0.017 -0.0001 -0.0092 -0.0162 -0.0236 -0.0079 -0.0083 -0.0086 0.0041 -0.0007 0.0166 0.0202 0.0024 0.0191 0.0228 -0.0227 -0.0047 0.0218 0.0175 0.0405 0.0094 -0.0026 -0.014 0.0131 0.0097 -0.014 0.0217 -0.0246 -0.0094 0.0551 -0.0261 0.0093 0.0127 -0.0035 -0.0023 -0.0137 0.029 0.0072 -0.009 0.0018 0.0164 0.0052 -0.0176 -0.0128 0.0078 0.0129 0.007 0.0294 0.0034 -0.0068 -0.0141 0.0108 0.0011 -0.0182 -0.0055
colony 0.013 -0.0391 0.0306 -0.0252 -0.017 0.0063 0.0257 -0.0429 0.0339 0.0477 -0.0219 -0.0446 -0.0253 0.0223 -0.0164 0.0185 0.0586 0.0118 0.0262 0.0552 0.0013 -0.0259 -0.0042 0.0357 -0.0001 0.0098 -0.0064 0.0134 -0.0081 0.0294 -0.0063 0.0252 -0.0004 0.0035 -0.0074 0.0252 -0.0047 -0.0369 -0.0088 -0.0058 -0.0229 -0.05 -0.0227 -0.0262 -0.0051 0.0027 -0.0124 0.0063 -0.0377 0.0132 -0.0006 0.0534 -0.0041 -0.0139 -0.0268 -0.0202 0.002 0.0002 -0.0121 0.0107 0.0175 -0.0075 0.043 -0.0063 0.0273 -0.0093 0.0169 0.0068 0.0027 -0.011 -0.0024 -0.0079 -0.0036 0.0145 0.0229 0.0024 -0.0076 -0.0032 0.0168 0.0115 0.0027 0.0261 0.0024 0.0128 -0.0179 0.0021 0.0297 -0.0262 -0.0155 -0.0292 -0.0048 0.0244 -0.0308 0.0086 -0.0249 0.0431 -0.0271 0.015 0.0399 -0.0252 0.0416 0.037 0.0457 -0.0136 -0.0016 -0.0398 0.0186 -0.0171 0.0037 0.0289 -0.0369 0.0338 0.0374 0.0112 0.013 0.0235 0.0033 -0.0182 -0.013 0.0378 -0.0123 -0.0265 0.0025 0.0019 0.0099 0.0193 0.0235 -0.0521 -0.0096 0.0168 -0.0069 0.0041 -0.0049 -0.0199 0.0126 0.0136 -0.0313 0.0165 0.009 0.0261 -0.0069 0.0016 0.0245 0.0009 0.0061 0.0133 0.0019 0.0201 -0.0147 -0.0681 0.0169 0.0184 0.0089 -0.0214 0.0208 -0.0045 0.0162 0.0102 -0.009 -0.0093 0.0207 -0.0059 -0.0232 0.0265 0.0223 0.0082 -0.0241 -0.0122 0.0075 0.0359 0.0257 0.0063 -0.0359 -0.0171 -0.0098 0.0197 0.0011 0.0055 -0.0057 0.0419 0.0013 0.0234 -0.0125 -0.002 0.0024 -0.0089 0.0264 0.0474 -0.033 -0.0136 0.0053 0.0166 -0.0171 -0.0058 0.0047 -0.0568 -0.0129 0.0243 0.0009 0.0481 -0.0673 0.0103 0.0144 0.002 -0.0142 0.0274 -0.0113 -0.0168 0.0071 -0.0106 0.0431 -0.0325 -0.0075 0.0381 -0.009 0.0128 -0.0292 0.0493 0.043 -0.0135 -0.0018 0.0162 0.0019 0.0449 -0.0317 0.0224 0.0223 0.0193 -0.0198 -0.0078 -0.0243 -0.0126 -0.0304 -0.0058 0.0115 -0.0183 0.0412 0.0128 0.001 -0.0082 0.034 -0.0056 -0.003 0.0064 0.0154 0.0046 0.0321 0.0072 -0.0295 -0.0173 0.0106 -0.0068 -0.0048 -0.0491 0.0081 0.0218 -0.0075 0.0247 -0.0098 -0.0171 -0.0233 0.0138 0.0147 -0.0187 0.026 0.0258 -0.0021 0.0108 -0.0271 0.0155 0.0139 0.045 -0.0348 0.0033 -0.0009 -0.0075 0.0096 -0.0188 -0.0351 0.022 0.0281 0.0138 -0.0127 -0.0031 -0.0174 0.042 -0.0065 -0.0221 -0.0046 0.0377 0.006 0.0175 -0.0075 -0.0288 -0.0198 -0.0169 -0.0206 -0.0018 -0.0438 0.0658
hackneyed 0.0034 0.018 0.017 0.0289 -0.0354 -0.0078 -0.0006 -0.0447 -0.0128 -0.0001 0.003 -0.0257 -0.0078 -0.0064 -0.0189 -0.0125 0.0127 0.0025 0.0179 0.0037 0.0048 -0.0142 -0.0092 0.0168 -0.0044 0.0046 0.0326 0.0091 0.0243 -0.0219 -0.0004 -0.0219 0.0183 -0.0107 0.0302 -0.0025 -0.0023 0.0122 -0.0101 -0.0088 -0.0079 -0.0148 0.0007 0.0111 -0.0117 0.0105 0.0179 -0.0096 0.043 -0.0055 0.0069 0.0049 -0.0042 0.0122 -0.0182 0.0062 -0.0003 -0.0061 -0.0078 -0.0057 -0.0056 -0.0193 0.0621 -0.0173 0.0051 -0.0023 0.0055 0.0212 0.0099 0.005 0.0125 0.0106 0.0285 -0.0015 0.0166 -0.0002 -0.0159 -0.0202 -0.0005 -0.0092 0.0112 -0.0135 -0.0362 0.028 -0.0201 -0.0024 -0.0098 0.0185 -0.0169 0.0044 -0.002 -0.0342 -0.0198 -0.023 0.012 0.0335 0.0035 0.0002 -0.0046 0.0121 0.0163 -0.0109 -0.0246 -0.0005 -0.0236 -0.0394 0.0045 -0.0166 0.0035 -0.0125 -0.0058 0.0105 0.0164 0.0106 -0.01 0.0084 0.0002 -0.0079 -0.0315 -0.0015 0.0066 -0.0375 -0.0179 -0.0123 0.0281 0.0022 -0.0075 0.0238 -0.0199 0.0172 -0.0214 0.0139 -0.0132 0.0025 -0.0003 -0.0132 -0.0075 0.0544 -0.0061 -0.0241 0.0112 -0.0271 0.0044 0.012 0.0009 -0.008 0.0253 0.0007 -0.0024 0.0051 0.0064 0.0194 -0.0159 0.0066 -0.0056 -0.0031 -0.0047 0.0158 -0.0078 0.0258 0.0193 0.0087 -0.0236 0.0077 -0.0329 -0.0197 0.0048 -0.0126 0.0013 -0.0064 -0.0317 0.0116 -0.0003 0.0013 0.0254 0.0134 0.0105 -0.0077 0.0032 0.0077 -0.0008 -0.0001 -0.0262 -0.0136 0.0114 -0.011 0.0077 0.0348 -0.0065 0.0026 0.0006 0.017 0.0023 -0.0174 -0.0194 0.0045 0.0119 0.0059 -0.0002 0.0205 -0.0307 0.0149 0.0192 -0.0136 0.0074 -0.0041 -0.0111 -0.0097 -0.0097 -0.0113 0.0281 0.0104 0.0066 0.0207 0.0203 0.0085 0.0041 -0.0046 -0.0381 -0.0212 -0.0028 0.0016 0.0212 0.0409 -0.0211 -0.0258 0.0294 0.015 0.0167 0.0001 -0.0103 -0.013 -0.0095 0.0074 -0.0058 -0.0192 0.0049 -0.03 0.0413 -0.0444 0.0499 -0.0043 -0.0273 -0.0096 -0.05 0.0203 -0.0158 0.0167 -0.026 0.0268 0.0015 -0.0152 -0.0373 0.009 0.0134 0.0127 0.0104 0.0104 0.0324 0.0178 0.0212 0.0108 0.0207 0.0173 0.0293 0.02 0.0021 -0.0116 -0.0143 0.0099 -0.0091 0.0323 -0.013 -0.0066 0.0211 -0.0348 0.0277 0.012 -0.0054 -0.0021 0.015 -0.001 -0.006 -0.01 -0.0217 -0.0102 0.0076 -0.0432 -0.0034 0.0092 0.0157 -0.0175 0.0306 0.0013 -0.007 0.0085 0.0099 -0.0079 -0.0235 -0.027
about -0.0052 -0.0145 -0.0022 0.0127 0.0303 0.0222 -0.0093 -0.0588 0.0204 0.0063 -0.0249 -0.0139 0.0356 -0.0036 0.0038 -0.0036 0.0303 -0.0103 0.0434 -0.0215 -0.0017 0.0064 0.0293 0.0345 -0.0157 -0.0001 0.0117 -0.0033 0.0326 -0.0107 -0.0173 0.0257 0.003 -0.0346 0.0043 -0.0316 0.0016 -0.0184 0.0002 -0.0273 -0.0116 -0.0124 0.0005 0.0086 0.0147 0.0038 0.0176 -0.0107 0.006 -0.0205 0.0215 -0.0103 -0.0042 0.0086 -0.0201 -0.0101 -0.0116 0.0019 -0.0256 -0.0091 -0.0055 -0.0013 0.039 0.0172 0.0264 -0.0149 -0.003 0.0321 -0.0129 -0.0005 0.0161 0.0006 0.0341 -0.0098 0.0102 0.0005 0.0114 -0.0423 -0.0162 0.0106 0.0068 0.0035 0.0055 0.0165 -0.0283 0.0086 -0.005 0.0064 -0.0098 -0.0141 0.0139 -0.0052 -0.067 0.0126 0.0054 -0.0362 0.005 0.0066 -0.0085 -0.0015 -0.0086 0.0153 -0.0087 0.0212 -0.0068 -0.0204 0.0012 0.0018 0.01 0.0337 -0.0156 0.0617 0.0244 -0.0119 0.0089 0.0008 -0.0074 0.0056 -0.0236 0.0027 -0.0044 -0.0214 0.0001 -0.036 -0.0103 0.0012 -0.0072 -0.0642 -0.0016 0.0379 -0.0173 0.0245 0.0173 -0.0047 0.0024 -0.0204 0.0018 0.0395 0.0102 0.027 0.0314 -0.0065 0.0125 0.0099 -0.0318 -0.0045 -0.0127 0.0039 0.0007 -0.0275 -0.006 -0.0016 0.0006 -0.0454 -0.0036 0.003 0.0117 -0.0064 0.0061 -0.0304 -0.0034 0.0195 0.0192 0.0115 0.002 0.0039 0.0225 0.0214 0.0156 0.0204 0.0122 -0.0098 0.0024 0.0192 0.0118 0.0315 -0.0066 0.0018 0.0052 0.0018 -0.0148 0.0098 0.0013 0.0452 0.0177 -0.0684 0.036 0.0674 0.0233 -0.0089 0.0062 0.0206 -0.0677 0.0014 0.0122 -0.0066 -0.0121 0.0012 -0.0257 0.0059 -0.075 0.0138 0.0284 -0.0008 0.0186 0.0024 -0.0219 0.0137 -0.0166 -0.0028 0.0144 0.0008 -0.0335 -0.0101 0.0351 -0.0178 0.0023 -0.0226 0.0142 -0.0212 0.0024 -0.0143 -0.0119 0.0519 0.0277 -0.0004 -0.0035 0.0708 -0.0107 -0.0193 0.0123 -0.0306 -0.095 0.0178 0.009 0.0026 -0.0032 0.0117 0.0145 -0.0019 0.0217 -0.0007 0.027 -0.0355 -0.1134 -0.0112 -0.0061 0.0257 0.0001 -0.0354 0.0423 0.0094 -0.0047 -0.0124 -0.0266 -0.0211 -0.0236 0.0452 -0.0069 -0.022 0.0016 0.0001 0.0127 0.0373 0.0204 -0.0049 -0.0284 0.0364 0.0077 -0.0257 -0.0041 0.0572 -0.0689 -0.0135 0.0663 -0.0536 0.0041 -0.0034 -0.014 -0.0367 -0.014 -0.0026 -0.0041 -0.0012 0.0489 0.0062 0.0255 -0.0091 -0.024 0.0108 -0.005 0.016 0.0063 -0.0301 -0.0118 0.0022 0.0009 0.0052 -0.0102 -0.0111
golds 0.0236 0.0209 -0.028 0.0143 0.0175 -0.0338 -0.0267 -0.0304 -0.0136 -0.0003 -0.0153 -0.0295 0.0267 -0.0254 0.0295 0.0307 0.0353 -0.0472 0.0268 -0.0067 -0.0061 0.0053 -0.0331 0.0224 0.006 -0.0187 0.0335 -0.0319 0.1061 0.0082 0.0274 -0.0188 -0.0238 0.0119 0.0446 0.0126 -0.0455 0.0141 -0.0486 -0.007 -0.0172 -0.0072 -0.0097 0.0043 0.0074 0.0252 0.0021 -0.0095 -0.0097 0.0563 -0.0668 -0.0193 -0.043 0.0491 -0.0505 0.0046 0.0156 0.0064 -0.0077 0.014 -0.0537 -0.0219 0.0702 -0.0211 0.0021 -0.0314 -0.0339 -0.0457 0.0131 0.0288 0.0001 -0.0319 0.0773 -0.0171 0.0301 0.0053 -0.0141 -0.0144 0.0109 0.0318 -0.0018 -0.0304 0.0361 0.0267 -0.0285 0.0006 0.0161 -0.0002 -0.0077 -0.0366 -0.0725 -0.0621 -0.043 0.0279 0.024 0.0401 -0.0115 -0.0488 0.0037 0.0511 0.0073 -0.017 0.0109 0.0218 0.0485 0.0021 -0.0569 0.0089 -0.0045 -0.0217 0.0124 0.0484 0.0571 -0.0169 -0.0207 0.0156 -0.0467 0.0508 -0.0064 0.0086 0.0177 0.059 -0.014 -0.0574 0.0565 -0.0494 0.01 0.0053 0.0011 -0.0043 -0.0362 0.0456 -0.0139 -0.0358 -0.0299 -0.0498 -0.0211 0.0469 -0.0163 0.0274 0.0196 -0.0484 -0.0224 -0.0195 0.0395 0.0142 0.0087 -0.0233 0.0036 -0.0155 -0.026 0.0794 0.0383 0.0621 -0.0236 -0.04 0.0119 -0.0471 0.0357 0.054 0.0555 -0.0082 0.0181 0.0289 0.0114 0.0133 -0.0341 -0.0253 -0.0389 -0.0128 0.0814 -0.0278 0.0099 0.0061 0.0198 0.0398 0.0183 -0.0145 -0.038 -0.0035 -0.0081 0.0114 -0.0125 -0.0864 0.0324 0.0096 0.0333 0.0966 -0.0388 0.0375 -0.0107 0.0033 -0.0459 0.0195 0.0021 -0.0183 0.0359 -0.0065 0.009 0.024 -0.0545 -0.0111 -0.0225 -0.0143 -0.0488 -0.0108 -0.0101 -0.0037 0.0368 -0.0409 0.0615 -0.0084 -0.023 -0.0596 0.0119 -0.0366 -0.0151 0.0402 -0.0289 -0.0381 0.0071 0.0164 -0.0433 0.0401 0.0169 0.1113 -0.0084 0.0207 -0.0214 -0.0085 0.0183 -0.0116 -0.0494 0.0074 -0.0423 0.0528 0.0186 -0.0341 0.0244 0.0445 -0.032 -0.0021 0.0431 -0.0273 -0.0282 0.0097 0.0281 0.0019 0.065 -0.0046 0.0125 -0.0234 -0.0161 -0.0072 -0.0163 0.0626 -0.0322 -0.0283 0.0249 0.0117 -0.0188 0.0285 0.0439 -0.0251 -0.0239 0.0208 -0.0063 -0.0219 0.0278 -0.006 0.001 0.0432 -0.0532 0.0141 -0.0429 -0.0237 0.0128 0.0352 0.0234 0.0189 -0.0323 -0.0065 0.0266 0.0054 -0.0108 -0.0042 -0.0046 0.0174 -0.0181 0.0251 -0.0317 -0.034 -0.0159 -0.0165 0.0384 0.0042 0.02 0.0558 0.0485 0.032
feline 0.0033 -0.0163 0.0263 -0.0164 -0.0241 0.0143 0.0163 -0.042 0.0034 0.0253 0.0027 0.0103 0.042 -0.001 -0.0452 -0.0013 0.0158 -0.0157 0.01 -0.0249 0.0112 -0.0382 0.038 0.0315 0.0474 -0.0285 -0.0034 0.0311 -0.0057 0.0119 -0.0112 -0.0223 0.0415 -0.0005 -0.0071 0.0115 0.0292 -0.0398 0.0032 -0.0227 -0.0048 -0.0602 0.0094 0.0048 0.008 0.0098 0.0279 0.0158 0.0177 -0.043 0.0164 0.0342 -0.0031 -0.0468 0.0022 -0.0249 0.0039 0.0059 -0.0184 0.0305 0.0434 -0.0575 0.055 0.0032 0.0165 -0.0112 -0.0016 0.0282 -0.0233 -0.0373 0.0077 0.0267 0.02 -0.0291 0.0196 0.0344 -0.0223 -0.0036 0.0153 -0.0355 0.0145 0.0474 0.037 0.0122 0.0315 -0.0441 -0.0374 0.0184 0.0309 0.0068 0.0165 0.0005 -0.0382 -0.0154 0.0285 0.0403 0.0337 0.0198 0.0027 0.0212 -0.0032 0.0316 -0.0275 0.0034 0.0142 -0.0451 -0.0413 -0.0186 0.0097 -0.0237 -0.0105 0.029 -0.0021 -0.0276 -0.036 0.0103 0.022 0.0102 -0.0338 0.0009 -0.0249 0.0598 -0.006 -0.0238 0.0787 0.0264 0.0253 -0.0058 -0.0083 0.0026 0.0059 -0.0158 -0.0197 0.0144 0.0049 -0.0091 -0.0007 0.0242 0.0539 -0.0267 0.0107 -0.0041 0.0133 -0.003 0.0025 -0.0172 0.0139 -0.0325 -0.0131 -0.0167 0.0047 0.0253 0.0315 -0.023 -0.0063 -0.02 -0.0226 0.004 -0.0505 -0.0058 0.0059 -0.0171 -0.0292 0.028 -0.0015 -0.0007 -0.0112 -0.0372 -0.0233 -0.0026 -0.0086 0.0205 -0.024 0.0149 -0.0033 0.031 0.0266 0.0005 -0.0122 0.0023 0.0179 -0.019 -0.0011 -0.0172 -0.0167 -0.0348 -0.0163 0.0535 0.0013 -0.0374 0.0085 0.0044 -0.0151 -0.0154 -0.0153 0.0724 -0.0249 0.0309 0.0084 0.001 -0.071 0.0442 -0.0005 0.0228 0.0041 -0.0185 0.0009 -0.0137 -0.0359 -0.0055 0.046 0.0086 0.0083 0.0104 0.0101 0.0031 0.0009 -0.0211 -0.0088 0.0101 -0.0112 -0.0162 -0.0174 0.0213 0.0015 0.0175 0.0162 0.0495 0.0454 -0.0217 -0.0129 -0.0017 -0.0366 -0.0294 0.0415 -0.0249 0.0197 -0.0024 -0.0241 -0.0019 0.0158 0.015 -0.0012 -0.0183 -0.0383 0.0633 0.0018 0.0002 -0.023 -0.0487 0.0123 -0.0298 0.0087 0.011 0.0354 0.0017 0.0021 0.0157 0.0029 -0.0122 -0.0183 -0.027 0.0028 -0.0035 0.0136 0.0007 0.0005 -0.0124 0.018 0.0259 -0.0424 0.0389 -0.0584 -0.0177 0.0071 -0.0069 -0.0129 -0.026 0.0096 -0.0241 0.0614 0.0295 0.0268 -0.0112 -0.003 -0.0208 -0.0278 -0.0103 -0.0012 0.0099 0.0325 -0.0117 -0.0277 -0.035 0.0096 0.0295 0.0176 0.0543 0.0038 0.028
foothills 0.0103 -0.0105 0.0105 0.0002 0.0191 -0.0061 -0.0133 -0.0211 -0.0193 0.0083 -0.0033 -0.0341 -0.0101 -0.0048 -0.0078 -0.0083 0.0386 -0.009 0.0227 -0.0036 0.0081 -0.0272 0.007 0.0253 0.0226 -0.0311 -0.0009 0.0243 0.0062 0.0077 0.0222 -0.0117 -0.0059 0.0098 -0.0202 0.0216 0.0336 -0.0104 0.0069 -0.0299 0.0121 -0.0163 0.0077 -0.0068 0.0018 -0.007 0.0032 0.0028 -0.0092 0.0301 0.0219 0.0026 -0.0302 -0.0048 -0.0389 -0.0049 -0.0041 0.0031 -0.0027 -0.0022 0.0234 -0.0056 0.0396 0.0097 0.0093 -0.0141 0.0096 -0.0004 -0.0071 -0.0116 0.0127 -0.0064 -0.009 -0.0002 -0.0111 -0.0043 0.0064 -0.0309 -0.0123 -0.0046 0.0018 -0.0049 0.0113 -0.0057 -0.0176 -0.0148 -0.0179 -0.0358 0.0069 -0.0085 -0.0216 -0.019 -0.0297 0.0382 -0.0027 0.0418 -0.0198 0.0089 -0.0355 0.004 0.0065 0.0058 -0.0075 0.0361 0.0333 -0.0416 -0.0039 0.0026 0.0008 -0.0012 0.0198 0.0197 0.0193 0.0007 -0.0107 0.0002 0.0034 0.0137 -0.0043 0.0053 0.0129 -0.0078 0.003 -0.026 0.0228 -0.0067 -0.003 -0.025 -0.0091 0.0202 0.0266 0.0127 -0.0158 0.0177 0.0073 -0.018 -0.0151 0.0094 -0.0149 -0.0002 0.0056 -0.0311 0.0006 -0.0035 0.0067 0.0266 0.0134 0.0024 -0.0197 -0.0099 0.0035 0.0067 0.0121 0.0419 0.0394 -0.0051 0.0096 0.0133 0.0025 -0.0077 0.0058 -0.0051 -0.0025 0.0128 -0.0082 0.0105 -0.012 -0.0122 0.0044 0.0183 -0.0117 0.0012 0.0181 0.0154 0.0227 0.0203 0.02 0.0063 -0.0166 -0.0042 0.0335 0.0003 -0.009 -0.006 -0.0061 0.0017 0.0109 0.0644 -0.0114 -0.012 0.0279 0.0096 -0.0228 0.0077 -0.0013 0.013 -0.005 -0.0045 0.0204 -0.009 -0.0378 -0.0241 -0.0295 -0.0049 0.0226 0.0042 0.0058 0.0199 -0.0264 -0.0068 0.0259 -0.0166 -0.0168 -0.0272 0.0007 0.0036 0.0055 -0.0083 0.0045 -0.0087 -0.0118 -0.0098 -0.015 0.0153 0.0054 -0.0037 -0.009 0.0199 0.0182 0.0087 -0.0027 -0.002 -0.0332 0.0068 0.0124 0.021 0.0132 0.0041 -0.0182 0.0257 0.0095 0.0006 0.0209 0.017 0.0218 -0.0072 0.0093 -0.0083 0.0107 -0.0002 0.006 -0.0156 -0.0038 -0.009 -0.0057 0.0283 -0.0088 -0.0022 0.0064 0.0229 0.0083 0.0169 -0.0255 -0.0321 -0.0126 -0.0129 0.0092 0.0004 -0.0105 -0.0172 -0.0351 0.0301 -0.0257 -0.0039 0.0345 -0.0338 -0.0009 0.0247 0.0086 0.0259 0.0005 0.004 0.0188 -0.0007 -0.028 -0.0089 -0.0026 -0.0212 -0.0095 -0.008 -0.0003 -0.0079 -0.0019 0.0137 0.0027 0.0124 0.0076 0.0042 -0.0255 0.0214
sinner 0.0285 0.0055 0.0402 0.0103 -0.0371 -0.0145 -0.0281 -0.0511 0.0188 -0.0193 0.0169 0.0261 -0.0047 -0.0636 -0.0147 -0.0605 0.0292 -0.0237 0.0048 0.0248 0.0149 -0.0129 -0.0202 0.0165 0.0268 -0.0027 0.0052 0.0291 -0.0158 -0.0212 0.0167 0.0178 -0.0451 0.0114 -0.0267 0.0034 0.0082 0.0259 -0.0331 0.028 0.0214 -0.0656 0.0066 0.0401 -0.0407 0.0105 -0.005 -0.0145 0.0098 0.0201 -0.0191 -0.026 0.0157 -0.0117 0.0144 -0.0016 -0.0039 -0.0237 -0.0317 -0.0149 -0.0119 -0.0101 0.0166 -0.0302 -0.0482 -0.0117 0.0224 0.007 0.0218 -0.0373 0.0287 -0.0526 0.0034 -0.031 0.0063 -0.0473 0.0144 -0.0096 0.002 0.0236 -0.0117 0.0304 -0.0008 0.025 0.0089 -0.0031 0.0163 0.0126 0.02 -0.0152 0.0085 0.0005 -0.0443 -0.0109 0.0069 0.0379 -0.001 0.007 -0.0066 0.0126 -0.0486 -0.0062 0.0388 0.0083 -0.0159 -0.0373 0.0381 0.0022 -0.0218 0.0122 0.0108 0.0159 0.0061 -0.0275 0.0038 -0.0021 0.0031 0.0312 -0.0017 0.0157 -0.0379 0.0077 0.0305 0.0056 0.0206 -0.012 0.0111 -0.0143 0.0339 -0.0012 -0.0233 0.0022 0.0053 0.0115 -0.0213 0.0171 0.0319 0.03 0.0316 -0.0199 -0.035 0.0314 -0.0346 -0.0369 -0.0213 -0.0176 0.0216 -0.0168 0.0202 -0.0061 0.0235 0.0182 -0.0177 -0.0402 -0.0164 -0.0309 -0.027 -0.0368 0.0177 -0.0096 0.0408 0.0306 -0.0385 -0.0335 0.0182 -0.0309 -0.0009 0.0169 0.0038 0.0271 -0.0361 0.003 0.0158 0.0085 0.0243 0.0385 0.0248 -0.0296 0.0263 -0.0256 0.0046 -0.0041 -0.0187 -0.0274 -0.0107 -0.0637 0.0086 0.0654 0.0162 0.021 0.014 0.0008 -0.0063 0.0365 -0.031 -0.0121 -0.0222 0.0138 -0.0153 0.002 -0.0646 0.0411 0.0329 -0.0213 -0.0259 0.0415 0.0113 -0.0228 -0.0183 -0.0241 0.0243 -0.0266 -0.0046 0.0073 0.0005 -0.0335 0.0162 -0.0024 0.0159 -0.0149 -0.0163 0.0019 -0.0026 0.0377 -0.0063 -0.0131 0.0109 0.0389 0.0275 0.0001 0.0004 -0.0046 -0.0342 -0.0464 0.0188 0.0054 -0.0061 -0.0581 0.0378 0.0011 0.0284 -0.0034 -0.0285 0.0042 0.0085 -0.0043 0.0205 0.0124 -0.0063 -0.0046 0.0093 -0.0127 -0.0737 -0.0124 0.0162 -0.019 0.0295 0.0093 0.0017 0.0456 -0.0226 0.0063 0.0242 0.0181 0.0045 -0.0197 -0.004 -0.0031 0.0167 0.0153 0.018 0.0404 -0.0438 -0.0321 0.0342 -0.0271 0.0039 -0.0273 -0.0054 -0.0007 0.0266 0.0393 0.0008 -0.0149 -0.0102 -0.0017 -0.0042 -0.0513 0.017 0.0303 0.0626 -0.0124 -0.0309 0.0068 -0.0113 -0.0052 0.0601 0.0045 -0.0082 0.0153
reminiscing -0.0063 -0.0066 0.0059 0.008 0.0058 0.0067 -0.0034 -0.0226 -0.0046 -0.0001 -0.0061 -0.0271 0.0041 0.0187 -0.0013 0.0013 -0.0015 0.0051 0.0017 -0.0009 -0.0023 0.0097 -0.0411 0.0089 0.0022 -0.0018 -0.002 -0.0044 0.0141 -0.018 -0.0014 -0.0174 0.0027 -0.0197 -0.0005 -0.0103 0.0056 -0.0125 -0.0159 -0.0084 -0.0068 -0.0019 -0.0029 0.0103 0.015 0.0161 0.0152 -0.0108 0.006 0.0018 -0.0017 -0.0028 -0.0042 0.0121 -0.0012 -0.0239 -0.0264 -0.0191 -0.0139 -0.0213 0.0103 0.005 -0.0049 0.0012 0.0048 -0.0044 0.0036 0.0171 -0.02 0.0302 0.0105 0.0049 0.0278 -0.003 0.0089 0.0012 0.0044 0.0001 0.0073 0.0031 -0.0099 -0.0222 0.0288 0.0167 -0.0111 -0.0156 0.0062 0.0129 -0.0082 -0.0036 0.0115 -0.0074 -0.0212 -0.0141 0.0408 -0.0063 0.0075 -0.0054 0.0092 0.0043 0.0085 -0.0086 -0.0254 -0.0044 0.0062 -0.0127 0.004 -0.0016 0.0038 -0.0003 -0.0115 0.0242 0.0092 0.0044 0.0009 0.0127 -0.0158 0.0037 -0.0048 -0.0017 0.0017 0.0048 -0.0034 -0.0066 0.0308 -0.0112 0.0076 -0.002 0.0021 0.0299 0.0093 0.0126 -0.0098 -0.0101 0.0039 -0.0062 0.0053 0.031 0.0092 0.0102 0.0209 0.0066 0.0126 0.0178 0.0043 -0.0044 0.0092 0.01 -0.0007 -0.002 0.0035 -0.0094 0.0148 -0.0098 -0.02 -0.0027 -0.0006 0.0325 0.0073 -0.0071 0.0142 0.014 -0.0029 -0.0026 -0.0175 0.0191 -0.0008 0.0007 0.0229 -0.0018 0.0107 -0.0071 -0.0051 0.0131 0.0149 0.0118 0.0132 -0.0027 -0.0001 -0.0084 -0.0036 -0.003 0.0078 -0.0098 0.0032 0.0042 0.0132 0.0295 0.0165 -0.0142 0.0051 0.0228 -0.0219 0.0197 0.0046 0.0025 -0.0007 -0.0027 -0.001 0.01 -0.0371 0.0078 0.013 0.0112 -0.0034 0.0 -0.0164 0.0038 0.0038 -0.0115 0.0173 0.0164 -0.0007 0.0035 -0.0071 -0.008 -0.0135 -0.014 0.0132 -0.0169 0.0056 -0.0086 0.0109 0.0162 0.0114 -0.0068 0.0133 0.0363 -0.0222 -0.0082 0.0067 -0.0179 -0.0154 0.0075 0.0158 0.0006 0.0019 0.0237 0.026 -0.0148 0.0444 0.0014 -0.0038 -0.0064 -0.0535 0.0103 -0.0061 0.0074 0.0127 -0.0057 0.0333 0.0073 0.0035 0.0019 0.0014 -0.0137 -0.0081 0.0351 0.0007 0.0027 -0.0048 -0.0042 0.0095 0.0356 0.0102 0.0007 0.0091 0.0156 -0.0002 -0.0127 0.0153 0.0159 -0.0309 -0.0014 0.0089 -0.0356 0.0037 0.0064 0.0013 0.0076 -0.0224 -0.0058 -0.0091 -0.0033 0.0099 -0.0097 0.0011 0.0035 -0.0179 -0.0062 0.0241 0.0253 -0.0097 -0.012 0.0078 0.0035 0.0203 0.0016 0.005 -0.003
warring -0.0019 0.0129 -0.0092 -0.0025 0.0056 -0.0037 -0.0178 -0.0382 0.0027 0.0243 -0.0081 -0.0179 -0.0004 -0.0031 0.0046 0.0009 0.0319 0.0001 0.0101 -0.0107 -0.0055 -0.0491 -0.0173 0.0186 -0.0272 0.0011 0.0069 -0.0384 0.0408 0.0111 -0.0115 0.0148 0.0028 -0.0062 0.022 -0.0019 -0.0041 0.0249 -0.0068 0.0527 -0.0377 -0.0444 0.004 0.0078 -0.0283 -0.0074 -0.0078 0.0198 -0.002 0.0101 -0.0039 0.0148 -0.0042 -0.0013 -0.0225 -0.005 0.0231 -0.0061 -0.0093 -0.0079 -0.0012 0.0072 0.0027 -0.0126 0.0112 -0.007 0.001 0.0142 0.0071 0.0103 -0.0181 -0.001 0.0175 0.007 0.0189 -0.0147 0.022 -0.0098 -0.0055 -0.0184 -0.023 -0.0057 -0.0029 0.0027 -0.0099 0.0065 -0.0055 -0.0103 -0.0169 -0.0142 -0.004 0.0155 -0.0292 -0.0156 0.0224 0.0093 -0.0018 -0.0082 0.0157 0.0024 0.0038 -0.0038 0.0466 -0.0208 0.0146 -0.0294 -0.0027 -0.0039 -0.0162 -0.0263 0.0037 0.0066 0.0068 -0.0266 -0.0007 -0.0092 -0.0008 -0.0064 -0.0188 -0.0233 -0.0001 -0.0125 0.0182 -0.0147 0.0507 -0.0068 0.0126 -0.0392 0.0151 0.0448 0.0064 0.0269 -0.0139 0.0089 0.0313 -0.0177 -0.0429 0.0164 -0.0081 -0.01 0.0216 0.014 0.0328 0.0053 -0.018 0.0089 0.0297 -0.0305 0.0158 -0.0289 0.0118 -0.0024 -0.0124 -0.0317 0.0328 0.0115 0.026 0.0314 -0.0144 -0.0064 0.0037 0.0022 -0.0226 -0.0 -0.0274 0.0086 -0.0105 0.0347 0.007 0.0043 -0.016 0.0021 -0.0042 0.0214 -0.0029 0.0208 0.0072 -0.0335 0.0183 -0.0204 0.0089 0.0176 0.0057 0.0293 0.0299 -0.0005 0.0068 0.0455 0.027 0.0085 0.0154 0.0182 -0.0299 0.022 0.0085 0.0339 0.0156 0.0255 -0.0215 -0.004 -0.08 -0.0033 -0.0355 -0.0085 -0.0011 0.0083 -0.0271 -0.0103 0.0607 -0.0037 0.0155 0.0167 0.0367 0.0211 0.0276 -0.0051 0.0068 -0.013 0.0128 -0.0291 -0.0076 0.0003 -0.0222 0.0365 -0.0206 -0.0076 0.0263 0.0501 -0.0182 0.0005 -0.0041 -0.0138 -0.0024 -0.0103 0.0354 0.0056 -0.0207 -0.0142 0.0149 -0.0157 0.0083 0.024 -0.0235 0.0264 -0.0276 -0.0039 -0.0212 -0.0082 -0.0017 0.0117 0.0009 -0.0041 0.0063 0.012 0.0047 -0.0304 0.0072 0.0121 -0.0034 0.0098 0.0075 0.0102 0.0002 0.038 -0.0276 -0.0028 0.0091 0.0239 0.0057 0.0127 -0.0029 0.0242 -0.0276 -0.0021 0.0208 -0.0478 -0.0039 -0.0027 -0.0376 -0.0076 0.0144 -0.0327 -0.0085 0.0082 0.0121 0.0268 0.0166 0.001 0.0252 0.0267 -0.0159 -0.0212 -0.0405 -0.0201 -0.0189 0.0021 0.0095 0.0357 -0.008 -0.0349
visualize -0.0231 -0.0065 0.0032 -0.0112 -0.0193 -0.0138 -0.0045 -0.032 0.0007 -0.0098 0.0202 -0.0066 0.0183 0.0021 -0.0105 0.0008 0.018 0.0272 0.0292 -0.0058 -0.003 -0.0018 -0.0066 0.0176 -0.0277 -0.0159 0.0019 0.0158 -0.02 0.013 -0.0276 0.0048 0.0315 0.0087 -0.0045 -0.0068 0.004 0.0112 0.0125 -0.0143 0.0243 -0.0354 -0.0155 -0.018 -0.0047 0.0011 0.0136 -0.0112 0.0079 0.0126 0.0049 -0.019 -0.0142 -0.0129 -0.025 -0.0134 -0.0057 -0.0275 -0.0109 0.0063 -0.011 0.0018 0.0218 -0.0136 0.0183 0.0013 0.0149 0.0163 -0.0048 0.0221 0.0053 -0.0036 0.0235 0.0074 -0.008 -0.007 0.004 0.0037 -0.0141 -0.0119 0.0262 0.0021 -0.0299 0.0063 0.0035 -0.0314 0.017 -0.0103 0.0095 0.0053 0.0048 -0.0366 -0.0324 0.001 -0.0005 -0.0177 0.0 -0.0025 0.0586 0.0166 0.0347 -0.0049 0.0008 0.0012 -0.01 -0.0247 -0.0074 0.0135 -0.0015 -0.007 -0.0058 0.0223 0.0114 -0.0165 0.0038 0.0052 -0.0255 -0.0032 -0.0149 0.0213 -0.0165 -0.0224 0.0156 0.0042 0.0263 -0.0177 -0.0146 -0.0121 0.0081 0.0369 -0.0176 0.0151 0.0122 0.0065 0.0017 -0.0163 0.0064 0.0151 0.0128 0.0275 -0.006 -0.0034 0.0048 0.0233 -0.0119 -0.0163 -0.0206 -0.0063 0.0015 0.0037 0.0001 0.0408 0.0062 -0.0169 0.0147 -0.0239 -0.0208 0.0011 -0.0095 -0.0113 0.0108 0.0163 -0.0166 -0.0005 -0.0129 -0.0026 -0.0223 -0.0152 0.0192 -0.0112 -0.0324 -0.005 -0.0107 -0.0166 -0.0047 0.0205 -0.0076 -0.0188 -0.0168 -0.001 0.0122 -0.0123 -0.0033 -0.0019 -0.0097 -0.0388 -0.0224 0.0422 0.009 -0.0115 0.0119 -0.004 -0.0297 0.0103 0.0055 -0.0194 -0.0196 0.0228 0.0004 0.0125 -0.0428 0.0248 0.0132 -0.0112 0.0148 0.007 0.0052 -0.0001 -0.0129 0.0005 -0.0243 0.0078 0.0273 -0.0044 0.0203 0.0152 0.0244 0.0002 -0.0172 0.0025 -0.017 -0.0015 0.01 0.0262 0.0098 0.008 0.0163 0.0308 -0.0035 0.0034 -0.0162 -0.0391 -0.0422 0.0106 0.0188 0.0165 0.0077 0.012 -0.0218 0.0035 0.0592 0.018 -0.0156 -0.0127 -0.0445 -0.0083 -0.0037 -0.0132 -0.0047 -0.005 0.0027 -0.0118 -0.0164 0.0009 0.0026 0.0164 0.0005 0.0434 0.0071 0.0062 -0.007 0.0307 -0.014 -0.0312 0.0053 -0.0124 0.0221 0.0137 0.0089 -0.0045 -0.0127 0.0269 -0.0308 -0.0235 -0.0105 -0.0163 -0.0176 0.0013 0.0026 0.0072 -0.0064 0.0013 -0.0139 0.0018 0.001 -0.0272 -0.0039 -0.0176 -0.0084 0.0013 -0.0044 0.0116 -0.0037 -0.0026 0.0196 0.0015 0.0162 -0.0187 0.0214 0.0357
disperse 0.0101 0.0242 -0.0208 -0.0053 0.0047 0.0072 0.0134 -0.0204 0.0335 0.0149 0.0002 0.0103 0.0081 0.001 0.0124 -0.0061 0.0319 0.018 0.0186 0.0237 0.0196 -0.0163 0.0016 0.0241 -0.0147 -0.0081 -0.0013 0.0014 -0.0007 -0.0002 -0.0084 0.0033 -0.019 0.0181 0.0049 -0.0062 -0.0035 -0.009 -0.0047 -0.0233 0.0108 -0.0381 0.0068 0.0057 0.0119 -0.0067 0.003 -0.0099 -0.0066 0.0033 -0.0144 0.0062 -0.0072 -0.008 -0.0375 -0.0049 -0.0161 -0.0113 -0.0194 0.0085 0.023 0.0022 0.0124 -0.0093 0.0074 0.0229 -0.0062 -0.0148 -0.0093 -0.0051 0.0237 0.0167 0.0418 -0.0227 0.0071 -0.0094 -0.0039 0.0159 0.0121 0.0153 -0.0062 -0.0239 -0.0141 0.0191 0.0136 0.001 0.0149 -0.0133 -0.0059 0.0158 -0.011 -0.0213 -0.0267 0.0162 0.0056 -0.0212 -0.0247 -0.0151 0.031 0.0027 0.0141 -0.0082 0.0449 0.0087 0.0124 -0.0143 -0.0135 -0.0191 0.0122 0.0144 -0.0172 0.0471 0.0347 0.0092 0.0292 -0.012 -0.0006 0.0148 -0.0087 0.002 0.0065 -0.0095 0.0043 -0.0241 0.0267 -0.0041 -0.0256 -0.0145 -0.0009 0.0206 -0.0043 0.0201 -0.0037 0.0229 0.0339 0.039 -0.0211 0.0303 0.0055 0.009 -0.0075 -0.0088 0.0181 -0.0181 0.0196 0.0234 0.0041 0.0088 -0.037 -0.0062 0.0054 0.0447 -0.0291 0.0159 0.0385 -0.0318 -0.0172 0.0022 -0.0211 0.0179 0.0099 -0.0141 -0.0232 0.0192 0.0206 0.0272 -0.0034 -0.0079 -0.0226 0.0079 -0.0064 0.0159 -0.0008 -0.0081 -0.0034 0.0167 0.0131 -0.009 -0.0032 0.0036 0.0136 0.0253 -0.0015 0.0272 -0.0205 -0.026 0.0165 0.0526 0.0118 -0.0044 0.0152 -0.0095 -0.0233 -0.0037 0.0153 -0.0072 0.0227 0.0288 -0.0003 0.0096 -0.0436 0.0222 0.0184 0.0445 0.0088 0.007 0.0079 -0.0119 0.0148 -0.0158 0.0021 -0.0114 0.0401 0.0142 0.0267 0.0138 0.0063 0.0011 -0.0188 -0.003 0.0121 -0.0047 -0.0117 0.0282 0.0157 0.004 -0.0069 0.0253 -0.0006 -0.0019 -0.0168 -0.0205 -0.0308 0.0003 0.0244 0.009 0.0007 -0.0002 -0.0046 -0.0389 0.0627 -0.0029 0.0049 0.0134 -0.0217 -0.0065 -0.0071 -0.0309 0.0199 -0.0016 0.0149 0.0027 -0.0109 -0.0063 -0.0043 0.0234 0.0087 0.0207 0.0168 -0.0076 0.022 0.0188 -0.0455 -0.0246 -0.0162 0.0007 0.0096 0.0136 -0.0159 -0.0016 -0.0029 0.0358 -0.0344 -0.0181 0.0037 -0.0162 0.0099 -0.0082 -0.0308 0.01 0.0057 -0.0246 -0.0166 -0.017 -0.0071 0.0171 0.0172 0.0007 -0.0013 -0.0065 0.0075 0.025 -0.0039 -0.0377 0.0157 -0.032 0.0205 -0.0263 0.0089 0.0059
commie 0.0317 -0.0147 -0.0001 0.0143 -0.0332 -0.0388 0.0443 -0.017 0.0048 -0.0154 -0.0185 0.016 0.0418 -0.0168 -0.0221 -0.0077 0.0286 -0.0151 -0.0152 -0.005 -0.0308 0.0413 -0.0217 -0.0048 0.0048 -0.0032 0.0593 -0.0132 -0.0212 0.0073 0.0195 -0.0343 -0.0025 -0.0111 0.0134 -0.0024 -0.0067 0.0085 -0.0074 0.0038 0.0047 -0.0582 0.0175 -0.0028 0.0086 0.0337 -0.0059 -0.0051 0.0118 -0.0318 -0.0181 0.0301 0.0149 0.0007 0.0052 0.0054 -0.0005 -0.0068 -0.0274 -0.0088 -0.0033 0.0193 0.0586 -0.0107 -0.0387 0.0166 0.0316 0.0091 0.0213 0.0209 0.01 0.002 0.0375 0.0016 0.0136 -0.024 0.0034 -0.0235 -0.0143 0.0108 0.001 -0.001 0.0026 0.0491 -0.0066 -0.0081 -0.012 0.0406 -0.0059 -0.017 -0.0156 -0.0035 -0.0417 -0.0438 0.0617 0.0258 0.0042 0.0129 -0.05 0.0608 0.0395 -0.0293 -0.0015 -0.0178 -0.018 -0.0957 0.0299 -0.0088 0.0052 -0.0042 -0.0235 0.0429 -0.0054 -0.0049 -0.0252 -0.016 -0.0544 -0.0192 -0.0073 -0.0044 0.0017 0.0065 -0.0387 -0.0433 0.0659 -0.0023 0.0153 0.0317 -0.0308 0.0302 -0.0211 0.021 0.0459 -0.026 -0.0049 -0.0087 -0.0105 0.0337 0.007 0.0036 -0.0136 0.005 0.0031 0.0263 -0.0117 0.023 0.0157 0.0146 0.019 -0.0485 0.0216 -0.0213 -0.0308 0.008 0.0057 -0.0137 0.0033 -0.0289 0.0035 -0.0262 0.0535 -0.018 -0.0276 -0.0298 -0.0007 -0.0379 -0.017 0.0307 0.017 -0.0094 -0.0269 -0.0179 -0.0201 0.001 0.0018 0.0498 0.0295 -0.0121 0.0453 0.0286 -0.0133 0.0342 -0.0219 0.0036 0.0066 -0.0357 0.0021 0.0899 -0.0102 -0.0185 0.0047 -0.0203 0.0006 0.0311 0.024 0.0055 0.0051 0.0058 0.0037 0.0209 -0.0445 0.0089 -0.0051 0.0339 -0.0263 -0.0242 0.0007 -0.0081 -0.0301 -0.004 0.0395 0.0153 -0.0057 0.0075 -0.0067 -0.0002 -0.0184 -0.0047 0.0187 -0.0147 -0.0088 -0.0182 0.025 0.0093 -0.0086 0.0475 0.0359 0.0332 -0.0077 0.0132 0.0002 -0.0178 -0.0437 0.0115 0.0273 -0.041 0.004 -0.0242 0.0317 0.0134 0.0429 0.0002 0.0302 0.0298 -0.0727 0.0073 0.0345 0.0306 -0.0103 0.0088 0.0282 -0.0402 -0.0244 0.0462 0.0264 -0.0162 0.0145 -0.0067 0.0358 -0.0265 -0.0083 0.0155 0.0224 0.0103 0.0002 0.025 -0.0173 0.011 0.0215 0.0307 -0.0117 0.0224 -0.036 -0.0044 0.0325 -0.0575 -0.024 -0.0071 -0.0032 0.0124 0.0477 0.0406 0.0456 -0.0014 -0.05 0.0262 0.002 -0.0124 0.0215 -0.0054 -0.0218 0.0051 -0.0481 0.0336 -0.0193 -0.0303 -0.0199 0.0137 -0.0317 -0.0149
scrubber -0.0001 0.0049 0.0196 0.0251 -0.0023 -0.0013 0.0138 -0.039 0.0017 -0.0265 -0.0146 0.0049 -0.0321 0.005 -0.0051 0.0093 0.0408 0.0145 0.0229 0.0239 0.0172 0.0054 -0.018 0.0169 0.0207 -0.0248 -0.0047 -0.008 -0.0242 -0.0067 0.0014 -0.0173 -0.0003 0.0043 0.0141 -0.0235 0.0182 -0.013 0.0216 -0.0252 0.0151 -0.0627 0.0094 0.0246 -0.0237 -0.0032 0.0211 0.0162 -0.0179 0.009 -0.0006 0.0361 0.0229 -0.0195 -0.012 -0.0405 0.0105 -0.0218 -0.0094 -0.0114 0.0062 0.0268 0.0312 -0.0111 -0.0168 0.0089 0.0128 0.0191 0.0068 -0.0143 0.0157 0.0074 -0.0037 -0.0155 0.006 -0.0111 -0.0023 -0.0173 -0.0 0.0144 -0.0012 -0.0256 0.0018 0.0058 0.0067 0.0219 -0.019 -0.0143 -0.0029 -0.029 0.0064 -0.0116 -0.0273 -0.0027 0.0234 0.0492 -0.0038 0.0071 -0.0061 0.0084 -0.0109 0.0012 0.0153 0.009 -0.0026 -0.0527 0.0028 -0.0145 -0.0059 0.0295 0.0028 0.0146 0.0299 -0.0059 -0.0076 -0.0028 -0.0129 -0.0304 -0.0191 -0.0019 -0.0269 -0.0025 0.0115 -0.0033 0.0237 -0.0001 -0.0038 -0.023 0.0042 0.0266 0.0077 0.0061 -0.002 -0.0371 -0.0035 -0.0038 0.0314 0.0168 0.0107 -0.0049 -0.0324 0.0148 0.0176 -0.0082 -0.0052 -0.0042 -0.003 -0.0039 0.0117 -0.017 -0.0083 0.0354 -0.016 -0.0109 -0.0194 0.009 -0.0086 -0.0254 0.0223 0.0072 0.0036 -0.0101 -0.0133 -0.0172 0.036 -0.0058 -0.0191 -0.018 0.0113 0.0048 0.0046 0.0514 -0.0402 0.0099 0.017 0.0122 -0.0327 -0.0014 -0.0134 0.0235 -0.0059 0.0053 -0.0189 0.0008 -0.0152 -0.0159 -0.0053 0.0316 -0.0119 0.0049 -0.016 -0.0001 -0.0025 0.0059 0.0009 -0.0127 -0.0092 -0.0001 -0.007 -0.007 -0.0567 -0.0121 0.0139 0.0041 0.0183 -0.0148 -0.005 0.0074 -0.0082 -0.0108 0.062 0.0076 0.0111 -0.006 0.0047 0.0032 0.0117 0.0218 0.003 -0.0215 0.0129 0.0323 -0.0092 0.0305 0.0127 0.0099 0.0127 0.02 -0.0008 0.008 0.0066 -0.0199 -0.0188 -0.0034 -0.0065 0.0158 0.028 -0.0051 0.0006 -0.0152 0.0367 -0.0104 -0.0084 0.0087 -0.0015 0.0253 0.0007 -0.0008 -0.006 0.0178 -0.0105 0.0134 -0.0077 0.0115 -0.001 0.0008 0.0126 -0.0014 -0.0022 -0.007 0.0111 0.0167 -0.0481 0.0021 -0.0241 -0.0187 -0.0135 0.0069 0.0072 -0.0111 -0.0346 0.034 -0.015 -0.0162 -0.012 -0.0198 0.0119 0.0141 0.0175 -0.0019 0.0194 0.0075 0.0104 0.0131 -0.0247 -0.0056 -0.0117 -0.0075 0.0433 0.0193 -0.0034 0.0133 -0.0078 0.0235 -0.0105 -0.022 -0.0112 -0.0131 0.0185 0.0081
libero 0.0098 -0.0234 0.0028 -0.0008 0.0113 -0.0101 -0.0213 -0.0554 -0.0268 -0.0216 0.0049 0.0191 0.0394 0.0035 -0.0553 0.0166 0.0421 -0.0082 0.0411 -0.0178 -0.0338 -0.0043 0.0066 0.0164 0.0115 0.0039 0.0206 -0.0036 -0.0233 -0.016 0.0259 -0.0123 -0.0276 0.0082 0.0138 -0.0137 0.0735 -0.0024 0.0194 -0.0231 0.0096 -0.0258 0.0042 -0.0116 0.0161 -0.0278 0.0113 0.0063 0.0056 -0.0242 -0.0043 0.0093 0.0357 -0.0117 0.0039 -0.023 0.0206 0.0329 -0.0193 -0.0152 0.0049 -0.027 0.0113 0.0044 -0.0004 -0.0061 -0.0135 0.0161 0.0235 -0.0446 -0.0042 -0.0117 0.0399 0.027 -0.0086 -0.004 -0.0282 -0.0094 0.0036 0.0121 -0.0162 0.0125 0.0258 -0.0005 0.0137 -0.0157 0.0295 -0.0184 -0.0196 0.0248 0.0311 -0.0284 -0.053 -0.0138 0.0252 0.0439 -0.0147 -0.025 -0.0309 -0.0199 0.0475 0.035 -0.0019 -0.0113 -0.0532 -0.0509 0.0072 -0.0049 0.0068 -0.0087 -0.0026 0.0383 -0.008 -0.0065 0.0319 0.0331 0.0051 0.003 0.0001 0.0411 0.0379 0.0258 -0.0015 -0.0225 0.0226 -0.0082 0.0454 -0.0247 -0.0057 0.0124 0.0071 -0.0091 0.0082 -0.0108 -0.0457 -0.0026 0.0229 0.01 -0.0216 -0.0411 0.0021 -0.0099 -0.0156 -0.0218 -0.0096 0.0205 -0.0088 0.0039 0.0323 0.0064 0.0215 0.0146 0.0385 -0.0306 0.049 -0.0354 -0.0235 0.0312 -0.0048 0.0292 0.0048 0.0161 -0.0342 -0.002 -0.0081 -0.0346 -0.0275 0.0284 0.0005 -0.0135 0.0206 0.0144 -0.0391 -0.0215 -0.0301 0.0161 -0.0136 0.0032 -0.0002 -0.0209 0.0123 0.0378 -0.0422 0.0022 0.0394 -0.0242 -0.0021 0.0535 0.0156 0.0219 0.0067 0.0237 0.003 -0.014 0.0214 -0.0282 0.0062 -0.0267 0.0222 -0.015 -0.0543 0.0218 0.0243 0.0102 -0.0342 0.0082 0.028 -0.0046 0.0358 -0.0112 0.0511 -0.0124 -0.0005 0.0161 0.0145 -0.0073 0.005 0.0282 -0.0046 0.0197 0.0014 0.0293 0.0199 0.0526 0.0188 -0.0121 0.0221 0.0357 -0.0138 0.0009 -0.0156 -0.0212 -0.0092 -0.0508 0.0003 -0.0178 -0.0323 -0.0523 0.0094 -0.0087 0.0678 -0.0031 0.0013 -0.0083 -0.0052 0.0054 -0.0262 -0.0253 -0.0048 0.005 -0.0085 -0.021 -0.018 0.0202 0.0082 -0.0009 0.0412 0.034 -0.0264 0.0175 -0.0293 -0.0011 0.0076 -0.0048 -0.0285 0.0215 -0.0177 0.0247 0.0197 -0.0149 0.027 0.0592 -0.0259 -0.0241 0.0091 -0.0386 -0.0312 0.0044 -0.0019 -0.0032 0.022 0.0332 0.0077 -0.0212 -0.0468 -0.0279 0.0288 0.0161 0.0229 0.0154 0.0206 -0.0161 0.0288 -0.0048 0.0148 0.0014 -0.0275 0.0216 0.0416 0.0002
bridges 0.0046 -0.025 0.0023 -0.0129 -0.0148 0.0003 -0.0169 -0.0309 0.0169 0.0107 0.0267 -0.0475 -0.0079 0.0394 0.0068 -0.0057 0.0285 -0.0067 0.0226 -0.036 -0.0132 -0.0058 0.0284 0.0209 0.0205 0.0065 -0.0165 0.0267 0.0532 0.0028 0.0043 0.0016 -0.0043 0.0015 0.0214 0.0133 0.014 -0.005 -0.0113 -0.0325 -0.0047 -0.0496 -0.001 0.0023 0.0015 -0.0185 -0.0084 0.0151 0.0165 0.0096 -0.0123 -0.0293 -0.0053 0.0033 -0.0362 0.0072 0.0078 0.0066 -0.0213 -0.0246 0.0004 0.0028 0.0447 -0.0151 0.0529 -0.0008 -0.0085 -0.0223 -0.0267 0.0298 0.0091 0.0081 0.025 -0.0294 0.0112 -0.029 0.0083 -0.0293 -0.0034 0.0224 0.0041 -0.0282 -0.0409 0.0247 0.0303 -0.0068 0.0236 -0.0174 -0.0122 -0.0154 -0.0055 -0.0151 -0.0317 0.0074 0.0173 0.0362 0.0296 0.0112 0.0009 0.0161 0.0423 -0.0261 0.005 0.0091 0.0221 -0.0354 0.0242 -0.0175 0.004 -0.005 0.0202 0.0315 0.0432 0.0234 -0.0291 0.0092 -0.0046 0.0143 -0.0142 -0.007 0.019 -0.0285 -0.0413 -0.0095 0.038 0.0069 0.0 -0.0268 0.006 0.03 -0.0028 0.0335 -0.0113 -0.0041 0.0347 0.0467 0.0237 0.024 -0.0206 0.0178 -0.0173 -0.0151 0.0008 0.027 0.0389 -0.039 0.0124 -0.0224 0.0411 -0.0299 -0.0063 0.0385 0.0269 0.0025 -0.0069 0.0049 -0.0062 0.0025 -0.0169 0.0008 0.0051 -0.0141 0.0075 -0.0281 0.0013 0.0124 0.0238 0.0138 0.0266 -0.012 0.0222 0.0147 0.0271 0.029 0.0172 0.0191 0.0121 0.0288 -0.0191 -0.0258 0.0179 -0.0076 0.0249 -0.0133 0.0034 0.0061 -0.0241 0.0407 0.002 -0.024 0.0024 0.0093 -0.0327 0.0298 -0.0242 0.0182 -0.0015 -0.0005 -0.005 -0.0321 -0.0684 -0.0016 -0.0108 -0.0018 0.0295 -0.0221 -0.0018 0.0266 0.0013 -0.0285 0.0306 -0.0036 0.0136 0.023 -0.0004 -0.0146 -0.0175 -0.004 0.0134 -0.0025 -0.0185 0.0213 0.0198 0.0282 0.0119 -0.0074 0.0037 0.0203 0.0066 -0.0 -0.0333 -0.0112 -0.0407 -0.0265 0.0052 0.0149 -0.0049 0.0354 -0.0547 0.0281 0.0094 0.0041 0.0271 -0.0101 -0.0019 0.0343 -0.0259 0.0238 0.0037 0.01 -0.0378 0.0192 -0.0073 -0.0048 -0.0181 0.0216 0.0164 0.0185 0.0525 0.0172 -0.0207 0.0321 0.021 -0.0273 -0.0199 0.0139 0.0095 -0.0066 0.0122 -0.0051 0.0297 0.0337 -0.0349 -0.0157 -0.0022 -0.0026 0.0037 -0.0078 0.0017 -0.0097 0.0042 0.0244 -0.0335 0.0039 -0.0157 0.0213 -0.0184 0.011 -0.0057 0.0152 0.0075 -0.0042 -0.0116 -0.02 0.0074 -0.0341 0.0065 -0.0032 0.0093 -0.0215
toasty -0.0282 0.0012 0.0025 -0.005 -0.0049 -0.0053 0.0129 -0.0449 -0.0225 0.0202 -0.0507 -0.0289 -0.0092 0.0206 -0.003 0.0236 0.0205 0.0306 0.0425 0.0018 -0.0235 0.0191 -0.0174 0.011 0.0703 -0.0021 0.0478 0.0283 0.023 0.0009 0.0091 -0.0306 -0.0065 -0.0076 -0.0008 0.0085 0.0286 0.0206 0.0006 0.0254 0.0098 -0.0421 -0.0294 0.0006 -0.0151 -0.0237 -0.0176 -0.0243 0.0022 0.0083 -0.0005 0.0386 -0.0034 -0.0179 -0.0187 0.003 -0.0024 -0.0546 -0.0206 0.0015 0.0036 -0.0139 0.0406 -0.0069 0.0039 0.0189 -0.0096 -0.0009 -0.0246 -0.0011 0.0104 0.02 0.0048 0.0209 -0.0333 -0.0165 -0.0085 -0.0154 -0.0302 0.0252 0.0017 -0.0582 0.0578 0.0517 -0.0126 0.0136 -0.0218 0.0018 0.0094 -0.0157 0.0044 -0.0019 -0.0522 -0.0105 0.0329 0.0251 0.0034 0.0599 -0.0114 -0.0236 -0.0023 0.0007 -0.0101 -0.0046 0.0115 -0.0453 -0.0296 0.0006 0.0112 -0.0065 -0.0102 0.012 -0.0063 0.0218 -0.0027 -0.0291 -0.0243 0.0116 -0.01 0.005 -0.0013 -0.026 0.004 -0.0556 0.0423 0.0022 0.0232 -0.0285 -0.0075 0.0043 0.0191 0.004 0.009 -0.0406 0.0086 -0.0289 -0.0136 0.0478 -0.0291 -0.0054 0.0531 -0.0039 0.0225 -0.0493 -0.0057 0.0385 0.0379 -0.0017 -0.0555 0.0098 -0.0247 0.0078 0.0396 0.0335 0.0306 -0.0056 0.0117 -0.0298 -0.014 -0.0032 0.0284 -0.0089 -0.0109 -0.0358 -0.0001 -0.0039 -0.0422 0.0086 -0.0044 0.0084 -0.0204 0.0149 -0.0105 -0.0107 0.0025 0.0245 0.0444 0.0052 0.0009 -0.0141 -0.0223 0.0191 -0.0091 -0.0679 0.0168 -0.0035 -0.0287 0.0632 0.0047 -0.0157 0.045 -0.0049 -0.0021 0.0346 0.0052 -0.0077 0.0048 -0.0354 0.0064 0.0009 -0.0578 0.0322 -0.0362 0.0123 0.0144 -0.039 -0.0101 0.029 -0.0077 -0.0111 0.0158 -0.0282 0.0177 -0.0038 0.0341 0.0017 -0.021 0.0011 -0.0337 -0.0156 0.0003 0.0046 0.0183 0.0284 -0.0017 0.0189 0.0155 0.0333 -0.0304 -0.0061 0.0085 -0.006 -0.0114 0.0122 0.0629 -0.0161 -0.0071 -0.001 0.0339 -0.0197 0.0797 -0.0076 -0.0054 -0.0153 -0.0562 0.0268 0.0058 -0.0066 0.0194 -0.0391 0.0086 -0.0096 -0.0686 -0.0059 -0.0081 -0.0143 0.0376 -0.0256 0.0155 0.0062 0.022 -0.0066 0.0072 -0.0035 -0.0456 -0.0085 0.006 -0.0196 0.0001 0.007 -0.022 0.0293 -0.059 -0.0299 0.0227 -0.0677 -0.0205 0.0015 0.0257 0.0111 0.0533 0.0154 0.0118 0.0014 -0.0181 -0.0286 -0.0043 -0.0059 -0.0128 0.0304 -0.0232 -0.0046 -0.0113 0.0052 -0.0068 -0.0119 0.0214 0.038 0.0006 0.0075
biomarkers -0.0299 -0.0153 -0.0151 0.027 -0.0147 -0.0075 0.0163 -0.0229 0.005 0.0219 0.0102 -0.0155 0.0047 -0.0173 0.0102 -0.0004 0.0153 0.026 0.033 -0.0156 0.0075 0.0001 0.0173 0.0252 -0.0052 -0.0085 0.0001 -0.0035 0.0426 -0.0242 -0.0201 -0.0018 0.0135 -0.0055 0.0102 -0.0026 0.0006 0.0014 -0.0082 0.033 -0.0091 -0.0099 0.0023 -0.0057 0.0303 -0.0256 -0.0162 0.0166 0.0135 -0.0054 -0.0282 0.0104 0.0122 -0.0055 -0.0098 -0.0166 0.0167 0.0191 0.0113 -0.0007 0.0259 -0.0165 0.0193 -0.0127 0.0237 0.0018 0.0257 0.0077 -0.002 -0.004 0.001 0.0203 0.0144 -0.0174 0.0016 0.0091 -0.0143 -0.0384 0.0104 -0.0076 0.0092 0.0014 -0.0088 0.0013 0.0023 -0.014 0.0264 0.0002 -0.0276 -0.0037 -0.0193 -0.0139 -0.015 -0.0004 -0.0062 0.0188 0.0093 0.0062 0.0054 -0.005 -0.0076 -0.0266 0.0069 0.0166 -0.0004 -0.0141 0.009 -0.0092 0.0025 -0.0018 0.0173 0.0426 0.0146 -0.0246 -0.0023 0.0277 0.0009 -0.0157 -0.0092 0.0002 -0.0116 -0.001 0.0229 -0.0235 0.0363 0.0056 -0.0287 -0.0225 0.013 0.0019 0.0134 0.0181 -0.0228 -0.0286 -0.0259 0.0183 0.0076 0.0066 0.0201 0.0251 0.0036 -0.0078 -0.0034 0.0179 -0.0038 -0.0042 -0.0027 -0.001 -0.019 0.0224 0.0044 0.0275 0.0328 -0.031 0.0125 0.0001 -0.0025 -0.018 0.0239 0.0193 0.0251 -0.016 -0.0058 -0.0107 0.0035 -0.0158 -0.0325 -0.0013 -0.0043 -0.0219 -0.002 -0.0247 0.0293 -0.0317 -0.0039 0.0229 -0.0081 -0.0298 -0.0372 -0.0078 0.01 0.0164 0.0218 -0.0107 -0.0108 -0.0081 0.008 0.0502 -0.0219 0.032 -0.0002 0.0306 -0.022 0.0152 0.015 -0.0209 -0.0316 0.0272 0.0092 0.018 -0.0438 0.0205 0.009 -0.0123 -0.0178 -0.0021 0.0062 -0.0134 -0.0294 -0.0153 0.0205 -0.0083 0.0136 -0.004 0.0115 0.0147 -0.0145 0.0088 -0.0276 -0.0097 -0.0354 0.0177 0.012 0.0252 0.0408 0.0362 0.0065 0.0169 -0.0147 -0.012 -0.0131 -0.0024 -0.0274 0.0254 0.0052 0.0193 -0.0025 0.0124 -0.0066 -0.0072 -0.0157 0.0143 0.0092 0.016 -0.0043 0.0015 -0.002 0.0076 0.0108 -0.0126 0.0022 0.0066 -0.0153 -0.0421 -0.0099 0.0162 0.0124 -0.0088 0.0335 -0.03 -0.0116 0.0197 -0.0152 -0.0069 0.0015 -0.0131 -0.0011 0.0098 -0.0024 0.005 0.0089 0.0255 -0.0414 -0.0152 -0.0033 -0.0024 0.012 0.0003 -0.0013 0.0056 0.0064 0.004 0.0075 0.0169 -0.0144 -0.0235 -0.0235 0.0226 0.0023 -0.0149 0.0445 -0.0051 -0.0208 -0.0024 0.0021 0.0012 -0.0101 -0.0167 -0.0093 0.0127
nibbling -0.0135 -0.0104 -0.0203 -0.0264 -0.0169 0.012 -0.0253 -0.0286 -0.0247 0.0009 -0.0391 -0.032 0.006 0.0063 -0.0136 0.002 -0.0336 -0.0018 -0.0029 -0.0193 0.0139 0.0058 -0.0064 0.0146 -0.0038 0.0013 0.0215 0.0195 0.0224 -0.0266 0.0152 -0.025 0.0015 0.0065 0.0152 -0.0181 0.0236 0.0001 0.0203 0.0095 -0.0301 -0.0272 -0.0343 0.0046 0.01 -0.0147 0.0083 -0.009 -0.018 -0.0102 0.0092 0.0163 -0.0033 -0.0246 -0.0342 -0.0249 -0.0025 -0.0221 -0.0211 -0.0186 0.0052 -0.0063 0.0002 0.019 -0.0124 -0.0069 -0.0082 0.0277 -0.0275 -0.016 -0.0114 0.0118 0.0466 0.0088 -0.0047 -0.0102 -0.0104 -0.0176 -0.0122 -0.0151 -0.0191 -0.0396 0.0116 0.0152 0.022 -0.0053 0.0107 -0.0084 0.013 0.0141 0.0157 -0.022 -0.0433 0.0011 0.0399 0.0047 -0.0019 0.0352 0.0065 -0.0008 -0.0275 0.0446 -0.0056 0.0124 0.0262 -0.029 -0.0099 -0.0164 -0.0035 -0.0218 -0.0057 0.0099 0.0055 0.0089 0.0052 0.0143 -0.0112 0.0388 -0.0093 -0.0012 0.0004 0.0055 -0.0178 0.0029 0.0128 -0.0155 0.0219 -0.044 -0.0127 0.029 0.037 0.0124 -0.0109 0.0072 0.011 -0.0219 -0.027 0.0473 0.0238 0.0223 0.0072 -0.0172 0.0291 -0.0129 0.0102 -0.0053 0.0256 0.014 0.0134 -0.0255 -0.0183 0.0049 0.0099 0.0021 0.0166 0.0007 0.0123 -0.0069 -0.0034 -0.0022 0.0165 0.0171 -0.0174 -0.008 0.0078 0.0234 -0.0054 -0.0081 0.0057 0.0116 -0.0048 0.0185 -0.0216 0.0073 0.012 0.0221 -0.0032 -0.0188 -0.0014 -0.0301 -0.0006 0.0149 0.0084 -0.0428 -0.0057 -0.0128 0.0289 0.0498 0.0116 -0.0094 0.0041 -0.0147 -0.0155 -0.005 0.0285 0.0041 0.0093 0.0072 0.003 -0.0132 -0.0339 0.0119 0.0213 0.013 -0.0252 0.0024 0.0263 0.0127 0.0175 -0.0134 0.0149 -0.0041 0.0326 -0.0239 0.0048 0.0124 0.0087 0.0011 0.0128 -0.0222 -0.0074 0.0154 -0.0077 0.0121 -0.0007 -0.0172 0.0259 0.0345 -0.0055 -0.0028 -0.0029 0.0029 -0.0048 -0.0068 0.0074 0.0003 -0.0063 -0.004 -0.0014 -0.0079 0.0408 -0.0083 -0.0145 0.0032 -0.0322 0.0491 -0.006 0.0009 0.0126 -0.0116 -0.0168 -0.0241 -0.0044 0.006 0.0225 0.0055 -0.0027 -0.0258 0.0124 0.0048 0.0179 0.0101 0.028 0.0299 0.0094 0.0143 0.0181 0.0052 -0.0031 0.0041 -0.0231 0.0167 -0.0338 -0.0058 0.001 -0.0275 0.0111 0.0097 -0.0045 -0.0013 -0.0029 0.0013 0.0148 0.0098 0.017 0.014 0.0019 -0.0053 0.0059 0.01 -0.0148 0.0194 -0.0332 -0.0202 0.0045 -0.0132 -0.025 0.0036 -0.0502 0.0148
prolly -0.0133 -0.0373 -0.0022 0.0017 0.025 0.006 0.0179 -0.0343 0.0194 -0.0131 -0.0022 -0.043 0.0101 -0.027 -0.0057 -0.0158 0.057 0.0193 0.0134 -0.0224 -0.0022 0.0128 0.0085 0.0105 0.0437 -0.004 0.0384 0.0061 0.0348 0.007 0.0287 -0.0246 -0.019 -0.0219 -0.0139 0.0012 -0.0111 0.0023 -0.0007 0.0177 -0.0002 -0.0476 0.0002 -0.0083 0.0091 0.0331 0.0119 0.0018 -0.0061 0.0304 0.0143 -0.0057 0.0125 -0.0241 -0.046 -0.0048 -0.0007 -0.017 -0.0218 0.013 -0.0097 -0.0216 -0.0308 0.0152 0.0179 -0.009 0.0008 -0.0001 0.0122 -0.0167 -0.0077 0.0172 0.0182 -0.0134 -0.0041 -0.02 -0.0271 -0.0199 0.0088 -0.0125 -0.0265 -0.0001 -0.0076 0.0664 0.0021 0.0025 0.0052 0.0248 0.0333 0.014 -0.0 -0.0021 -0.0192 -0.037 -0.0048 -0.0359 -0.0038 -0.0197 -0.0311 0.0184 0.0116 -0.0228 0.0114 0.0298 -0.0217 -0.0619 -0.0112 -0.0332 0.0056 0.0124 -0.0089 0.0176 0.0239 -0.0017 -0.0044 -0.0249 -0.0424 0.0043 -0.0207 -0.0116 0.0046 0.0193 -0.0101 -0.0205 0.062 0.0139 -0.0051 -0.034 -0.0069 0.0262 -0.0072 0.0132 -0.0247 -0.0125 -0.0335 -0.0083 0.017 0.0229 -0.0407 -0.0127 0.0089 -0.0082 0.0145 -0.0061 -0.0118 -0.0024 0.0045 0.0211 -0.0073 0.0021 0.0319 0.0175 -0.0252 0.0198 -0.0053 -0.0204 0.0126 -0.0151 0.0266 -0.0231 0.014 -0.0014 -0.0274 -0.0211 -0.0378 -0.011 0.0132 0.0067 0.0042 0.0006 -0.0052 0.0135 0.006 -0.0038 0.0018 0.0266 0.0314 -0.0011 0.0265 -0.0041 0.0326 -0.0091 -0.0261 0.0078 0.0453 -0.0325 0.0086 0.0489 -0.0024 -0.0158 0.0122 0.0322 -0.0072 0.0325 -0.0178 0.0065 -0.0184 -0.0114 -0.0222 0.0254 -0.0599 -0.0068 -0.0237 0.0205 -0.0034 -0.0152 -0.0083 -0.0177 -0.0058 -0.0685 -0.0303 0.0008 0.0235 -0.0117 -0.0066 -0.0022 -0.0416 0.0048 -0.0052 0.0045 0.0212 -0.0118 -0.031 0.0425 0.0151 0.0207 0.0466 0.0178 -0.0222 0.0193 0.0142 -0.0641 -0.039 -0.0026 0.0288 -0.0463 0.0036 -0.0123 0.0093 0.0051 0.1111 0.0225 0.0004 -0.0057 -0.0175 0.0269 -0.0037 0.0002 -0.022 0.0078 -0.0286 -0.0114 -0.0476 0.031 0.0304 -0.0167 0.0115 -0.0 0.0173 0.0233 0.0015 0.0081 0.0001 -0.002 -0.009 0.0083 0.0002 -0.0367 -0.0051 0.0116 -0.0091 0.0495 -0.0102 -0.0005 0.0227 -0.0419 -0.0161 -0.008 0.0046 -0.0266 0.0022 0.0158 0.0302 -0.0184 -0.0055 -0.0034 -0.0019 0.0151 -0.0205 -0.0141 0.0149 -0.0055 -0.0245 -0.0044 0.0105 -0.0403 -0.0058 0.0017 -0.0117 0.0163
startlingly -0.0053 0.0073 0.0119 0.0132 -0.0051 0.0003 -0.0025 -0.0256 -0.0107 0.0096 -0.0113 -0.0267 0.0009 -0.0012 -0.0133 -0.0054 0.0302 0.0034 0.0059 -0.001 -0.0058 0.005 -0.009 0.0161 -0.0091 -0.0086 0.0148 0.0035 0.0291 0.0115 -0.0128 0.0065 0.0025 -0.0248 0.0079 0.0106 -0.0063 0.0056 -0.0064 -0.0034 -0.0145 -0.0189 -0.0149 -0.0026 -0.0041 -0.0066 0.0056 -0.0024 0.0034 -0.0006 0.012 0.0082 0.0001 0.0054 -0.03 0.0077 0.0012 -0.0018 -0.0093 0.0049 -0.0023 0.0056 0.0261 -0.0004 0.0135 0.0083 -0.0039 -0.0051 -0.0114 0.008 -0.002 0.0121 -0.0171 -0.0005 -0.01 0.0031 -0.0013 -0.0219 0.0035 0.0089 0.0118 -0.0131 0.0081 0.0137 0.002 0.014 0.0005 0.0198 0.0048 0.0087 0.009 -0.0302 -0.0207 -0.0112 -0.0099 -0.01 -0.0192 -0.0141 0.0034 0.0071 -0.0044 -0.006 -0.0006 0.0105 -0.0159 -0.0251 0.0105 0.0037 0.0088 0.0001 -0.0121 0.0098 -0.0001 0.0041 -0.0092 0.0028 0.0033 0.0135 -0.0078 -0.0071 0.002 0.0004 0.0013 0.0054 0.0167 -0.0114 0.0084 0.0245 -0.0057 -0.0376 -0.0084 0.0154 -0.0044 -0.0045 0.009 -0.0199 -0.0029 0.0253 -0.004 0.0022 -0.0067 0.0013 0.0071 0.0128 0.012 -0.0054 0.0095 0.0099 -0.0091 -0.0007 0.0062 0.0147 0.0101 -0.0066 -0.0144 -0.007 0.0016 0.0005 -0.005 0.0167 0.016 0.0006 -0.0095 0.0034 -0.0185 0.0104 -0.0035 -0.0104 0.0028 0.0086 0.002 -0.0005 -0.0093 0.0144 0.0133 0.0119 -0.0028 0.0028 -0.0058 -0.0105 -0.0049 -0.0051 0.0027 -0.0053 0.006 0.0299 0.0111 0.0496 -0.005 0.0087 0.0114 -0.0085 -0.0143 -0.0155 -0.0108 -0.0023 -0.003 -0.0013 -0.004 -0.0044 -0.0259 0.0128 -0.0039 -0.0035 0.0008 0.0025 0.0042 0.0107 -0.0035 -0.06 -0.0126 -0.0095 -0.0065 0.0042 0.0077 -0.0247 0.009 -0.0086 -0.0435 -0.0071 -0.0212 -0.0036 -0.0032 0.0241 0.0229 -0.0076 0.0216 0.0179 -0.0107 -0.0118 0.0128 0.0004 0.008 -0.0015 0.0238 -0.0031 0.0029 -0.0252 -0.0026 -0.0059 0.0599 -0.0033 -0.0035 -0.0016 -0.0459 -0.0133 -0.0077 -0.0189 0.0023 -0.0316 0.0193 -0.0084 0.0023 -0.0094 -0.0027 0.0117 -0.0056 0.0054 0.003 0.0055 -0.0054 -0.0137 0.0024 0.0066 0.0099 0.0006 0.0016 -0.0235 0.0017 -0.0012 -0.0141 0.0193 -0.0381 -0.0057 0.0392 -0.0376 0.0068 0.011 0.005 -0.0096 0.0062 0.0058 0.0076 0.0003 -0.0323 0.0024 -0.0061 -0.0028 -0.0087 0.0084 0.0001 0.0112 0.0226 -0.0057 0.0038 0.0112 0.0144 0.0083 0.0096 -0.0026
bouts 0.0398 -0.0185 0.0076 -0.0152 0.0474 -0.0315 0.0056 -0.0498 0.0058 0.0244 0.0266 -0.0519 0.0205 0.0076 0.0362 0.0353 0.0207 -0.0137 0.03 -0.0312 0.0135 -0.0158 0.0049 0.0633 0.0246 -0.0302 0.0159 -0.0347 0.0513 0.0003 -0.0041 0.0249 -0.0024 -0.0719 0.0238 0.0523 0.0112 0.0068 -0.0203 0.0495 0.0056 0.0239 -0.0116 0.0405 -0.0357 0.0315 0.0621 0.0039 -0.0231 -0.0147 -0.0256 0.0258 0.0337 -0.0041 -0.0578 -0.0216 0.0069 -0.0062 -0.0031 0.0115 -0.031 -0.0038 0.055 -0.0205 -0.0017 -0.0281 -0.0492 0.0107 -0.0272 -0.0145 0.0108 -0.0228 0.0352 0.0105 0.0263 0.0398 -0.0113 0.0056 -0.0259 0.0154 0.0035 -0.0179 -0.0406 0.0234 0.0205 -0.032 0.0111 0.0271 -0.0154 -0.0011 -0.0338 0.013 -0.0614 0.0101 0.0306 0.0237 -0.0065 -0.006 0.0353 0.0112 -0.0112 0.007 -0.0207 0.0044 0.0808 -0.0005 -0.0119 -0.0525 0.0047 0.0521 -0.001 0.0055 0.0372 -0.0011 0.0148 0.0104 -0.0267 -0.0167 -0.0366 -0.0156 0.0155 0.0472 0.0013 -0.0317 0.0677 -0.0282 0.0029 0.0204 0.0091 0.0306 0.0476 0.034 -0.0082 -0.0079 -0.0024 -0.0449 -0.0357 0.0119 0.0267 -0.0018 0.0993 0.0146 -0.0335 0.0134 0.0289 -0.0516 -0.0003 -0.0075 0.0305 0.0054 0.0437 0.041 -0.0499 -0.0072 0.0182 -0.0117 -0.0083 0.0687 -0.0063 0.0093 0.0188 0.0386 0.0018 0.0308 -0.0501 0.005 0.003 -0.0482 -0.0009 0.0107 0.0184 0.0804 0.0123 0.0457 0.0007 0.0379 0.0493 -0.0776 -0.0174 -0.0187 0.0337 -0.0512 0.0153 0.0199 0.0238 -0.0061 -0.0109 0.0673 -0.0308 0.0101 0.0069 -0.0338 -0.0638 -0.0708 -0.0187 0.0006 0.0064 0.0142 0.0136 0.0188 -0.0711 -0.0062 -0.0136 0.0087 -0.002 0.0047 -0.0398 0.0265 0.0109 -0.0261 0.0511 0.0329 0.0123 -0.0459 0.0564 -0.0253 0.0059 0.0287 -0.016 -0.1084 0.0349 -0.0203 -0.052 0.0277 0.0152 0.0103 -0.0236 0.0675 -0.0164 -0.005 0.0322 -0.0291 -0.0484 0.0116 0.0359 0.0136 -0.0226 0.0133 0.0175 0.0012 -0.0077 -0.0293 0.004 0.0273 -0.053 0.0404 0.0148 -0.0289 0.0378 0.0294 0.0107 0.0347 0.0531 -0.0251 -0.0132 -0.0104 0.0219 -0.0068 0.0256 -0.0027 0.0401 0.0028 0.0278 -0.0266 -0.0228 -0.0147 0.0208 0.0276 -0.0257 -0.0242 0.0054 0.0392 -0.0523 -0.0066 0.0127 -0.0409 -0.0603 -0.0112 0.0496 -0.001 0.0229 -0.0462 0.0235 -0.0003 -0.0084 0.0395 -0.0026 0.0484 -0.022 -0.0303 0.0642 -0.052 -0.0439 -0.0145 -0.0074 -0.0172 -0.0115 0.0335 -0.0445 0.0144
soooo -0.0218 -0.0294 0.0018 0.0095 0.0071 0.0166 -0.0032 -0.0244 0.0057 0.0062 0.0095 -0.0011 0.0158 -0.0019 0.0026 -0.0333 0.1035 -0.0073 -0.0278 -0.0179 -0.0515 0.0253 -0.0235 0.0119 0.019 -0.0039 0.0845 -0.0039 0.0619 -0.0134 -0.0044 -0.0269 0.0231 -0.0328 0.0245 0.0094 0.0238 -0.0173 -0.0623 0.0146 0.0078 0.0025 -0.0239 -0.0366 0.0295 -0.033 0.0013 -0.0052 -0.0057 0.0281 -0.028 -0.0052 0.0465 0.0014 -0.0476 -0.0037 -0.0025 -0.0075 -0.0454 0.0121 -0.0046 -0.0095 -0.0076 -0.0083 -0.0252 0.0305 -0.0053 -0.0286 -0.009 -0.0203 -0.0007 0.0103 -0.027 -0.0111 -0.008 -0.0053 -0.0123 -0.0197 -0.0139 0.0014 -0.0338 -0.0058 0.0093 0.0739 0.0072 0.0099 -0.0255 0.0141 0.0261 0.0146 0.0054 -0.0159 -0.0723 -0.0222 0.0575 -0.0239 0.0127 -0.0116 -0.0021 -0.0143 0.0297 0.0036 -0.019 0.0189 -0.0223 -0.0807 0.0148 -0.0075 0.0246 -0.0106 0.0356 0.0088 -0.0209 0.0125 -0.0122 0.0002 -0.0279 -0.0288 -0.0003 -0.0258 -0.0302 0.0242 -0.0213 0.0227 0.0336 0.0279 -0.0225 -0.0061 -0.0448 -0.0757 -0.0365 0.028 0.006 -0.0321 0.0068 -0.0487 -0.0014 0.0506 -0.0381 -0.0231 -0.0002 -0.0169 0.0156 0.0401 -0.0029 0.0008 -0.0018 -0.002 -0.002 0.0036 0.0212 -0.0424 0.0065 -0.0158 -0.0274 -0.0187 0.0109 -0.0039 0.0168 -0.0427 0.0134 0.0126 -0.0408 -0.0472 -0.0193 -0.0142 -0.0314 0.0201 -0.0136 0.0147 0.0077 -0.0078 -0.0137 -0.0454 -0.0283 0.0585 -0.0049 -0.006 0.054 -0.0079 -0.0113 -0.0192 -0.0261 -0.0055 0.0125 0.0531 0.0127 0.092 -0.015 -0.0077 -0.0123 0.0357 -0.0651 0.0512 0.0028 0.0111 -0.0245 0.0063 0.0063 0.0282 -0.0297 0.0103 0.033 -0.0364 0.0201 -0.0286 -0.0202 -0.0586 0.0054 -0.1319 -0.0505 -0.0457 0.0013 0.0281 0.0153 -0.0341 0.0228 0.0038 -0.0766 -0.0358 0.0082 -0.0056 0.0001 0.0296 0.0022 0.0243 0.0033 0.0516 -0.0038 0.0176 0.0054 0.0379 -0.043 0.0175 0.0801 -0.0435 0.0125 0.0153 -0.0065 -0.0452 0.107 0.0067 0.0159 -0.0289 -0.0861 0.0209 0.0148 -0.008 -0.0328 -0.0364 0.011 -0.0189 -0.0464 0.0272 0.0085 -0.0077 0.0166 -0.0125 0.0269 0.0229 -0.0256 0.0264 0.0273 0.0747 0.0017 0.0033 -0.0147 0.002 0.0223 0.038 0.02 0.0153 -0.0421 0.0181 0.1068 -0.0769 -0.0277 0.0026 0.0051 0.0129 -0.0589 0.0131 0.0222 0.0155 -0.0663 0.0102 0.0148 -0.0512 -0.0123 0.0248 -0.0334 -0.0097 -0.0002 -0.0105 -0.0133 -0.0059 0.025 0.024 0.0304 -0.0185
optimum 0.0068 0.0033 -0.0248 -0.0009 -0.0025 -0.0215 -0.0019 -0.0361 0.0106 -0.0059 0.0119 -0.0101 0.0067 -0.0017 0.013 -0.0016 0.0187 0.0057 0.0249 0.0244 -0.01 0.0123 0.0065 0.0448 0.0017 -0.0178 -0.0108 -0.0094 0.0378 0.0321 0.0124 0.0026 0.0128 -0.0399 -0.0117 -0.0088 0.0127 -0.0039 0.0237 0.0086 0.0162 -0.0288 -0.0197 -0.0168 -0.0151 -0.0328 0.0115 -0.0095 0.0097 -0.0016 -0.0102 -0.0008 -0.0134 -0.0012 -0.0091 -0.0035 0.0075 0.0053 0.0054 0.0054 0.0045 0.015 0.015 0.0062 0.054 -0.0048 0.0154 -0.0139 -0.0024 -0.0139 0.0496 0.0019 0.0092 -0.0013 -0.01 -0.0068 -0.0273 -0.0349 -0.0268 -0.0165 0.0178 0.0065 0.0566 0.029 -0.0042 0.0048 0.0194 -0.0115 -0.0212 -0.0246 0.0124 -0.026 -0.0303 -0.0127 -0.0059 0.0058 -0.0246 0.0048 0.0036 -0.0141 0.0046 -0.0127 -0.0071 -0.0178 -0.0331 -0.0292 0.0107 -0.0293 -0.0015 0.0162 0.0059 0.0546 0.0302 -0.0018 0.0287 -0.014 -0.0071 0.0222 -0.014 -0.0147 0.0058 -0.027 -0.0122 0.0008 0.0004 0.0002 0.0044 -0.0846 0.0116 -0.0165 0.0495 -0.0363 0.035 0.0008 -0.0428 -0.0039 -0.012 -0.0205 -0.0 0.0323 0.0062 -0.012 -0.0001 0.0025 -0.0012 0.0102 -0.013 -0.0335 0.0202 0.0154 0.0262 0.0168 0.0029 0.0129 0.0429 -0.0086 0.001 0.0178 0.0056 -0.0048 0.0167 0.0009 -0.037 -0.0025 0.0132 0.0007 -0.0011 -0.004 0.0024 0.0137 -0.0104 0.031 -0.0102 -0.0038 -0.0001 0.0306 -0.0181 0.0082 -0.0103 0.0063 0.0012 0.0069 -0.0252 -0.0066 0.0027 -0.0132 0.0093 0.063 -0.0107 0.0114 0.0237 0.0324 0.0492 -0.0047 -0.0096 -0.0338 0.0124 0.005 0.0101 0.0237 -0.0616 0.0365 -0.0027 0.0324 -0.0143 -0.0095 -0.0201 0.0187 -0.0308 -0.0022 0.0323 -0.0292 -0.0019 0.0281 0.0087 0.0129 0.0314 -0.0297 -0.0132 -0.0096 0.007 0.0241 0.0064 0.0275 0.0203 -0.0238 -0.0063 0.0199 -0.0057 0.0058 0.0042 -0.0542 -0.0573 0.0033 0.0154 -0.005 -0.0073 -0.0088 -0.0194 0.0289 0.0322 0.0114 -0.0267 -0.0027 -0.0755 0.0224 -0.0002 -0.0404 0.0246 -0.0113 -0.0031 0.0047 -0.0202 0.0132 0.0176 -0.005 -0.0004 0.027 0.0141 0.0013 0.0041 0.0007 0.0067 -0.0227 -0.012 -0.0177 -0.0019 0.0135 -0.0095 0.0293 -0.0008 0.0298 -0.0258 -0.034 0.0213 -0.0243 0.0165 0.017 -0.0069 -0.0044 0.049 -0.0004 0.0281 0.004 0.0139 0.0033 -0.0166 0.0221 0.0196 -0.0083 -0.0342 -0.0149 -0.0209 -0.0367 0.0303 -0.032 0.0125 -0.0261 -0.0049 0.0076
melanin -0.0151 -0.0096 0.002 -0.0109 0.0374 0.0126 0.0788 -0.0234 0.027 0.0145 -0.0227 0.0046 0.0216 -0.0359 -0.0155 -0.0142 0.0135 0.0023 -0.0072 0.0139 -0.018 -0.0087 0.0184 0.0135 -0.0044 -0.0057 0.0123 0.0284 0.0358 0.0238 0.0063 -0.0209 0.0299 0.0046 -0.0184 0.0084 0.0169 -0.0296 -0.0359 0.0065 -0.0186 -0.0442 -0.0456 -0.0114 0.0509 -0.045 -0.0235 -0.0232 0.0091 0.0141 -0.0342 0.023 0.012 -0.0065 -0.0107 -0.002 0.0075 -0.0024 0.019 0.0499 -0.0228 0.0081 0.0378 0.0082 0.009 -0.0125 -0.0187 0.0046 0.0221 -0.0094 0.0049 -0.0099 0.0254 -0.0332 -0.0439 0.017 -0.0182 -0.0076 -0.0179 -0.0178 -0.0399 -0.0122 0.0098 0.0266 0.0171 0.0085 0.0129 -0.0126 0.0171 0.0145 -0.0207 -0.0267 -0.0119 0.0012 -0.0064 0.0388 0.0213 -0.0279 0.0301 -0.0066 0.0142 0.0101 0.0359 0.015 0.0256 -0.0191 -0.0214 -0.0036 0.023 0.0245 0.0081 0.0085 0.0078 -0.0469 -0.0038 0.0128 0.0006 -0.0285 -0.0331 0.0172 0.0076 -0.0145 -0.0348 -0.017 0.028 0.0142 0.0083 -0.0294 -0.0075 0.0153 0.0051 -0.0359 -0.0089 0.0202 -0.0195 0.0194 -0.0104 0.0005 0.0096 -0.0021 -0.002 0.0054 0.0087 0.0057 -0.0022 -0.0237 0.0026 -0.0254 -0.0271 0.0224 -0.003 0.0009 0.0334 -0.0099 0.0121 -0.0055 0.0017 0.0201 0.0125 0.0017 0.0333 0.0106 -0.0254 -0.0053 0.0189 0.0117 0.0024 0.0097 0.0293 -0.0441 0.0141 -0.0151 0.0104 0.0167 0.0153 0.0323 0.0177 -0.0123 -0.0046 -0.0046 -0.0223 0.0685 -0.0101 0.0178 -0.0213 -0.0475 -0.0002 0.0654 0.0094 0.0604 0.0293 0.0093 0.0007 0.0227 -0.0079 0.0391 0.0522 0.0088 0.0069 0.0442 -0.0442 -0.0072 -0.0063 0.0107 0.0304 0.0189 0.0008 -0.0044 -0.038 -0.0252 0.0367 0.0071 0.0162 0.0027 0.0295 0.0221 -0.0119 0.0202 -0.0129 0.0161 -0.0082 0.0408 0.0014 0.0162 0.043 0.0317 -0.0061 0.0255 0.0011 -0.0072 0.0069 -0.0173 -0.0228 0.0098 -0.0098 -0.0376 -0.0106 -0.0084 -0.0067 -0.0269 0.0187 0.002 0.011 -0.0243 -0.0154 -0.0081 0.0066 -0.0197 0.0269 -0.0108 -0.0177 -0.0089 -0.0339 0.0035 0.0406 0.0126 -0.0006 -0.0012 0.0651 -0.0477 -0.0275 0.0012 -0.0424 0.0006 -0.0039 0.0016 -0.0386 0.0048 -0.0162 -0.0141 0.0146 0.0203 -0.0321 -0.0003 -0.0049 0.0018 0.0307 -0.0132 -0.0518 -0.0512 0.0425 -0.0096 -0.0032 0.005 -0.0055 0.0194 0.0147 0.0441 -0.0305 -0.0007 -0.015 -0.0135 -0.0211 -0.0346 -0.0039 -0.0151 -0.0024 0.0008 -0.0056 0.0077
cantonal 0.0197 -0.0474 -0.017 -0.0367 0.0149 -0.0335 0.0053 -0.0385 0.0322 -0.013 0.0021 -0.018 0.0056 -0.0023 0.0154 0.03 0.0283 0.0217 0.0189 -0.011 -0.0162 -0.0464 0.0065 0.0413 -0.0049 -0.0059 -0.0144 0.0103 0.0088 0.0015 0.0331 -0.0068 -0.0231 -0.0076 0.0267 0.0104 0.0126 0.0169 -0.0352 0.0152 -0.0167 -0.0453 0.0384 0.0204 0.0024 0.0012 -0.0155 0.0228 0.0136 0.0255 -0.0009 -0.0196 -0.0098 0.0239 -0.0099 0.0187 0.021 -0.0088 -0.025 0.0077 -0.0042 0.0085 0.0364 0.0225 -0.0079 -0.0014 -0.0401 -0.0039 -0.0109 0.0068 -0.0045 -0.0195 0.0304 0.0129 0.0047 -0.0006 -0.0075 0.0142 -0.0 0.0025 -0.0142 0.0205 -0.0205 -0.0023 0.0038 -0.0392 0.0049 -0.0239 -0.0381 0.0478 -0.0228 -0.0088 -0.0302 -0.0153 -0.0273 0.0331 -0.0008 -0.0083 -0.0107 0.0301 0.0085 -0.0051 -0.013 -0.0158 0.0261 -0.0463 0.0308 -0.0262 -0.0255 -0.0093 0.0312 0.013 0.0324 0.0073 0.0138 0.005 0.0103 0.0077 -0.0268 -0.0037 0.0228 0.0267 -0.0049 0.0011 0.0193 -0.0076 0.0386 -0.0216 -0.0119 0.0325 -0.0237 0.0042 0.0245 -0.0027 -0.0229 0.0027 0.016 0.0397 0.0092 -0.0267 -0.0135 0.0084 -0.0005 0.0377 -0.0256 0.0266 0.0107 0.0294 -0.0415 -0.0314 0.0013 0.085 0.0332 0.0223 0.0371 -0.0083 -0.0205 0.0064 0.0041 0.0234 0.0115 -0.0415 -0.0 0.0038 0.0013 0.007 0.0215 0.0151 0.0102 0.0169 0.0119 -0.027 0.0006 0.0152 -0.0386 0.0129 -0.0351 0.0113 -0.0262 -0.024 -0.0093 0.0205 0.0071 0.0075 0.0183 -0.0013 0.0315 0.0346 0.0499 -0.0186 0.0305 0.0204 0.0188 -0.0126 0.0207 -0.0024 -0.0013 -0.0011 0.0098 0.006 -0.0719 -0.0028 0.0256 0.0007 -0.0083 -0.0177 0.0042 0.0118 -0.0224 -0.0121 0.0439 -0.0157 0.0002 -0.0084 -0.0161 -0.023 0.0197 0.0105 -0.0001 -0.0054 -0.0001 -0.0284 -0.026 0.0338 -0.0092 0.0322 -0.0269 -0.0042 0.016 -0.0243 0.0126 -0.0292 0.0118 0.0034 -0.012 -0.0174 -0.0105 0.0317 -0.0381 -0.0046 0.0158 0.0022 -0.029 0.0359 -0.0562 -0.0079 0.0152 -0.0046 0.0085 -0.028 -0.0291 0.0013 0.0003 -0.0148 0.0079 -0.0005 -0.0201 0.0099 -0.0313 0.006 0.0162 -0.0084 0.0132 0.0039 -0.0315 -0.0258 -0.0097 0.0032 0.0069 0.0146 -0.0158 0.0286 -0.0323 -0.0231 -0.0197 -0.0266 0.0319 0.0293 0.0287 -0.0243 0.0175 -0.0118 -0.0216 0.0032 0.0105 0.0339 -0.0027 -0.0038 0.0006 0.0077 0.0107 0.0119 0.0483 0.0028 -0.008 0.032 0.0003 0.0142 -0.0117 -0.0195
prom -0.0429 -0.0388 -0.011 0.0923 0.0716 -0.0158 0.0475 -0.0359 0.0192 -0.011 0.0372 -0.0232 0.0491 0.0436 -0.0108 0.0201 0.0577 0.0082 0.0077 0.0412 0.0174 0.0215 -0.0323 0.0121 0.0363 0.0215 0.0525 0.0231 -0.0021 -0.004 -0.0067 -0.021 0.0601 -0.0464 -0.0077 -0.0164 0.0392 0.0899 -0.081 -0.0036 0.0044 -0.0477 -0.0404 0.028 0.0403 0.025 0.0238 -0.0092 -0.0257 -0.0188 0.0251 -0.0192 0.0004 0.0224 -0.034 -0.0545 0.0079 -0.0114 -0.0304 -0.0142 -0.0124 0.0175 0.0795 -0.0109 0.0124 0.0518 0.0273 -0.0422 0.0218 0.02 -0.0396 0.0239 0.0255 -0.0173 -0.0006 -0.0074 0.0353 0.0159 0.0188 0.0225 0.0183 -0.0174 0.0579 0.0283 -0.0884 0.0645 -0.0358 -0.0173 -0.058 -0.0094 -0.0321 -0.0082 -0.0817 -0.0092 0.0109 0.0198 0.0042 -0.0048 -0.0259 0.0859 0.0466 0.0791 0.052 0.0048 0.0059 -0.0541 0.0216 -0.0475 0.0058 -0.0029 0.0613 0.0543 0.0193 0.0266 0.0349 -0.0135 -0.0168 -0.032 -0.0049 0.0074 -0.0266 0.0633 -0.0169 0.0791 0.0168 -0.0553 0.0171 -0.0683 -0.0571 0.0231 -0.0285 -0.0142 0.0092 0.0014 -0.0315 -0.0105 0.023 -0.0145 -0.0304 -0.0182 0.0109 -0.0116 -0.0149 0.0239 0.0002 0.0002 0.0019 -0.0033 0.0325 0.0408 -0.0229 0.0096 -0.0084 -0.0242 -0.0037 -0.0216 0.0307 0.0351 -0.0335 -0.059 0.0086 -0.0003 0.0138 -0.0447 0.0142 0.0146 -0.0154 0.0854 0.0001 0.0161 0.0059 -0.0183 -0.0044 -0.0611 -0.0124 0.05 -0.0076 -0.0078 0.0146 -0.0813 0.0503 -0.0246 -0.0251 -0.036 0.0307 0.0026 -0.1008 0.0981 0.0536 -0.0263 -0.0251 0.0512 -0.0166 0.0284 0.0462 0.0095 0.0641 -0.0691 0.0482 0.047 -0.0941 0.0697 0.052 0.0428 0.0061 0.032 -0.0466 -0.0212 0.0022 -0.0004 0.0919 -0.0265 0.0105 0.0658 -0.0176 0.0001 -0.0055 0.0177 0.0057 -0.0847 0.0498 -0.0554 -0.0391 0.0452 0.0242 -0.0481 0.0127 0.0315 -0.0481 0.0179 -0.0073 -0.074 -0.0131 0.0424 0.0119 0.0208 0.0358 -0.0315 0.0134 -0.0112 0.0427 -0.0341 -0.0138 -0.0403 -0.09 0.02 -0.0671 0.0031 -0.0037 0.0377 0.0214 0.0359 -0.0275 -0.0252 -0.0034 0.0195 -0.0446 0.0232 0.0456 0.0135 -0.0022 -0.0317 -0.1061 -0.0226 0.0379 -0.0256 -0.0481 0.0354 0.0047 0.0303 0.0254 0.0294 -0.1031 -0.0138 0.029 -0.0381 -0.0384 -0.0231 -0.0484 0.0543 0.0236 -0.0266 0.0507 0.0086 0.0224 -0.0371 0.0022 -0.0308 -0.0059 -0.0286 0.0153 -0.0121 -0.0046 -0.016 -0.0093 -0.0331 -0.0093 0.011 -0.008 -0.0103
sighing -0.0111 -0.0062 -0.0047 -0.0033 0.0131 -0.0083 -0.0167 -0.0432 -0.001 0.0067 -0.0136 -0.03 -0.0143 0.0048 -0.0046 -0.0028 -0.0561 0.0069 -0.0024 -0.017 -0.0059 -0.0247 -0.0457 0.0239 0.0136 -0.0158 0.0108 0.0334 0.0013 -0.0582 -0.014 -0.0234 0.0094 -0.0407 0.0067 0.0238 0.0174 -0.0055 0.0118 -0.0214 -0.0152 -0.0089 -0.0143 0.011 -0.0138 -0.0087 -0.0043 -0.0097 -0.0025 0.0341 0.0117 0.0112 0.0019 -0.0114 0.0033 -0.0213 -0.0238 -0.0099 -0.026 -0.0091 -0.017 0.007 -0.0022 -0.0217 -0.0065 -0.0117 -0.0057 0.007 -0.0101 0.0004 0.0167 0.0179 0.0736 0.003 0.0019 -0.011 0.007 -0.0405 -0.0253 0.0041 0.0151 -0.0443 0.0158 0.0017 0.0212 -0.0315 -0.0001 0.017 -0.0281 -0.0177 0.0061 0.003 -0.0467 -0.0227 0.0381 0.0108 -0.0024 -0.0051 -0.0193 0.0128 -0.0183 -0.0063 -0.0213 0.0318 0.0208 -0.0142 -0.0101 0.0049 -0.0268 -0.0272 0.0068 0.0221 0.0031 0.0088 -0.0228 0.0317 -0.0101 0.0012 0.0064 -0.0391 0.013 0.0224 0.0027 0.0351 0.0306 0.0013 0.0006 0.0128 -0.0072 0.0428 0.0066 -0.0018 -0.0148 0.003 0.0138 -0.0218 0.0 0.0767 0.0173 0.0019 -0.0012 -0.011 0.0043 -0.0032 -0.0078 -0.0078 -0.0032 0.0011 -0.0019 -0.0028 -0.0046 -0.0048 0.0188 -0.0341 0.0142 -0.0019 -0.0123 -0.0153 -0.0044 -0.0319 0.029 -0.0219 -0.0206 0.0045 -0.0175 0.031 0.0008 -0.0174 0.0101 0.0174 -0.002 -0.0064 -0.0093 0.0098 0.0231 0.0198 0.0134 -0.0261 0.0039 -0.0288 -0.0049 0.0115 -0.0115 -0.0126 0.0192 -0.0197 0.0083 0.0666 0.0018 -0.0051 -0.0126 -0.005 -0.0312 0.0169 -0.002 0.0216 -0.0017 0.0216 -0.0041 -0.0017 -0.064 -0.0007 0.0202 0.0035 0.0271 0.0038 0.0089 -0.0045 0.01 -0.0162 -0.0123 0.0182 0.0256 -0.0008 -0.029 -0.0164 0.0008 -0.0227 0.0273 -0.0207 0.0089 0.0007 -0.0027 0.0303 -0.0168 -0.0012 0.0176 0.0611 0.0178 0.0092 0.0395 -0.0072 -0.0177 -0.0154 0.001 0.0024 -0.0073 -0.0018 0.0142 -0.0595 0.055 0.0004 -0.025 0.0183 -0.0542 -0.0006 0.0044 0.0037 0.0026 0.01 0.0262 -0.0198 -0.0008 -0.0093 0.034 -0.0037 -0.0011 0.0073 0.0107 0.0027 -0.0112 -0.0209 0.0195 0.0426 0.013 0.0048 0.0104 0.0213 0.0008 0.0209 -0.0101 0.0159 -0.0528 -0.0035 0.02 -0.0394 0.0047 0.0048 0.0031 -0.0229 -0.0317 0.0035 0.0058 -0.0182 0.0355 0.0048 0.0042 0.0084 -0.0197 0.016 0.0183 0.0162 0.006 -0.0067 0.0026 0.0 0.0115 -0.0104 0.0374 0.0202
frontage 0.0146 -0.0215 0.0224 0.0056 0.0018 0.0016 0.0032 -0.0399 -0.0189 0.0197 0.0129 -0.0228 0.021 0.0061 -0.0048 0.0004 -0.0032 -0.0036 0.0005 -0.0049 0.0252 -0.0255 0.0138 0.0065 -0.0222 -0.0019 -0.004 -0.0144 -0.025 0.0162 -0.0321 0.0147 -0.0043 -0.0208 0.0008 -0.0166 0.0134 -0.0056 0.0227 0.0096 0.0406 -0.0553 0.0217 -0.0134 -0.0189 -0.0013 -0.0025 -0.0034 -0.0013 0.0176 0.0094 -0.0324 -0.015 0.0107 -0.0055 -0.0032 0.0091 -0.0203 -0.0248 -0.0347 -0.0012 0.0185 0.0422 0.0016 -0.0072 0.0136 0.0076 -0.0037 -0.0151 0.0044 0.0131 -0.0052 0.0071 0.0188 0.0154 -0.0143 -0.004 0.0014 0.0007 0.0351 -0.0018 -0.0326 -0.0163 0.0393 0.0047 0.0125 0.014 -0.0248 -0.0255 0.0103 0.0208 0.0125 -0.0325 -0.0099 0.0145 0.0198 -0.0155 0.0335 -0.0015 0.0165 0.0085 0.0115 -0.0099 0.023 -0.0031 -0.032 0.0087 0.0095 0.0028 0.0271 0.0021 0.0146 0.0208 -0.0124 -0.0096 -0.0164 0.0077 0.0236 -0.0076 -0.0188 -0.0097 0.0035 0.0002 -0.0219 0.0237 -0.0008 -0.0058 -0.0122 0.0249 0.0368 0.0187 -0.04 0.0161 -0.0001 -0.0196 -0.0068 -0.0119 0.0345 0.0017 -0.0336 -0.0235 -0.018 0.002 0.0177 -0.0031 -0.0135 0.0417 0.0107 0.0068 0.0092 0.0084 0.0006 0.0534 -0.0129 -0.009 0.0083 0.0116 -0.0134 -0.0139 0.0154 0.0136 -0.0362 0.0067 0.0241 0.0092 -0.0021 0.043 -0.0177 -0.0046 0.0382 0.0302 -0.0041 0.0242 -0.0145 0.0104 0.023 -0.0077 -0.0172 -0.0183 -0.0151 -0.0192 -0.0089 0.0159 -0.0062 -0.0181 -0.0133 -0.0039 0.0587 0.0007 -0.0115 0.0058 0.009 -0.0114 0.0003 -0.0092 -0.0082 -0.0092 -0.0136 -0.0158 0.0304 -0.0812 0.0033 0.0007 -0.0082 0.0209 -0.0243 0.0062 0.0033 0.0095 -0.0125 0.0497 -0.0247 -0.0104 0.0057 0.0234 -0.0194 -0.0061 0.015 0.0364 -0.0133 0.0051 -0.0003 0.0042 0.0295 0.0172 -0.0113 0.033 0.008 0.0171 0.0007 -0.0103 -0.0074 -0.0166 -0.0217 0.0104 -0.019 0.0057 0.0078 -0.0072 0.0328 0.0268 -0.0002 -0.0074 0.0021 -0.0327 0.0193 -0.0233 -0.0003 0.0172 -0.0016 -0.0056 -0.008 0.0159 0.0115 0.0228 0.0087 -0.0112 0.0108 0.0158 0.0117 0.014 -0.0159 -0.0165 -0.0037 0.0067 0.0163 0.0047 -0.0168 0.0053 -0.0081 -0.0237 0.0233 -0.0234 -0.0064 0.0404 -0.0052 0.028 0.0136 0.002 0.0024 0.019 0.0192 -0.0003 0.0083 0.0114 -0.0205 -0.0237 0.029 0.0116 0.0027 -0.0421 0.0009 0.0172 0.0138 0.0122 -0.0079 -0.0224 -0.0089 -0.01 -0.0051
forewing 0.014 -0.0106 0.0133 -0.0365 -0.0044 0.0221 0.0051 -0.0465 -0.0202 0.0066 0.0004 -0.0013 -0.0097 -0.0055 -0.0066 -0.0106 -0.006 -0.0289 0.0168 -0.0137 0.0234 0.0285 -0.0052 0.0214 -0.0249 -0.0 0.0035 0.0044 0.0003 -0.0031 0.0191 -0.0029 0.0035 -0.0097 0.0101 -0.0029 -0.0173 0.0318 -0.0313 0.0069 0.0026 -0.0262 0.0197 -0.0244 -0.0182 -0.0025 0.0046 -0.018 0.0042 0.0104 0.006 0.0062 0.005 0.0045 -0.0215 0.0045 -0.0118 -0.0029 0.0076 0.0164 -0.0338 -0.0093 0.0294 -0.0115 0.019 -0.0122 -0.0201 0.0078 0.002 0.0228 -0.0175 -0.0101 -0.0032 0.0144 0.01 0.0005 -0.0098 0.0086 -0.0145 0.0239 -0.0102 -0.0198 0.0102 0.01 -0.0038 -0.0002 0.0381 0.0038 -0.0112 0.008 0.0037 0.0002 -0.0169 0.0017 0.0141 0.0128 -0.0073 -0.0379 -0.0151 0.0006 0.0255 0.032 -0.0044 -0.0042 0.0049 -0.0264 0.0232 -0.0282 0.0237 0.0258 0.0032 0.0056 0.0095 -0.0184 -0.0072 -0.008 0.024 0.0019 -0.0211 0.0165 0.0233 0.0085 0.0018 0.0122 0.0059 -0.0384 0.0302 -0.0428 0.0212 0.0339 0.0018 -0.0268 0.0101 0.0056 -0.0068 -0.0114 0.0008 0.0332 0.0292 0.007 -0.0083 0.0005 0.019 -0.0244 -0.0326 0.0105 0.0121 0.0307 -0.0156 -0.0202 -0.0051 0.0049 0.0211 -0.0187 0.001 0.0033 -0.0221 -0.0153 -0.0003 0.0076 -0.0222 -0.0019 -0.0192 0.0371 -0.0033 0.0039 0.0038 0.0043 -0.0088 -0.0108 0.0036 0.0099 -0.0089 0.0078 0.0098 0.0092 0.0191 -0.0352 0.0043 -0.0093 -0.0075 0.0115 -0.0248 0.0218 -0.0219 0.004 0.0047 0.04 -0.0299 0.0211 -0.0001 -0.0188 -0.0259 0.0058 -0.0241 -0.027 -0.0066 -0.0171 0.0236 -0.0083 -0.0378 -0.0192 -0.0119 0.0159 -0.0141 0.0082 0.0015 0.0105 0.0089 -0.0006 0.0396 -0.0126 0.0206 -0.0172 -0.0124 0.0095 -0.0067 0.0129 0.0013 0.0089 -0.0238 0.0044 -0.007 0.0267 -0.0399 -0.0032 0.0199 0.0287 0.0245 -0.0374 0.0176 -0.003 -0.0044 0.0275 0.0051 -0.0146 0.0137 0.0054 -0.0198 0.0112 0.0332 -0.0433 -0.0127 0.008 -0.0305 -0.0396 0.0193 -0.0051 0.0189 -0.0272 0.0096 0.014 -0.014 0.0213 -0.0038 0.0093 0.0067 0.0176 0.0201 -0.023 0.0013 -0.0279 -0.0076 0.0106 0.0084 -0.0018 -0.014 0.0046 -0.0052 0.012 0.0118 0.0154 -0.005 -0.0136 0.0153 0.0134 0.0063 0.0082 -0.0053 -0.0336 0.0005 0.0024 0.0075 -0.0011 -0.0119 -0.01 -0.0033 -0.0051 -0.0053 -0.014 -0.0242 -0.0018 -0.0007 -0.0239 -0.0086 0.018 -0.0165 -0.004 -0.0091 -0.0072
jar -0.0911 -0.0258 -0.0493 0.0717 -0.0193 0.0273 0.0134 -0.0553 -0.0358 -0.0288 -0.0216 -0.0132 0.0069 0.024 0.0016 0.0191 0.0615 -0.0625 0.0254 0.0594 0.0296 0.0925 -0.0547 0.02 0.0368 -0.0549 -0.0093 0.043 -0.0255 -0.007 -0.0212 -0.006 0.061 0.0281 -0.0259 -0.0544 0.0621 -0.002 0.0124 -0.0297 0.0709 -0.0895 -0.092 -0.023 -0.0095 0.0237 0.0019 0.0434 0.0255 0.0443 -0.0604 -0.0415 0.0608 -0.048 -0.0703 0.0025 -0.0031 0.0437 -0.032 -0.0658 0.021 -0.0616 0.0961 -0.0154 0.043 0.0567 0.032 0.0361 -0.0332 0.0081 0.0318 0.0277 0.0218 -0.0105 -0.007 -0.0541 0.0379 0.0007 -0.0188 0.0106 -0.0732 -0.0465 -0.0663 0.0596 0.0102 -0.0338 0.0031 -0.0339 -0.0011 -0.034 0.009 0.0173 -0.0599 0.0125 -0.0235 0.0764 0.0387 0.0397 0.0456 -0.0154 -0.0251 0.0083 0.0109 -0.0006 0.0378 -0.0863 -0.0368 0.0219 -0.0499 0.0534 -0.0614 0.0627 0.0253 0.0479 0.0149 -0.0369 0.0161 -0.0554 -0.0343 0.0583 -0.0647 -0.0748 -0.0372 -0.0716 0.0577 -0.0048 0.0251 -0.0945 -0.0004 0.012 -0.1065 -0.0195 -0.0204 0.0611 -0.0369 -0.0495 -0.068 0.0665 0.0083 0.0054 -0.0111 0.0216 0.064 -0.0829 -0.0327 -0.0355 -0.0232 0.0834 -0.0598 -0.0734 -0.0741 0.0426 0.0324 0.0127 -0.011 -0.0418 -0.0459 -0.0643 -0.0129 -0.0578 0.0298 0.0591 -0.0333 0.0362 0.0657 -0.0221 -0.1048 -0.0107 0.0343 -0.0493 -0.0148 0.0318 -0.0947 0.005 -0.0128 0.0402 0.012 -0.0293 0.0223 -0.0263 -0.0808 -0.0017 -0.0162 -0.132 -0.0095 0.0072 0.0311 0.1016 0.1023 -0.033 0.0789 -0.0028 -0.005 0.0249 -0.0439 0.0515 0.0144 0.0363 0.0079 0.0055 -0.1217 -0.026 0.0249 0.0765 0.0237 0.0103 0.0186 -0.0067 0.0411 -0.0426 0.1008 -0.0319 -0.0081 0.0238 0.0517 0.0303 -0.0337 0.0401 0.0276 -0.0137 0.0385 -0.0181 -0.044 0.0112 0.0094 0.0419 0.0161 -0.0169 -0.0202 0.0245 -0.0306 -0.038 -0.0226 -0.0401 0.0263 0.0804 0.0241 -0.0809 -0.0205 -0.0539 0.1032 -0.0131 0.0007 0.032 -0.0229 -0.0378 -0.0367 0.0482 -0.082 -0.0203 -0.0405 -0.0191 -0.014 0.0677 -0.024 -0.0707 0.0174 -0.0006 -0.0063 -0.0362 0.0402 0.0457 -0.0116 -0.0825 0.0286 -0.0333 0.0774 -0.0454 -0.0287 0.0558 0.0254 0.0545 -0.0585 -0.0359 0.0287 -0.03 0.0149 -0.0112 0.0354 -0.0513 0.0522 0.0003 0.0779 -0.0241 -0.0518 0.0352 -0.0223 0.0411 0.0078 0.0025 -0.0178 0.0797 0.037 -0.0197 -0.0098 0.0143 0.058 -0.0348 -0.0363 0.0408
busy 0.0015 -0.0759 0.0357 -0.0405 -0.0171 -0.0258 -0.0126 -0.0857 -0.0049 -0.0073 -0.0398 -0.0632 -0.0237 0.0225 -0.0157 0.014 0.0337 0.0139 0.0468 -0.0216 -0.0009 0.0388 -0.0255 0.0319 0.0192 0.0209 0.0133 0.0269 0.0437 0.0014 0.0087 0.0047 0.01 -0.0213 -0.0043 -0.0275 0.0328 0.0253 0.0426 -0.0476 -0.0021 -0.0762 0.0104 0.0039 0.0011 -0.0098 0.0091 0.0402 -0.0089 0.0576 0.0157 -0.0174 0.0172 0.0025 -0.0442 0.0012 -0.0428 0.0137 -0.0209 -0.0052 0.0072 0.0191 0.0558 0.0466 -0.0266 0.0212 0.0199 -0.0054 -0.0784 -0.0482 0.0261 0.0264 0.0669 -0.0368 0.039 -0.0107 0.0093 0.0069 -0.0211 -0.0076 -0.0207 -0.0291 0.0016 0.0455 0.0252 -0.0093 0.0152 0.004 0.0079 -0.0451 0.0151 -0.009 -0.0641 -0.0281 0.0656 0.0522 -0.0231 0.0076 0.0814 -0.0092 0.0207 0.0154 -0.0256 0.0324 0.0314 -0.0607 0.0352 -0.0316 0.031 -0.0175 -0.0304 0.0191 0.0137 0.0705 -0.0264 -0.0236 -0.0197 0.0113 -0.0162 -0.0742 0.0217 -0.0277 -0.022 0.0405 0.0242 0.0471 0.0234 -0.0646 0.0138 0.0075 -0.0015 0.0697 0.0218 -0.0021 0.0321 -0.0326 0.0187 -0.0116 -0.0366 0.0125 0.0743 0.0008 0.014 0.0292 0.0054 0.0317 0.0115 0.0112 -0.0053 -0.0173 0.0705 0.0059 -0.0289 -0.0645 0.0006 0.002 -0.0068 0.0091 0.0255 0.0026 0.0069 0.0276 0.0082 0.0151 -0.0234 -0.0139 0.001 -0.0071 -0.0188 0.0294 -0.0362 -0.0223 0.0331 -0.0136 0.0016 0.0426 -0.0215 -0.0226 0.0117 0.0152 -0.081 -0.0265 0.0161 -0.052 -0.015 -0.0144 0.0327 0.0541 -0.0151 -0.0036 0.0019 0.0221 -0.0156 0.0319 0.0327 0.0363 0.0027 0.0173 -0.0001 0.009 -0.0914 0.066 -0.0097 0.0247 0.0145 0.0196 -0.0584 -0.0163 0.0321 -0.0449 0.0054 -0.0066 0.0553 0.0399 -0.025 -0.0231 -0.0124 -0.0402 -0.0213 -0.0055 0.0339 0.0224 -0.018 0.0733 -0.0621 -0.0189 0.0122 0.1161 0.0349 -0.0056 -0.0234 -0.0331 -0.015 -0.0095 0.0789 -0.0166 0.021 0.0532 -0.0077 0.0263 0.1439 0.04 -0.0421 0.0085 -0.1054 0.0238 -0.0241 -0.068 0.0163 -0.0388 -0.0043 -0.0213 -0.0103 0.0175 -0.0198 0.0167 -0.0091 0.0111 0.0117 0.035 -0.0077 0.0147 -0.0119 0.0512 -0.0142 0.0151 -0.0055 0.008 -0.0084 -0.0318 0.0073 0.0667 -0.0814 -0.0155 0.0996 -0.1034 0.0175 0.0035 -0.0085 0.0304 -0.0055 -0.0017 0.0294 -0.0457 -0.0141 -0.0059 -0.0013 -0.1078 0.0077 -0.0018 0.0115 -0.0032 -0.0177 0.0088 0.0349 0.0199 -0.0477 0.0626 -0.0061 0.0338
incompetents 0.0011 -0.0182 -0.0163 0.002 -0.009 -0.0206 -0.0022 -0.0279 0.0059 0.0078 0.0051 0.0341 0.0027 -0.0033 -0.0153 -0.0 0.0134 0.0077 0.0226 -0.0101 -0.0023 0.0022 -0.0262 0.0028 -0.0023 -0.0015 0.0004 -0.0178 0.0406 -0.003 0.0058 -0.0116 -0.0125 0.0011 0.0117 0.0142 -0.009 -0.0029 0.0085 0.0053 -0.0199 -0.0265 0.0101 0.0205 0.0101 0.0044 -0.0041 0.007 -0.0108 -0.0019 -0.0007 0.0067 0.0085 0.0148 -0.0111 0.0087 -0.0294 -0.0058 -0.0069 0.0075 0.0019 -0.0135 0.0237 0.0129 -0.0233 0.0085 -0.0136 -0.0114 0.0246 0.006 0.0001 -0.0093 0.0271 0.0066 0.004 0.0141 -0.0055 -0.0118 0.0029 0.0075 -0.0085 -0.0062 0.0107 0.0359 0.0129 -0.0031 0.0125 0.023 0.0062 -0.0023 0.0011 -0.0099 -0.0215 0.0133 0.0103 0.0215 -0.0008 -0.0094 0.0172 0.0038 0.0207 0.0041 -0.0108 -0.0058 0.0308 -0.0012 0.035 -0.0131 0.0018 -0.0166 -0.001 0.031 0.0259 -0.0044 0.005 -0.018 -0.0169 -0.0149 -0.0211 -0.0038 -0.0055 -0.0174 0.0123 -0.0189 0.0417 0.005 0.0027 -0.002 -0.0028 0.0271 -0.0031 0.0063 0.013 -0.0008 0.0036 -0.0205 -0.0116 0.0278 -0.0025 -0.0089 -0.0239 -0.0129 -0.0192 -0.0241 0.0071 -0.0101 -0.002 0.0108 0.001 -0.0114 0.0368 0.0303 -0.0069 0.0076 0.0059 -0.0063 0.0093 -0.0046 -0.0073 -0.0061 0.0222 0.0113 -0.0104 -0.0164 0.0051 -0.0105 0.0116 0.0001 -0.0043 -0.0018 -0.0142 0.0219 0.0067 -0.0042 0.0026 0.0146 0.005 0.0165 0.0047 0.0134 0.0094 -0.0013 -0.0023 0.0071 0.0166 -0.019 -0.0051 0.0273 0.0029 0.0226 0.0028 0.0267 -0.0399 -0.0181 -0.0121 -0.0178 0.0026 0.0007 -0.0103 0.0056 -0.0384 0.0123 -0.0097 0.0119 -0.0089 -0.004 -0.0038 -0.0121 -0.0056 -0.004 0.0272 -0.0002 0.0225 0.0264 0.006 -0.004 -0.008 0.0058 -0.0071 -0.0002 -0.0047 -0.014 -0.0198 0.0222 0.0233 0.0073 0.0051 0.0138 0.0025 -0.0116 -0.004 0.011 -0.0205 -0.004 0.014 -0.0106 0.0174 -0.019 -0.0008 0.0123 -0.01 0.0067 -0.007 0.014 -0.0101 0.0096 0.0017 -0.0328 -0.022 0.0122 -0.0128 0.0246 0.0148 -0.0041 -0.0155 0.023 -0.0056 0.0101 0.0205 -0.0094 -0.0052 0.0027 -0.003 0.0095 -0.0174 0.0143 -0.0005 0.0093 0.0059 -0.0106 -0.0158 0.0232 -0.0208 -0.0154 0.0303 -0.0216 0.0266 0.0153 -0.0025 -0.0039 0.0087 -0.002 -0.0072 -0.0019 0.0074 0.014 0.0224 -0.0201 0.0027 0.0086 0.0042 0.0054 -0.0097 0.0179 -0.0028 -0.009 -0.0211 -0.0016 -0.0182 -0.0024
nutter -0.0003 -0.0026 -0.0338 0.0104 -0.0496 -0.0496 0.0037 -0.0239 0.0178 0.0148 -0.014 0.0229 0.0603 -0.0297 -0.0008 0.001 0.0327 -0.0192 0.005 0.0002 -0.0301 0.0392 0.0056 0.0069 -0.0126 0.005 0.0485 0.0176 -0.0011 0.0238 0.0315 -0.0473 -0.0019 0.0032 -0.001 -0.0273 0.0037 0.0148 0.0191 -0.0043 -0.024 -0.0509 0.0285 0.0082 -0.0018 0.0252 -0.0092 0.0218 -0.0022 0.0006 0.0374 0.0144 0.0146 -0.0065 0.0351 -0.0069 0.0002 -0.0107 -0.037 0.0185 -0.015 0.0103 0.032 0.014 0.0011 0.0175 0.0005 0.012 -0.0103 -0.0022 0.0327 -0.0172 0.0432 -0.0224 -0.0158 -0.0093 0.0128 -0.0178 0.0019 0.0435 0.0139 0.0029 -0.0162 0.0702 0.0047 -0.0084 0.0015 0.0227 -0.0017 -0.0298 0.0093 0.0042 -0.0433 -0.0101 0.0276 0.039 -0.0108 0.0094 0.0086 -0.0163 -0.0319 -0.0013 0.0119 0.0 -0.0097 -0.0704 0.0455 -0.0154 -0.0074 0.0051 0.0014 0.0042 0.0132 0.0002 -0.0137 -0.0167 -0.0181 -0.0218 -0.0205 -0.0106 0.0133 0.0208 -0.0458 -0.0281 0.06 -0.0358 0.0077 -0.0045 -0.0295 0.0334 -0.0017 0.0121 0.003 0.0049 -0.008 0.0011 0.0074 0.0525 0.001 -0.0195 -0.0169 0.0096 -0.0224 0.0244 0.0043 0.0318 0.0234 0.0107 -0.0174 -0.0202 0.0138 0.0405 -0.057 -0.0206 0.0212 -0.0195 0.0071 -0.0086 -0.0096 -0.0139 0.043 0.0117 -0.0332 -0.0304 -0.0313 -0.0394 0.0146 0.0199 -0.01 0.0184 -0.0403 0.0166 -0.001 -0.0366 0.0194 0.0377 -0.0038 -0.0339 0.0376 -0.0413 -0.0295 0.0026 -0.0091 0.0133 0.0466 -0.0287 0.0174 0.0435 0.0174 -0.003 0.023 0.011 -0.0014 0.0231 -0.0055 -0.0076 -0.0005 -0.0002 -0.0337 0.0297 -0.0579 0.0261 -0.0159 0.0224 -0.0266 -0.0153 -0.0074 -0.0037 -0.0132 -0.0291 0.0415 -0.0014 0.0166 -0.0275 -0.0075 -0.0075 -0.0148 -0.0204 0.0413 0.0053 -0.003 -0.0029 -0.0165 0.0295 0.0146 0.0096 0.018 0.0482 0.0238 -0.0061 -0.0261 -0.0358 -0.0116 -0.0003 -0.0108 -0.0023 0.0317 -0.0199 0.0239 -0.0221 0.0393 -0.03 0.0209 0.0213 -0.0197 -0.0126 0.0095 0.0209 -0.0323 0.0034 0.0128 -0.0121 0.003 -0.0106 0.0209 -0.0219 0.0161 -0.0033 0.0243 -0.0085 0.0312 0.0014 0.0026 0.008 -0.0372 -0.0206 -0.0024 0.0053 0.0338 -0.0083 -0.0495 0.0394 -0.0468 -0.0007 0.0492 -0.0449 0.0289 0.027 -0.0014 -0.0376 0.0288 0.0177 0.0319 0.023 -0.0219 -0.0073 0.0169 -0.0266 -0.0092 0.0159 -0.0015 -0.0056 -0.0277 0.0267 -0.0179 -0.0135 0.0022 0.0139 -0.0322 0.0116
masked 0.0195 0.0268 0.013 0.0077 -0.0118 -0.0562 0.0249 -0.0429 -0.0048 -0.0228 0.0101 0.0021 0.0082 -0.0081 -0.0214 0.013 -0.0171 0.0116 0.0194 0.0347 -0.0043 -0.0197 0.0094 0.0374 -0.0394 0.0082 -0.0112 -0.0045 0.0541 0.0206 -0.0161 -0.0153 -0.0025 0.0023 0.0202 0.0118 0.0177 0.0399 -0.0201 0.0126 0.0009 -0.0419 -0.0005 -0.0246 0.0187 0.0144 0.0354 -0.0019 0.0286 0.0205 0.0171 0.0064 -0.0159 -0.0246 -0.0383 0.0258 0.0036 -0.0156 -0.0199 -0.0099 0.0047 -0.035 0.0915 -0.0074 -0.0213 0.0423 -0.0076 0.0042 0.0091 -0.0037 -0.0164 0.0266 -0.0003 0.0033 0.0182 0.0319 0.0015 -0.0243 0.0204 -0.0104 0.0119 0.0045 0.0094 -0.0015 0.0298 -0.0111 -0.0157 0.0081 -0.0129 -0.0146 -0.0046 -0.0103 -0.0341 -0.0283 0.0463 0.0503 -0.0145 -0.0333 -0.0066 0.001 0.0039 -0.0308 -0.0017 0.0274 -0.007 -0.0362 -0.0057 -0.0226 -0.0261 0.0163 -0.0228 0.0239 0.0319 -0.0438 0.0173 -0.0034 0.0127 -0.0156 -0.0314 -0.0179 0.0245 0.0185 -0.0056 -0.022 0.0614 -0.001 0.0218 -0.0288 -0.0062 -0.0004 0.0148 0.0095 0.0118 0.0325 0.0167 -0.0117 0.0194 0.039 0.0368 -0.0061 -0.0038 0.0068 -0.0248 0.0012 0.0019 -0.0368 -0.0186 0.0026 -0.0091 0.0019 0.017 0.039 0.0071 0.0038 0.0096 -0.0159 0.0146 -0.0044 -0.0095 -0.001 -0.0064 -0.0164 -0.0192 -0.0087 -0.0019 0.0108 -0.0031 0.0062 0.0006 0.0159 -0.0372 -0.0144 -0.0282 0.0173 0.0061 0.0166 -0.001 0.0012 -0.0168 0.0139 0.0033 0.0012 0.0057 -0.0003 -0.0287 0.0155 -0.011 0.0316 0.0181 -0.0042 0.0569 0.0119 -0.0342 -0.0114 0.0288 0.0016 -0.0081 -0.0181 -0.0007 0.0061 -0.0535 -0.0012 -0.002 0.0154 0.0433 0.0113 0.0154 0.0182 -0.0102 -0.0453 0.0292 0.0208 0.0458 0.0057 -0.0032 0.0034 -0.0196 0.009 -0.0003 -0.0021 -0.003 -0.0023 -0.0523 0.0371 0.0184 0.0071 -0.0059 0.0386 -0.002 0.0028 0.0028 -0.0281 -0.047 -0.0247 0.0231 -0.0138 0.0221 -0.0259 0.0468 -0.0147 0.0616 -0.0088 -0.0108 0.0333 -0.0493 0.0389 -0.0158 0.0118 0.0235 -0.0234 -0.0112 -0.0157 0.0251 -0.0243 0.0187 0.0106 -0.0136 0.0237 0.0241 -0.0291 0.0013 -0.0252 -0.0297 0.0369 -0.009 -0.0127 0.0354 -0.0153 -0.019 -0.0382 -0.0116 0.0373 -0.0664 -0.0069 -0.0049 -0.0184 0.0189 0.0022 0.0369 0.024 0.0218 -0.0133 0.0228 0.014 -0.0018 -0.0004 0.0075 -0.0046 0.0033 -0.0153 0.0013 0.0102 -0.0241 0.0105 0.002 0.0048 0.0055 0.0392 -0.011 -0.0173
nobly -0.0387 0.0184 0.0754 0.0235 0.0367 -0.0191 -0.014 -0.0357 0.0052 0.0021 0.0196 -0.0299 0.0138 -0.0327 0.0054 -0.0023 0.0136 -0.0243 -0.0027 -0.0226 -0.0026 -0.0278 -0.0214 0.0195 0.0266 -0.006 0.0062 0.007 0.0379 -0.051 0.0145 -0.0528 -0.0476 -0.001 -0.0233 0.018 -0.0027 -0.0385 0.0163 0.0218 0.0002 -0.0334 -0.0008 0.0244 -0.0457 0.0111 -0.0122 -0.0069 -0.0121 0.0037 0.0656 0.0075 0.0008 -0.0267 -0.0689 -0.0249 -0.0263 0.0306 -0.0057 -0.0106 -0.0071 -0.0008 0.0715 -0.0369 0.0009 -0.0171 -0.0328 -0.0317 0.0188 -0.0265 0.0005 -0.0156 -0.0114 0.0037 -0.0131 0.0086 -0.061 0.012 -0.0277 0.0151 0.0175 -0.0161 -0.0153 0.0297 0.0008 -0.0028 -0.0016 0.0024 -0.0552 0.0061 -0.0093 -0.0036 -0.0476 0.0035 -0.0077 -0.0432 -0.0047 -0.0009 0.0818 0.0428 0.0143 -0.0103 0.0085 0.0289 -0.0307 -0.0568 0.0154 0.0066 -0.0161 0.0013 -0.0097 0.046 -0.003 -0.0036 0.0008 0.0015 0.0007 0.0082 0.0206 -0.0625 0.013 -0.046 -0.0044 -0.0311 0.0381 0.0217 0.0501 -0.039 0.0004 0.0084 -0.0179 0.0266 0.0007 0.0328 -0.0038 0.0091 0.0026 0.0332 -0.0054 -0.0108 0.0008 -0.0396 -0.0183 -0.0239 -0.0377 0.0007 0.0324 0.0113 -0.013 -0.0279 0.0313 0.0439 -0.0126 -0.0409 0.0081 0.0128 0.0214 -0.0017 -0.0015 -0.0095 0.0339 -0.0283 -0.0216 -0.0251 -0.0372 0.0343 -0.0247 0.0106 -0.0619 0.0436 0.0504 0.014 -0.0166 0.0179 0.0039 0.0063 0.0273 -0.0003 0.0082 0.0291 -0.0328 -0.0088 -0.0317 -0.0043 -0.0422 0.0046 0.0245 0.0999 0.0143 -0.0046 0.0461 0.0106 -0.0226 -0.0038 0.0266 0.0014 0.0066 0.0174 -0.0199 0.034 -0.0646 0.0151 0.0545 -0.0152 0.0087 0.0059 -0.0226 0.009 0.0077 -0.1199 0.0002 0.0096 0.0427 0.0484 -0.0237 -0.0083 0.0154 0.0009 -0.0443 0.0433 -0.0105 0.0095 0.0164 0.0303 0.0062 -0.004 0.055 0.0599 0.0074 0.0189 -0.0056 -0.0321 -0.0395 -0.0085 -0.0034 0.0162 -0.0526 -0.0314 0.0361 0.0023 0.0815 -0.0424 -0.0033 0.0162 -0.0208 -0.0315 -0.0039 -0.0378 -0.0217 -0.0183 0.0124 0.0186 -0.0216 -0.0316 -0.0166 0.0126 -0.0236 0.0326 0.022 0.021 -0.0228 0.043 -0.0197 0.0579 0.0152 0.0066 0.0471 -0.0016 0.0086 0.0135 -0.0076 0.0423 -0.0256 -0.0043 0.0001 -0.0677 0.0019 0.0094 0.0342 0.0242 -0.013 0.0158 0.0153 -0.0275 0.0259 -0.0026 0.0258 -0.0598 0.0487 0.0304 0.0097 0.015 0.0117 -0.0066 -0.0077 -0.0198 0.0354 0.0586 -0.0324 0.0135
rioting 0.0383 0.0219 0.0112 0.0157 0.0049 0.0311 0.0515 -0.0231 0.0135 0.037 0.0141 -0.0332 0.0035 0.0022 0.0178 0.0299 0.0062 -0.0033 0.0099 -0.0194 -0.0024 -0.0062 -0.0107 0.0118 -0.0085 -0.0095 0.0146 -0.0028 0.045 0.0145 0.0112 0.0149 0.001 -0.0362 0.0195 0.0062 -0.005 0.0403 -0.0101 -0.0066 -0.0067 -0.0107 0.0101 0.0337 -0.0198 0.033 0.0088 -0.0055 -0.0032 0.018 0.0204 0.0076 -0.0146 -0.0004 -0.0236 -0.0038 0.0252 -0.0621 -0.0087 0.0046 -0.0064 0.0024 -0.0175 0.0158 0.0246 0.0179 0.0178 -0.0134 0.0222 0.011 -0.0267 0.0245 0.0083 -0.0056 -0.008 -0.0241 -0.0024 -0.0025 -0.007 0.0264 -0.0149 -0.0057 -0.0371 0.0341 0.024 0.0395 0.0189 0.0136 -0.0007 -0.0046 -0.0618 -0.0065 -0.0204 -0.0043 -0.0013 -0.0035 0.008 -0.0302 0.0374 0.0116 0.0104 0.0003 0.0022 0.0213 0.0354 -0.0064 -0.0479 -0.014 -0.0098 0.0091 -0.0289 0.0099 0.033 0.0045 0.0042 -0.0197 0.0113 -0.021 -0.0233 0.0036 -0.0133 -0.0188 -0.0227 -0.0034 0.0288 -0.0019 0.0093 -0.037 -0.0133 0.0636 0.038 0.0118 0.0008 0.0547 0.0464 0.0085 -0.0264 0.0314 0.014 -0.0351 0.0133 0.0018 0.0055 0.0251 0.0001 0.0098 0.0023 0.0297 -0.0085 0.0083 0.0118 0.0138 -0.0027 -0.0048 0.0299 0.0163 -0.0183 0.0377 -0.0243 -0.0311 0.0288 0.0064 -0.0458 0.0149 -0.0039 -0.0016 0.0418 0.0118 0.0048 -0.0227 0.0142 -0.0311 0.0493 0.0254 0.0206 0.0335 -0.0063 -0.0166 0.0028 -0.0358 -0.0019 0.0201 0.0012 -0.0011 -0.0023 0.01 0.0141 0.0538 0.0017 -0.0128 0.0025 0.0068 -0.0372 -0.0185 0.0272 0.0168 0.0397 -0.0018 -0.0174 0.0076 -0.0516 0.0248 -0.0041 0.0295 -0.0323 0.0137 -0.0128 0.0001 0.0186 0.0012 0.03 -0.0087 0.0191 0.0081 0.0496 -0.0164 -0.0271 0.0125 0.0195 -0.0454 0.0106 0.0184 0.0044 0.0304 -0.0317 0.0214 -0.0286 0.0262 -0.0484 -0.0215 -0.009 -0.0255 -0.0176 -0.0103 0.0313 0.0217 0.005 -0.0078 0.0306 -0.0108 0.01 -0.0303 -0.0007 0.0025 -0.0535 -0.002 0.0152 -0.0032 -0.019 -0.0044 0.0152 0.0019 -0.008 -0.0059 0.0021 0.0174 -0.0078 0.012 0.0246 -0.0258 -0.0137 0.0219 0.0112 0.0334 -0.0381 0.0418 0.0022 0.0177 -0.0118 -0.0187 -0.0065 0.0284 -0.0371 0.0051 0.0164 -0.0531 0.0152 0.0032 -0.0105 0.0109 0.0118 -0.0088 -0.031 0.0074 0.0098 0.029 0.0279 0.0125 -0.0079 0.0118 0.0021 -0.0002 -0.0561 0.0076 -0.0255 0.0152 -0.0117 -0.0006 0.0032 -0.0021
