1000 300
tablespace -0.0069 -0.0063 -0.0144 -0.0111 0.0105 0.0183 -0.006 -0.0245 -0.0064 -0.0327 -0.0056 0.0037 -0.0232 -0.0035 -0.0019 0.0026 0.0308 0.0045 0.0312 -0.0202 -0.0026 0.0023 -0.0022 0.0256 -0.0197 -0.0124 -0.0334 -0.0105 -0.0117 0.0203 -0.0007 0.0006 0.0149 -0.0209 0.0027 -0.0018 -0.0094 0.0188 0.0128 -0.0146 0.0128 -0.0251 0.0115 0.0189 -0.0379 -0.025 0.0147 0.0006 -0.0051 0.0003 -0.0038 -0.0329 0.0148 0.0086 -0.0102 -0.0165 -0.0102 0.012 -0.0066 -0.0026 0.0019 0.007 0.0352 -0.0143 0.0026 -0.0082 0.0094 -0.0106 -0.001 -0.0021 0.0148 -0.0222 -0.0209 -0.0168 0.009 -0.0084 -0.0 -0.0182 0.0109 0.004 -0.0014 -0.0036 -0.0058 0.0105 0.0015 -0.0148 0.0165 -0.0035 0.0108 -0.0054 0.0052 0.013 -0.0139 0.0315 -0.0024 0.0121 -0.0263 0.0065 0.0093 0.0143 0.0015 0.0098 0.0197 0.0022 0.011 0.0017 -0.0222 0.0205 -0.0034 -0.0231 0.0151 0.0268 0.0096 -0.0045 0.0193 -0.0103 0.0061 -0.0025 -0.0047 0.031 -0.0035 -0.01 0.0084 -0.0055 0.002 -0.0072 0.0157 -0.0095 0.0085 0.031 -0.0218 0.007 0.0019 0.0062 0.0029 -0.0179 -0.0033 0.0004 -0.0082 0.0002 -0.0124 0.0147 0.0022 -0.0249 -0.0058 0.0016 0.0185 0.0138 0.0147 0.0073 0.0134 0.0143 0.0051 -0.0033 0.0017 0.0135 -0.0027 0.0038 -0.0191 -0.0076 0.006 0.0285 -0.0053 0.0218 0.0197 -0.0262 -0.0289 -0.0012 -0.0196 -0.0051 -0.027 -0.0208 -0.011 -0.0003 -0.0227 0.0129 -0.015 -0.0136 -0.0015 0.0277 0.0263 -0.0101 0.0024 0.006 -0.0088 0.0061 0.0085 0.0444 0.0084 0.0145 0.0011 0.0165 -0.0251 -0.0025 0.0207 -0.0136 -0.0071 -0.015 -0.0006 -0.007 -0.0378 -0.0024 -0.0057 -0.0016 -0.0141 0.0062 0.0057 0.0181 0.019 -0.0221 0.022 -0.0072 -0.0005 -0.0027 0.0008 0.0126 -0.0078 0.006 0.0198 -0.0094 0.0496 0.0039 0.005 0.0354 0.0027 0.0075 0.0121 0.0081 -0.0309 0.0028 -0.0244 -0.0106 -0.0057 -0.0033 0.0109 -0.0327 0.0011 0.0096 0.0095 -0.0092 0.0246 0.0063 -0.0028 0.0034 0.0096 -0.0016 0.0195 0.0269 -0.0002 0.0021 -0.0071 -0.0033 -0.0011 0.0018 0.0191 -0.0066 0.0023 0.0119 0.0145 0.0056 0.0191 -0.0012 -0.0119 -0.0404 -0.0075 0.008 0.0004 -0.0143 0.0013 0.0036 -0.0056 0.0271 -0.0192 -0.0218 0.0049 -0.002 0.0109 -0.0266 -0.0008 -0.0102 0.0234 -0.0151 -0.0038 0.0024 -0.0074 0.0082 0.0018 0.0203 0.0212 -0.0084 -0.0078 -0.0169 0.0037 0.0098 0.0115 -0.0027 0.0092 -0.0027 0.0092 0.0191
turc 0.0148 -0.0185 0.0093 -0.0191 0.0118 0.0025 -0.0293 -0.0126 0.019 0.0002 0.0296 0.0324 -0.0128 -0.0218 0.0181 -0.0241 0.0178 -0.0169 0.0139 0.0182 -0.0039 0.011 0.0065 0.0026 -0.0011 0.0049 0.0048 -0.0121 -0.0321 -0.0284 0.0197 0.0016 0.0184 0.0037 0.0031 0.0118 0.009 0.0335 0.0189 -0.0031 0.0051 -0.0155 -0.0016 -0.0013 0.0074 0.0108 -0.0014 -0.0071 -0.0053 -0.0292 -0.009 -0.0391 -0.0119 -0.0055 -0.0404 -0.0161 -0.0142 0.0033 -0.0097 0.0441 -0.0186 -0.0062 0.0334 -0.0211 0.0076 0.0363 -0.0045 0.0172 0.0058 -0.0201 -0.0002 -0.0196 0.0129 -0.0052 0.0022 -0.0082 -0.0078 0.0353 -0.0111 0.0107 -0.0116 -0.0279 -0.0012 -0.0202 -0.0024 -0.012 -0.0043 0.0076 -0.0262 0.0411 -0.0096 -0.0091 -0.0255 0.0171 0.0273 0.0455 -0.0097 -0.0125 0.0039 -0.0275 0.0181 0.0003 -0.0164 0.0091 0.01 -0.0226 -0.0386 -0.0072 -0.0193 0.0244 -0.0008 0.0071 -0.0064 0.0059 0.0087 -0.0188 0.0288 0.0051 0.0419 0.0037 0.0165 0.0011 -0.027 0.035 0.034 0.0149 0.0345 -0.0108 -0.004 -0.005 -0.013 -0.0157 0.0052 -0.0099 -0.0273 0.0035 -0.0001 0.0471 0.0162 -0.0374 -0.0194 -0.0076 -0.02 0.0341 -0.019 0.015 -0.0152 0.0118 -0.0001 -0.0158 -0.0231 0.0165 0.0519 -0.0098 -0.0051 0.0091 -0.0117 0.0403 -0.0151 0.0406 0.0004 -0.015 0.0163 0.0043 -0.0147 -0.0074 0.0008 0.0093 0.0043 0.0004 0.0032 -0.0014 -0.0228 0.0087 0.0163 0.0042 -0.0318 -0.016 0.0325 0.0067 -0.0023 0.0264 -0.0074 0.0022 -0.0234 -0.0384 -0.0026 0.0943 0.0038 -0.0012 0.0151 0.0155 -0.0223 0.0246 -0.0143 0.0248 0.0374 0.0118 0.0111 -0.0028 -0.0258 -0.0217 -0.0052 0.0073 0.005 -0.0237 -0.0097 0.012 -0.0377 -0.0149 0.0549 -0.0494 0.0264 -0.0061 0.0268 0.0335 -0.0074 0.0086 0.011 0.0043 0.0025 0.0166 0.0003 0.0309 -0.0055 0.0188 0.0179 0.0283 -0.0054 0.0144 -0.0185 0.0275 0.0052 0.0049 0.0026 -0.0004 0.0149 0.0092 -0.0014 -0.0039 0.028 0.0051 0.0065 0.0171 0.0126 -0.0092 -0.0008 0.0081 -0.0243 0.0201 -0.0163 -0.0209 -0.03 -0.0009 -0.0124 -0.0242 -0.0195 -0.0138 -0.0139 -0.0193 -0.0047 0.0061 0.0274 -0.0009 -0.0176 0.0162 -0.0101 0.0033 0.0003 -0.0038 0.0165 0.0288 -0.033 -0.0078 -0.025 0.0084 0.0017 0.0119 0.0169 -0.0181 -0.0057 -0.0194 -0.0099 -0.0281 -0.031 0.032 0.0264 0.0273 0.0067 -0.0168 0.0044 -0.0168 -0.0223 0.0145 0.03 -0.0257 0.0068 0.0241 0.0043 0.009
bayfront 0.0168 -0.0284 0.0205 0.0135 0.0009 0.0289 -0.0014 -0.0261 -0.012 0.0164 -0.0059 -0.0283 -0.0094 0.0034 -0.0219 -0.0091 0.0214 0.0053 0.0202 0.0004 0.0076 -0.0204 -0.0016 0.0152 -0.0058 -0.0182 -0.0067 0.0114 -0.008 0.0201 -0.0215 -0.0014 0.015 -0.0015 0.0026 0.0205 0.0071 0.0075 0.0115 -0.0126 0.0123 -0.0303 0.0077 0.0081 0.0194 -0.0248 -0.0117 0.0233 -0.0312 0.0136 0.0094 -0.0088 -0.0175 0.0144 -0.0148 -0.0049 0.0052 -0.0138 -0.007 -0.0162 -0.0182 0.0143 0.0295 -0.0173 0.0137 0.0056 0.0028 -0.0129 0.0075 -0.0118 0.0251 0.0009 -0.0034 0.0182 0.0196 -0.0104 -0.0057 -0.0108 -0.0101 0.0108 -0.0016 -0.0057 0.0067 -0.0001 -0.0112 -0.0005 0.0223 -0.0203 0.0053 0.0036 0.002 0.0052 -0.0382 0.031 0.0107 0.027 0.0002 0.0043 -0.0128 0.0032 0.0145 0.0061 0.009 0.0057 0.008 -0.0424 0.0 -0.0009 0.0155 0.017 -0.0141 0.0343 0.0187 -0.0016 0.0194 0.0033 -0.0022 -0.0185 -0.0147 0.0103 -0.0087 0.0074 -0.0047 -0.003 0.0012 0.0149 0.0112 -0.0348 -0.0055 0.0117 0.0309 0.0075 0.0131 -0.0004 0.0089 -0.0087 -0.0027 0.0284 -0.0131 -0.0165 -0.0114 0.0066 0.0091 0.0091 0.007 -0.0005 0.0105 0.0146 0.0018 0.0046 0.0032 0.0175 0.0147 -0.0033 -0.0118 -0.003 0.0072 0.0085 -0.0021 -0.0003 -0.0088 0.0019 0.0028 -0.0116 -0.0059 -0.0006 0.016 -0.0253 -0.0197 0.0339 0.0066 -0.0006 0.0128 -0.0083 0.0046 0.009 0.0002 -0.0126 -0.0172 0.0098 0.0016 -0.0043 0.0227 0.0035 -0.0203 0.0164 -0.018 0.0228 0.0038 -0.0089 -0.0111 0.0064 -0.0193 0.0098 -0.0074 -0.0061 0.0005 -0.0006 0.012 -0.0058 -0.0521 0.0158 -0.0061 -0.0097 0.0272 -0.0183 0.0042 -0.007 -0.0042 -0.0037 0.0388 -0.0188 0.009 0.0009 -0.0039 -0.0051 -0.007 -0.003 0.0184 -0.007 0.0026 -0.0082 0.0006 0.0251 -0.0302 0.0082 -0.0073 0.0118 -0.0118 -0.013 -0.0195 -0.0213 -0.0144 -0.0054 0.0047 -0.0014 -0.0229 0.0224 -0.0004 0.0126 0.0374 0.0027 0.0142 -0.0249 -0.0072 0.0103 0.0045 0.0252 0.0158 0.0158 -0.0167 -0.0145 -0.0087 -0.0141 0.0042 0.0174 -0.0039 0.0009 0.0092 -0.0042 0.0093 0.0191 0.008 -0.0352 0.0032 -0.008 0.0106 -0.0175 0.0138 -0.0015 -0.002 0.0251 -0.0246 -0.0089 0.0289 -0.0126 -0.0166 0.0009 0.0222 0.0049 0.0133 0.0133 -0.0011 0.0166 -0.0086 -0.0081 -0.0179 -0.0097 -0.0078 0.0006 -0.0084 0.011 0.0125 0.0061 0.0155 -0.0067 -0.0245 0.019 -0.0096 -0.0087
stows -0.0091 -0.0255 -0.0005 0.0014 -0.0224 -0.0478 -0.005 -0.0463 0.002 0.0168 -0.0058 0.0011 -0.0225 -0.0085 -0.0563 -0.0291 0.0245 -0.0095 0.047 0.0085 0.0026 -0.0011 -0.023 0.0205 0.037 -0.0026 -0.0113 0.0062 0.0237 0.0067 0.0001 -0.0176 0.0242 0.0319 -0.0051 -0.0045 -0.0124 0.0051 -0.0135 -0.0552 0.041 0.0019 -0.0025 0.0018 -0.0146 -0.0116 0.0288 -0.0028 0.019 -0.0112 0.0212 0.0148 -0.0107 -0.0188 -0.0763 -0.0045 0.0005 -0.0099 -0.0216 -0.004 -0.0141 0.0106 0.0942 0.0114 -0.0014 -0.0093 0.0072 -0.0428 0.0165 0.0105 0.0259 0.0063 0.0614 -0.0177 -0.0173 0.0145 0.0319 -0.0242 0.0066 0.0092 -0.016 -0.058 -0.0095 0.0349 0.0023 0.0228 0.0297 -0.0053 0.0031 -0.0172 0.0005 -0.0344 -0.0408 0.0732 0.0176 0.0305 0.0098 -0.0213 0.0037 -0.0339 0.0016 0.0126 0.0271 0.0071 0.0351 -0.0625 0.0102 0.029 -0.008 -0.0028 -0.0082 0.0392 0.051 0.0139 0.0056 -0.0021 -0.025 -0.0126 -0.0152 0.0105 0.0165 0.0154 -0.0065 0.0119 0.0766 -0.0187 0.0149 -0.0194 0.0048 0.0302 0.0075 0.0215 0.0047 -0.0318 0.0467 -0.0189 0.005 0.0816 -0.0043 0.0081 -0.0136 -0.0118 0.004 -0.0365 0.0086 0.0257 0.0003 0.0191 -0.0188 -0.0373 -0.0153 -0.0163 -0.0106 -0.0006 -0.0111 0.006 -0.0224 -0.0241 -0.0017 0.0006 0.0241 0.019 -0.0148 0.0037 -0.0027 -0.0002 -0.0027 -0.0089 -0.0305 0.0113 -0.0016 0.0312 -0.0345 -0.0097 -0.0137 -0.0062 0.0304 0.0062 -0.0169 0.0019 0.0023 -0.0166 -0.0008 -0.037 -0.0245 -0.0259 -0.0057 0.0455 0.0353 -0.0178 0.007 -0.0169 -0.0863 -0.0222 0.0117 0.0086 -0.0536 -0.0128 0.0198 0.0176 -0.075 0.005 0.0423 -0.0304 0.042 0.014 -0.0118 0.0258 0.0226 -0.0585 0.0403 -0.0036 -0.0053 0.0129 -0.0067 0.0124 -0.0351 0.0104 0.0218 -0.0213 0.0125 0.0078 -0.0049 0.0484 0.0161 -0.0203 0.0173 0.0241 -0.0276 0.0184 -0.0199 0.0247 -0.0431 -0.0577 0.0075 -0.0202 0.0079 -0.0079 0.0157 -0.0302 0.0233 0.0029 0.0137 -0.009 -0.009 -0.0151 0.0201 0.0167 -0.0009 0.007 -0.0162 0.0208 -0.0154 0.0196 0.0163 -0.0224 0.0271 -0.0268 0.0049 0.0029 -0.0018 0.012 -0.0243 -0.0251 0.0064 0.0028 -0.0137 -0.0352 0.0007 0.0091 -0.0628 0.0443 -0.0437 -0.0264 -0.0402 0.0266 0.0079 -0.0308 0.0313 -0.0087 -0.0148 -0.0052 0.0557 -0.0302 0.0058 0.0056 -0.0085 0.0311 0.0004 -0.0005 0.0064 0.0068 0.0063 -0.0234 -0.0152 0.0071 0.0098 -0.0073 0.0205 0.0062
visiters -0.0062 -0.0122 0.0246 -0.0094 -0.0059 -0.0058 -0.0026 -0.0362 0.0125 -0.0077 0.0079 -0.0113 0.0116 -0.0212 0.0087 -0.0079 0.0183 -0.0086 0.017 -0.0015 -0.0092 0.0024 0.0095 0.0404 0.0119 -0.0013 -0.0057 0.011 0.0253 0.0002 -0.0194 0.0143 0.003 -0.016 -0.0219 0.0256 -0.0022 0.0098 -0.0092 -0.0058 0.0026 -0.0241 -0.009 -0.004 0.0088 -0.0007 0.0089 -0.004 -0.0061 0.0213 0.0119 -0.003 -0.012 -0.0107 -0.015 -0.0064 0.0044 -0.0 -0.0205 -0.0096 -0.0064 0.0086 0.05 -0.0047 0.0033 0.0055 -0.0101 -0.0107 -0.0026 0.0026 0.005 -0.006 0.0305 0.0064 -0.0029 0.0045 0.0079 -0.0086 -0.0078 0.0071 -0.0139 -0.0048 0.0322 0.0091 0.001 -0.0055 0.0121 -0.0071 -0.0057 -0.0067 -0.0063 0.0064 -0.0316 0.0076 0.0031 0.0326 0.0096 0.014 -0.002 -0.0008 0.0127 0.0129 -0.0029 -0.0135 -0.0053 -0.0174 0.0173 -0.007 -0.0047 0.015 -0.0117 0.0257 0.0224 0.0126 -0.0025 0.001 -0.0029 -0.0062 -0.0082 0.0076 -0.0075 0.0055 -0.0097 0.0136 0.0363 0.0082 -0.0097 -0.0216 0.0002 0.0315 0.0012 0.0468 0.0013 -0.0073 -0.0062 0.0001 -0.0116 0.0059 -0.0045 -0.0024 0.0021 -0.0153 0.0057 -0.0118 0.0144 0.0224 -0.0017 0.0104 -0.013 0.0003 0.0161 0.0302 -0.0144 -0.0136 0.005 0.0019 -0.0033 0.0283 -0.0023 -0.0058 0.0079 -0.0097 0.0182 0.0004 0.0113 0.0154 0.0196 -0.0025 -0.0064 0.0176 -0.0064 -0.009 0.0052 -0.0012 0.0087 0.0069 -0.0064 0.0076 -0.0114 0.0173 -0.0097 0.002 -0.0004 -0.0058 -0.009 -0.0133 0.0131 0.014 -0.0011 -0.0068 -0.0007 0.056 -0.0828 0.0125 -0.0122 0.016 0.0094 0.0073 0.0027 0.0047 -0.0432 0.0142 -0.0079 0.0104 0.0114 -0.0029 -0.0214 0.0058 -0.002 -0.0142 0.0265 -0.0136 0.0149 0.0082 -0.0318 -0.0115 -0.0016 0.0162 -0.0025 -0.012 0.0026 -0.0042 -0.0116 0.0361 0.0306 0.0036 0.0004 0.0287 -0.0001 0.006 -0.0112 0.0021 -0.0354 -0.0107 0.0111 0.0037 0.0003 0.0005 0.0103 0.0107 -0.0112 -0.0076 0.0063 -0.0279 0.0202 0.0125 0.0013 -0.017 -0.0151 0.0053 -0.0064 -0.0 0.0121 -0.0057 -0.0222 -0.003 -0.0159 0.0235 0.014 0.0025 0.0067 0.0004 -0.0002 -0.0072 0.0085 -0.006 0.0204 0.0049 0.0088 -0.0155 -0.0039 0.0405 -0.0188 -0.0053 0.0055 -0.0095 0.0094 0.0016 -0.0011 -0.0038 0.0037 0.008 0.0087 -0.0151 -0.0131 0.0112 -0.0086 -0.0343 -0.013 0.0114 -0.0036 0.0198 -0.003 0.0162 -0.0009 0.0004 0.0009 0.0019 -0.0029 -0.0124
retakes -0.0122 -0.0015 -0.0015 0.0064 0.0144 -0.0227 0.0178 -0.0363 -0.0099 -0.0155 -0.0166 -0.018 0.0244 0.0504 -0.055 0.0244 0.0156 -0.0195 0.0241 0.0241 0.0009 -0.034 -0.0139 0.0133 -0.0145 0.0104 -0.0009 0.0138 0.0122 -0.0019 -0.0068 0.001 -0.0276 0.0193 0.0241 0.0027 -0.0096 0.0098 -0.0306 0.0181 -0.0005 0.0231 -0.0103 0.0256 0.0156 0.0106 0.036 -0.0198 0.023 0.027 -0.0011 -0.0057 -0.0214 0.0113 -0.0404 -0.015 -0.0258 -0.0152 -0.0205 0.0354 0.0287 -0.0042 0.0642 0.0406 -0.0074 -0.0235 0.0006 -0.0081 0.0054 -0.0126 0.0109 0.0156 0.0595 -0.015 -0.0131 -0.0132 0.0305 -0.0012 -0.0078 0.0317 -0.0236 0.0158 -0.0136 0.0304 0.0073 0.0217 0.0242 -0.0055 0.0022 0.0137 0.008 -0.063 -0.041 0.0045 0.0042 0.0238 -0.0 0.0108 0.0086 -0.0039 0.0637 -0.0141 0.0249 0.0368 0.0259 -0.0472 0.0049 -0.0112 -0.0313 0.0068 0.0298 0.0048 0.0352 0.0032 -0.0037 -0.0053 -0.0141 0.0143 -0.0179 -0.0416 0.0041 0.0008 -0.0036 0.0007 0.0385 0.0057 0.045 -0.0388 -0.0171 0.0164 -0.0093 -0.0033 -0.0174 -0.0153 0.0281 -0.0272 0.0176 0.0004 0.0052 -0.0046 -0.0168 -0.0202 0.0029 -0.0172 0.015 -0.0014 -0.0075 -0.0402 -0.01 0.0027 0.0241 0.0138 0.0228 -0.0305 0.0018 0.0134 0.0046 0.0035 0.0068 0.0224 0.0199 0.0135 0.0026 -0.0305 -0.0168 0.0051 0.0026 -0.0057 0.0435 0.0278 0.0186 -0.0094 -0.0114 -0.0048 0.008 0.0087 0.0223 -0.0186 -0.0088 0.0386 0.0239 -0.0253 -0.0215 -0.014 0.0143 0.0306 0.0131 0.0142 -0.0069 0.0102 -0.0081 0.0057 -0.0186 -0.0066 0.0088 0.0309 -0.001 -0.0135 0.0173 0.0378 -0.0781 0.0213 0.0246 -0.0111 0.001 -0.0133 -0.0226 -0.0013 0.0066 -0.0178 0.0643 -0.0015 0.0377 0.0476 0.0129 -0.0332 0.0108 0.0374 -0.0141 -0.041 0.0364 0.0296 -0.026 0.0287 0.0102 -0.0294 0.0286 0.0274 -0.0311 0.009 0.0008 -0.0276 -0.0281 0.0292 -0.008 0.009 0.0203 -0.0099 -0.0261 0.0097 0.0261 0.0177 -0.0104 0.0373 -0.0607 0.0342 -0.0018 -0.0232 -0.005 -0.002 0.0026 -0.0058 0.0374 0.03 -0.0162 -0.0035 0.0311 0.0068 0.0062 0.0182 0.0108 0.0062 0.0018 -0.007 -0.0022 0.0096 0.0065 0.0062 -0.015 -0.0005 0.0118 0.0437 -0.047 -0.0124 -0.0436 -0.0053 0.0002 -0.0101 0.0012 -0.0143 -0.0292 -0.0057 0.0216 -0.0206 0.0282 0.0096 0.0083 0.0189 0.0153 -0.0222 0.0206 -0.0014 0.0154 0.0117 -0.0036 -0.0 -0.0086 -0.014 0.0107 -0.011
raider -0.0108 -0.0089 0.0034 0.0147 -0.0078 -0.0077 -0.0089 -0.0477 0.0186 0.0541 0.0145 -0.0203 -0.0301 -0.0038 -0.0597 0.0043 0.0237 -0.0395 -0.0071 0.0141 -0.0311 -0.0072 0.0106 0.0177 0.0249 0.021 0.0184 -0.0383 -0.0404 0.0178 0.0361 0.0095 -0.0311 -0.0164 -0.0044 -0.0091 0.001 0.0382 0.0026 0.0147 0.0104 -0.0852 0.025 -0.0119 0.0284 0.0717 0.0264 -0.0123 -0.0074 -0.0237 0.0307 -0.0028 -0.0228 -0.0729 0.0187 0.0115 0.0145 0.0344 -0.0543 -0.0221 -0.0292 0.0088 0.0351 -0.0128 0.0136 0.0429 -0.0238 0.0035 -0.0164 -0.0107 -0.0016 0.0189 0.0133 0.0246 0.0137 -0.01 -0.0102 -0.0086 0.0202 0.0093 0.026 0.0168 -0.0156 -0.0015 0.024 0.0038 0.0346 -0.0009 0.0194 0.0087 -0.0226 0.0254 -0.0404 -0.0442 0.0398 0.0418 -0.0655 -0.0248 -0.0141 -0.0236 0.0143 -0.0482 0.0473 -0.0101 0.0055 -0.0594 -0.0213 -0.0021 0.0033 0.0324 -0.0324 0.0001 0.0385 -0.0076 -0.0076 -0.0022 0.0025 0.0092 -0.0115 -0.0379 0.0005 -0.007 0.0269 -0.0359 0.0726 0.016 0.0164 -0.0223 0.0309 0.0559 -0.0071 0.0162 -0.0276 0.0109 0.0163 -0.0406 0.0422 0.0307 -0.0104 0.0007 -0.0454 0.0159 -0.0254 -0.0024 -0.0034 -0.0052 0.0053 -0.0417 -0.0419 -0.0516 0.0147 0.0144 -0.0009 -0.0179 0.0337 0.0031 0.0347 -0.0216 -0.0022 0.0079 0.0202 -0.0259 -0.0545 0.0319 0.0013 0.019 -0.008 -0.0201 -0.0412 0.013 0.0362 -0.0286 -0.0496 0.014 -0.0036 0.0204 -0.0019 -0.0004 -0.0308 0.0154 -0.0274 0.0004 -0.0384 0.0009 0.011 -0.0595 -0.0082 0.0394 0.0166 0.0232 0.0077 0.0052 -0.0202 0.0264 -0.005 0.0027 0.0168 0.0139 0.0014 0.0202 -0.0637 0.0335 -0.0151 0.0092 0.0212 -0.0141 -0.0191 0.009 0.0482 0.001 0.0387 0.0111 0.0015 -0.0199 -0.0297 0.0232 -0.0327 0.0469 0.0325 -0.0011 0.0125 0.0045 0.022 0.0528 -0.017 -0.0443 0.0051 0.0401 -0.0301 0.0152 0.0018 0.0043 -0.0342 -0.0516 -0.0071 -0.0035 0.0177 0.0156 0.0229 -0.0384 0.0386 0.0129 0.0164 0.0054 0.0195 0.0292 0.008 -0.0119 0.0126 0.0052 -0.0214 -0.0684 0.0258 0.0133 0.0495 -0.0135 -0.0417 0.0201 0.0038 -0.0064 0.0157 -0.0033 0.0395 0.0214 -0.0087 -0.0237 0.0032 -0.0076 -0.0372 -0.0165 -0.0468 0.0462 -0.0394 -0.001 -0.0044 0.009 0.0607 -0.0276 -0.0096 -0.0358 0.0316 -0.0075 0.0253 -0.0212 -0.0176 -0.0225 -0.0083 -0.0527 0.0059 -0.0454 0.0241 0.0144 0.0056 -0.0104 -0.0272 -0.0302 -0.014 0.0098 -0.0353 -0.0086
fullest -0.013 0.004 0.0044 0.0014 -0.0395 -0.0076 0.0123 -0.0338 -0.0111 -0.0148 -0.0015 -0.042 -0.0054 -0.0153 0.0151 -0.0303 -0.0048 -0.0146 0.0233 0.0078 0.0079 0.0015 -0.0011 0.0241 -0.0101 -0.0083 0.0043 0.0074 0.0107 -0.0006 -0.0023 -0.011 -0.0146 -0.0651 -0.0189 0.0238 -0.0089 0.0126 0.0117 0.0003 -0.0057 -0.0112 0.0152 -0.0161 -0.0071 0.0036 -0.0059 -0.0116 0.0024 -0.0104 -0.0097 -0.0246 0.0161 0.0014 -0.0335 -0.0107 -0.0229 -0.0286 -0.0308 -0.0076 0.0073 0.0202 0.0201 -0.0268 -0.0073 -0.0379 -0.0133 0.0174 -0.0072 0.0079 0.0427 -0.0008 0.0245 0.0315 -0.0155 -0.0122 -0.0034 -0.0221 -0.025 0.0034 0.0429 0.0176 0.019 0.0087 0.0101 -0.001 0.0117 -0.0124 -0.0087 -0.0094 -0.0371 -0.017 -0.0298 -0.0129 -0.0104 0.0112 0.0174 0.0039 -0.0077 0.0119 0.0029 -0.0072 0.0032 0.0018 -0.0143 -0.0302 -0.0021 -0.0183 0.0 0.0074 -0.028 0.0565 0.0153 0.0101 -0.0142 0.0062 0.0058 0.0142 -0.0234 0.0081 -0.0015 -0.0164 -0.0157 0.0154 -0.0029 0.0009 0.0084 -0.0665 0.0024 0.0067 0.0158 -0.0374 0.0247 -0.0057 -0.0013 -0.0392 0.0097 0.0254 0.0162 -0.0141 0.0185 -0.0134 0.0149 0.0397 0.0025 0.0599 -0.0058 0.0049 0.0199 -0.0071 0.0288 0.0507 -0.0071 -0.0041 0.0027 -0.0644 0.0299 0.0132 0.0013 -0.0368 0.0123 0.0091 -0.0269 -0.0126 -0.0061 -0.0088 0.0122 -0.0319 -0.0285 -0.0128 0.0087 0.0141 0.0165 0.0037 -0.0157 0.0157 0.0039 0.0167 0.0 0.0155 0.0032 0.0002 -0.0302 -0.0034 -0.0122 0.0284 -0.0073 0.0466 -0.0121 0.0022 0.0425 0.0384 0.0474 -0.0203 -0.0151 -0.0102 -0.0072 -0.0101 -0.0118 0.015 -0.0603 0.04 -0.0329 -0.0013 -0.0068 -0.0276 0.0251 0.0008 0.0235 -0.0192 0.0303 -0.0231 -0.0004 0.0175 0.0018 0.0029 0.0324 0.0057 -0.0133 0.0303 0.0046 0.0009 -0.0117 0.0271 0.0546 -0.0055 -0.0152 0.0336 -0.0177 -0.0059 -0.0154 -0.0618 -0.0344 -0.0115 0.0006 -0.0084 -0.0261 -0.0277 -0.0062 0.0157 0.0619 -0.0028 -0.0163 0.0172 -0.0814 -0.0105 -0.0297 -0.048 0.0116 -0.0381 0.0114 -0.0034 -0.0045 -0.0002 0.0149 -0.0297 -0.0194 0.0331 -0.0018 0.0393 -0.0087 0.0171 -0.0255 -0.0269 -0.0207 -0.0033 0.0018 0.0057 0.012 0.0172 0.0105 0.0437 -0.0426 -0.0236 0.0159 -0.0327 -0.0036 0.0123 0.0065 0.0107 0.0202 0.0176 0.0236 -0.0288 0.0333 -0.0003 -0.0455 0.0061 -0.0066 0.007 0.0181 -0.0031 -0.0122 -0.0614 0.0126 0.0283 0.008 -0.036 -0.0183 -0.0076
earliness -0.0029 -0.0023 0.0021 -0.007 -0.0219 0.0087 -0.0124 -0.0314 0.0133 -0.0022 -0.0169 -0.0096 -0.0005 0.0084 0.0036 -0.0089 0.0241 -0.0117 0.0223 0.0089 0.0059 -0.0018 -0.0039 0.0285 0.0083 0.0006 -0.0055 0.0134 0.0068 0.0066 -0.0111 0.0019 0.0013 -0.0312 -0.0003 0.0122 0.0066 0.0021 -0.0022 0.0178 0.0132 -0.0247 -0.0167 -0.0276 -0.0092 -0.0005 0.0131 0.0055 -0.0192 -0.0037 0.0079 0.0015 0.0011 -0.0135 0.0057 -0.0024 0.0038 0.0126 -0.0181 -0.0162 -0.0061 0.0031 -0.0002 0.005 0.0063 -0.0085 0.0063 -0.0082 -0.0061 -0.0094 0.0021 0.0044 -0.0067 -0.0049 -0.0093 0.0129 -0.0037 -0.0111 0.0114 0.0197 -0.0146 0.0071 0.006 0.0192 0.0155 -0.0147 0.0045 -0.0001 -0.0243 -0.0165 -0.0096 -0.0126 -0.0274 0.0221 0.0019 0.0189 -0.0094 -0.0008 0.0053 0.0045 0.0018 -0.0067 -0.0009 0.0167 -0.012 0.0026 -0.0141 -0.0085 0.0116 0.0134 0.0017 0.0336 0.0141 0.0021 -0.0191 -0.0064 -0.0107 0.0108 -0.0284 0.0016 -0.0034 -0.0066 0.0025 -0.0207 0.0054 -0.0014 0.003 -0.028 -0.0046 0.0495 0.0202 -0.023 -0.0131 -0.0012 -0.0096 -0.0096 0.0003 0.0129 0.0192 0.0088 0.0123 0.0009 -0.0111 -0.0012 0.0064 -0.0156 0.0008 0.0088 -0.0138 -0.0012 0.0177 0.026 -0.0013 -0.016 0.0062 0.0016 0.0202 -0.0008 0.001 0.0063 0.0118 -0.0106 -0.0107 0.001 0.0097 0.0029 0.0027 0.005 0.0013 0.0104 0.0134 -0.0004 0.0062 -0.0123 0.0246 -0.003 0.0121 0.0085 -0.0151 0.0041 -0.0066 0.0053 0.0116 -0.0089 0.0012 -0.0171 0.0068 0.0138 -0.0136 -0.0038 0.0054 0.0188 -0.033 -0.0323 -0.004 0.0021 0.0074 0.0047 -0.0011 0.0057 -0.0383 -0.0032 -0.0019 0.0029 -0.0012 0.0048 0.0108 -0.0082 0.0033 -0.0029 0.028 0.0004 -0.0 0.0096 0.022 0.0057 -0.0111 -0.0105 -0.0098 -0.0165 -0.0042 0.0037 0.0095 0.0355 0.0244 -0.0225 0.0028 0.0197 -0.0082 -0.0249 0.0092 -0.0273 -0.0223 0.0106 0.0124 0.0177 0.0018 -0.0082 0.0019 0.0009 0.0123 0.0056 -0.0067 -0.0126 -0.0282 -0.0035 0.0011 -0.0434 0.008 -0.0009 0.0073 0.0028 0.0022 0.0028 0.012 -0.008 0.0059 0.002 0.0053 0.0109 -0.0067 -0.0094 -0.0014 -0.0345 0.0085 -0.0017 -0.0064 0.0062 -0.0196 0.0119 -0.0005 0.0314 -0.0235 -0.0254 0.0487 -0.0317 0.0008 0.0075 -0.0074 -0.0101 0.0198 0.002 0.0124 -0.0024 0.0187 0.0049 -0.0058 0.0098 -0.002 0.0002 0.0007 -0.0101 0.0013 -0.0089 0.0117 -0.0095 -0.0071 -0.0122 -0.0032 -0.0046
nervy -0.0262 -0.0179 -0.0239 0.0179 -0.02 0.0344 -0.027 -0.0463 -0.0005 0.0382 -0.0181 0.011 0.0444 -0.0056 -0.0514 0.0172 0.0406 0.0253 0.0222 -0.0354 0.0288 -0.0089 -0.0066 0.028 -0.012 0.0193 0.0319 0.0255 0.0361 0.0134 0.0093 0.0042 -0.0252 -0.0427 -0.0107 0.0036 0.005 0.0263 -0.0291 -0.0164 -0.0026 -0.0545 -0.0168 -0.0185 -0.0415 0.0062 0.0322 -0.0146 -0.026 -0.0277 -0.0134 -0.0095 0.0029 -0.0182 0.0225 -0.0176 -0.0011 0.0012 -0.031 0.0078 -0.0072 0.0168 0.025 -0.0042 0.0299 0.0097 -0.0277 -0.0266 -0.0396 -0.0258 0.0208 -0.0002 0.0189 -0.0194 -0.0056 -0.0066 -0.0176 -0.0052 0.0194 0.0204 -0.0252 -0.0074 -0.0159 0.0401 0.0253 -0.0067 0.0205 0.0299 0.0648 -0.0433 0.0234 0.0013 -0.068 0.0299 -0.0019 0.0687 -0.031 0.0033 0.0254 -0.0073 -0.0067 0.0218 -0.0515 0.0564 0.0013 -0.0325 -0.0005 -0.039 0.0119 0.0079 -0.007 0.0305 -0.0255 0.0165 -0.0186 0.0498 0.0008 0.0517 -0.0258 0.0267 0.0325 -0.0424 -0.002 -0.0327 0.0385 -0.0208 0.0247 0.0165 -0.002 -0.0377 0.0035 0.037 -0.0449 0.0076 -0.0436 -0.0419 -0.0021 0.047 -0.0237 0.0132 0.0261 -0.0065 -0.0105 -0.0414 -0.0116 -0.0207 -0.0113 -0.0035 0.0049 -0.029 0.0136 0.0251 0.0007 0.0376 -0.0232 -0.0107 0.016 -0.0024 0.0297 0.0059 0.0425 -0.0018 -0.0135 0.0293 -0.0504 0.0088 0.0066 -0.0175 0.0368 0.0133 -0.0509 0.0031 -0.0322 0.0185 0.0276 0.0109 0.0152 -0.0011 0.0181 -0.055 -0.0118 -0.0326 -0.0484 -0.0188 0.03 -0.0867 -0.0104 0.066 -0.0472 0.0099 0.0545 -0.0043 0.0065 -0.036 0.0093 0.0338 0.0138 0.0296 0.0337 0.0216 -0.0526 0.0453 -0.0107 0.0199 -0.0166 -0.0014 -0.0155 0.0066 -0.0097 -0.0325 0.0161 -0.0161 0.0062 0.0487 0.0383 -0.0227 -0.0303 0.014 -0.0484 -0.0196 0.0162 0.0066 -0.0181 0.0122 -0.0017 0.0112 0.015 0.054 -0.0063 -0.0342 0.0225 0.0013 -0.009 -0.0052 0.0603 -0.0621 0.0079 -0.0134 0.0248 -0.0644 0.0478 0.0019 -0.0107 0.04 -0.0384 0.0317 -0.0506 -0.0278 -0.0097 0.0062 0.0253 -0.029 -0.0037 -0.0026 0.0069 0.0199 0.0359 -0.013 0.0244 -0.0359 0.0212 0.0151 0.0377 0.0182 -0.0088 0.0182 0.0175 -0.0042 -0.017 -0.0217 0.0433 0.0307 -0.0548 -0.0041 0.0727 -0.0953 0.0293 0.0178 0.0096 -0.0096 0.0816 0.0034 0.009 0.0068 -0.0411 -0.0157 0.042 -0.0397 0.0072 -0.0222 0.0176 0.0145 -0.0006 0.0285 -0.0151 -0.0278 0.0044 0.0375 -0.0212 -0.0053
architectures -0.0056 -0.0079 -0.0184 -0.0127 -0.0067 -0.0047 -0.001 -0.0205 0.0038 -0.0021 0.022 -0.0147 -0.0041 0.0187 0.0011 0.0044 0.0141 0.0031 0.0112 -0.006 -0.0178 0.0064 0.0166 0.0172 0.0079 0.0116 -0.0048 -0.0072 0.0296 0.0024 -0.0069 -0.0213 -0.0004 -0.0091 0.0099 0.0123 0.0108 0.003 0.0194 0.0052 -0.0232 -0.0325 0.0081 0.0016 -0.0258 -0.0116 -0.001 -0.0038 -0.0012 0.0007 -0.0083 -0.0046 -0.0052 0.004 -0.0192 0.0049 0.0051 0.0104 0.0048 0.003 0.0095 0.0085 0.0338 -0.0119 0.0261 0.0075 -0.006 0.0001 0.0016 -0.0014 -0.0025 0.0037 -0.0018 -0.0105 0.0074 -0.0111 -0.0033 -0.0126 -0.0017 0.0092 0.001 -0.0133 0.0056 -0.0008 0.0201 -0.0098 -0.0033 -0.0073 -0.0131 0.0082 -0.0019 -0.0001 -0.0174 0.0149 0.0039 0.0207 0.0055 -0.0089 -0.005 0.0245 0.0074 -0.0051 0.001 0.007 0.0027 -0.0092 -0.0055 0.0138 -0.0021 -0.0091 -0.005 0.0203 0.0109 0.0091 0.0001 -0.0123 -0.0158 0.0158 -0.0068 0.0106 -0.0037 -0.0113 -0.0114 -0.0054 0.0303 0.0202 -0.0099 -0.0029 0.0141 0.0348 -0.0146 0.0117 0.0123 0.0115 -0.0088 0.0208 -0.0122 0.0012 -0.0056 0.0008 0.0083 0.0157 -0.0023 0.0132 0.0081 -0.0035 0.0003 0.0032 0.0066 -0.0112 0.0023 0.0185 0.011 -0.0205 0.0024 0.0078 0.0075 0.0065 -0.0039 0.012 0.0051 -0.0001 -0.0031 -0.0181 0.0039 -0.0021 0.0068 -0.0025 0.0114 0.0069 0.0107 -0.0078 0.0007 -0.0027 -0.0024 0.0103 -0.013 -0.0075 -0.0196 -0.0154 0.0185 -0.0093 0.0025 -0.0005 0.0009 -0.0034 0.0101 0.0295 -0.0046 -0.0051 -0.0049 0.0205 -0.011 0.012 -0.0008 0.0051 -0.0077 -0.0061 0.0177 -0.0065 -0.0341 0.0007 -0.0071 -0.003 0.0086 -0.0121 0.002 -0.0031 -0.0001 -0.0032 0.0248 0.0084 0.0132 -0.0116 -0.0001 0.0169 0.002 0.0069 -0.0167 -0.0059 -0.0102 0.0009 0.0134 0.0204 0.0074 -0.0048 0.0012 0.0008 -0.0155 0.0093 -0.0179 -0.0021 -0.0165 0.0033 0.0029 -0.0111 0.0043 0.0068 0.0069 0.0075 -0.0197 -0.0054 0.0079 -0.0005 0.0168 -0.0024 -0.0202 -0.0134 0.0109 0.0115 -0.0003 -0.0082 -0.0089 -0.0148 -0.0106 0.0186 -0.0127 0.0021 0.0042 0.0048 -0.0041 0.0288 -0.0204 -0.0032 0.0082 -0.0184 0.0191 -0.0007 -0.0008 0.0032 -0.0121 0.0177 -0.0236 -0.0137 0.0011 -0.0037 0.0248 0.0025 -0.0019 0.0025 0.0101 0.0081 -0.0243 0.007 -0.0048 -0.0083 -0.0077 -0.0003 -0.0035 -0.0032 -0.0232 -0.0035 -0.0042 -0.0272 0.0209 0.0002 0.0051 0.0075 -0.0002 -0.0023
uur -0.0036 -0.0275 -0.0149 -0.015 -0.0042 -0.0024 -0.0016 0.0081 0.0001 -0.0064 -0.0095 -0.0048 -0.0123 -0.0086 0.0581 0.0116 0.0108 -0.0282 -0.0121 0.0066 -0.0201 -0.004 -0.0107 -0.0383 0.0207 0.0353 0.011 -0.0063 0.0003 -0.0392 0.0085 0.0219 -0.0057 0.0221 -0.0047 -0.023 0.0266 0.0048 0.0158 -0.0042 -0.0002 0.0131 -0.0415 -0.0139 0.0383 -0.0192 0.0139 -0.02 -0.0215 -0.0304 -0.02 -0.0498 0.0137 -0.0237 0.0095 0.0138 0.0186 -0.022 0.0002 0.0143 -0.0579 -0.0205 0.0119 0.005 -0.0268 0.024 -0.0056 -0.0079 -0.0186 0.0205 0.0493 -0.0451 0.0072 -0.0097 -0.0206 -0.0139 -0.0044 0.0285 0.0094 0.0114 -0.0232 -0.0685 0.0359 -0.042 0.07 0.0142 0.0123 0.0232 -0.0301 0.0152 0.0113 0.0257 0.0544 0.007 0.0735 0.0312 0.0082 0.0358 -0.0222 -0.0159 0.003 -0.0472 0.0132 -0.0435 0.0049 0.0023 -0.0145 -0.0022 0.0038 -0.0124 -0.0215 0.0025 -0.0107 0.0195 -0.0308 -0.0096 -0.0102 0.0371 0.0917 0.002 0.0031 0.0475 -0.0014 0.0232 -0.0065 0.02 0.0237 -0.0024 -0.0133 -0.0444 0.0213 0.0089 -0.0293 -0.0366 -0.0381 0.0101 0.0121 -0.0064 0.0646 0.0049 -0.0544 0.0074 -0.019 0.0108 -0.0173 -0.0195 -0.0346 0.0439 -0.0291 -0.024 -0.0389 0.0058 -0.014 0.0272 0.0046 -0.0638 0.0019 -0.0068 -0.0208 0.0294 -0.0507 -0.0048 0.0292 0.0601 -0.0182 0.0166 -0.0124 0.0035 -0.0074 0.0469 -0.0153 -0.0084 -0.0367 0.0394 -0.0114 0.0433 -0.0535 -0.009 0.0051 0.0077 0.0072 0.0346 -0.0591 0.0023 -0.0143 0.0082 -0.0188 0.1512 0.0068 0.0108 0.0261 -0.0041 0.0064 0.024 0.0157 -0.0159 0.0109 0.0143 0.003 0.0023 0.0175 -0.0131 0.0062 0.0147 0.0036 -0.0016 0.0205 0.0207 -0.0271 -0.0333 0.0583 -0.0888 -0.0037 -0.02 0.0329 -0.0147 0.0192 -0.0093 0.0114 0.0133 0.0134 -0.0201 -0.0138 -0.0134 -0.0001 0.0007 0.0247 0.0188 0.01 0.0356 -0.0161 -0.0035 0.0112 0.0154 0.0067 0.003 0.0338 -0.0191 0.0023 0.0295 -0.0079 0.0036 -0.0107 0.0077 0.0175 -0.0266 0.0301 -0.0111 -0.0311 0.0114 -0.0213 0.0182 0.0079 -0.0069 -0.0127 -0.0358 0.0043 -0.024 0.0004 -0.0116 0.0007 -0.0134 -0.0094 -0.0634 0.0296 -0.0259 0.0151 0.0082 0.0105 0.0155 0.043 0.0398 0.0564 0.0104 -0.0392 0.0055 0.0081 0.0264 0.0418 0.001 -0.003 0.0141 -0.0165 -0.0017 -0.0137 0.0551 0.0444 0.0169 0.03 -0.0387 0.0375 -0.0432 -0.0013 -0.0146 0.0197 -0.0111 0.0161 -0.0191 0.0314 -0.0231
timebomb 0.0021 0.0005 -0.0397 0.0103 -0.0021 -0.0133 0.0051 -0.0271 0.0169 0.0047 -0.0024 -0.0101 0.0208 0.0021 -0.0119 -0.0076 0.0058 0.0038 0.0191 -0.0129 0.0197 0.0444 0.002 0.0077 -0.0007 -0.0018 0.011 -0.0031 0.0098 0.012 -0.0036 -0.0051 -0.004 -0.0205 0.0044 -0.0222 -0.0114 -0.0163 -0.0303 0.0048 -0.0324 -0.0657 0.0046 -0.0209 0.0238 0.0124 0.001 -0.0003 -0.0004 0.0164 -0.021 -0.0055 -0.0092 -0.026 -0.0245 0.0203 -0.0169 0.018 -0.0289 -0.0293 -0.0023 -0.0173 0.0283 0.0095 0.0114 0.0208 0.0235 0.0051 0.0026 0.0119 0.0213 0.0109 -0.0279 -0.024 -0.0026 0.0033 0.0102 -0.0403 -0.0103 -0.0279 -0.0117 -0.0242 -0.0313 0.0396 -0.0045 0.0392 -0.0033 0.0041 0.0066 -0.0258 0.0122 0.0199 -0.0374 -0.0095 -0.0158 0.0127 -0.0065 -0.0182 0.0032 0.0061 -0.0024 0.0062 0.0196 -0.012 -0.0096 -0.0339 0.0131 0.0008 -0.0136 -0.018 -0.0386 0.0131 0.0525 0.0136 -0.0026 0.0089 -0.0112 -0.0052 -0.0228 -0.007 -0.015 -0.0173 0.0153 0.0025 0.0426 -0.0045 0.024 -0.0542 0.0049 0.0226 -0.0001 0.0047 -0.0106 0.0077 -0.0002 0.0122 -0.0366 0.029 0.0201 0.0171 0.0027 0.007 0.0177 0.0333 -0.0151 -0.0073 0.004 0.0338 -0.0051 0.0178 0.0025 0.0177 -0.0132 -0.0378 0.0047 0.0 0.0351 -0.0093 0.0027 -0.0516 0.0184 0.0134 -0.0657 0.0027 -0.024 0.0066 0.0078 0.0076 -0.0207 0.009 -0.0455 -0.0024 0.0103 -0.0244 -0.0209 0.0159 0.0054 -0.0241 0.0026 0.002 0.0094 -0.0143 0.0025 -0.008 -0.0062 -0.0044 -0.0271 0.0222 0.0216 0.0046 -0.0215 -0.0056 0.002 -0.0071 0.0168 0.0102 -0.0032 -0.0051 -0.0125 0.0152 -0.0565 0.0128 -0.0044 0.0213 -0.0312 -0.011 0.0326 -0.0182 -0.0291 -0.0117 0.0433 0.008 0.0274 0.0089 0.0219 -0.0042 -0.0172 0.0069 0.0069 -0.023 -0.0128 0.0188 0.009 0.0175 0.0172 -0.0152 -0.0159 0.0309 0.0091 -0.0091 -0.0003 -0.0275 0.0117 -0.0048 0.0104 -0.0186 0.0196 0.0033 0.0017 -0.0138 0.0138 0.0073 0.011 0.0093 0.005 0.0045 0.0239 0.0225 -0.0118 0.0033 0.001 0.0163 -0.0073 -0.0225 -0.023 0.0069 0.0121 0.0043 0.0252 -0.0102 0.0163 -0.0331 0.0067 -0.0223 -0.0082 -0.0137 -0.0223 0.0202 0.0107 -0.0131 -0.0026 0.0367 -0.0372 -0.026 0.0343 -0.0053 0.0397 0.0332 0.0237 -0.0065 0.0096 0.0183 0.0051 0.0097 -0.0179 0.0149 0.0093 -0.0147 -0.0004 -0.001 0.0425 -0.022 -0.0365 0.0035 0.0074 0.001 -0.0008 0.0335 0.006 -0.0102
communique 0.0369 0.0197 -0.0137 0.004 0.0111 -0.0055 -0.0117 -0.0342 -0.0133 0.0239 -0.0147 -0.0477 0.0068 0.0105 0.0099 0.0091 0.0199 -0.0074 0.0135 0.0003 0.0053 -0.0062 0.0193 0.011 -0.0037 -0.0108 0.0087 0.0138 0.0427 -0.0141 -0.0028 0.0207 -0.0148 -0.0257 0.0116 0.0007 -0.0206 0.0117 -0.0116 -0.0128 -0.014 -0.0255 0.0022 -0.0098 0.0187 0.0299 -0.0118 -0.0108 0.0174 -0.0178 -0.0062 0.0083 0.0024 -0.0105 0.0098 0.0068 -0.0124 -0.0261 -0.0003 0.0083 -0.0016 0.0035 0.0346 -0.0122 0.0001 0.0018 0.0224 0.0368 0.0086 -0.0002 -0.0239 0.0012 -0.0016 -0.0075 0.0102 -0.0097 0.0102 -0.0145 0.0087 0.0292 0.0011 -0.0095 0.0127 0.0127 -0.0181 -0.0013 0.0058 0.003 -0.0033 -0.0048 -0.0036 0.0033 -0.0263 -0.0134 0.0158 0.006 0.0155 -0.0181 -0.0033 0.0147 -0.0221 -0.0141 0.0057 0.0124 -0.0134 -0.0217 -0.0118 -0.0124 -0.0103 -0.0013 0.0084 0.0081 0.0041 0.0092 -0.0048 -0.0037 -0.0058 0.0062 -0.0168 -0.0005 -0.005 0.0066 -0.0019 0.0262 0.0196 0.014 0.011 -0.0111 0.0141 0.0013 0.0081 -0.0025 0.0046 0.0017 -0.0215 0.0127 -0.0057 0.0367 -0.0064 0.0304 0.0315 0.0028 0.007 -0.0137 -0.0418 0.0193 -0.0072 0.0023 -0.0159 -0.0061 0.0045 0.0275 0.0253 0.0032 0.0151 0.0089 -0.005 -0.0073 -0.0107 0.0302 0.0288 -0.0264 0.0082 0.002 -0.0219 0.0055 0.0191 0.0131 0.0158 0.0037 0.0038 0.012 -0.0105 -0.0004 -0.0213 -0.003 0.0112 0.0067 -0.0037 0.0042 -0.0202 0.0282 0.0017 0.0059 -0.0001 0.0268 -0.0221 0.0182 0.0138 -0.0333 -0.0103 0.0341 0.0252 -0.0195 -0.0054 -0.0041 0.007 -0.0043 -0.026 0.0066 -0.0342 0.0305 -0.0155 0.0445 0.0191 -0.0045 0.0165 0.0064 -0.0051 -0.0116 0.0314 0.0092 -0.0053 -0.0047 -0.0115 0.0037 -0.0105 0.0067 0.0015 -0.0003 -0.0116 -0.0259 0.0138 0.0285 -0.0009 0.0176 -0.004 0.0008 -0.0127 -0.0095 0.0037 -0.0627 0.0079 0.0138 -0.0088 -0.0138 -0.0161 -0.0062 0.0126 -0.0171 0.0235 0.024 0.0018 0.0098 -0.0414 0.0178 -0.0087 0.0181 0.0125 0.0039 0.0301 0.0015 0.0011 -0.0376 -0.0409 -0.0193 -0.0144 -0.0231 -0.001 0.0125 -0.0203 -0.0157 0.0037 -0.0037 -0.0063 -0.0001 0.0101 0.0277 -0.017 0.0133 0.011 0.0247 -0.0328 0.001 0.0158 -0.0406 0.0033 0.0105 0.0139 0.0106 -0.0178 0.0106 0.0135 0.0047 0.0023 -0.0034 -0.0182 -0.0005 0.0098 0.006 0.0093 0.0063 0.0292 0.0174 0.0095 0.0184 0.0373 -0.0016 -0.0325 -0.0132
filings -0.0185 0.0164 0.033 -0.0024 0.0355 0.0223 -0.0141 -0.0301 0.022 -0.0166 0.0058 -0.0393 0.0013 0.0058 -0.0335 -0.0163 0.0088 -0.016 0.02 0.0094 0.0262 -0.0151 -0.0129 0.0237 -0.0183 0.0288 -0.0136 -0.0176 0.0276 -0.0195 -0.0029 -0.019 -0.0393 -0.0287 0.0262 0.0393 -0.0142 0.0186 -0.0029 -0.0068 -0.0403 -0.0338 0.005 0.0236 -0.013 0.0146 0.0022 0.0318 -0.0032 0.0137 -0.0166 0.0171 0.0096 0.0139 -0.0333 0.0076 -0.0018 0.0227 -0.0053 0.0026 0.009 0.0217 0.0473 -0.0052 0.0122 -0.0201 -0.0122 0.014 -0.0217 0.0205 -0.0212 -0.0235 0.0087 -0.0115 0.0058 -0.001 -0.0236 -0.0116 -0.0085 -0.0492 -0.0071 -0.0143 -0.0291 -0.0028 0.0144 0.0072 0.0084 -0.0048 0.0599 -0.0469 -0.0292 0.0012 -0.0212 0.0132 -0.0022 0.0211 -0.0254 0.0179 -0.0043 0.0053 -0.0219 -0.025 0.0108 -0.0231 0.0266 -0.0215 -0.0007 -0.0274 0.0239 -0.0168 -0.0061 -0.0038 0.0275 0.0067 -0.0243 -0.0214 -0.0216 -0.0598 -0.034 0.0158 0.015 -0.0035 0.0452 0.0105 0.0486 -0.0093 -0.0078 -0.0032 0.0042 0.0695 -0.0073 0.0249 -0.0307 -0.0009 -0.0075 -0.0155 0.0202 0.0225 -0.0092 -0.0201 0.0234 -0.0127 0.0064 0.0249 -0.0162 -0.0229 0.0102 -0.036 -0.0021 -0.0151 -0.0254 0.0269 0.0003 -0.0366 0.0164 -0.0079 -0.0058 -0.0155 0.0086 0.0148 0.0377 0.0045 0.0017 -0.0232 0.0427 -0.0009 0.0023 -0.0191 0.0014 -0.0185 -0.0247 0.011 0.0139 0.0153 -0.0204 0.0122 -0.0122 -0.027 -0.0246 -0.0132 0.0218 -0.026 0.0194 -0.0052 -0.0105 -0.0027 -0.0043 0.0366 0.0262 0.0064 -0.0238 0.02 -0.0337 0.0136 0.0093 0.0171 -0.0099 0.0002 -0.0125 -0.0215 -0.0641 0.019 -0.0187 0.0257 0.0411 0.0016 0.0181 -0.0088 -0.003 -0.0057 0.0468 0.0179 -0.0018 0.0334 0.0023 -0.0185 0.0036 -0.0029 -0.0235 -0.0289 0.0192 -0.0302 -0.0146 0.0403 0.0279 0.0009 0.0196 0.0236 -0.0023 0.0163 0.0017 -0.0386 0.0077 0.0189 0.0169 -0.0267 -0.0079 -0.0201 0.0123 -0.0223 -0.0123 0.04 -0.0195 -0.0053 0.0054 -0.0404 -0.0046 -0.0252 0.005 -0.005 -0.0021 -0.0393 0.0074 -0.0366 -0.0097 0.0028 0.0211 -0.0095 -0.0184 0.0131 -0.0158 0.0324 -0.0009 -0.0106 0.0188 -0.0348 0.0052 0.0177 -0.0551 -0.0029 0.0083 0.0383 -0.0611 -0.0182 -0.0139 0.0016 -0.0006 0.0375 -0.0203 -0.021 0.0131 -0.0023 0.0389 0.0128 -0.0121 -0.0027 -0.053 0.0387 -0.0549 0.034 -0.0025 -0.0025 0.0101 -0.0041 0.0086 -0.0221 -0.0528 -0.0003 0.0303 0.0178
staements 0.0005 0.0023 -0.0049 -0.0012 0.0091 -0.0054 -0.0029 -0.0238 -0.0152 -0.0024 0.0004 -0.0182 0.0096 -0.004 0.0071 0.0048 0.0091 -0.0045 0.0121 -0.0006 -0.0003 0.0062 0.0057 0.0221 0.0021 0.0055 0.0064 0.0047 0.0343 -0.017 0.0056 0.0074 0.0062 -0.0195 -0.0109 0.0145 -0.0156 -0.0125 -0.0073 0.0023 -0.0039 -0.0216 -0.002 0.0039 0.0049 -0.0003 -0.004 -0.0034 -0.0021 -0.001 -0.0087 0.0049 0.0028 -0.0027 -0.0176 -0.0058 -0.0103 0.001 -0.0181 0.0053 -0.0041 0.0008 0.0379 -0.0139 0.0054 0.0021 -0.0009 0.0066 0.0047 0.0103 0.0011 -0.0113 0.0055 -0.0105 0.0149 -0.0031 0.0083 -0.0193 -0.0019 0.0065 0.0025 -0.0032 -0.0085 0.0259 0.0051 -0.0014 -0.0037 0.0061 -0.0165 -0.0045 -0.002 -0.0097 -0.0186 0.0077 0.0113 0.0154 0.0029 -0.0053 -0.006 -0.0023 -0.0004 0.0036 0.009 0.016 0.0028 -0.0168 -0.0071 -0.0058 0.0034 0.0129 -0.011 0.0122 0.0174 -0.0139 -0.0088 -0.0038 -0.0031 -0.0023 -0.0177 0.0157 0.0045 0.0049 0.0069 -0.0017 0.0447 0.0022 -0.0064 0.0097 -0.0032 0.045 0.0031 0.0209 -0.0008 0.0005 -0.0083 -0.0024 -0.0034 0.0306 -0.0129 -0.0022 -0.0068 -0.0082 -0.0055 0.0111 0.0045 0.0013 0.0 -0.0018 -0.0046 -0.0091 0.0101 0.0141 0.0051 -0.0026 0.0056 -0.0049 -0.0015 -0.0091 -0.004 0.0075 -0.0025 0.002 0.0004 -0.0088 -0.003 0.0001 0.0124 0.0069 0.0034 -0.0038 -0.0099 -0.0051 0.0114 0.0019 0.0057 0.0055 -0.0045 -0.0015 0.006 -0.0013 0.0001 0.0199 0.0013 0.0086 0.0103 -0.0032 0.0134 0.0186 0.0131 0.001 0.0099 0.0344 -0.0422 0.0009 0.0051 0.0097 -0.0053 -0.0081 -0.0157 0.0071 -0.0521 0.0045 -0.0018 0.0043 0.0112 -0.0056 0.014 -0.0052 -0.0048 -0.0241 0.0164 0.0164 0.0043 -0.0019 0.015 0.003 0.0081 0.0042 -0.0235 -0.0021 -0.0104 -0.0045 0.0022 0.0328 0.042 0.0028 0.0055 0.0339 -0.0074 0.0163 -0.0032 -0.0113 -0.0144 -0.0049 0.0114 -0.0034 0.0102 -0.0014 0.0048 -0.0026 -0.0017 0.0006 0.0009 0.0108 -0.0274 -0.0014 0.002 -0.0136 -0.0057 0.0017 0.007 -0.0033 0.0048 0.0028 -0.0215 -0.0083 0.0087 -0.0008 -0.0007 0.0012 -0.0066 -0.0058 0.0063 -0.0234 0.0103 -0.0022 0.0067 -0.0102 -0.0057 -0.0046 -0.0018 0.0328 -0.0272 -0.0017 0.0121 -0.0143 -0.0014 0.0009 -0.0055 -0.0003 0.0132 -0.0122 -0.0011 0.0003 -0.0014 0.0262 0.0009 0.0146 -0.0081 0.0008 0.0008 -0.0114 -0.0043 0.0064 0.0005 -0.0041 -0.0067 -0.0026 -0.0112 0.0011
melancholic 0.0176 -0.003 0.0092 0.0054 0.0042 0.0001 -0.0015 -0.0254 0.003 0.0159 -0.0254 -0.0149 0.0074 -0.0054 -0.0083 0.0005 0.0109 0.0086 0.0138 0.0032 -0.0057 -0.0197 -0.0117 0.0183 0.0119 -0.006 -0.0037 0.0159 0.0033 -0.0126 -0.001 -0.0138 -0.0048 -0.0153 0.0084 0.012 0.0065 -0.011 0.0108 0.0013 0.0155 -0.0271 -0.0075 0.0096 -0.0112 -0.0068 0.0044 -0.0004 0.0029 -0.0184 -0.0097 -0.0274 -0.0092 0.0063 0.006 -0.0231 0.0032 0.0013 -0.0118 0.007 -0.0037 -0.011 0.0207 -0.019 -0.0004 -0.0129 -0.0145 0.0011 -0.0114 0.016 0.0243 0.0072 0.0305 -0.0059 -0.0018 0.0141 -0.0044 -0.014 -0.002 -0.0032 -0.0125 -0.0173 0.0048 0.0036 0.0069 -0.014 0.0106 0.018 -0.0177 -0.0235 -0.0017 -0.0058 -0.0317 -0.0042 0.0068 0.0136 0.004 -0.0093 0.0094 0.0142 0.0065 0.0056 -0.0131 0.0005 -0.0193 -0.0264 -0.0102 -0.0039 0.0047 0.0031 -0.0026 0.0199 0.0036 0.0074 -0.0215 0.0209 0.0036 0.0111 -0.0116 0.0051 -0.0018 -0.0172 -0.0159 -0.0065 0.0378 0.004 0.0242 -0.0 0.0044 -0.0048 0.0061 0.0131 -0.0127 0.0006 0.0049 0.0065 0.0098 0.0193 0.0298 0.0046 0.011 -0.0215 -0.0018 -0.0021 0.0056 -0.0142 -0.0136 0.0094 0.0027 0.018 0.0156 0.0374 0.0276 0.0093 -0.0091 0.0136 -0.0208 -0.0043 0.0022 -0.0023 0.0159 -0.0077 -0.0268 0.0118 -0.0236 0.0157 0.0087 -0.0003 0.0098 0.017 -0.0238 -0.0074 0.0028 0.0071 0.0175 0.012 0.0282 -0.006 -0.0101 -0.0274 -0.0138 -0.0064 -0.0074 0.002 0.0145 -0.0212 0.006 0.0316 -0.0205 -0.0031 0.0166 0.0083 0.0195 0.0069 -0.0056 0.0029 0.0254 0.0031 -0.003 0.013 -0.0387 0.0213 -0.0043 -0.0175 0.0105 0.0004 -0.0081 -0.0033 -0.0016 -0.0096 0.0101 -0.0112 0.0024 0.003 0.0133 -0.0034 -0.0131 -0.0015 -0.0247 0.0017 -0.007 0.0002 0.0053 0.0282 -0.0127 0.0101 0.0231 0.0312 0.0018 -0.0112 0.0083 -0.0071 -0.0093 -0.0105 0.0029 -0.0091 0.0069 -0.0071 0.0158 -0.022 0.0275 0.0082 -0.0036 -0.0033 -0.0401 -0.005 -0.0101 -0.0046 0.0011 -0.0136 0.0192 -0.013 0.0046 -0.0103 0.0101 -0.0005 0.0014 0.001 0.0263 -0.0231 0.0015 -0.0123 0.0096 -0.0082 0.0002 -0.0096 -0.0025 0.0046 0.015 -0.0078 0.0119 0.022 -0.0254 -0.0079 0.0257 -0.0351 0.0195 0.0 0.0098 0.0205 0.03 0.0027 -0.0148 -0.0196 -0.0108 0.0092 -0.002 -0.0236 -0.0042 -0.0084 0.0189 -0.0034 0.0127 -0.0023 -0.0116 0.0081 0.0223 0.0253 0.0111 0.0168
symbiogenesis -0.0103 -0.0079 0.0099 0.0079 -0.0087 -0.0018 0.0145 -0.0199 -0.0002 0.0051 0.0159 -0.0025 -0.0145 -0.0028 -0.001 -0.0004 0.0193 0.0064 0.0196 0.01 -0.0011 0.0037 0.0019 0.0064 -0.001 -0.0089 0.0068 0.0065 0.015 0.0179 0.0149 0.0079 0.0015 -0.0229 0.001 -0.0077 0.0036 -0.0262 0.0025 0.0039 -0.0185 -0.0152 -0.0121 0.0029 -0.0026 -0.0076 -0.0184 -0.0158 -0.0013 0.0005 -0.0128 0.0082 0.0042 0.0062 0.0017 -0.011 0.0006 0.0039 -0.0149 0.0224 0.0018 0.0017 0.001 -0.0074 0.0212 -0.0068 0.0016 0.0032 0.0041 -0.0235 -0.0065 -0.0072 -0.0051 0.0004 -0.0062 -0.0158 -0.0207 -0.0091 -0.0027 -0.0041 0.0084 0.0063 -0.0016 0.0079 0.0041 -0.0081 0.0089 -0.0049 0.0174 0.0203 0.0027 -0.0082 -0.0225 0.0027 -0.0047 0.003 0.0185 -0.0094 -0.0062 -0.0039 -0.0148 -0.0032 -0.0054 -0.0009 -0.0134 -0.0059 -0.0074 -0.0112 0.0029 0.0001 -0.002 0.0119 0.0096 -0.0132 0.0042 0.0125 0.0109 0.0176 -0.0127 0.0028 -0.0202 -0.0024 -0.001 0.001 0.0081 0.004 0.0053 -0.0041 0.0122 0.019 0.0069 -0.0059 -0.0062 0.001 0.002 0.0143 -0.0114 0.0057 -0.003 0.0053 0.0047 0.0111 -0.0015 0.019 0.0045 -0.0138 0.0095 -0.0043 -0.0044 0.0013 0.0181 0.0071 -0.0069 -0.0088 -0.0018 0.0002 -0.0001 -0.0113 0.0101 0.0032 -0.0094 0.0149 -0.0214 -0.0057 0.0044 0.0015 -0.011 0.0067 0.0122 -0.009 0.005 -0.0008 -0.0061 -0.012 -0.0084 0.0011 -0.0021 0.0026 0.0074 -0.011 -0.0049 0.0247 0.0028 0.0136 -0.0037 -0.016 -0.007 0.0176 0.0042 0.0238 0.0084 0.0075 -0.0253 0.0052 -0.0163 -0.0058 -0.0079 -0.0053 -0.0031 0.005 -0.0397 0.0174 -0.0157 -0.0105 -0.0089 0.0183 0.0044 -0.0199 -0.0149 -0.0094 0.0206 0.0009 0.0095 -0.0152 0.024 0.0233 -0.0231 0.0033 -0.0027 0.0033 -0.0002 0.0123 -0.0014 0.0298 0.0091 -0.0021 0.0207 0.0135 0.0051 -0.0035 -0.0135 -0.009 -0.0273 0.0107 0.0087 -0.0021 0.0002 -0.0077 0.0025 0.0048 0.0159 -0.0152 -0.0088 0.0013 0.0032 -0.0058 -0.0136 -0.0084 -0.0017 0.0094 0.0107 0.0011 -0.0126 -0.0171 -0.0004 0.0001 0.0081 0.006 0.0007 -0.006 0.0086 0.0029 -0.0083 -0.0016 0.0103 -0.0019 -0.0091 0.0024 0.0069 0.0024 -0.004 0.0184 -0.0245 -0.009 0.0089 -0.0159 -0.0079 -0.0056 -0.008 0.0015 0.0153 -0.0147 0.0011 -0.0135 -0.0088 -0.0034 -0.0054 0.0025 -0.0122 0.0109 0.0034 0.0209 0.0008 -0.0357 -0.0008 -0.0217 0.0083 0.0147 -0.0083 0.0102
beseeched -0.0072 0.0104 0.0034 0.0022 -0.0064 -0.0058 -0.0291 -0.0231 -0.0078 0.0047 0.0016 0.0252 -0.0023 0.006 0.007 -0.0204 -0.0189 -0.0131 0.0061 -0.008 0.009 -0.0153 -0.0024 0.0262 0.01 -0.0019 0.0022 0.0161 0.0352 -0.0204 -0.0112 0.0124 -0.0071 0.0349 0.0053 -0.0134 0.0095 0.0021 -0.0133 0.0007 -0.004 -0.0011 0.0051 0.0197 -0.0031 0.0188 0.0002 0.0056 0.0362 0.0107 0.0161 0.0071 0.0018 0.0039 -0.0391 -0.011 -0.0134 -0.0133 -0.0203 0.0108 0.0037 0.0206 0.0382 -0.0077 -0.0096 0.0018 -0.001 0.0027 -0.0183 -0.0139 0.0108 0.0074 0.0453 -0.0154 0.0221 -0.0128 -0.0018 -0.0246 -0.0012 0.0063 -0.0216 0.0101 0.0102 0.0196 -0.0053 -0.0106 0.016 -0.0032 -0.0143 -0.012 -0.0163 -0.0046 -0.049 -0.0383 0.0111 0.0001 -0.0087 0.0003 -0.0047 0.0029 -0.0231 0.0009 0.0224 -0.0165 0.0053 -0.0396 0.0107 -0.0183 0.0051 0.0087 -0.0146 0.0151 0.013 -0.0068 0.0096 -0.0006 0.0229 0.012 0.0085 -0.0379 0.0067 0.0005 -0.0176 0.0065 0.0122 -0.0039 -0.0162 0.0025 0.0162 0.031 -0.0092 0.0216 -0.0158 0.0208 0.0259 0.0011 -0.011 0.0409 0.0023 0.0209 0.0184 -0.0139 -0.0151 0.0019 -0.0076 0.0128 0.0124 0.0085 0.0159 0.0036 0.0128 0.0172 0.0033 -0.0042 -0.0015 -0.0147 0.0032 -0.0128 -0.0059 -0.0151 0.0162 0.0019 0.0325 0.0156 -0.0114 0.0052 -0.0063 -0.0108 -0.0097 0.0045 -0.034 -0.0099 -0.001 -0.0039 0.007 -0.0078 0.0091 -0.0046 0.0076 0.0205 -0.0118 -0.0079 -0.0065 0.0154 -0.0249 0.0007 -0.0215 0.0207 0.0086 -0.0231 -0.0105 -0.0167 -0.0197 0.0046 0.0131 0.0067 0.0086 0.0291 0.0044 -0.0075 -0.0208 0.0192 0.0226 0.0005 0.0108 -0.013 -0.004 0.0114 0.009 -0.0118 0.0167 0.0324 0.0227 0.0276 -0.0021 -0.0087 0.022 -0.0155 0.0228 0.0041 0.0113 0.0066 -0.0111 0.0207 0.0096 0.0027 0.0153 0.0387 -0.005 -0.0123 -0.0178 -0.044 -0.0416 -0.0154 0.0404 0.0068 -0.0177 -0.0073 -0.0071 0.0066 0.0802 -0.0134 -0.0085 -0.0044 -0.0568 -0.0289 0.0116 0.0051 -0.0185 0.0019 0.0111 -0.0077 0.0124 0.0142 -0.0009 -0.0099 -0.0051 0.0308 0.0041 0.0034 -0.0131 0.0032 -0.013 0.019 0.0041 0.0107 0.0083 0.0085 -0.006 0.0005 0.0016 0.0408 -0.0375 0.0019 0.0157 -0.0351 -0.0185 -0.0116 -0.0159 0.0163 -0.0763 0.009 -0.0025 -0.0089 0.0109 0.0156 -0.0083 -0.0292 0.0017 0.0252 0.0241 0.0042 0.0252 0.0098 0.0058 -0.0205 0.0163 0.0082 0.0007 0.0041
determining 0.0064 -0.0212 -0.0132 0.01 -0.0102 -0.0097 0.0047 -0.0271 -0.0151 0.0057 0.0113 -0.0064 0.0081 0.0123 -0.0045 0.0101 -0.0033 -0.0096 0.0079 0.0118 -0.0033 0.0101 0.0114 0.0135 0.0034 0.0021 -0.0115 -0.0064 0.0051 -0.0033 -0.0012 0.0085 0.0079 -0.0245 0.0016 -0.0097 -0.0121 -0.0085 -0.0058 -0.0025 0.0039 -0.0299 -0.0086 -0.002 -0.0087 -0.0186 0.0099 -0.004 0.0007 0.0032 -0.0052 0.0063 -0.0014 0.0173 -0.0034 0.0043 0.0108 0.011 0.0038 -0.0066 0.0046 0.003 0.0032 -0.0011 0.0127 -0.0178 0.0102 0.0166 -0.0081 0.0083 0.0108 0.0017 0.0106 -0.0043 0.0103 0.012 -0.0045 -0.0273 -0.0082 -0.0196 -0.0042 0.0067 0.0142 0.0111 -0.0055 -0.0046 0.0163 -0.0062 -0.0001 0.0034 0.0158 -0.0242 -0.0198 -0.019 -0.0001 -0.0111 -0.0156 0.0015 0.0092 -0.0055 0.0012 -0.0043 0.0013 0.0082 0.0006 -0.0117 0.0057 0.0068 -0.0008 -0.0087 0.0272 0.0202 0.0235 -0.029 0.006 -0.0032 -0.0094 0.0012 -0.0106 -0.0005 -0.0076 -0.0014 0.0077 0.0113 0.0112 -0.0043 -0.0088 -0.0561 0.008 0.0349 0.0174 0.001 -0.0005 0.012 -0.0093 0.0175 0.0005 -0.01 0.0154 0.0058 0.0052 0.0039 -0.0022 0.015 -0.0014 -0.0052 -0.0123 -0.001 0.0032 0.0153 -0.0099 0.0041 0.0018 -0.0314 0.0171 0.008 -0.0076 0.0031 -0.0063 0.0145 0.0064 -0.002 -0.0069 -0.0047 0.0111 0.0091 0.002 -0.0058 -0.0024 -0.0072 0.0107 0.0081 -0.0027 -0.0027 -0.0113 0.013 0.0091 0.0147 -0.0263 -0.0051 0.0074 0.0011 -0.0061 -0.0108 -0.0084 -0.0293 0.0059 0.0412 -0.0039 -0.004 0.0087 0.0152 -0.012 0.0074 0.0055 0.0077 -0.0046 0.0122 -0.0071 0.009 -0.0428 0.0141 0.0102 0.0069 -0.0032 0.0117 0.002 -0.0071 -0.0045 0.0068 0.0065 -0.0018 -0.0029 0.0034 -0.0 0.0038 0.0097 -0.0139 -0.0005 -0.0129 -0.0029 0.0047 0.0062 0.0296 -0.0099 0.0045 -0.0044 0.0213 -0.0071 -0.0008 -0.0045 -0.0185 -0.0587 0.0057 0.0131 0.0097 0.0001 -0.0024 0.0078 0.0038 0.0378 0.0028 -0.0072 -0.0023 -0.0622 0.0105 0.0031 0.0017 -0.0083 -0.015 0.0021 0.0059 0.0055 -0.0021 0.0067 0.0054 -0.0209 0.0286 -0.0138 -0.0055 -0.019 -0.0122 0.0049 0.0144 -0.0185 -0.0079 -0.014 0.0029 -0.0023 0.0082 -0.0024 0.0202 -0.0258 -0.0182 -0.0057 -0.0226 -0.004 0.0067 0.0046 -0.0076 0.0044 0.0124 -0.0012 0.0004 0.033 0.0023 -0.0089 -0.011 -0.0084 0.0037 0.0123 -0.0046 -0.002 0.0005 0.005 -0.0172 -0.0177 -0.0164 -0.0007 -0.0001
caca -0.0165 -0.0355 -0.0179 0.0393 0.0029 0.0015 0.0067 -0.0248 0.011 -0.0074 -0.0141 -0.0018 -0.0437 0.0057 -0.0204 -0.0013 0.067 -0.0081 0.0101 0.0125 -0.0172 -0.0016 0.0131 -0.0238 0.0109 -0.0042 0.0036 0.0159 0.0163 0.0297 0.0052 0.006 -0.0036 0.0387 0.006 -0.0131 0.0627 0.0131 0.0136 0.0033 -0.0189 -0.0425 0.0072 -0.0122 0.0527 -0.0286 -0.0237 0.0085 0.0267 0.01 0.0074 0.0326 0.0633 -0.0203 -0.0307 -0.041 -0.0314 -0.0269 -0.0335 0.0471 -0.0617 -0.0372 0.0332 -0.0145 -0.0009 0.0223 0.0312 0.0111 0.0279 -0.0255 -0.0089 0.0366 -0.0041 -0.0161 -0.0038 -0.0179 -0.0319 -0.027 -0.0077 -0.0018 -0.0275 -0.0433 -0.0026 0.0418 0.0134 -0.0458 -0.042 0.0103 -0.0057 -0.0122 -0.0188 -0.0043 -0.0484 -0.0117 0.0728 0.0681 0.0147 -0.0111 -0.0099 -0.035 0.0015 0.0203 -0.0463 -0.018 0.0007 -0.0721 -0.021 -0.0262 -0.0233 -0.0147 0.0034 0.0292 0.0071 -0.0247 0.0283 0.012 -0.0219 -0.0066 -0.0031 0.0511 -0.0233 -0.0516 -0.0108 0.0039 0.033 0.0148 0.0518 -0.0002 -0.0449 0.0401 -0.0267 0.0038 -0.0112 -0.0102 -0.0113 -0.0292 -0.0659 0.0537 0.0288 -0.0028 -0.0357 -0.0388 0.0329 -0.0034 -0.0143 -0.0174 -0.0099 0.0484 -0.0263 -0.0452 -0.0234 0.0185 -0.0142 0.0331 0.0179 -0.0803 -0.0103 -0.0087 -0.0056 0.015 -0.0152 0.043 -0.0456 -0.0453 0.0266 0.0023 -0.0222 0.0022 0.0548 0.0011 -0.0508 -0.0375 0.0169 -0.0106 -0.0047 0.0491 0.0144 0.0055 0.0083 -0.0019 0.0209 0.0127 -0.0388 0.0034 0.0059 -0.0152 0.0081 0.0606 -0.0204 0.0111 0.0325 0.0036 -0.0199 0.0016 -0.0262 -0.0021 -0.0104 0.0015 0.0101 0.0024 -0.0638 0.0071 0.0173 0.0051 -0.0059 -0.0045 0.0309 0.0235 -0.0202 -0.0316 0.0675 -0.0235 0.0081 -0.042 0.0801 0.0007 -0.0203 -0.0128 0.0218 -0.0126 0.0147 -0.0307 0.0098 0.0315 0.0148 0.0237 0.0498 0.0205 -0.0334 0.0055 -0.0124 -0.0223 -0.0403 0.0177 0.0172 -0.0049 -0.028 -0.0093 0.0204 -0.0577 0.0317 -0.0309 -0.0335 0.005 0.0074 0.0354 0.0069 0.0228 -0.0653 0.0521 0.0135 -0.0156 -0.027 -0.0389 0.03 -0.0121 -0.0072 -0.0245 0.0095 -0.0468 -0.0072 0.0021 0.011 -0.0353 0.0434 -0.0308 -0.0129 0.0115 -0.0172 0.0064 -0.0206 0.0288 -0.015 -0.0027 0.0132 -0.0334 -0.0332 -0.0098 -0.0109 -0.049 0.0295 0.0507 0.0054 -0.0172 -0.0998 0.0307 0.0009 0.0259 -0.0011 -0.0221 -0.0117 -0.014 -0.0256 -0.0094 0.0127 0.0253 0.0267 -0.0198 -0.0303 0.0183
unsubscribing 0.018 -0.0007 0.0069 -0.0147 -0.0072 -0.0018 -0.0135 -0.0335 -0.0047 -0.0115 0.0027 -0.0111 -0.0134 -0.016 -0.0091 -0.0026 -0.0096 -0.0156 0.0141 -0.0068 -0.0006 0.0064 -0.006 0.0118 -0.0049 -0.0001 -0.0065 0.0122 0.0174 0.0118 -0.0059 0.0015 0.0006 -0.014 0.0071 -0.0157 -0.0157 0.003 -0.0004 -0.0135 -0.0074 -0.0073 -0.0035 0.0054 0.0085 0.0059 0.0056 0.0055 -0.0187 0.0119 0.0003 -0.0079 0.0227 -0.0105 0.0121 0.0103 0.0008 0.0117 -0.0023 0.0088 0.0122 0.008 -0.0141 0.0108 -0.0123 0.0034 0.0098 0.0199 -0.0051 -0.0017 -0.0112 0.0106 0.0266 0.0023 0.0092 0.0043 0.0054 -0.0039 -0.0206 -0.0098 0.0005 -0.0201 0.0035 0.0079 -0.0063 0.0002 -0.0087 -0.0036 0.0038 -0.0154 0.0205 0.0085 -0.0086 0.0003 -0.0131 -0.0038 -0.0031 0.0023 -0.0028 0.005 -0.0303 0.0144 -0.002 -0.0023 0.018 -0.0192 0.013 -0.0082 0.0013 -0.0174 -0.0036 0.0202 0.0068 0.0181 -0.0106 0.0008 -0.0102 -0.0034 -0.0178 -0.0027 0.0044 -0.0006 0.0025 -0.0001 -0.0004 -0.0066 -0.0057 0.0024 -0.0002 0.0222 -0.0216 0.0171 -0.0011 0.0027 0.0058 0.0102 -0.0035 0.0192 -0.0023 0.0024 -0.0032 -0.0018 0.0029 -0.0095 -0.0096 0.0052 -0.0047 0.0002 0.0123 0.0023 -0.0058 0.0038 -0.0106 -0.0098 0.0046 0.0065 0.0022 0.0034 0.006 -0.0022 0.0077 0.0065 -0.0102 0.002 0.0072 0.0058 0.0061 0.01 -0.0171 -0.0077 -0.0117 0.0054 0.003 -0.0005 0.0035 0.0017 0.0171 -0.0054 -0.0032 -0.0143 0.0082 -0.0005 0.0099 0.0003 0.0033 -0.0263 -0.0095 0.0192 -0.0013 0.0009 0.0064 0.0032 -0.0126 -0.0034 0.0167 -0.0081 0.0052 -0.017 -0.0076 0.0149 -0.029 0.0156 -0.0032 0.0051 -0.001 -0.0022 -0.0075 0.0085 0.0007 0.0028 0.0071 0.0136 0.0081 -0.0113 0.0039 0.0021 -0.0052 0.0128 -0.0027 -0.0046 -0.003 0.0133 0.0138 0.0234 -0.0074 0.0006 0.0052 0.0144 0.0106 -0.0065 0.0044 -0.0042 -0.0312 -0.0036 0.0177 -0.0005 -0.0009 0.0005 0.0063 -0.0089 0.018 -0.0211 0.0283 -0.0082 -0.0446 -0.0063 -0.0014 -0.0229 -0.0158 0.0069 0.0031 -0.0075 -0.0035 0.0126 0.0006 -0.0049 -0.0043 -0.0087 0.0058 -0.013 0.0066 0.005 0.0112 0.0234 -0.0116 -0.0009 0.0038 0.0232 0.0029 0.0143 -0.0049 0.0144 -0.0133 -0.0134 0.0046 -0.015 -0.0027 -0.0055 0.0075 0.0116 -0.0042 0.0002 0.0039 -0.0011 0.0082 -0.0086 -0.0095 -0.0074 -0.0043 0.0057 -0.0017 0.0004 0.0061 0.0046 0.0073 -0.0002 -0.0078 0.0036 0.0033 0.0106
endangering -0.002 -0.0251 -0.0094 -0.0071 -0.0108 0.0016 -0.0119 -0.0195 0.024 0.0174 -0.0136 -0.0078 -0.0011 0.0102 -0.0093 0.0013 -0.0121 -0.0033 0.0165 0.0012 0.0132 -0.0071 0.0082 -0.0023 0.0014 0.0136 0.0013 0.0108 0.0596 0.0085 0.007 -0.0094 -0.0095 -0.0197 0.0022 -0.0048 -0.0086 -0.0137 0.0035 -0.0012 0.0045 -0.031 0.0088 -0.0085 0.0118 -0.0307 -0.0005 0.0096 -0.0229 0.0075 0.0087 0.0042 -0.013 -0.0078 -0.0102 -0.0049 -0.0204 -0.0062 -0.0039 0.0023 -0.0042 0.0058 -0.0155 -0.0134 0.0186 0.007 0.0119 -0.0021 0.0246 0.0044 0.0173 0.0244 0.0252 -0.0013 0.0167 0.0054 0.0238 0.0027 0.0012 0.0042 0.0043 0.0089 -0.0326 0.0252 -0.0106 0.0012 0.0051 -0.0109 -0.0098 -0.0126 0.0268 -0.003 -0.0228 0.0065 -0.0073 -0.0133 0.0155 -0.0109 0.0047 0.0036 -0.0155 0.0018 -0.0049 0.0162 0.0009 -0.0074 0.0054 -0.0036 0.0059 -0.0024 -0.0025 0.0391 0.0312 0.0026 -0.0041 -0.0032 0.013 -0.0098 -0.0002 -0.0077 -0.0034 0.0002 0.0078 -0.0079 0.0033 -0.0122 0.0168 -0.0695 -0.007 0.0189 0.0069 -0.0109 -0.0106 0.018 0.0053 0.0052 0.0043 -0.0082 0.0073 0.0231 -0.0252 -0.0035 -0.0037 0.0038 0.013 0.0082 0.0173 -0.0045 0.0156 0.0052 0.0325 0.0059 -0.0209 -0.0199 0.0217 -0.0021 0.0073 0.0105 -0.0003 -0.0236 0.0171 0.0096 -0.0376 0.0019 -0.0037 -0.0118 0.0116 0.0194 -0.0091 0.0125 -0.0116 0.0056 -0.0049 0.0016 -0.014 0.0166 0.0106 0.0059 -0.0093 -0.0001 -0.0064 0.0197 -0.0071 -0.01 -0.0078 -0.0247 0.0045 0.0589 0.0143 -0.0115 -0.01 -0.0154 -0.0152 -0.007 0.0139 0.0182 0.0094 -0.0021 0.0085 -0.005 -0.0364 0.024 0.0057 0.0042 -0.0031 0.0091 0.0098 -0.0027 0.0181 -0.0081 0.0098 -0.0214 0.0151 0.0193 -0.0002 -0.0136 0.0087 0.0011 0.0162 0.0182 -0.0112 0.0049 -0.0249 0.0163 -0.0101 0.0053 -0.0231 0.0054 -0.0121 -0.0221 -0.0133 0.0023 -0.0251 -0.0031 0.045 0.0016 0.0016 0.0028 -0.0045 0.0095 0.0198 0.0034 0.0068 -0.0023 -0.0374 0.0187 0.0083 -0.038 -0.0054 -0.0022 -0.0002 -0.002 0.0161 0.0098 0.021 0.0012 0.0095 0.0104 -0.0114 -0.0125 -0.0057 -0.0108 -0.0041 -0.0066 0.0101 0.0109 -0.003 0.0122 0.0057 -0.001 -0.0222 0.0245 -0.0247 -0.0164 0.0261 -0.0423 -0.0042 0.0266 0.0153 0.0058 0.0186 0.001 -0.0152 -0.0084 0.0161 0.0144 -0.0083 0.0162 0.0219 0.0121 0.0032 0.0051 -0.0043 0.0011 -0.0069 -0.0108 -0.0179 0.0021 0.0035 0.0056
ita -0.0042 -0.0366 0.053 0.014 0.0496 -0.0669 -0.0451 -0.0778 -0.0278 -0.0408 0.0138 0.0561 0.0217 -0.0375 -0.0276 0.0189 0.0619 -0.0258 0.0357 -0.0413 -0.0437 -0.0101 0.0074 0.0193 0.0444 0.0449 -0.0132 0.0282 -0.0238 -0.0746 0.0228 0.029 -0.0044 -0.0078 0.0089 0.0236 0.061 0.0079 -0.0192 0.0072 0.0111 -0.0481 0.0437 -0.0483 0.0933 0.0025 -0.0425 -0.0473 -0.0019 -0.013 0.0124 -0.0157 0.0416 -0.0617 -0.0369 -0.0035 0.0192 0.0221 -0.0519 0.023 -0.056 -0.0342 0.02 -0.0158 0.0492 -0.0221 -0.0382 0.0157 0.024 -0.0582 -0.0585 -0.0651 0.0585 -0.0026 0.0682 -0.0603 -0.0663 -0.0389 -0.0384 0.0089 -0.0161 -0.0253 0.0478 0.0748 -0.0104 -0.0501 0.0556 0.034 -0.0187 0.0346 -0.0133 -0.0019 -0.0389 0.0115 0.0813 0.0642 0.0006 -0.0239 -0.0388 -0.0124 -0.024 0.0218 -0.0013 -0.0397 -0.0382 -0.1071 -0.0204 -0.0141 0.0041 0.0329 0.0352 0.0986 0.0076 0.0044 0.0131 0.0449 -0.061 -0.0387 0.0635 0.0187 0.0183 0.0059 -0.0315 0.0195 -0.0062 0.0057 0.0597 0.0079 -0.0216 0.0031 -0.0149 -0.0095 0.0221 0.0004 -0.0118 -0.0131 0.0602 0.0339 0.021 0.0236 -0.0035 0.0014 0.0011 0.0561 0.0012 0.0265 -0.0683 0.0251 -0.0259 -0.0033 -0.0021 -0.0276 0.086 0.002 0.0738 -0.0527 -0.0034 0.0319 0.0094 0.0054 -0.0665 0.0276 -0.0242 0.0375 -0.0613 -0.0108 -0.0167 0.0448 0.0211 0.0446 -0.0259 -0.043 -0.055 -0.0669 -0.0522 0.0687 0.0061 -0.0226 0.0143 -0.0043 0.0191 -0.0405 -0.0231 0.0235 -0.0165 0.016 0.0234 0.1281 0.0349 0.0287 0.0517 -0.0012 -0.011 -0.0368 0.0124 0.0113 -0.0361 -0.0148 -0.0106 0.0586 -0.053 0.0283 -0.0101 0.0069 -0.0027 0.0066 0.0652 -0.0324 -0.0326 -0.0598 0.0711 -0.0956 -0.0012 -0.0122 0.0795 -0.0076 0.0023 0.0497 0.0262 0.0303 0.006 -0.0165 0.0539 0.0774 0.0269 0.0193 -0.0271 0.0693 0.0495 0.0084 -0.0125 -0.0625 -0.062 -0.0398 0.0349 -0.0425 -0.0399 -0.0549 0.0438 -0.0009 0.1286 -0.0177 -0.013 -0.0261 0.0329 0.0366 -0.0127 0.0296 -0.0635 0.0474 0.0069 0.0329 -0.0274 0.0093 0.0271 -0.0646 0.0223 -0.0192 -0.0678 0.0152 -0.0239 -0.0016 0.0182 -0.0784 -0.0188 0.071 0.0138 -0.0214 -0.0111 -0.0129 -0.0213 0.0583 -0.0168 0.0309 -0.0183 -0.0357 -0.0694 0.0164 -0.0127 -0.0047 0.0664 0.0194 -0.0015 -0.0287 -0.0642 0.0452 0.025 0.0573 0.0756 0.034 -0.0232 0.0015 0.0253 -0.0179 0.0845 -0.0052 0.0455 0.0126 0.0261 0.0623
blowups 0.0156 0.0021 -0.0113 0.0003 -0.0052 -0.0044 0.0075 -0.0382 0.0122 -0.0094 -0.0101 -0.0269 0.0154 0.0251 -0.0317 -0.0173 0.0021 0.0396 0.0218 -0.0297 0.0148 0.0213 -0.0102 0.0181 -0.0057 -0.0027 0.0059 -0.0014 0.0338 -0.0017 -0.0245 -0.0302 0.009 -0.0543 0.0019 0.0034 -0.0085 -0.0095 -0.0082 0.0167 -0.0128 -0.0367 -0.0178 0.0215 -0.0141 0.0394 0.0171 0.0226 -0.0029 0.0129 0.0262 -0.0284 0.0074 0.0038 -0.0345 -0.0234 -0.0028 -0.0143 -0.0009 -0.0054 -0.0075 0.0007 0.0185 -0.0267 0.0181 0.0065 0.0078 0.0084 0.0139 0.0204 -0.006 -0.0124 0.0265 0.0049 -0.0033 0.0089 0.0206 -0.018 0.0052 0.0075 -0.0224 -0.0091 -0.0404 0.0166 0.0146 -0.0152 0.0311 0.0067 0.0289 -0.0212 0.0138 -0.0224 -0.0522 0.0225 0.0215 0.0105 -0.0276 -0.0133 -0.0173 -0.0097 -0.0085 -0.0057 -0.0346 0.0187 0.032 -0.0159 -0.0103 -0.0335 0.0096 0.0197 0.0032 0.001 -0.0093 0.008 -0.0041 -0.0213 -0.0158 0.0115 -0.0368 -0.0073 -0.0032 -0.0087 0.0186 0.0081 0.0769 0.0086 0.021 -0.0171 0.0085 0.0369 0.0165 0.0386 -0.0325 0.0197 0.0247 -0.0144 -0.0146 0.0597 -0.0269 -0.0006 0.0114 0.0125 -0.0103 0.002 0.0214 -0.0175 -0.0016 -0.0236 0.0111 -0.0149 0.0139 0.0327 0.0038 -0.0178 0.0077 -0.016 0.0115 -0.0015 0.0098 -0.0236 0.0223 0.0144 0.0022 -0.0159 -0.0245 -0.0046 -0.0096 -0.0094 0.0008 0.0215 0.0044 0.0299 0.0209 -0.0081 0.0052 0.0021 0.0032 -0.012 0.0017 -0.0023 0.0218 0.0156 0.0133 -0.0135 0.0247 -0.0233 0.007 0.0271 0.0307 0.0188 -0.0141 0.009 -0.055 0.002 -0.0234 -0.0279 0.0096 -0.0138 0.0047 0.013 -0.0729 0.0291 0.0188 -0.0103 0.0203 -0.0107 -0.0034 0.0345 0.0098 -0.0294 0.0344 0.0154 0.0275 0.0189 0.0506 -0.001 -0.0118 0.0026 -0.0266 -0.0178 0.0047 0.0112 -0.0201 0.0448 0.0397 0.0054 0.01 0.0552 -0.0055 0.0091 0.0019 -0.0162 -0.0091 0.0101 0.024 0.0009 -0.0044 -0.0083 -0.0033 -0.0113 0.0199 -0.0106 -0.0041 -0.0122 -0.0078 0.0277 -0.0037 -0.0069 -0.0244 0.0101 -0.0014 0.0088 -0.0027 -0.0007 -0.0295 0.0053 0.0086 -0.006 0.0005 -0.0038 0.0224 -0.012 -0.0072 -0.0385 -0.0074 0.0152 0.0144 0.0109 0.0007 -0.0141 -0.0235 0.0451 -0.0604 -0.0344 0.0099 -0.0376 -0.0269 0.0115 0.0104 -0.0012 0.0456 -0.0103 -0.0043 0.0111 -0.0184 -0.0004 -0.0032 0.0314 -0.054 -0.0105 0.0031 0.0039 -0.0291 -0.0003 0.0113 -0.0179 -0.0136 0.0127 0.0011 -0.001
happyness 0.0021 0.0048 0.0062 -0.0049 -0.0297 -0.0028 -0.008 -0.0336 0.0223 -0.0012 -0.0084 -0.0039 0.0181 -0.0177 -0.0018 -0.0134 0.0201 0.0009 0.0211 -0.0065 -0.0086 0.0075 -0.014 0.0108 0.0079 -0.0036 0.0195 0.0044 0.0209 -0.0167 0.0111 0.0073 -0.0061 -0.0013 0.0022 -0.0049 -0.0108 -0.0144 0.0043 0.0101 0.0015 -0.0302 -0.0137 -0.0123 0.0062 -0.0278 -0.0012 -0.0087 -0.0006 0.0183 0.001 -0.0025 -0.0061 -0.005 -0.0179 -0.0186 0.0004 -0.0121 -0.0225 -0.001 -0.0043 -0.0079 -0.0058 -0.0015 0.012 0.0067 -0.0108 -0.0172 -0.0049 0.0055 0.0159 0.0001 0.0031 0.0012 -0.002 0.0058 0.0048 -0.0054 -0.0125 0.0173 -0.003 0.0014 -0.0066 0.0443 0.0141 0.0024 -0.0074 -0.017 -0.0144 -0.0122 -0.0075 0.0088 -0.031 -0.019 0.0062 0.0113 0.0089 -0.0027 0.0194 0.0117 0.0062 0.0111 -0.0 -0.0073 0.0052 -0.0199 -0.0134 0.0015 0.0104 -0.0028 -0.002 0.009 0.0201 0.0008 0.0018 0.0115 -0.0209 -0.0024 -0.0166 -0.0046 -0.01 0.0024 -0.0125 -0.0175 0.026 0.0056 0.0189 -0.0188 -0.0134 0.043 0.0131 -0.0291 0.0088 -0.0078 -0.009 -0.0084 0.0089 0.0204 -0.0024 -0.0058 -0.0016 -0.0175 0.0012 -0.0011 -0.0225 0.0152 -0.0004 -0.0155 0.0093 0.0085 0.0165 0.0019 0.0069 -0.0069 -0.0117 -0.0194 0.0053 0.0139 0.0124 -0.0259 0.0176 -0.01 -0.0125 -0.0053 -0.0067 -0.0096 -0.0131 0.013 -0.0055 0.0129 0.0025 0.0067 0.0103 -0.0067 -0.0036 0.0144 0.0132 0.0129 0.0076 -0.0032 -0.0034 -0.0029 -0.0214 -0.0119 0.011 -0.027 0.0165 0.0182 0.0002 0.0028 0.0074 0.0151 -0.0145 0.0194 -0.0056 0.0021 -0.0 -0.0099 -0.0104 0.0179 -0.0426 0.0268 0.0126 -0.0242 0.003 0.0002 0.0023 -0.007 0.0207 -0.0155 0.0153 -0.0031 -0.0091 0.0178 0.0435 0.0017 -0.0032 0.0003 0.0066 -0.0123 0.017 -0.015 -0.0046 0.0376 0.0154 -0.0007 0.0184 0.0631 0.0114 -0.0198 0.0106 -0.033 -0.0324 0.0063 0.0272 0.0003 -0.0079 -0.0097 -0.008 -0.003 0.0255 0.0041 0.0029 -0.0094 -0.0216 0.0165 0.0086 -0.0273 0.0022 -0.0048 0.0202 -0.0131 -0.0004 0.001 0.0181 -0.0095 0.0003 0.006 0.0095 -0.0064 -0.0049 0.0014 0.0055 -0.0009 -0.0094 -0.0044 0.0021 0.015 0.0007 0.0064 -0.0028 0.0399 -0.0209 -0.0157 0.0442 -0.0203 -0.0096 -0.0104 -0.0121 -0.0005 0.003 -0.0046 0.0114 -0.0267 -0.0164 0.005 -0.0051 0.0245 -0.0136 0.0021 0.0086 -0.0044 -0.0068 -0.0001 -0.0123 0.0103 0.0246 0.0247 -0.0062 0.0122
protohistory -0.0085 -0.0212 0.0049 0.0013 0.0105 -0.0021 0.0054 -0.0237 0.0024 0.0038 0.0059 -0.0104 0.0012 0.012 0.0086 -0.0083 0.0224 -0.0073 0.0116 -0.0002 -0.0136 0.0128 -0.0085 0.0207 0.0087 0.0059 -0.0106 0.01 -0.0026 0.0041 0.0142 0.0056 0.0094 -0.0289 -0.0027 0.0098 0.0174 0.0066 0.0101 0.0032 -0.003 -0.0253 0.0115 0.0059 0.0068 -0.0061 -0.0058 -0.0053 0.0044 -0.0016 -0.0031 -0.0015 -0.0112 0.0024 -0.0109 -0.0031 0.0083 0.0081 -0.0035 0.0166 0.0112 0.003 0.0166 -0.0104 0.0147 0.0049 -0.0086 0.0112 0.0019 -0.0028 -0.0175 -0.0039 -0.0095 0.0006 -0.0034 0.0056 -0.0014 -0.0065 0.0104 -0.0023 -0.0 0.0084 0.0113 0.0085 -0.0083 -0.006 0.0072 -0.0157 -0.0014 0.0029 -0.0065 0.0164 -0.0212 0.0164 -0.0056 0.016 -0.0031 0.0041 0.0053 -0.0101 0.0021 -0.0032 0.0004 0.0074 -0.0109 -0.0124 0.0129 0.0092 0.0015 -0.0048 0.0023 0.0144 0.0167 -0.003 -0.0137 0.0081 -0.0114 0.0025 -0.0166 0.0113 -0.0007 0.0017 0.0041 0.0026 -0.0009 0.0082 -0.0111 -0.0045 0.0079 0.034 -0.0044 0.0058 -0.0146 -0.0007 -0.0108 -0.0112 -0.0055 0.01 0.0042 -0.0044 -0.0087 -0.0004 0.013 0.0068 0.0034 -0.0116 -0.0025 0.0075 -0.0019 -0.0129 0.0175 0.0054 -0.0021 -0.0103 0.0029 -0.0029 0.0081 -0.0064 0.0111 -0.0015 -0.0124 -0.0026 -0.0111 -0.0007 0.0029 0.0061 -0.0044 0.0001 0.0097 -0.0093 0.0068 -0.0214 0.0037 -0.0001 -0.0015 0.0036 0.0135 -0.0097 -0.0051 0.0091 -0.0045 0.0125 0.0046 0.0097 0.013 -0.0022 0.0082 0.0114 0.0054 -0.0068 0.0121 0.0103 -0.0418 0.0023 -0.0081 0.0127 -0.0128 -0.0046 -0.0026 0.0112 -0.0271 -0.0049 -0.015 -0.0064 0.0008 0.0123 0.0003 0.0012 -0.0007 0.0016 0.0255 -0.0008 0.01 -0.0075 0.0242 0.0178 -0.0036 0.0027 0.0004 -0.002 -0.0022 0.0058 -0.0061 0.0365 0.0001 0.0065 0.0063 0.0343 -0.0034 -0.0068 0.0003 -0.0203 -0.0049 -0.0052 0.0127 0.0067 0.0032 0.0103 -0.0052 -0.0083 0.0181 0.0112 -0.0124 0.0063 0.0044 -0.0073 -0.0172 -0.0125 -0.0235 -0.0053 0.0122 0.0016 -0.002 0.0038 -0.0082 0.0056 -0.0112 0.0122 0.0088 -0.0078 0.0074 -0.0062 -0.0039 -0.0033 0.0111 -0.0118 0.0069 0.0063 -0.0008 -0.0086 0.0067 0.0249 -0.0176 -0.013 0.0082 -0.0183 0.0008 0.0029 -0.0084 -0.0065 0.0119 -0.0037 0.0016 -0.0018 -0.0149 0.0102 0.0018 0.0019 -0.0079 0.0013 -0.0121 0.009 -0.005 -0.0241 0.0171 0.0119 -0.0049 0.0034 -0.0006 -0.0109
marmorea -0.0104 -0.0119 0.0166 -0.0043 -0.0039 -0.008 -0.0124 -0.0321 -0.0022 0.0022 0.0022 -0.0096 -0.0006 -0.0042 -0.017 0.0041 0.004 0.0019 0.016 0.0069 -0.0168 -0.0197 -0.002 0.0165 0.0034 -0.0028 0.0001 0.01 0.0083 -0.0015 0.0112 0.0094 -0.0023 0.0122 -0.0088 0.0209 0.0159 -0.0026 -0.0008 -0.0005 0.0107 -0.0094 -0.0002 -0.0215 0.0114 -0.0178 -0.0013 -0.0102 -0.0039 0.0043 -0.0211 0.0009 0.0087 -0.0005 -0.0062 -0.0089 -0.0054 0.0076 -0.0287 0.0092 -0.0 -0.009 0.0245 0.0112 0.0116 -0.0029 -0.0143 0.0168 -0.0009 -0.0097 -0.0111 0.0021 0.013 0.0072 0.0042 0.0065 -0.0152 -0.019 -0.0021 0.0176 -0.0163 0.0018 0.0111 0.0074 -0.0045 -0.0183 0.0017 0.002 -0.004 0.0004 -0.0131 -0.0008 -0.0207 0.0058 0.0076 0.0334 -0.0012 -0.0 0.002 -0.0038 -0.0009 -0.0019 -0.0097 0.0127 -0.014 -0.0148 -0.0123 -0.0063 0.0046 0.0095 0.0121 0.0639 0.0053 -0.0072 0.0 0.0007 -0.0011 0.0139 0.0289 0.0099 0.0099 0.0076 0.0033 -0.0085 0.0148 -0.0004 0.0414 -0.0187 -0.0052 0.0132 -0.0024 0.0064 -0.0044 0.0072 -0.0115 0.0002 -0.0086 0.0219 0.0185 0.0071 0.0063 -0.006 0.0073 0.0057 -0.0079 0.005 0.0207 -0.0013 0.0034 -0.0143 -0.0075 0.0074 0.0166 0.0042 -0.0035 -0.0215 -0.0068 0.0106 -0.0034 -0.0016 -0.0465 0.0065 -0.0129 -0.0 0.0042 0.0018 -0.0055 -0.0028 -0.0098 -0.0026 -0.0217 0.0141 -0.0038 -0.0115 0.0048 -0.0007 0.0017 -0.018 -0.0014 -0.0071 0.0154 0.0077 -0.0 0.0025 -0.0019 -0.0063 0.0027 0.0364 -0.0085 -0.0058 -0.0 0.0099 -0.0156 -0.0127 -0.016 0.019 -0.007 0.0025 0.0047 0.0141 -0.0323 -0.0006 -0.0142 0.01 -0.0002 0.0042 0.0099 -0.0052 -0.0021 -0.0263 0.037 0.0058 0.0042 -0.0059 0.0373 0.001 -0.02 -0.0046 0.0089 0.0139 -0.0058 0.0091 -0.0048 0.0221 0.0067 0.0141 0.0146 0.0191 0.0112 0.0005 -0.0109 -0.0135 -0.0394 -0.0074 -0.0058 0.0058 -0.0047 -0.0075 0.0123 0.0011 0.0315 0.0143 -0.0111 0.0035 -0.0002 0.0091 0.0028 0.0168 -0.0061 0.0119 0.0063 -0.0028 -0.0188 -0.01 0.0021 -0.003 0.0027 -0.0018 0.0003 -0.0173 0.0012 0.0057 -0.0036 -0.0136 0.0094 0.008 0.0003 -0.0033 -0.0004 -0.0001 0.0023 0.0323 -0.0257 -0.0125 -0.0053 -0.0116 -0.0076 0.0029 -0.0061 -0.0066 0.0061 0.0218 -0.004 0.005 -0.0448 -0.0031 0.0054 -0.0061 -0.0051 0.0071 -0.0207 0.0017 0.0094 -0.0156 0.0151 -0.0026 -0.0156 0.0172 -0.0 0.0028
educated -0.0073 0.0255 0.0044 0.003 -0.0053 0.0056 -0.0128 -0.0346 -0.0132 0.0064 0.0154 -0.008 0.0098 -0.0141 -0.0152 0.0016 0.0069 0.0131 0.0206 0.0265 -0.0083 0.0173 0.0204 0.0283 -0.0378 0.0109 -0.0011 -0.0002 0.0239 -0.011 -0.0051 -0.0072 0.0104 0.0075 0.0105 0.0258 0.0039 0.0049 0.0007 -0.0071 0.0024 -0.0369 0.0042 -0.0059 -0.0007 -0.014 -0.0128 -0.0013 0.0188 0.0234 -0.009 0.004 -0.0008 -0.015 -0.0191 0.0093 -0.0061 0.0158 0.0043 -0.0162 0.0194 -0.0051 0.0855 0.0384 0.009 0.0157 -0.0154 -0.0194 0.0182 -0.0179 0.0139 -0.0226 0.0507 0.0163 -0.0055 0.0032 -0.011 -0.003 -0.0044 -0.023 0.0186 0.0296 0.0234 0.0191 -0.0191 0.0016 -0.0203 -0.0035 -0.0119 -0.0108 -0.0211 0.0124 -0.0308 0.0012 -0.0141 0.0152 0.0133 -0.0046 0.01 0.0109 0.0177 -0.0052 0.0094 -0.0086 0.007 -0.0446 0.0254 0.0113 -0.0096 0.0274 -0.0357 0.0497 0.012 -0.0061 -0.0168 -0.0086 -0.0018 0.0036 -0.0064 0.0049 0.0041 -0.0186 -0.0084 0.0054 0.0299 0.0063 -0.0077 0.0175 -0.012 0.0047 0.0011 0.0301 0.0308 -0.0072 -0.02 -0.0065 -0.014 0.0452 -0.0045 -0.0077 0.023 -0.0118 -0.0129 0.0103 -0.0153 -0.0262 -0.0226 0.0236 -0.0209 -0.0069 0.0144 0.001 -0.0194 0.0002 0.0054 -0.0003 0.0095 0.0179 0.0043 -0.0438 0.0118 0.0113 0.0165 0.0026 -0.0008 -0.0069 0.0134 -0.012 0.0024 -0.0097 -0.0116 0.0046 -0.0064 -0.0017 0.016 0.0175 0.031 0.0352 -0.009 0.014 -0.0127 0.0049 -0.0257 0.0268 0.0097 -0.0126 -0.0028 0.0393 -0.0083 0.0051 0.0145 0.0217 -0.014 -0.0083 0.0019 -0.0003 0.0235 0.0172 -0.0016 -0.0071 -0.0328 0.0205 0.0101 0.0216 -0.0082 0.009 -0.0031 -0.0051 -0.0068 -0.0291 0.0101 -0.0064 0.0125 -0.0077 -0.0171 -0.0033 0.0062 -0.0209 -0.0117 0.0179 -0.0111 -0.0037 -0.0129 0.0318 -0.0089 -0.0166 0.0051 0.0503 -0.0117 -0.0173 0.0338 0.0013 -0.0125 0.0001 0.0221 0.0138 0.0012 0.024 -0.017 -0.0104 0.0562 0.0 0.0025 0.0183 -0.0401 0.0148 -0.009 -0.0131 -0.0062 -0.0639 0.0125 0.0017 -0.0053 -0.0059 -0.0087 0.0029 -0.0225 0.0177 0.0225 0.0067 -0.0314 0.0065 0.0008 0.0375 -0.0073 0.0109 0.0089 -0.0004 0.0097 0.0145 -0.0098 0.0119 -0.0423 -0.0103 -0.0021 -0.0072 -0.0099 -0.0011 -0.0039 -0.0052 -0.0123 0.0024 -0.0061 -0.0119 -0.0032 0.0176 0.027 -0.0443 0.0071 0.0243 -0.0174 0.0157 -0.0124 0.016 -0.0107 0.0058 0.006 -0.0052 -0.0006 -0.0205
failures 0.0142 -0.0126 0.0122 -0.0131 -0.0181 -0.0111 -0.0086 -0.0269 0.0289 -0.0165 -0.0237 0.0046 -0.0181 0.0353 -0.0221 -0.0082 0.0128 -0.0006 0.0227 0.0032 -0.0111 0.0175 -0.013 0.0264 -0.0061 0.009 -0.0016 -0.0163 0.0665 -0.0175 0.0117 -0.0386 0.0117 -0.0309 0.0043 0.0143 -0.0292 -0.003 -0.0129 -0.028 -0.0383 -0.0282 0.0057 0.0306 -0.0201 0.0259 0.0178 -0.0045 -0.0099 -0.0021 0.0126 0.0059 0.0045 -0.0139 -0.0475 -0.0062 0.006 0.0226 -0.0212 0.0112 -0.0004 -0.0012 0.0196 -0.0181 0.0231 -0.0009 0.0051 0.0005 0.0126 0.0079 -0.0189 0.0097 0.0044 0.006 0.018 -0.0161 0.0033 -0.0131 -0.0044 0.0293 0.0042 0.0069 -0.0402 0.0321 0.0471 0.0132 -0.0053 -0.0006 -0.0037 -0.0202 0.0079 -0.0251 -0.0233 0.0029 -0.0054 0.0117 0.008 -0.0215 -0.0122 0.0023 -0.0183 -0.0349 -0.0168 0.0056 0.0258 -0.0007 0.0178 0.0055 0.0138 0.0202 0.0359 0.0039 0.0284 0.0173 0.0208 -0.0176 -0.0036 0.0059 -0.02 0.004 0.0099 -0.0179 0.0155 -0.0009 0.0592 0.0026 0.0034 -0.0191 0.0244 0.0394 0.0173 0.0094 0.0142 0.0043 0.0122 -0.0246 0.0079 0.0088 -0.0074 0.0028 0.0231 -0.0217 -0.0206 -0.0101 0.0163 -0.0266 -0.0044 0.0083 0.0266 -0.0154 0.0061 0.0401 0.0253 -0.0318 -0.0043 -0.0147 0.0156 0.0062 -0.0016 -0.0037 0.0254 0.0258 0.0054 -0.0195 0.0087 -0.0071 0.0102 0.0176 0.0221 0.026 0.0337 0.0163 0.0208 0.0096 0.0087 0.0208 0.0118 -0.0083 -0.0122 0.0097 0.0178 0.0101 -0.0078 -0.0148 0.0398 -0.0084 0.0033 0.0346 -0.0101 0.0116 -0.0229 0.0208 -0.033 -0.0241 -0.0068 0.0069 0.0153 0.0052 0.0049 0.0158 -0.046 0.0075 0.0026 -0.0244 -0.0143 -0.0153 0.0116 -0.0069 -0.004 -0.0195 0.0285 0.0282 0.0208 0.0362 0.0369 -0.0049 -0.0166 0.0018 -0.0097 -0.0249 -0.0067 -0.0026 -0.0166 0.0372 0.0107 -0.014 0.0009 0.0171 -0.0135 -0.0018 -0.0026 -0.0127 -0.0343 0.0137 0.0304 0.0084 0.019 -0.0106 -0.0077 0.022 -0.0156 0.0227 0.0082 -0.0058 -0.0018 0.0063 0.0147 -0.022 -0.009 0.0061 -0.0225 0.0181 0.0154 0.008 0.0011 0.0221 0.0194 0.0284 -0.0049 0.0016 -0.0044 -0.0077 0.0008 0.0148 0.0442 -0.0187 -0.0038 0.0142 0.0021 0.009 -0.003 0.0409 -0.0425 -0.0144 0.0359 -0.015 0.0247 0.0141 -0.0058 0.0147 0.0061 0.0007 -0.0124 0.0018 -0.0036 0.0035 -0.0252 0.0031 -0.014 -0.0012 -0.003 0.0155 -0.0303 0.0064 -0.0119 -0.0178 0.0187 0.0026 0.0005 0.0083
downward 0.0129 0.0297 0.0003 0.0005 0.0136 0.0046 -0.0292 -0.0389 -0.0254 -0.0131 0.003 -0.0088 -0.0088 -0.0067 -0.0169 -0.0104 0.0306 -0.0103 0.0177 -0.0105 0.0115 -0.0248 -0.0317 0.0172 -0.0143 -0.037 -0.0014 0.0288 -0.0241 -0.0158 0.0155 -0.003 0.0103 -0.0287 -0.0115 -0.0089 0.033 0.0116 0.0035 -0.0224 -0.0069 -0.0224 0.0136 0.0055 -0.0251 0.0288 0.0048 -0.0113 -0.0142 -0.0038 0.0183 0.0227 -0.0262 0.0173 -0.0437 -0.0015 0.0272 -0.0051 -0.013 -0.0033 0.0088 0.0017 0.0091 -0.002 0.0161 -0.0087 -0.0131 -0.0202 0.0223 -0.0121 0.0122 -0.0052 0.0091 -0.0012 0.0125 0.0186 0.014 -0.0304 -0.0132 -0.0281 -0.0141 -0.0316 -0.0481 0.0223 -0.0025 0.0138 0.014 -0.0018 0.0197 0.0111 0.0346 0.0219 -0.0263 0.0139 -0.0152 -0.0084 -0.0132 -0.0144 -0.0204 0.0003 -0.0046 -0.0057 0.0082 -0.0089 -0.0056 -0.0128 0.0052 -0.0242 0.0179 0.0276 -0.0075 0.0199 0.0208 -0.0047 0.0043 -0.0213 -0.0088 -0.0016 -0.0046 0.0033 0.0072 0.0015 0.0092 0.0356 0.0212 0.006 -0.0059 -0.0296 0.0052 0.0036 0.0086 -0.0013 0.0039 -0.0081 -0.0165 0.0153 -0.0132 0.0449 0.0121 0.0145 0.0034 -0.0171 -0.0096 -0.0224 0.0113 -0.0034 0.0009 0.0011 0.0251 0.0004 0.0249 0.0222 -0.0231 -0.0116 0.0062 0.001 -0.0344 -0.0219 -0.0234 0.0026 0.0115 0.011 -0.0213 0.0029 0.0056 0.0214 0.0107 0.0101 0.0053 -0.0008 -0.0158 0.002 0.0051 0.018 -0.0081 0.0152 0.0129 -0.0169 0.0106 -0.0227 0.0031 0.0162 -0.0259 -0.0275 0.0026 -0.017 -0.0002 0.0536 0.0048 0.0129 -0.0001 -0.0221 0.0181 -0.0141 0.0079 -0.0068 -0.0105 0.0112 0.002 -0.0025 -0.0705 -0.0011 0.0423 0.0002 0.0016 0.0146 0.0351 0.0091 0.0185 -0.0093 0.0232 0.0033 0.0327 0.0036 0.0418 0.0112 0.0217 0.0331 0.0066 -0.0235 -0.0241 -0.0256 0.0111 0.0279 0.028 0.0045 -0.0212 0.0285 0.0215 -0.0314 0.0075 -0.0311 -0.0121 -0.0044 0.0198 -0.014 -0.021 -0.0051 -0.0135 0.0298 0.0227 0.0075 -0.0179 0.0145 -0.0472 -0.0225 -0.0041 -0.0124 -0.0075 -0.0093 0.0316 -0.0175 0.0114 0.0148 0.0187 -0.0089 -0.021 0.0029 0.0293 -0.015 0.0301 -0.0254 -0.0199 0.014 -0.0202 0.0068 0.0244 0.0117 -0.0061 0.0209 -0.0244 0.0293 -0.0379 -0.0282 0.038 -0.0384 -0.0077 -0.0011 0.039 0.026 0.028 0.0063 0.0243 0.0007 0.0063 0.0065 -0.0062 0.0032 -0.0145 0.0045 -0.0206 0.0108 -0.0103 -0.0071 -0.0036 -0.0067 0.0107 -0.007 0.0437 0.0103
jades -0.0104 0.0065 -0.0095 0.005 -0.0085 -0.0186 -0.0245 -0.0424 -0.0046 -0.0057 -0.0084 -0.0088 -0.0057 0.0007 0.0085 -0.0338 0.0431 -0.0097 0.0415 0.0049 -0.0202 0.0151 -0.0344 0.0151 0.0213 -0.0193 0.0113 -0.0114 0.062 -0.0499 0.0104 -0.0265 -0.0026 0.0162 -0.0009 0.0212 0.0009 0.0259 -0.0116 0.0291 0.0193 -0.0373 0.0003 0.008 0.0035 -0.0463 0.0281 0.0116 0.0066 0.0033 -0.0419 -0.0327 -0.0182 0.0003 0.0108 -0.0192 0.0244 0.0437 -0.0039 -0.0031 0.0189 -0.0276 0.0213 -0.0091 0.0019 0.0179 -0.0191 -0.0245 0.0308 0.0142 -0.0259 -0.0171 0.0491 -0.0109 -0.0336 -0.014 0.013 -0.0092 0.0222 -0.0099 -0.0142 -0.0321 -0.0121 0.0319 -0.0175 -0.0318 -0.0204 0.0102 -0.0284 0.0092 -0.0415 -0.0256 -0.0516 0.0252 0.0103 0.0486 -0.0015 0.0109 0.0087 -0.006 -0.0117 0.0049 0.0115 -0.0042 0.0367 -0.0316 0.0007 0.003 0.0011 -0.0229 0.0008 0.029 0.0285 -0.0024 -0.0355 0.008 -0.0393 -0.0143 -0.0282 -0.0082 0.0027 0.0271 -0.0155 -0.0117 0.0516 0.0034 0.0069 0.0065 -0.017 0.0474 0.0022 0.0787 -0.0114 -0.0105 -0.0214 -0.0364 -0.0662 0.0569 -0.0094 -0.0117 -0.0026 -0.0194 0.0179 0.0065 0.012 -0.0296 0.0116 -0.0015 -0.0233 -0.0236 0.0353 0.0586 -0.0016 0.0215 -0.0313 -0.0383 -0.0202 0.0014 0.0002 -0.0208 0.0096 -0.0062 -0.0102 0.0366 0.0041 0.0007 -0.0247 -0.0318 -0.0011 -0.0247 0.0208 -0.0007 -0.0244 0.0257 0.0085 0.0243 0.0242 0.0125 -0.0062 -0.0187 -0.0011 0.026 -0.0158 -0.0214 0.0049 -0.0132 0.0474 0.0525 -0.0064 0.0078 -0.0199 0.0465 -0.0303 -0.0139 -0.0175 0.0578 0.0265 0.0141 0.0033 0.0204 -0.0588 0.0004 0.0138 -0.0065 0.022 0.0266 0.0075 -0.0058 0.0613 -0.0335 0.0494 -0.0163 0.0125 -0.0211 0.0411 -0.0199 -0.0384 0.0249 -0.0227 0.0007 0.0154 -0.0126 -0.0007 0.0395 0.0703 0.0581 0.0257 0.0321 -0.0245 0.0033 -0.0424 -0.0153 -0.0154 -0.0115 0.0223 0.0243 -0.0047 -0.0156 0.0253 -0.0185 0.0038 0.0174 -0.0143 -0.0185 0.0027 0.0067 -0.0291 -0.0304 0.0026 0.0018 -0.0177 -0.0164 -0.0055 -0.0003 -0.0166 0.0254 -0.032 -0.0049 0.008 0.0023 -0.0206 0.0268 -0.0202 -0.0363 0.0388 0.0078 0.01 0.0075 -0.0191 -0.0142 0.0138 0.0299 -0.0351 -0.0112 0.0373 -0.0285 0.0103 0.005 -0.0223 -0.0161 0.0391 0.0402 0.0255 0.0015 -0.0189 -0.0108 -0.0359 -0.0013 -0.0418 -0.0089 -0.0356 0.0108 -0.0158 -0.0055 0.0146 0.0245 0.0062 0.0111 -0.0127 0.0096
nga -0.0377 0.0347 0.0654 0.0248 -0.0211 0.0231 -0.0616 -0.0199 -0.0297 0.0326 0.0713 0.0329 -0.0383 -0.0492 0.0474 -0.0184 0.0617 0.0367 0.0336 0.0137 -0.0128 -0.0061 0.0114 0.0534 0.0246 0.0373 0.0009 -0.0547 -0.0082 -0.1112 0.0438 0.0189 0.024 0.0385 -0.0255 0.0007 0.1243 0.0623 -0.0666 0.0052 0.0384 0.0122 0.0536 0.0361 0.0673 0.017 -0.1003 -0.0001 0.047 -0.0733 -0.0504 0.0195 0.0507 -0.0714 0.0173 0.0557 0.0162 0.0198 -0.0116 -0.0488 -0.0304 0.003 -0.0041 -0.1041 0.0448 -0.0313 0.071 0.0312 -0.0287 -0.0836 -0.0024 -0.0562 0.0284 -0.0673 0.0134 -0.0749 0.0193 0.0239 -0.0058 0.0058 0.0129 -0.0625 0.072 -0.0185 -0.0346 -0.0844 -0.0124 0.0246 0.038 0.0242 -0.0036 -0.0307 0.021 -0.0424 0.0917 0.1248 0.0217 -0.0066 -0.0575 -0.0026 0.0428 0.0035 -0.0541 -0.0975 -0.0508 -0.0678 -0.0387 0.031 -0.0275 0.0472 0.0243 0.0057 0.0313 0.1163 0.0199 0.0926 -0.0676 0.0039 0.1294 -0.024 0.0063 0.0188 -0.0327 0.0444 -0.0249 0.0791 -0.0076 0.055 0.0079 -0.0308 -0.0259 -0.0231 -0.0529 -0.0853 -0.0734 0.0254 -0.0326 0.0347 0.0026 0.0153 -0.0047 0.0395 0.0523 -0.0597 -0.0584 -0.0602 -0.0606 -0.0085 -0.0383 -0.0116 -0.0466 -0.0396 0.0259 0.0537 -0.0169 -0.0554 -0.0246 -0.0447 -0.0509 -0.0558 0.0227 0.0578 -0.0246 0.0382 -0.041 -0.0585 0.0024 0.0424 -0.04 0.0602 -0.0457 -0.023 -0.0085 -0.0588 -0.0447 0.0588 0.0166 0.004 -0.0108 -0.0531 -0.0392 0.0293 0.0159 -0.0321 -0.0997 0.0035 -0.0409 0.2238 0.0275 -0.0498 0.0709 0.0303 -0.007 0.0631 0.1045 0.023 -0.0047 0.0103 0.0507 0.0239 -0.0259 -0.0021 -0.047 0.012 0.0523 0.0812 -0.0293 0.0856 -0.0327 -0.0251 0.089 -0.0625 -0.0255 0.0662 0.1021 -0.0187 0.0502 -0.0365 0.0542 0.0205 0.0144 -0.0112 -0.026 0.0665 0.0397 0.0531 0.036 0.1218 0.0393 -0.0042 -0.0739 -0.0192 -0.0296 0.0434 0.052 0.0896 -0.0123 -0.046 0.0548 0.0131 -0.0163 -0.0164 0.013 -0.0105 0.0692 0.0329 0.0135 0.0532 -0.0208 0.0519 0.0559 0.0063 0.0238 -0.0182 0.0257 0.0271 0.0268 0.0043 -0.0269 -0.0125 -0.0179 -0.0082 -0.0536 -0.0348 0.0738 0.1256 0.0344 -0.0045 -0.0105 0.0059 0.0342 0.0077 0.0672 0.0045 0.004 -0.0339 -0.0003 -0.0031 0.048 0.0487 0.0118 0.0463 0.0048 -0.0093 -0.0086 0.0983 0.0004 0.0338 -0.0388 0.0117 -0.0909 0.0447 0.0575 -0.0282 0.0954 0.0198 0.092 0.0082 0.0385 0.0465
croissante 0.0083 -0.003 -0.0026 -0.0025 -0.0025 0.0024 -0.0189 -0.0173 0.0086 -0.0073 0.0035 0.0049 -0.0043 -0.0001 -0.0053 -0.002 0.0211 -0.001 0.0311 0.0058 -0.0262 -0.0032 -0.0113 0.0212 -0.0027 0.0015 -0.0015 -0.01 -0.0116 -0.0027 0.0151 0.006 -0.0079 0.007 0.0044 0.012 0.0008 0.0168 0.0046 0.0041 -0.0061 -0.0215 -0.002 -0.0016 0.0008 0.005 -0.0026 0.0049 -0.0083 -0.0135 0.0023 -0.0165 -0.0019 -0.0031 -0.0104 -0.0155 -0.0057 0.0034 -0.0156 0.0132 -0.011 -0.002 0.0007 -0.0018 0.0101 0.0122 0.0062 -0.0105 -0.0138 -0.0142 -0.0007 -0.0164 0.0191 0.0114 -0.0004 -0.0086 -0.0027 0.0074 -0.0016 -0.0003 -0.0259 -0.0231 0.0058 0.0024 0.0053 -0.0082 0.0037 -0.0041 0.0035 0.0168 0.009 0.0044 -0.0229 -0.0122 0.0014 0.0305 0.0028 0.0054 -0.0113 -0.0061 -0.007 -0.0004 -0.0009 -0.0206 -0.0095 -0.0047 -0.0034 0.0026 -0.0141 0.0046 0.0076 0.0061 0.0062 -0.0085 0.0007 -0.0059 0.0113 0.0318 -0.004 -0.0029 0.0069 -0.0177 -0.0017 0.0029 0.004 0.0065 0.0303 -0.0211 0.0008 -0.0081 -0.0035 -0.0043 0.0001 0.006 -0.0115 0.004 -0.0031 0.0142 0.0043 -0.0182 0.0042 0.0021 -0.0028 0.0011 -0.014 0.0219 -0.0139 0.0036 0.0021 -0.0078 -0.0131 0.0056 0.0148 0.0143 0.0169 -0.0039 -0.022 0.0319 -0.0121 0.016 0.0065 -0.0047 -0.0129 -0.0076 0.0136 -0.0112 -0.0145 -0.0014 0.0098 0.0023 -0.0093 -0.0055 0.0049 -0.0026 -0.003 -0.0035 -0.0104 -0.0063 0.0049 -0.0102 0.0168 -0.0005 0.0072 -0.0129 -0.007 -0.0356 0.0119 0.0336 0.0143 -0.012 0.0101 0.0145 -0.0004 0.0019 -0.0044 0.0041 -0.0066 0.0034 0.0143 0.0038 -0.0215 0.0074 0.0088 0.0145 0.0042 0.0154 0.0143 -0.0053 -0.0148 -0.0304 0.0264 -0.0216 0.0271 -0.0002 0.036 0.0057 -0.0106 -0.0043 -0.0077 -0.0042 0.007 0.0011 0.009 0.0254 0.0112 0.0122 -0.0017 0.0134 -0.0015 -0.008 -0.0187 -0.0106 -0.0095 -0.0073 0.0227 0.004 0.0006 0.004 0.0259 -0.01 0.0017 0.0134 -0.008 -0.0074 0.0271 0.0074 0.0065 -0.0006 0.002 0.0081 -0.0166 -0.0042 -0.0144 -0.0179 0.0013 -0.0052 -0.0063 0.0079 0.0214 0.0086 0.0142 0.019 0.0147 -0.0072 -0.0003 -0.0002 0.0056 0.0085 -0.0047 0.0009 0.0128 0.0311 -0.0278 -0.0029 -0.007 -0.0245 0.0024 0.003 -0.0029 -0.0134 0.0338 0.0088 -0.0142 0.0016 -0.0276 0.0002 -0.0007 0.0192 -0.0032 0.0087 -0.0146 0.0046 -0.0167 0.0014 0.0046 -0.0111 0.007 0.0035 -0.0143 0.0032
larvicides 0.0082 0.0074 0.0065 0.0155 -0.0175 0.0191 -0.0117 -0.02 0.0093 -0.0124 0.0207 -0.0428 -0.0135 -0.0079 0.002 -0.0161 0.0404 -0.0099 0.0405 0.0392 0.0298 -0.0074 0.0073 0.0153 -0.0117 -0.0173 -0.0044 -0.0047 0.042 0.0234 0.0057 -0.0019 0.0077 -0.0318 -0.0122 0.0143 -0.0162 -0.0102 -0.013 -0.0003 0.0121 -0.034 0.0116 0.0037 0.0074 -0.0195 -0.0022 0.0176 -0.0028 -0.0084 -0.011 0.0107 0.0042 -0.0061 -0.0137 0.0004 0.0122 0.0075 -0.0093 0.0169 0.0081 -0.0034 0.0284 -0.0018 -0.0201 -0.0128 0.0023 -0.0092 -0.0138 -0.0065 0.0195 0.0344 -0.0056 0.0194 0.0124 0.0003 -0.0061 -0.019 0.0047 0.0079 -0.0198 0.0008 -0.0218 0.0121 -0.0026 0.0166 0.0083 -0.0044 0.0005 0.004 -0.0021 -0.0129 -0.0274 0.0119 -0.0067 0.0319 -0.0026 -0.0115 0.0217 -0.0441 0.0105 -0.0041 0.0011 0.0101 -0.0086 -0.0172 0.022 -0.0113 -0.0082 0.0147 0.0014 0.008 0.0347 0.0111 0.003 -0.0185 0.012 -0.0049 -0.0112 -0.0106 -0.0284 0.009 -0.011 -0.0175 0.0342 -0.0039 0.0032 -0.0219 -0.0099 0.0396 0.0008 0.0115 0.0059 -0.0035 -0.0169 0.0117 -0.005 -0.0 -0.0017 0.0047 -0.0112 0.0071 0.0259 -0.0061 0.0007 -0.0099 0.0075 -0.0022 0.02 -0.0257 0.0057 0.0283 0.0015 -0.0093 0.0091 0.0011 0.0014 -0.0038 0.0265 -0.0055 0.0015 -0.0125 -0.0013 0.0223 0.0072 0.001 0.0202 -0.0019 -0.0043 -0.0066 0.0174 0.0006 0.0028 0.0184 -0.0045 -0.0091 -0.0165 -0.0136 -0.0203 -0.0161 0.0253 0.0016 0.0004 -0.004 0.0013 -0.0253 -0.0001 0.0152 -0.013 -0.0089 0.0063 0.0135 -0.0329 -0.0021 -0.0019 -0.0191 0.0104 0.0118 0.0153 -0.0048 -0.0286 0.0011 -0.0149 -0.0071 0.004 0.0237 -0.0146 -0.0141 -0.0085 -0.0247 0.0076 -0.0046 0.0235 0.0127 0.0308 0.0008 0.0071 -0.0028 -0.0112 -0.0101 -0.0071 0.0091 0.0004 0.0351 0.024 0.0043 -0.0023 0.0106 -0.0021 -0.0122 -0.0055 -0.0178 -0.0221 0.0044 0.0213 -0.0001 0.0077 -0.0147 0.0031 -0.0307 -0.0221 0.0112 0.0023 -0.0176 0.0089 0.0088 -0.0028 -0.0087 -0.0078 -0.0012 -0.0004 0.0174 -0.0083 -0.0103 -0.0324 0.0181 -0.003 -0.0349 0.01 -0.0293 0.013 0.02 -0.0144 -0.014 -0.0068 -0.0056 -0.0155 0.002 -0.0071 -0.0052 -0.0043 0.0273 -0.0267 -0.0289 -0.0135 -0.0129 0.0011 0.0102 -0.0021 -0.0319 0.0323 -0.0087 0.0033 0.0141 -0.0105 0.0419 -0.0114 0.0273 0.0058 -0.0025 0.0054 0.0053 -0.0263 -0.0127 -0.0156 -0.0214 -0.0045 -0.0061 0.0097 -0.0009
misread -0.0073 -0.0072 -0.0176 -0.0028 -0.017 0.0254 -0.0364 -0.0482 -0.04 0.0047 -0.0028 -0.0236 0.0312 0.0223 -0.0118 -0.0069 0.0035 -0.0009 0.0149 -0.0342 0.0086 -0.0084 0.0133 0.0351 -0.0389 0.0031 0.0285 0.0225 0.0133 -0.0072 0.0166 0.0096 0.0057 0.0094 0.0008 -0.024 -0.0027 -0.009 0.0132 0.0201 -0.0427 -0.0297 -0.0326 0.0132 0.0124 0.0178 0.0282 0.0037 -0.0137 0.0173 0.0251 -0.0001 0.0368 -0.0129 -0.0081 0.0062 0.0238 0.0131 -0.0215 0.0005 -0.0016 0.0073 0.0802 -0.0348 0.0346 0.0165 -0.0017 0.045 0.0205 0.0083 -0.0204 -0.0096 0.0384 -0.0256 -0.0171 -0.0004 -0.009 0.0279 -0.0149 -0.0064 -0.0021 0.0082 -0.0108 0.0313 -0.0238 -0.0028 0.0127 0.0076 0.0017 -0.0346 0.0334 0.0037 -0.0415 -0.0288 0.0026 -0.0108 -0.0099 -0.0223 -0.006 0.0047 -0.0138 -0.0005 0.0039 0.0114 -0.0084 -0.0385 -0.0017 0.0331 0.0054 -0.0178 -0.0026 -0.0076 0.005 0.0164 0.01 0.0333 0.0026 -0.0063 -0.0085 -0.003 0.0087 0.0108 0.0069 0.0112 0.045 -0.0138 0.0014 -0.0021 -0.029 0.0284 -0.0283 -0.0136 0.0044 0.0174 -0.0145 0.0033 0.0085 0.023 -0.0156 -0.0282 -0.0066 -0.0122 -0.0215 0.0113 -0.0264 -0.0243 -0.0026 0.0015 -0.0133 -0.0134 0.0014 0.0076 -0.0029 0.0236 0.0182 0.0147 -0.0125 -0.011 -0.0179 -0.0109 -0.0103 0.0045 -0.0147 -0.0374 -0.0018 -0.0162 0.0277 -0.0224 0.002 0.0199 -0.0312 -0.0155 -0.0126 0.0086 0.0078 0.0322 0.0432 -0.0293 0.0118 0.0152 -0.0116 0.0265 -0.0037 -0.0225 0.0067 -0.0409 0.0017 0.0463 0.0048 0.0056 -0.004 0.0131 -0.037 -0.02 -0.009 0.0145 0.0012 0.0122 -0.0206 0.0053 -0.0366 0.0129 -0.0129 0.0194 -0.01 0.0309 0.0359 -0.0298 -0.016 -0.0219 -0.0087 0.0155 0.0484 0.0184 0.0349 0.0189 -0.0199 -0.0074 -0.0207 0.0112 0.0076 -0.0016 0.0022 0.0573 0.0079 0.0 -0.0105 0.0662 0.0158 0.0254 0.0061 -0.0514 -0.0276 -0.0142 -0.0047 -0.0185 0.0357 -0.0148 -0.0066 -0.0239 0.0833 0.0088 -0.0242 0.0085 -0.038 0.0023 -0.0166 -0.0219 0.0033 -0.0135 0.0109 -0.0067 -0.0028 0.0401 -0.0028 0.0072 0.0098 -0.0154 -0.0117 0.0197 -0.0098 -0.0257 -0.0027 -0.0001 0.0122 0.012 0.0005 0.0471 -0.0199 -0.0104 0.0202 0.0511 -0.0523 0.0015 0.0234 -0.0126 -0.0062 0.0115 -0.0138 0.0171 -0.0181 -0.0059 -0.0189 0.0231 0.0092 0.0159 -0.0564 -0.0068 0.009 -0.029 0.0123 0.0109 0.0063 0.0276 -0.0054 -0.0052 0.026 -0.0191 0.0253 -0.0166
unstoppable 0.0001 0.0192 -0.004 0.0113 -0.0096 -0.0011 -0.0184 -0.0217 0.007 0.0035 0.0162 0.0061 0.0175 0.0142 -0.0043 -0.0108 0.0088 -0.0022 0.0142 -0.0041 0.0101 0.0033 -0.0183 0.0074 -0.0192 -0.0065 0.0145 -0.0083 0.0193 0.0059 0.0003 -0.0097 -0.0006 -0.0062 0.0009 -0.0079 0.014 -0.0017 0.0008 -0.0114 -0.0063 -0.0194 -0.0114 0.0024 0.015 0.014 0.0142 -0.0015 0.0125 -0.0126 0.0216 -0.0145 -0.001 0.0026 -0.0074 0.0184 0.0126 -0.0013 -0.0029 0.0064 0.0019 -0.0037 0.0066 0.0027 0.0177 -0.0009 -0.0022 0.0146 0.0008 -0.0176 0.0063 0.0096 0.0136 -0.0112 -0.003 -0.0054 -0.0134 -0.0071 -0.0102 0.0032 0.0084 -0.0027 -0.0189 0.0264 0.0446 -0.0026 -0.0049 0.0079 0.0158 0.008 0.002 0.0086 -0.0287 -0.0148 0.0059 0.0028 -0.0082 -0.0135 0.0009 0.0054 -0.0139 -0.0038 0.0208 -0.0091 -0.0133 -0.0145 0.0095 -0.026 -0.0046 -0.0038 -0.0046 0.0307 0.0136 -0.0073 0.0005 0.0201 -0.0088 0.0073 -0.0122 0.0062 0.0027 -0.007 0.0039 -0.0068 0.0382 0.0028 0.0116 -0.0152 -0.0005 -0.011 -0.0034 -0.0069 0.003 -0.0182 0.0041 -0.0113 0.0026 0.02 -0.0208 0.0049 0.016 -0.013 0.0208 0.0027 0.0091 0.0121 0.0265 -0.0005 -0.0053 0.0247 0.028 0.0136 -0.0171 -0.0092 0.0332 0.0133 0.011 -0.0033 -0.0008 -0.0054 0.0262 0.002 -0.0367 0.0043 -0.0144 -0.0213 -0.0171 -0.0034 0.008 0.0084 0.0015 0.0138 -0.0154 0.0033 -0.0071 0.0088 -0.0065 0.006 0.0053 0.0035 0.0051 0.0008 -0.0172 -0.0131 0.0081 -0.006 -0.0075 0.0207 -0.0067 0.0073 0.0134 0.0186 0.0025 -0.0034 -0.0076 0.0094 -0.0039 0.0019 0.0147 0.007 -0.0444 0.0364 -0.0091 0.0014 -0.0025 -0.0066 0.0204 0.0091 0.0222 -0.0104 0.009 0.0005 -0.0088 0.0133 0.0159 -0.0208 0.008 0.0124 0.0057 -0.011 0.0115 -0.0173 -0.0039 0.0224 -0.0041 -0.0053 0.0059 0.0303 -0.0044 -0.0144 -0.0037 -0.0207 -0.0208 -0.0181 0.0324 -0.0121 -0.0036 -0.0045 0.0006 0.0026 0.0364 0.0211 0.0068 0.0015 -0.0335 0.0047 0.0003 -0.0314 -0.0049 0.0068 0.0131 -0.0207 0.0166 -0.0023 0.0043 0.0365 -0.0123 -0.0014 0.0063 0.0008 0.0102 0.0092 -0.0012 0.0093 -0.0125 -0.0078 0.0099 -0.0085 0.0145 0.0017 -0.0084 0.0203 -0.0309 -0.009 0.0285 -0.0438 -0.0025 0.0166 0.0021 -0.0014 0.0137 0.0164 -0.0105 -0.0177 -0.0049 -0.0146 0.0073 -0.0066 0.0139 0.0076 0.0087 -0.0054 -0.0082 0.011 0.002 -0.0145 -0.0043 0.0058 0.0311 -0.0052
watermill -0.005 -0.0255 -0.0008 -0.0128 -0.0186 0.0043 -0.0248 -0.041 -0.0001 -0.0093 -0.0119 -0.0129 0.0074 -0.0232 0.0122 -0.0022 0.0272 -0.0151 0.0163 -0.0004 0.0036 -0.0015 -0.0184 0.0067 0.0298 -0.0371 -0.0072 0.002 0.0022 -0.0151 0.0046 0.0102 0.0104 -0.001 0.0029 -0.0035 0.0165 -0.0058 0.0107 -0.0053 0.0066 -0.0381 -0.006 0.0086 -0.0111 -0.0166 -0.0108 0.0253 -0.0127 0.0261 0.0055 0.0021 -0.0049 0.013 -0.0104 -0.0148 0.0159 -0.0123 -0.0178 -0.0027 0.0114 0.0181 0.0348 -0.0045 0.0191 0.0148 -0.0167 0.0156 -0.0151 0.0085 0.0264 0.0051 -0.006 0.0044 0.0073 0.0149 -0.0191 -0.0249 -0.014 0.0115 0.0076 -0.018 -0.0148 0.0015 -0.0013 0.0174 -0.0065 0.0012 -0.0055 -0.0282 0.0007 0.0063 -0.0297 -0.0125 -0.0041 0.0368 0.0018 0.014 0.0011 0.0114 0.0011 -0.0244 0.0005 -0.0077 -0.0134 -0.0441 0.013 0.0136 -0.0118 -0.0093 0.0032 0.0151 0.0374 -0.0021 0.0024 0.0178 -0.0185 0.0186 -0.0052 -0.0083 -0.0185 -0.0073 -0.012 -0.0056 -0.0024 0.0011 0.0015 0.0061 -0.0214 0.0115 0.0007 -0.0082 -0.0064 -0.0106 -0.0254 -0.005 -0.0013 0.0219 -0.0104 -0.0169 -0.0112 -0.0139 0.0053 0.0215 0.0227 -0.0214 0.044 -0.0099 -0.0051 -0.0072 -0.0112 0.0266 0.008 -0.0048 0.0058 0.0099 -0.0004 0.006 0.011 0.0134 -0.0119 -0.0157 -0.006 0.0417 0.0023 -0.0011 -0.0048 0.007 0.0311 0.0116 0.0062 0.0077 -0.027 0.0164 0.0228 0.0154 -0.007 0.0239 -0.0293 0.0166 -0.0132 -0.0013 0.0237 -0.0131 -0.0328 -0.0142 -0.0103 0.0387 0.0002 -0.0017 0.0107 0.0143 -0.0125 0.0151 -0.0232 -0.0 0.022 0.0055 -0.0198 0.0018 -0.0563 0.0098 -0.0079 -0.0128 0.0098 -0.0054 0.0046 0.0092 -0.0114 -0.0234 0.0432 -0.0099 0.0032 -0.0146 0.0033 0.0184 0.0083 0.0235 0.0269 -0.011 0.024 -0.004 -0.0095 0.0337 0.0086 -0.02 0.011 0.0209 -0.0062 -0.0126 -0.0029 -0.0213 -0.0076 -0.0013 0.012 0.0256 0.0125 0.015 0.0144 0.004 0.02 0.0134 -0.0131 0.0014 -0.0006 -0.0002 -0.0087 0.0088 -0.0105 0.0305 -0.0159 -0.0133 -0.0104 0.0208 -0.0109 -0.0181 -0.0168 0.0107 -0.0338 0.0221 -0.0033 0.0025 -0.0003 -0.0044 -0.0107 -0.0596 0.003 -0.0227 -0.0042 0.0019 0.008 0.0281 -0.0297 -0.0139 0.0109 -0.0106 0.0091 0.0073 -0.0057 -0.0227 0.0121 0.0113 -0.0037 0.0145 0.0019 0.0332 0.001 -0.0092 0.0085 0.025 -0.0145 0.0297 -0.0098 -0.0037 -0.0015 0.0073 -0.0099 -0.0229 -0.008 -0.0201
glossed -0.0067 -0.0143 0.0235 0.018 -0.0038 0.0124 -0.0138 -0.0445 -0.0081 -0.0005 0.0075 -0.0325 -0.008 0.0085 -0.0057 -0.0081 -0.0236 -0.0049 0.0078 0.0099 0.0059 0.0107 0.0319 0.0167 -0.0061 -0.0181 -0.0038 0.0275 0.0443 -0.011 0.0085 -0.0118 0.0009 0.0036 0.0097 -0.0048 -0.0146 0.0363 -0.0123 0.0128 -0.0075 -0.0301 -0.006 0.0164 0.0121 0.0284 -0.011 -0.0375 0.0272 0.0351 0.003 -0.0051 -0.013 -0.0256 -0.0552 0.0117 -0.0272 -0.0289 -0.0255 0.0216 -0.0005 -0.007 0.0987 -0.0098 0.0125 -0.0119 0.0219 0.0183 0.0341 0.0096 -0.0327 -0.0071 0.0 -0.0028 0.0043 -0.0156 -0.0208 0.0027 0.0036 -0.0055 0.015 -0.0145 0.0138 0.0367 -0.0033 0.0133 0.0156 0.0044 -0.0112 0.0156 -0.0023 -0.006 -0.0279 -0.0123 0.0219 0.0117 -0.0002 -0.0135 -0.031 0.0042 -0.0079 0.0135 -0.0148 0.0132 0.0012 -0.0212 0.03 -0.0149 0.0049 0.0073 0.0142 0.0305 0.0182 -0.0276 -0.0344 0.0064 0.0222 0.0124 -0.0198 0.0004 -0.0087 -0.0043 -0.0031 0.0024 0.0391 0.006 -0.0008 0.0089 0.0008 0.0266 -0.0203 -0.0059 -0.0029 -0.0077 -0.0142 -0.013 0.0081 0.0779 0.0061 -0.0262 0.009 -0.0085 -0.017 -0.0028 -0.0329 -0.0245 0.0182 0.0036 -0.0292 -0.0328 0.0218 -0.0076 0.026 -0.0058 -0.006 -0.0203 0.0075 -0.0165 -0.0068 0.0067 -0.0021 0.0147 -0.0052 -0.0142 -0.0058 0.0166 0.0213 -0.0113 -0.0089 0.0025 -0.0225 -0.022 -0.0271 0.0281 0.006 0.0031 -0.0034 0.0103 -0.0047 0.0112 -0.0156 0.0173 0.0049 0.0009 0.0235 0.0251 0.0004 0.0266 0.0089 0.0137 0.0179 -0.0012 -0.0505 -0.0288 -0.0205 0.0091 0.0258 -0.0038 -0.0129 0.0046 -0.0291 -0.0313 0.0113 -0.0244 0.0058 0.0344 -0.0081 -0.0074 0.002 -0.0513 0.0131 0.0244 0.0303 -0.0133 0.0271 -0.0014 -0.0026 0.0323 -0.0124 -0.0289 0.026 -0.0223 0.0059 0.0321 0.0063 -0.0119 0.0152 0.0372 0.0104 -0.0038 -0.0172 -0.026 0.0085 0.0062 0.0186 0.0101 -0.0077 -0.0132 0.0015 -0.0201 0.078 0.0024 -0.0343 -0.0003 -0.0469 0.0121 -0.0158 -0.0127 -0.0048 -0.0272 0.0131 0.0023 -0.013 0.0206 0.0019 -0.0097 0.019 -0.0292 0.0119 0.0198 -0.0001 -0.0069 -0.0229 0.0177 0.0059 0.0053 0.0021 -0.0191 -0.0145 -0.0122 0.0016 0.0334 -0.0353 0.0047 0.0107 -0.0248 -0.0119 0.0193 0.0123 -0.0105 -0.0131 0.0185 0.0246 -0.0014 0.0115 0.0123 -0.0099 0.0037 -0.0193 -0.0082 0.005 -0.0064 -0.0152 -0.0066 0.0091 0.0002 0.0153 0.0077 0.018 0.0132
mwaka -0.0025 0.0023 -0.025 0.0086 0.0268 -0.0205 -0.0142 -0.0171 0.0068 -0.0064 0.0408 0.0263 -0.0174 -0.001 0.0058 -0.0014 0.0217 -0.0189 0.0019 0.0205 -0.0233 -0.0074 0.0028 0.0129 0.0208 -0.008 0.013 -0.0082 0.003 -0.0259 0.0333 0.0078 0.003 0.0037 -0.0227 0.0036 0.0333 0.0169 0.0111 0.0105 -0.0039 0.0214 0.0038 0.0017 0.0246 0.0008 0.0051 -0.0151 0.0039 -0.0129 -0.0265 -0.0008 -0.0068 -0.0265 -0.0024 -0.0153 -0.0009 -0.0196 -0.0095 0.0102 0.0019 -0.0161 0.0054 -0.0008 0.001 -0.0162 0.001 -0.0084 0.0033 -0.0128 -0.0027 -0.0206 0.0007 -0.0066 0.016 -0.0247 -0.016 0.015 -0.0073 0.0053 0.0111 0.0071 -0.0083 -0.0118 -0.0011 -0.0049 -0.036 0.0014 -0.0005 -0.0121 -0.0017 -0.0148 -0.0076 0.0098 0.0319 0.0512 0.0096 0.0079 -0.0013 -0.0133 0.0121 0.001 -0.0015 -0.0363 -0.0038 0.0062 -0.0161 -0.0031 0.0119 0.0038 -0.0095 0.0084 0.0124 0.0111 -0.0036 0.0332 -0.003 0.0032 0.0296 0.0045 -0.0202 0.033 0.0173 0.0172 -0.0159 0.0261 -0.0054 0.0072 -0.0228 -0.0155 0.0079 0.0063 -0.0031 -0.0111 -0.0396 0.0026 0.0001 -0.005 0.0095 -0.0164 -0.0226 0.009 0.0438 0.0139 0.0087 -0.0443 -0.0251 0.0207 -0.0083 0.0053 -0.0257 -0.011 0.0187 0.0205 0.0037 -0.0307 0.0126 0.0049 -0.0047 0.0063 -0.0191 0.016 -0.0143 0.0021 0.0017 -0.007 0.0166 0.0144 -0.022 0.014 0.0002 -0.0017 -0.001 0.0117 -0.0152 -0.0054 -0.0025 -0.0056 0.0122 -0.0029 0.0116 -0.0088 -0.0124 -0.0015 -0.0205 -0.006 -0.0004 0.0826 -0.0129 0.0076 -0.0179 -0.0182 -0.0171 -0.0032 0.011 0.0016 0.015 -0.0096 0.0189 -0.014 -0.0083 0.0013 0.0042 0.0037 0.0005 0.0227 0.0097 0.0165 0.0195 -0.047 0.0616 -0.0373 -0.0126 0.0077 0.0308 -0.012 -0.018 -0.0155 -0.0042 -0.0239 -0.0065 -0.0031 0.0031 0.0314 -0.0106 0.0245 0.0079 0.0358 -0.0088 -0.0102 0.0174 -0.0175 -0.0185 0.0052 -0.0083 0.0038 -0.0037 -0.0126 0.007 0.0084 0.0047 0.0132 0.0118 -0.0185 0.0276 0.0248 0.0109 0.0228 -0.0166 0.0242 0.0119 -0.0082 -0.0029 -0.0015 -0.0297 0.0042 -0.0055 0.0197 -0.0006 -0.0239 -0.0147 -0.009 -0.0027 0.0013 0.006 0.0173 0.0018 0.0036 -0.0303 -0.0029 0.0187 0.0155 0.0134 0.0214 -0.0137 -0.0386 -0.0134 -0.0066 -0.0035 0.0036 -0.0192 0.0125 0.0139 0.0089 -0.0234 -0.0004 0.0095 -0.0204 -0.003 0.0056 -0.0302 0.0053 0.0267 -0.0264 0.0288 0.0232 0.019 -0.0034 0.0312 0.0097
manager 0.0168 -0.0333 -0.0378 -0.0046 0.0001 -0.015 0.003 -0.0393 0.0222 0.0057 -0.0252 0.0138 -0.0035 -0.006 0.0059 0.0165 0.0349 0.0088 0.0066 0.0118 -0.012 -0.0009 -0.019 0.0232 -0.008 -0.0022 0.0008 -0.0018 -0.0206 -0.0073 -0.0069 -0.0075 0.0119 -0.0052 -0.0265 0.0216 -0.0016 0.0006 0.0062 -0.0439 -0.0011 -0.0399 -0.0108 0.0144 -0.0111 0.0301 0.029 -0.014 0.005 -0.0065 0.0239 0.0061 0.0236 0.008 -0.0031 -0.0036 -0.0207 -0.016 -0.0358 -0.0078 0.0145 -0.0015 0.0463 0.0067 0.0201 0.0306 0.0117 -0.0196 0.0307 -0.0173 0.013 -0.0086 0.0336 -0.0034 -0.0037 0.033 -0.0054 -0.0012 -0.0011 -0.007 0.0017 0.0213 -0.0309 0.001 -0.0127 -0.0286 0.0017 -0.0032 0.0074 -0.0106 0.008 0.0002 -0.0453 -0.0528 -0.0027 0.0458 0.0014 -0.0005 -0.0059 -0.0093 -0.0032 0.0197 -0.0054 0.0249 -0.0184 -0.0405 0.0025 -0.004 -0.0208 0.0031 -0.0242 0.0391 0.0281 0.0051 0.0272 -0.0184 -0.0157 0.0034 0.0059 0.0117 -0.0136 -0.0126 0.0039 0.0158 0.0293 -0.0017 -0.0079 -0.0279 0.0249 0.0378 -0.004 -0.0039 -0.0269 -0.0211 -0.0473 -0.0007 0.0013 0.0371 -0.0012 0.0133 -0.0199 0.0147 -0.0011 -0.0113 -0.0135 -0.0141 -0.0082 -0.0114 0.0176 0.0058 0.0067 0.0114 -0.0057 -0.0572 -0.0074 -0.0274 0.0119 0.0239 0.0095 0.0306 0.0217 0.0241 -0.0115 0.0148 0.023 -0.0126 0.0012 -0.0235 -0.0025 0.0336 0.0146 -0.012 -0.0066 0.006 0.0055 0.0242 -0.0254 0.0181 -0.0058 0.0063 -0.009 -0.005 0.01 0.0061 -0.0038 -0.0126 -0.0167 0.0372 -0.0042 0.0219 -0.0087 0.0381 -0.0174 0.0028 0.0096 -0.0096 0.0332 -0.017 0.0142 0.0028 -0.0571 0.0144 0.0035 -0.0104 -0.0259 -0.0212 -0.0279 -0.0182 -0.0077 -0.0176 0.0421 0.0066 -0.0206 0.0025 -0.051 -0.0051 -0.0107 -0.0196 0.0167 0.0417 0.0218 0.0013 0.0124 0.0416 0.0336 -0.0198 -0.0143 0.0213 -0.0096 -0.0001 0.0045 -0.018 0.0006 -0.0326 -0.0136 0.0013 -0.0032 -0.0055 0.0041 -0.0047 0.0351 0.0093 0.0067 0.0214 0.0045 -0.0089 -0.0078 -0.0085 -0.003 0.0068 0.002 0.0105 0.0316 0.0216 0.0299 -0.0099 0.0058 0.0353 0.0129 -0.0083 0.009 0.0135 -0.0024 0.0327 -0.0033 -0.0246 -0.0271 0.0232 -0.0097 0.0012 -0.0284 0.0299 -0.0455 0.0027 0.0087 0.0023 -0.0037 -0.0156 0.0039 -0.0007 -0.005 -0.0092 -0.0293 -0.0037 0.0011 -0.0054 -0.0169 -0.0266 -0.0098 -0.0206 0.0158 0.037 0.019 0.0232 0.0022 -0.0125 -0.0252 0.0312 0.0057 0.0002
encomiums -0.0104 -0.0325 0.0261 0.0057 0.0087 -0.0134 -0.0189 -0.0389 0.0135 0.0143 0.0058 -0.0181 -0.0096 0.0101 -0.0052 0.0197 0.0154 -0.0034 0.0348 -0.0126 -0.0123 0.0087 0.0031 0.0234 -0.0012 -0.0091 0.0069 0.0201 0.0327 -0.0308 0.0062 -0.0245 -0.0186 -0.0101 0.009 0.0283 -0.0116 -0.0121 0.0194 -0.005 -0.0001 0.0036 0.0204 0.0242 -0.0003 0.0152 0.0043 -0.0223 -0.0009 -0.0045 -0.0036 0.0132 0.0105 0.0005 -0.0435 0.0011 -0.0278 0.0044 0.0009 -0.0024 0.0044 0.0009 0.0466 -0.0117 -0.0198 0.0062 -0.0076 0.0123 0.0203 -0.0141 0.0182 0.0025 0.04 0.003 -0.0024 -0.0181 -0.0051 -0.0266 0.014 0.0045 -0.0135 -0.0056 0.0251 0.0032 0.0003 -0.0156 -0.0182 0.0043 -0.0061 -0.0191 -0.0263 -0.0029 -0.0307 -0.0136 -0.0026 -0.0011 0.0023 -0.0051 0.0111 0.0231 0.0041 0.0008 -0.0181 -0.0037 0.0215 -0.0153 0.006 -0.0108 0.0074 0.0094 -0.0059 0.05 0.0121 0.0005 -0.0095 -0.0022 0.0161 -0.0023 -0.0375 0.0022 -0.0079 -0.0036 0.0064 -0.0017 0.0373 0.0107 0.0032 -0.0193 0.0039 0.039 -0.0097 0.0292 -0.0113 0.0112 0.0024 -0.0023 -0.0043 0.03 -0.0269 0.0034 0.0113 -0.0401 0.0102 -0.0242 -0.0005 -0.0051 0.0002 -0.0031 0.0281 -0.0084 -0.0066 0.0085 -0.0112 0.0155 0.0072 -0.0089 0.018 0.018 0.0056 0.0155 0.0112 0.0121 -0.0047 -0.005 -0.0116 -0.0107 0.0067 -0.0265 -0.0163 -0.0023 0.0119 -0.0009 -0.0057 0.0131 0.0099 -0.0134 -0.005 -0.0215 -0.0174 -0.0027 0.0137 -0.0115 0.01 -0.0162 -0.0086 -0.0132 0.0012 0.0115 -0.0109 0.0033 0.0172 0.0092 -0.0554 -0.0146 -0.0111 0.0014 0.006 -0.0117 -0.0085 -0.002 -0.0585 0.005 0.0157 -0.0062 -0.0073 -0.0125 0.0183 0.0095 0.0068 -0.0348 0.0163 0.0055 -0.0092 0.018 0.0176 -0.0005 0.0021 -0.0021 -0.0155 -0.0131 -0.0068 -0.0052 0.0096 0.0313 0.0167 0.0017 0.0209 0.0215 -0.0009 -0.0127 -0.005 -0.0152 -0.0238 -0.0012 -0.0019 -0.0146 -0.0131 -0.0318 0.008 -0.019 -0.0022 -0.0022 -0.0156 -0.0202 -0.0126 0.0065 -0.012 -0.0343 -0.0152 -0.0133 0.0304 -0.0151 -0.0067 -0.014 -0.009 0.0031 -0.0206 0.0041 0.0106 -0.0032 -0.0053 0.0068 -0.0022 -0.0318 0.0049 0.0099 0.0017 -0.0167 -0.0044 -0.0063 0.0084 0.0408 -0.033 -0.0143 -0.0155 0.0158 0.0016 -0.0005 -0.0082 0.0052 -0.003 0.0105 -0.0021 -0.0208 -0.0065 0.0209 0.0124 0.0092 -0.0084 0.0359 0.0052 -0.0007 0.0016 0.0117 0.0069 0.0029 0.0254 -0.0013 -0.0157 -0.0063
religione -0.0055 -0.0056 0.0144 -0.0143 0.0038 -0.0046 -0.0103 -0.0258 0.0093 -0.0027 0.0064 -0.0161 0.0037 -0.0115 -0.0063 -0.0098 0.0339 -0.0055 0.0201 -0.0028 -0.0282 0.0092 0.0039 0.0226 0.0086 0.002 -0.0054 0.0126 0.0183 0.0026 0.011 0.0094 -0.0028 0.0205 -0.0063 0.0175 0.0114 -0.0028 0.0066 0.0046 -0.0024 -0.0087 0.0097 -0.0023 -0.0018 -0.0198 -0.0226 -0.0062 0.0112 -0.0187 -0.0052 -0.0055 0.0125 -0.013 -0.017 0.0082 -0.0064 -0.0057 -0.0017 -0.0018 0.0033 -0.0018 0.0327 -0.0118 0.0029 0.0049 -0.0074 0.0105 0.0209 -0.0168 -0.0128 -0.0024 0.0095 -0.0099 -0.007 -0.0028 -0.0009 -0.0118 0.0157 0.0162 -0.0121 0.008 0.0084 0.0059 -0.0052 -0.0102 0.0131 0.0016 -0.0057 0.017 -0.0035 0.0071 -0.0249 0.0093 0.0036 0.029 -0.0043 -0.0148 0.0108 -0.0099 0.0002 -0.0056 -0.0021 -0.017 -0.0194 -0.0203 0.0127 -0.0017 -0.0044 0.0033 0.0057 0.0306 0.0103 -0.0009 -0.0007 -0.0003 0.0106 0.0073 0.0057 0.0113 0.0019 -0.0006 -0.0113 -0.0002 0.0078 0.0143 0.0164 -0.001 -0.0051 0.0168 0.0055 0.0001 0.0001 0.0067 -0.0062 -0.0023 0.0059 0.0119 0.0037 -0.012 -0.0024 -0.0129 -0.011 0.0057 -0.015 -0.0074 -0.0064 -0.0081 0.0049 -0.0037 0.0086 -0.0099 0.0154 -0.0066 0.0183 -0.0013 -0.0031 -0.0057 -0.0013 0.0123 -0.0038 0.004 -0.0187 0.0008 0.0047 0.0028 0.0083 0.0117 0.0 -0.0044 -0.0108 -0.0142 -0.0075 -0.0014 -0.0064 -0.0009 -0.0003 -0.0087 0.0078 -0.0185 0.0111 0.0072 0.0 0.0139 0.0073 -0.0352 0.0168 0.0305 -0.0039 -0.0211 0.0041 0.0225 -0.0082 0.0016 0.0141 0.0046 -0.0186 0.0002 0.005 0.0004 -0.0287 0.0048 0.0014 -0.0085 -0.0047 0.0082 0.029 -0.0075 0.0044 -0.0124 0.0209 -0.0121 0.0029 0.0014 0.0229 0.0103 -0.0008 0.0019 -0.0059 -0.0023 -0.0089 0.0095 0.0015 0.0341 -0.0152 0.0015 0.0067 0.0223 0.003 -0.0203 -0.0027 -0.0116 -0.0191 -0.0194 0.0046 0.0017 -0.0016 -0.0192 0.005 -0.0023 0.0281 -0.0184 -0.0126 -0.0026 0.0088 0.0041 -0.0008 0.005 -0.0213 0.0107 -0.0006 -0.007 -0.0169 -0.0107 -0.0004 -0.0129 0.0002 0.011 -0.0088 -0.0004 0.002 0.0016 0.0002 0.0069 0.0019 0.0007 0.0057 -0.0092 0.003 0.0153 0.0207 0.0381 -0.0193 -0.0179 -0.0073 -0.0035 -0.0026 -0.0013 -0.0235 -0.0175 0.0097 -0.0026 -0.0146 -0.0111 -0.0283 0.002 0.0151 -0.0006 -0.0064 0.0275 -0.0004 -0.0121 -0.0064 0.0061 0.0014 0.0046 0.0039 0.0169 0.0107 0.0079
bulb -0.0397 -0.0001 -0.0227 0.0445 -0.041 -0.0057 0.0193 -0.0169 0.0431 -0.0476 -0.0346 -0.0096 0.0037 -0.0168 -0.0264 0.0148 0.0283 -0.0402 0.0219 0.0358 0.0186 0.0356 0.0014 0.0075 0.0557 -0.0794 0.0016 0.0256 0.0059 0.023 0.0477 0.0411 0.0129 0.0112 -0.0085 -0.0414 0.0286 0.073 0.0211 0.0219 0.0542 -0.0955 -0.0026 -0.0222 0.0529 0.0054 -0.0462 0.0294 -0.0272 0.0118 0.0306 0.0562 -0.058 0.0695 -0.0349 -0.0001 -0.0017 -0.0332 -0.007 0.0073 -0.0016 0.0075 0.0684 -0.055 0.012 0.0782 -0.0387 -0.0292 0.0041 -0.0233 -0.0128 0.0404 -0.0113 0.0465 -0.1313 -0.0005 -0.001 -0.0162 -0.0371 0.013 -0.0046 -0.0643 -0.0522 0.0246 0.013 0.0038 -0.0027 -0.0148 0.0034 -0.04 0.0327 -0.0065 -0.0187 0.0191 -0.0115 0.0504 0.0277 0.035 0.0047 -0.0295 0.0074 0.0255 -0.0038 0.002 -0.014 -0.0798 -0.0153 0.0116 0.0406 0.083 0.0238 0.0059 0.0394 -0.0157 0.0321 -0.0486 -0.04 -0.0005 -0.0279 -0.0084 -0.0192 -0.0576 -0.005 0.0136 0.0487 0.0158 0.0009 -0.0678 0.0367 0.0275 -0.0124 -0.0148 -0.0173 -0.0056 0.0122 -0.0271 -0.0103 0.0117 0.0426 0.0389 0.0459 0.0389 0.0007 -0.0065 -0.0056 -0.0136 -0.0082 0.0123 0.0242 -0.053 -0.0343 0.0416 -0.0632 -0.0104 -0.1051 0.0246 -0.0104 -0.0433 0.0475 -0.0009 0.0185 -0.0079 -0.0074 -0.0106 0.0592 -0.0251 0.0194 -0.0445 0.0275 0.0366 -0.0086 0.0373 -0.0434 0.0472 0.004 0.0657 -0.008 -0.0045 0.0044 -0.0742 -0.0279 0.0585 -0.0099 -0.0444 -0.0024 -0.0581 0.0051 0.1308 0.0213 0.0669 0.0488 -0.0332 0.0242 -0.0 -0.0246 -0.0214 0.0317 0.0381 0.0063 0.0424 -0.0741 -0.0106 -0.0216 0.0077 0.0305 -0.0222 0.0803 0.0094 -0.0244 -0.0289 0.0735 -0.0285 0.0516 0.0479 0.0086 0.0133 0.0479 0.0064 0.015 0.0034 0.0574 0.0211 0.0133 0.026 -0.0126 -0.0461 0.0332 -0.0141 0.065 0.0092 -0.0476 -0.0404 -0.0266 0.0099 0.0194 -0.0061 0.0856 -0.0493 -0.0537 -0.0248 0.0122 -0.0088 -0.042 -0.0109 0.005 -0.0463 0.0296 0.0313 0.0232 -0.0455 -0.0149 0.0465 -0.0348 -0.0019 -0.004 -0.0552 0.0138 -0.0146 -0.0315 0.0303 0.0525 -0.0324 0.0109 -0.0444 0.0085 0.0017 -0.0138 0.0009 -0.0446 -0.002 0.0206 0.023 -0.0367 -0.015 0.0055 -0.0293 0.0172 0.017 0.018 -0.0212 0.0664 0.0004 -0.0286 -0.0076 -0.0224 0.0165 -0.0319 0.0164 -0.0562 0.0207 -0.0171 0.0693 -0.0462 -0.0551 0.0303 -0.0204 -0.0009 0.0029 -0.0229 0.0071
