1000 300
howler -0.0438 0.1457 0.1053 0.1164 -0.0856 0.1578 -0.0984 0.028 0.2656 0.0655 0.0811 0.0415 -0.1973 -0.0752 0.0569 -0.0421 -0.0997 -0.2643 0.1644 -0.0644 -0.2695 -0.0381 0.0631 -0.1632 0.178 -0.0767 0.061 0.2131 0.0332 0.0085 0.1371 0.1254 0.0655 0.0925 -0.0211 0.0181 0.2388 -0.191 -0.1799 -0.3112 0.1207 0.0199 -0.0144 -0.2015 0.1869 0.1105 -0.131 0.1389 0.0005 0.0008 0.0195 0.1022 -0.7754 0.0522 -0.04 -0.1088 -0.0201 -0.0234 -0.0318 0.1074 -0.1715 0.1128 -0.0422 -0.0549 0.1415 -0.1633 0.1106 -0.1236 -0.1057 0.1134 0.0008 -0.2334 0.0912 -0.1871 -0.199 0.1021 0.2822 -0.281 0.0257 0.075 0.2103 -0.0598 0.0516 -0.2503 -0.278 0.2898 0.0668 -0.1081 0.2314 -0.3052 -0.114 -0.0234 -0.0625 -0.1449 -0.125 -0.2806 0.0088 -0.0018 0.0123 -0.185 0.0206 -0.0189 -0.1155 -0.0233 0.1311 0.0231 0.0136 -0.0015 0.0246 0.0085 0.0762 0.1521 0.1615 0.1317 -0.1419 -0.1764 0.3037 0.1168 -0.002 -0.2703 -0.3164 -0.111 -0.0321 -0.0761 0.1897 0.0956 -0.3384 -0.2213 0.041 0.0998 0.027 0.0381 -0.1854 0.1795 0.1439 0.1445 0.059 -0.0543 -0.0068 0.0146 0.1454 0.0244 -0.1757 0.1158 -0.0425 -0.0942 0.1677 -0.2115 -0.0121 0.0937 0.0387 0.1188 -0.0774 0.0408 0.0178 0.107 -0.0864 -0.1773 0.0022 0.133 0.2375 -0.0179 -0.1234 0.0145 0.066 -0.041 0.124 0.0359 0.0797 -0.0849 -0.01 -0.1033 0.1134 -0.1675 0.0612 -0.1134 0.1661 -0.0316 -0.1453 0.2065 0.2488 -0.1545 -0.0738 -0.3448 0.0429 -0.1583 -0.0785 -0.0141 -0.1178 0.1629 0.0451 -0.0053 -0.1253 0.0702 -0.1188 -0.0017 0.0207 -0.4048 0.1089 0.3168 0.1011 0.0064 -0.0529 0.0488 0.2538 0.0717 -0.047 -0.1469 0.0115 0.004 -0.101 0.2703 -0.1208 -0.0261 0.1259 -0.1821 0.0605 -0.0908 -0.0957 -0.2205 0.1155 -0.1167 -0.0871 -0.0755 -0.3213 -0.1812 0.2093 0.0832 0.0882 -0.463 -0.2931 0.0926 0.2108 0.1091 0.3814 0.032 0.1126 -0.3573 -0.1388 0.0201 -0.1315 -0.1639 -0.2322 0.0639 -0.1579 -0.0081 -0.2879 0.222 -0.086 0.2787 0.123 -0.0999 0.2655 -0.0825 -0.0316 0.072 0.04 -0.1538 -0.3198 0.1056 0.1327 -0.2333 -0.0554 -0.0866 -0.4391 0.031 -0.0155 0.1165 -0.2582 -0.1694 -0.0531 -0.2091 -0.0099 0.1159 -0.1146 -0.1881 0.1567 0.1497 -0.1679 0.2112 -0.0382 0.1459 0.1122 -0.0814 -0.2118 0.0389 -0.0295 -0.0512 -0.1177 0.0467 -0.012 -0.1279 0.0218 -0.1316 0.271 -0.0495 0.0045 -0.0198 0.1686 0.0855
sweatshop 0.1567 0.2074 0.1493 -0.0932 0.019 0.1817 -0.0884 -0.1832 -0.0682 0.0179 -0.0712 -0.1395 -0.2881 -0.1196 0.1198 -0.1304 -0.0059 -0.2489 0.0612 -0.3453 -0.4073 0.0149 0.0677 0.124 -0.1066 0.1552 0.1752 0.0208 0.0168 0.081 -0.1412 0.0148 0.1865 -0.2113 0.0029 0.1075 0.2043 -0.1097 -0.0368 0.1234 -0.0785 -0.0526 -0.2436 -0.2457 -0.0733 -0.0717 -0.4761 0.4525 -0.0449 0.2174 -0.0237 -0.0076 -0.9072 -0.0159 0.0384 0.0353 0.1646 0.2515 0.0934 -0.0298 0.1168 -0.1049 0.2015 -0.3307 0.0331 -0.1656 -0.0174 -0.069 -0.1425 0.0583 0.1059 -0.1205 0.2632 -0.1377 -0.2261 0.1206 -0.0231 -0.2469 0.0313 -0.0887 0.0564 0.3134 0.1779 -0.2639 -0.0394 -0.0182 0.216 -0.0768 0.3199 -0.1699 -0.2487 -0.0952 0.2358 -0.0523 0.075 -0.1067 -0.0023 0.0067 -0.1198 0.0516 -0.1662 0.0493 0.1123 0.0905 0.1541 0.1732 -0.1277 -0.0922 0.0005 0.0232 -0.1812 0.144 -0.1581 -0.0876 -0.111 0.1058 -0.0252 0.2299 -0.2262 -0.0926 0.0505 0.2614 0.1472 -0.0116 0.0646 0.2163 -0.4416 -0.006 -0.1743 -0.0264 -0.123 0.0659 0.0325 0.1847 -0.1475 0.0254 0.2088 0.0827 0.1927 0.0864 0.2434 -0.0566 -0.0716 0.0024 0.2584 0.1357 -0.1221 -0.0782 -0.0787 0.0968 -0.1217 0.0186 0.0737 0.146 0.1423 -0.2421 0.0674 -0.0039 0.2684 0.0493 0.0966 0.2312 -0.0805 -0.0672 0.2043 -0.0431 0.0722 -0.1163 0.0472 -0.057 0.1129 0.2587 0.0374 -0.162 0.001 0.1336 0.3239 0.0031 -0.0827 0.1554 -0.1429 -0.0792 -0.063 -0.1068 0.2996 0.0629 0.1873 -0.2892 -0.1822 -0.1929 0.1106 -0.0039 -0.0115 -0.374 0.271 -0.0427 -0.0605 0.1447 0.0263 -0.1513 -0.1171 0.1044 0.061 -0.1483 0.003 0.0319 0.1504 -0.0461 -0.0449 0.0494 0.2147 -0.2281 0.1518 0.2191 -0.0032 0.2009 0.0154 -0.4673 -0.5003 -0.1384 0.0326 -0.1975 -0.0481 -0.0322 0.0862 -0.0486 -0.3082 0.0811 0.1329 -0.0753 -0.0481 0.1838 0.0829 -0.1915 0.0034 -0.1078 -0.3236 0.102 -0.0991 0.1766 -0.2052 0.0798 0.0847 0.2675 0.2122 0.2013 0.1935 0.0676 -0.0708 0.3642 0.108 0.1054 -0.0927 -0.0263 0.0929 0.1915 -0.1287 0.1581 -0.1387 0.2347 -0.0549 0.0221 -0.0565 -0.1269 -0.4164 -0.0153 -0.1247 -0.1611 -0.4235 -0.0784 0.1428 0.2314 -0.0483 0.0705 0.0807 -0.0038 0.1672 -0.102 0.1563 0.0203 -0.0062 0.0768 0.2171 -0.2013 0.0453 -0.1715 -0.0026 -0.1452 0.0062 -0.0146 0.3262 -0.0551 -0.3328 0.0388 -0.1609 0.062 0.0439 0.1395 0.0658 -0.0368
freeloaders 0.1209 -0.1027 0.0381 0.0491 -0.0141 0.049 -0.2366 -0.0677 0.1022 0.0235 -0.0675 0.0529 0.1477 -0.0599 0.1079 -0.2187 0.0395 -0.0548 -0.0612 -0.162 -0.3275 0.1452 0.0732 -0.305 -0.2497 -0.1381 -0.1203 0.2029 0.064 -0.0266 0.3034 0.1059 -0.0652 0.3825 0.0061 0.0103 0.0232 -0.1443 0.1191 0.0747 -0.2191 -0.1885 -0.1083 -0.1099 0.1099 0.0655 0.0784 -0.0508 -0.1616 -0.0736 -0.0878 0.0603 -0.8049 0.0063 -0.1542 0.1328 0.0517 -0.2242 0.0769 -0.2597 -0.0695 -0.0598 -0.1552 0.0382 0.0998 0.102 -0.1309 0.1029 -0.0524 -0.106 -0.0906 -0.0626 -0.0072 0.0395 0.0657 -0.0195 0.0138 -0.2012 0.0122 0.1808 -0.0571 0.2451 -0.0176 -0.1949 -0.0722 0.019 0.0794 0.1358 0.0175 0.1044 0.0213 0.0213 -0.0707 -0.0049 0.0314 0.074 0.2642 -0.0421 -0.1219 -0.1827 -0.0693 0.1441 0.0807 -0.115 -0.1671 0.0096 0.1574 -0.1032 -0.1138 0.1182 -0.0063 0.0889 0.1235 -0.1837 0.0047 0.0516 0.1259 0.0317 -0.0778 -0.2286 -0.0924 -0.0614 0.1027 0.0999 -0.0376 0.1627 -0.2303 -0.1451 -0.1211 0.1115 -0.018 -0.0768 0.1461 -0.0027 0.0316 -0.0609 0.0774 0.0598 0.1383 -0.0912 -0.0572 -0.2282 -0.0345 0.0342 -0.1144 0.2399 0.2177 0.1146 -0.1396 0.2243 -0.163 0.0136 -0.1596 -0.0647 0.1086 -0.0009 0.1303 -0.0802 -0.1267 0.2331 0.112 -0.3568 -0.1347 -0.0065 0.1796 0.0041 0.0286 0.0571 -0.1109 -0.0767 0.043 -0.198 -0.0007 0.0586 -0.1768 0.1411 0.0029 0.0493 -0.2662 0.1642 0.1086 0.0756 0.0373 0.0872 0.1816 0.0365 0.0536 -0.3225 -0.1565 -0.2099 -0.188 0.116 0.1756 -0.1128 -0.0515 -0.1414 -0.0027 0.0804 0.0945 -0.0063 0.0587 -0.1243 0.0601 -0.0596 0.0733 0.1074 0.1086 -0.1203 0.0214 0.1364 0.0688 -0.1544 0.0993 -0.0764 -0.1702 -0.0797 -0.1482 -0.0092 -0.0897 -0.1879 0.0605 0.0948 -0.0367 0.3158 -0.0794 -0.0236 -0.3714 0.0057 0.2097 -0.1129 -0.0338 -0.2296 0.1886 0.0869 -0.3167 0.1126 0.0479 -0.0301 -0.012 0.3424 -0.1192 -0.1574 0.0108 -0.063 -0.065 0.1041 -0.0358 0.1253 -0.0812 0.3016 -0.0514 0.0474 -0.1173 -0.0657 0.2619 0.0784 -0.1204 -0.1338 0.0288 0.1539 0.0286 0.1381 -0.0054 -0.0096 -0.6163 0.0638 -0.1419 -0.1403 -0.1922 0.0675 0.0943 0.1252 -0.0708 -0.1461 -0.1564 -0.0558 -0.1658 0.1172 0.0531 0.1214 -0.0077 0.0323 0.0865 0.0366 -0.1797 0.031 0.1453 -0.0314 -0.2121 -0.0104 -0.12 -0.0586 -0.0541 -0.1018 0.1283 0.0364 -0.0175 0.1543 -0.0519 0.2534
tributes -0.1345 -0.013 -0.09 -0.0799 -0.035 0.0129 0.0585 -0.0279 -0.0305 0.0614 -0.1378 0.0851 0.1792 -0.3287 0.1107 -0.0183 0.3118 -0.181 -0.0315 -0.1535 -0.2223 0.0036 -0.0099 -0.1831 0.0001 0.0889 -0.1309 -0.0937 0.1625 -0.0531 0.0347 -0.0622 0.1937 -0.0529 -0.0441 0.0565 -0.1114 0.087 0.1196 -0.0514 -0.1141 0.0746 -0.0308 -0.0128 -0.0842 -0.0709 0.0696 0.127 -0.0147 -0.0296 0.0413 0.1121 -0.6758 -0.1991 -0.0484 -0.022 -0.1192 -0.0303 -0.1549 -0.1377 0.1383 0.0737 -0.0391 -0.309 0.2222 0.0801 -0.2336 -0.035 0.1215 -0.0312 0.169 0.0037 0.0613 -0.0285 -0.1289 -0.2794 0.0555 0.3456 -0.1377 -0.2339 -0.0165 0.0006 -0.0053 -0.171 0.1284 -0.1424 -0.0024 -0.0518 0.1116 0.1172 0.1659 -0.0405 -0.1015 -0.0842 -0.0797 0.2822 -0.1561 -0.2572 0.1292 0.0613 -0.0848 -0.0627 0.2 -0.2943 0.0545 0.0606 -0.0963 -0.1236 0.2341 -0.1357 0.0699 0.0673 0.1199 -0.1081 -0.1348 -0.007 -0.0058 -0.1834 -0.0036 -0.2889 0.0357 -0.0267 0.0782 0.1795 -0.225 0.0753 -0.0712 0.0315 -0.0177 0.1257 -0.0589 0.1954 -0.0658 -0.1846 0.0021 -0.0429 -0.0924 0.0002 0.0434 0.0343 -0.0396 -0.0647 -0.0432 0.218 -0.0858 0.1067 -0.0503 -0.2244 0.1919 0.0347 -0.3055 -0.0976 0.1415 -0.1057 0.088 0.0495 -0.106 -0.0029 0.0974 0.0839 0.1425 -0.1544 -0.1412 -0.0736 0.1426 -0.2815 0.0343 0.2791 -0.0759 -0.2246 0.1264 -0.1791 0.0545 -0.0313 -0.1731 0.0608 0.2204 -0.1723 -0.1181 0.0162 0.0824 -0.004 -0.0943 0.1955 -0.0128 0.0374 -0.0764 -0.0852 -0.1174 0.081 -0.0709 -0.0331 0.1879 -0.0974 0.081 0.1596 0.2008 0.0457 0.1592 0.0308 0.1225 -0.0356 0.0646 0.0397 0.2142 0.1337 0.2458 -0.0505 0.0277 0.0202 0.0261 -0.2619 -0.0634 -0.1008 0.0668 -0.2063 -0.2135 -0.1029 0.0216 -0.1525 0.0036 0.0433 -0.0487 -0.0461 0.1812 -0.0791 -0.1299 -0.2428 -0.1662 -0.3316 -0.3574 0.1661 0.248 -0.2976 0.0564 -0.1255 -0.0039 -0.0701 -0.2172 0.0807 -0.1401 0.0686 -0.0813 0.2767 0.218 0.2399 -0.077 -0.0154 -0.0169 0.2296 0.0814 -0.0982 -0.0181 0.0336 -0.0005 0.1539 -0.1389 0.4363 0.0659 0.1155 -0.0308 0.0329 -0.1991 -0.0635 -0.5878 0.1375 0.0682 0.0667 -0.0512 0.0989 -0.2663 -0.0139 0.0836 -0.15 -0.1678 -0.0255 -0.1916 0.274 0.1571 0.0815 -0.0712 0.0677 -0.1301 -0.0165 0.1673 -0.1807 -0.2009 -0.2328 0.1594 -0.0254 -0.2573 -0.1444 -0.0414 -0.3612 0.3513 0.0088 -0.18 0.2092 0.0269 0.0821
syntactical 0.0777 -0.1809 -0.0045 0.2157 -0.0626 0.0881 0.0988 -0.0532 0.0283 0.2117 0.1166 -0.1842 -0.0777 -0.0314 0.0039 0.0001 -0.0219 -0.105 -0.2449 0.0086 -0.259 0.2074 0.0393 0.1211 0.1118 0.279 -0.141 -0.4143 0.0356 -0.2086 0.18 0.1406 0.2715 -0.1413 -0.054 -0.0399 0.275 -0.1547 -0.0234 0.0665 -0.0839 -0.0345 0.0693 0.0528 0.0044 -0.0379 -0.1876 0.2139 0.1422 0.2177 0.0908 0.3386 -1.0385 0.0861 -0.022 -0.0202 -0.0261 -0.1409 0.1961 0.1247 0.0168 -0.0174 0.0723 0.132 -0.0643 -0.0857 0.1597 -0.1663 0.1031 -0.036 0.1025 -0.1213 -0.0573 -0.0373 0.0743 -0.0284 0.0113 -0.2337 0.1723 0.0206 0.0091 0.0241 0.2141 -0.1431 0.0675 0.3816 -0.0708 -0.0846 0.4285 -0.0565 -0.1908 -0.1418 -0.0264 -0.019 0.0329 -0.0258 0.01 0.2152 -0.085 -0.2114 -0.0944 0.1738 0.0078 0.1571 0.0233 0.0074 -0.1058 -0.0132 -0.0072 0.0443 -0.098 0.229 -0.0373 -0.1475 0.1364 0.0657 0.0965 -0.2404 0.0636 -0.1555 0.036 0.0112 -0.0136 0.1155 -0.0853 0.1308 -0.1425 -0.1884 0.0289 0.1153 0.1243 0.0141 -0.0636 0.072 -0.0163 0.0574 -0.0877 0.0117 -0.0059 0.0846 0.1084 0.0681 -0.0181 0.1567 0.0425 -0.0734 0.1376 -0.001 0.0477 -0.2103 0.0589 0.1454 -0.0943 0.0442 0.0591 0.1072 -0.0602 -0.0824 -0.0942 0.0071 -0.0267 0.1268 -0.0321 0.0099 0.17 -0.1121 0.1082 0.2943 0.1508 -0.0546 0.0624 0.0708 -0.0666 -0.0364 -0.0815 0.0573 0.2624 -0.1239 -0.0385 0.4192 -0.0177 0.1075 0.0762 -0.1077 0.1226 0.1202 0.1379 -0.0779 -0.1776 0.085 -0.1263 -0.0069 -0.0964 -0.0493 -0.1639 0.0081 0.1163 -0.0116 -0.0787 0.0295 0.066 0.1756 0.0349 0.0841 -0.1806 0.159 0.0633 -0.1129 -0.0171 0.2114 -0.0311 0.0187 0.0097 -0.0284 -0.236 -0.1669 0.0201 -0.23 -0.0824 -0.3155 -0.0221 0.1504 0.2644 0.0099 -0.1261 -0.0821 0.1357 0.0868 0.0925 -0.2742 0.2755 -0.0269 0.1073 -0.1414 0.2924 -0.072 0.2317 -0.4703 -0.1304 0.0187 -0.1217 -0.0464 0.1929 -0.0731 -0.0087 -0.0138 -0.2007 0.171 -0.2457 0.2837 0.0743 -0.0691 0.1864 -0.2311 -0.0403 -0.1355 0.0626 -0.1504 0.0084 -0.0011 -0.1025 -0.0793 -0.0786 0.0845 -0.2297 -0.0955 -0.1741 -0.0449 -0.1864 -0.1292 -0.2294 -0.1113 -0.0487 0.0256 -0.1396 0.0506 -0.1136 -0.0721 0.2277 -0.0101 -0.0659 -0.2355 0.0041 0.1172 0.0634 0.1246 -0.0294 0.3356 0.0489 0.0295 0.1157 0.1471 -0.0965 0.0103 -0.1084 -0.1011 -0.0298 0.1808 0.0996 0.1227
prescriptions -0.0593 0.0245 -0.0743 -0.0174 0.0861 -0.0813 0.1375 -0.0249 -0.0522 -0.003 0.0179 -0.0488 0.036 0.0555 -0.0697 -0.1563 0.0772 0.1016 -0.0663 -0.0011 -0.3221 0.0653 -0.1733 -0.1716 -0.0745 0.0649 0.0155 -0.1288 0.152 0.0714 0.0932 0.0015 0.0408 0.0354 0.1722 0.0944 0.0874 -0.0267 0.0862 -0.0751 -0.0186 -0.08 -0.0897 0.0932 -0.1067 -0.0142 -0.0842 0.1835 0.0176 0.0618 -0.0594 0.0971 -0.6362 0.0289 -0.115 0.072 0.2021 -0.1776 0.016 -0.1092 0.0042 0.0455 -0.1029 0.0871 -0.0512 -0.0898 0.0477 0.1357 0.1402 -0.0246 -0.3033 -0.1828 0.0163 -0.0286 -0.0713 -0.2568 0.0807 0.0544 0.2375 -0.1645 0.0043 0.0639 -0.0678 -0.2535 -0.0912 -0.0249 0.0402 -0.0085 0.2013 0.1579 0.1285 0.3156 -0.0023 -0.0588 0.1082 0.0295 -0.102 -0.1686 0.0699 0.0959 -0.2087 -0.0309 -0.0939 -0.0283 -0.0218 0.1592 -0.0979 -0.0404 -0.0084 0.1998 0.0041 0.0529 -0.1663 0.0027 0.1441 0.0139 -0.0513 -0.0545 -0.0055 -0.3201 -0.1587 -0.0908 -0.1159 0.2638 -0.0217 0.2048 0.1362 -0.0144 -0.013 -0.0047 -0.1813 -0.0508 -0.0357 0.1138 0.1039 0.0476 -0.1522 0.2536 0.141 0.2891 -0.2123 -0.1144 -0.0222 0.0984 -0.0127 -0.0098 -0.1197 0.2596 -0.2257 0.1409 -0.0436 0.0921 -0.0815 0.1545 0.13 -0.2386 0.0156 -0.115 -0.053 -0.1515 0.16 -0.2481 -0.007 -0.0701 0.1621 -0.1716 0.0618 0.0259 -0.1813 0.0071 -0.0676 0.0637 -0.1049 -0.0603 0.1857 -0.038 0.2213 -0.2312 -0.3546 0.1899 0.1253 0.0108 0.0479 0.1795 0.0887 0.0624 -0.2799 -0.2745 -0.1256 -0.0419 0.2186 -0.0388 -0.0004 -0.2183 0.0085 0.1313 -0.096 -0.1348 0.2406 -0.0974 -0.1611 0.0472 -0.0009 -0.0236 -0.0436 0.0452 -0.0617 0.155 -0.097 0.0991 -0.1224 0.2405 -0.1139 -0.1806 0.1468 -0.1971 -0.1441 0.1 -0.0702 0.007 0.0074 0.0854 0.3176 -0.0109 0.0725 -0.0764 0.1171 0.0236 0.0135 -0.189 -0.2906 -0.1282 0.238 0.0378 0.0758 -0.1079 0.0087 -0.0824 -0.2563 0.1302 0.0387 -0.0969 0.1192 -0.1256 -0.1057 0.3254 -0.03 0.128 0.153 0.2952 0.2258 -0.0286 -0.2941 -0.1371 0.0403 0.0191 0.0017 -0.0995 -0.1319 -0.1545 -0.14 0.3149 -0.1933 -0.086 -0.6337 -0.0596 -0.0864 0.1624 0.1113 0.162 0.0411 -0.1765 0.1022 -0.058 -0.014 0.1881 0.0553 0.1381 0.166 -0.0914 -0.1503 -0.053 -0.0703 -0.286 0.055 0.2554 0.0294 0.0622 0.2114 -0.1478 0.0046 0.0574 0.1176 0.1778 -0.0627 0.2511 0.0918 0.234 0.0343 -0.0511
striptease 0.3801 0.0378 0.169 -0.0046 -0.0212 -0.0189 0.1555 -0.2158 -0.141 0.1888 0.3164 0.0217 -0.0724 0.0191 -0.0172 -0.2273 -0.1106 0.1254 -0.082 0.2513 -0.4008 0.0438 0.1202 0.2939 0.1127 -0.1014 0.1091 -0.0932 -0.108 0.0344 0.015 -0.157 0.1387 0.0974 -0.1081 -0.093 0.0825 0.0241 0.1587 0.0728 0.0774 -0.1585 0.0016 -0.1591 0.0598 -0.1982 -0.3042 0.1612 0.1346 0.0053 0.1615 -0.2135 -0.819 -0.0137 -0.0778 0.0828 0.0761 -0.0719 0.1105 -0.2319 0.1968 0.04 0.0009 -0.2387 0.133 -0.0332 -0.2047 0.3394 -0.1783 -0.1072 0.0206 -0.1976 -0.0274 -0.0141 0.0333 -0.0214 -0.0537 -0.0953 -0.1325 0.0351 0.0234 -0.088 -0.1209 -0.1656 -0.027 -0.0632 -0.2208 -0.1297 0.2614 -0.259 -0.1479 -0.1525 0.0451 -0.0736 0.0684 -0.0727 0.0191 0.0388 0.0327 0.0844 -0.0436 -0.0804 0.0747 0.0942 0.0563 -0.0771 -0.0624 -0.0944 0.1863 -0.0738 -0.2892 -0.0966 0.0722 -0.1503 -0.1034 0.1103 -0.0955 -0.1867 -0.2031 -0.1953 0.0451 -0.0154 0.0247 0.1148 0.0203 0.0449 -0.0645 0.3279 0.023 -0.0982 0.0488 0.1909 0.0024 -0.1651 0.0135 0.1042 -0.015 0.2109 -0.0361 -0.1197 0.2286 0.0664 -0.2052 -0.029 -0.1686 0.089 -0.1932 -0.1347 -0.1902 0.195 -0.1063 0.0186 0.1994 -0.0171 -0.4453 0.068 0.3536 0.1466 -0.1346 0.1394 0.1578 -0.0315 -0.1359 0.0614 0.06 0.0903 0.0186 -0.0385 -0.1188 -0.2238 0.0776 0.1505 0.06 -0.0165 0.0092 0.0214 0.201 -0.1962 0.0227 0.0544 0.0665 0.0483 -0.0259 -0.0458 0.0107 -0.0154 -0.0353 0.1501 -0.131 0.0933 -0.1507 0.1078 -0.1436 0.2405 -0.0891 0.2756 0.0569 0.0212 0.0833 0.1897 0.0318 0.08 0.0298 0.085 0.2246 -0.0153 0.1531 -0.1253 -0.1082 -0.0372 0.1003 -0.2126 0.3191 0.1372 0.2475 0.0418 0.0978 -0.1885 -0.3086 -0.0074 0.1695 -0.3764 0.0048 -0.0332 -0.1122 -0.0937 -0.1884 0.3178 -0.0066 -0.2375 -0.1481 -0.0669 0.1098 -0.0022 -0.1744 -0.0988 -0.1533 -0.0576 -0.1018 0.0573 -0.0566 0.0219 0.0811 0.0468 -0.0185 -0.0373 -0.3155 0.0965 -0.2196 0.2613 -0.1734 -0.0384 -0.0266 -0.1002 0.0145 -0.0655 0.069 -0.0488 0.0824 -0.0637 0.0628 0.2428 0.094 -0.0662 -0.3114 -0.0255 0.1345 0.0012 -0.2847 -0.0939 -0.0312 -0.0108 -0.095 -0.0738 -0.1906 0.2364 -0.0257 0.1597 -0.1037 0.159 -0.1311 0.0883 -0.1046 -0.0157 -0.0313 -0.0799 -0.1597 -0.0866 0.3446 0.0759 0.2065 -0.0658 0.0562 -0.1657 0.0788 -0.1075 -0.0233 0.0684 0.0533 0.0405
innovators 0.0393 0.0752 -0.1926 -0.0281 0.0315 0.191 -0.0117 0.221 0.0422 -0.0424 -0.0845 0.0568 -0.0016 -0.0449 0.0616 -0.04 0.003 -0.1035 -0.0069 -0.0717 -0.2886 0.0448 0.1078 0.0232 -0.0774 0.0672 -0.0465 0.1662 -0.0183 -0.1815 0.1491 0.1537 -0.078 -0.1276 0.2386 0.0545 -0.1373 -0.0246 0.026 0.0356 -0.1749 -0.1614 -0.0912 0.0102 0.1338 -0.1915 0.106 0.0385 0.0064 -0.2404 -0.1516 0.0095 -0.6879 0.0719 0.0577 0.0109 0.1128 -0.0968 0.0633 0.068 -0.1627 0.0122 0.0172 -0.1757 -0.0917 0.1035 -0.1724 -0.0028 0.0943 -0.1122 0.0131 0.2375 -0.1386 -0.0229 -0.1148 -0.1138 0.0453 0.1349 0.0241 0.2078 0.0692 -0.0142 0.0313 -0.2395 0.0047 -0.2003 0.171 0.0342 0.1434 -0.2324 -0.1559 0.0202 -0.0087 0.0093 0.2197 -0.0335 0.0086 -0.3671 0.1667 -0.1533 -0.0905 0.0074 -0.1302 0.0138 -0.1564 -0.1907 -0.0395 -0.0085 -0.0858 -0.0059 -0.1601 0.1385 0.1137 -0.0673 -0.0515 -0.0645 -0.0102 -0.1518 0.1033 -0.357 0.128 -0.1871 0.0485 0.119 0.011 0.1473 0.104 -0.0266 -0.0081 -0.1767 0.013 -0.0997 -0.0233 -0.1617 -0.0849 -0.02 0.0549 0.1164 -0.0587 0.0482 -0.0504 -0.0407 -0.2358 0.0958 -0.0761 0.127 -0.1881 -0.0512 0.0502 0.3226 -0.1458 -0.0446 -0.0414 0.0 0.0998 -0.0037 -0.0989 -0.1077 -0.2193 -0.1358 -0.001 0.1104 -0.0778 0.1449 0.1668 -0.0918 0.0877 -0.0671 0.085 -0.0456 -0.006 0.0401 -0.1581 0.1745 -0.1278 0.1003 0.2178 -0.083 -0.1792 0.3034 -0.1122 0.0226 -0.0895 0.06 -0.051 0.0036 -0.0981 0.1207 -0.1508 0.041 -0.0781 -0.1418 0.0094 0.034 -0.0628 0.0674 0.1943 0.1744 0.1623 0.109 0.0643 0.0098 0.0939 0.009 0.0972 -0.0063 0.0069 -0.1045 0.1337 -0.2629 0.057 -0.1585 -0.0594 -0.0391 -0.1473 -0.0737 -0.1823 0.2134 -0.2077 -0.0826 -0.0098 -0.1482 0.1081 0.0197 0.0502 0.0838 -0.2342 0.1963 -0.1206 -0.0874 -0.1595 0.0996 0.326 0.0687 -0.0106 -0.0934 -0.1014 0.125 -0.2557 0.2013 0.0261 0.0687 -0.0462 0.0909 -0.1321 0.044 -0.2367 0.0069 0.0841 0.3521 -0.1096 0.1585 -0.2303 -0.0384 0.2755 0.2537 -0.0471 -0.0992 -0.1497 0.1471 0.071 -0.1416 0.0183 0.0494 -0.5907 0.0409 0.1576 -0.1044 -0.1718 0.0508 0.0752 0.2344 0.0577 -0.2247 -0.0039 0.0624 -0.0095 0.0152 0.1835 -0.0876 -0.0358 0.1401 0.1041 -0.2174 -0.0993 -0.1422 -0.0932 -0.0673 -0.1495 0.1077 -0.1136 -0.0736 0.0098 0.0628 -0.1734 0.0987 0.0975 0.1358 -0.0163 0.0945
fussy 0.0915 -0.0598 -0.1435 0.228 0.0986 0.099 0.0446 -0.0458 0.0014 0.1314 0.0334 -0.1808 -0.0251 -0.0267 -0.1851 -0.1458 0.1307 -0.1248 0.1792 -0.1972 -0.1019 0.0956 -0.0333 -0.1221 -0.0638 -0.0107 -0.0308 -0.1556 0.1318 -0.1314 0.216 0.1282 0.0752 -0.1419 -0.0124 -0.0251 0.2521 -0.0911 -0.0364 0.1326 -0.0703 -0.0258 -0.1186 0.1496 0.014 0.0674 0.0226 -0.1273 -0.1835 0.0194 -0.2117 -0.217 -0.8717 0.0998 -0.045 -0.0633 0.0676 -0.1024 0.2226 -0.0971 -0.0181 0.1421 -0.2231 0.1501 0.0127 0.0162 0.0593 0.0244 -0.1869 0.04 0.0372 0.0556 0.0412 0.1064 -0.0768 0.036 -0.06 -0.2068 0.1741 0.2996 -0.0175 -0.0703 0.1282 -0.2361 0.0725 0.152 -0.1388 -0.1792 0.0659 -0.0115 -0.0513 0.0651 0.0819 0.1848 0.0401 0.0155 0.0925 -0.1193 0.0236 -0.1775 -0.024 0.03 -0.1284 -0.0641 0.0433 0.0225 0.2046 0.0133 -0.1363 0.0121 0.0332 -0.047 -0.1964 0.0438 -0.0625 -0.1003 0.1502 -0.031 -0.1034 -0.232 -0.0314 -0.0534 0.0345 0.0959 -0.2253 0.0289 -0.0238 0.3312 -0.0168 -0.0457 -0.0079 0.1713 -0.1325 -0.0204 0.0919 -0.207 0.1029 -0.0033 -0.0458 -0.0397 -0.0764 0.0313 -0.007 0.1991 -0.072 -0.1453 0.2365 -0.037 0.181 0.106 -0.2013 0.0426 -0.0058 0.1439 -0.0209 -0.0516 -0.0181 0.0111 -0.081 0.1429 -0.0697 0.0673 0.1336 0.1039 0.4055 -0.1187 0.0239 -0.038 0.123 -0.0455 0.1303 0.1158 0.0774 -0.0245 0.1161 0.0912 0.1271 -0.113 0.0241 -0.0314 0.1772 0.1352 -0.1289 -0.0378 0.1662 0.1992 -0.0464 -0.088 0.0644 0.0536 0.1186 0.0695 0.009 0.1057 0.1215 0.2705 0.1329 0.1925 0.1172 -0.0779 0.0777 -0.0157 0.0026 -0.0765 -0.1016 0.0859 0.0744 -0.0704 -0.1002 0.0203 0.0643 -0.0534 0.0041 -0.1255 -0.0197 -0.0253 -0.1545 -0.0557 -0.0828 -0.2277 0.0912 -0.3598 0.1118 -0.0369 0.149 -0.2713 0.0744 -0.0432 0.1699 -0.044 -0.026 0.141 0.1816 -0.1808 -0.0622 0.1237 0.0141 -0.2905 -0.0879 0.0632 -0.0003 0.019 0.0781 -0.118 -0.0172 -0.0145 0.0307 -0.0621 -0.3166 0.3256 -0.1017 -0.0392 -0.0157 -0.0418 0.1208 -0.0437 0.056 0.0543 0.0562 0.0963 0.096 -0.0262 0.1428 -0.1131 0.0549 -0.0093 -0.1031 -0.1291 -0.163 0.1208 0.0172 0.0376 -0.01 0.2364 0.019 0.1495 0.1344 0.1177 0.0279 0.1269 -0.1605 0.174 -0.1391 -0.2553 0.0723 0.0798 -0.1851 -0.1109 -0.0719 -0.0625 0.0635 0.2029 -0.1785 0.0206 -0.0861 0.2058 -0.001 0.2542 0.1233 -0.0237
firming 0.1369 0.082 -0.0122 0.1438 0.0098 -0.3048 0.1399 0.1664 -0.2015 -0.2723 0.1006 -0.006 0.204 0.2386 0.1429 -0.0229 0.1901 0.2965 -0.2777 0.1499 -0.1954 0.125 -0.0744 -0.1003 -0.0124 -0.1018 0.1198 -0.2609 -0.1185 0.1768 0.1343 -0.071 -0.0192 -0.2829 -0.1031 -0.0599 0.1135 0.1322 -0.0706 0.0268 -0.0228 0.0106 -0.0076 0.049 -0.0112 -0.1529 -0.1989 -0.053 0.0074 -0.1431 -0.1183 0.1423 -0.8544 0.1542 0.0237 0.1605 0.1045 -0.0205 -0.0389 -0.2362 0.1973 0.001 0.3009 -0.1967 -0.146 0.1084 0.0258 -0.0967 -0.1301 -0.0434 0.0614 0.0756 0.2494 0.178 -0.0099 -0.0289 0.3051 -0.1988 0.0122 0.0776 0.0361 0.1252 0.1627 -0.2529 -0.2218 -0.0825 0.0248 0.0769 0.0823 0.2688 -0.1398 0.086 0.0746 -0.0034 -0.0906 -0.0789 0.0425 -0.0221 0.2421 0.0238 -0.0784 0.0356 -0.2351 0.0254 -0.3344 -0.0373 -0.0045 -0.018 0.1175 -0.186 -0.2097 0.1037 -0.2454 0.054 -0.1403 -0.0215 -0.0288 0.169 -0.0239 -0.0669 0.2127 0.2803 0.0916 0.2534 -0.0814 0.0917 0.1309 -0.1049 0.0034 -0.0833 -0.0372 -0.0113 -0.02 -0.2196 -0.0282 -0.0612 0.0884 0.0098 -0.0386 0.2141 0.129 0.0745 0.0244 0.0364 0.1353 -0.0039 0.0128 0.0353 -0.0815 -0.0063 0.0889 -0.0784 0.1152 -0.1029 0.0424 0.0402 0.0139 0.0953 -0.1549 -0.1902 -0.1699 0.044 0.074 0.2057 0.1653 -0.0891 -0.0325 0.1291 -0.0244 -0.0432 0.2313 0.1488 -0.0078 0.1013 0.0123 0.1009 0.0448 -0.146 0.1325 0.0301 -0.2619 0.1027 -0.0815 -0.079 -0.0685 0.019 -0.0469 0.0711 0.1744 -0.2425 -0.1114 0.0349 -0.0544 -0.2454 -0.0221 0.1231 0.1628 -0.2787 0.1376 0.1754 -0.1856 -0.0402 -0.0821 -0.0033 -0.1952 -0.3053 0.1112 -0.0236 -0.0533 -0.1772 0.0395 -0.0037 0.0097 0.074 -0.0744 -0.033 -0.054 -0.0676 0.1362 -0.0559 -0.2515 -0.0312 -0.1343 0.0684 0.0185 -0.2026 -0.0342 0.1436 -0.0373 0.0509 -0.0424 -0.1565 -0.0249 -0.0697 -0.0428 0.0975 0.0721 -0.1071 -0.0405 -0.231 0.0613 -0.0242 0.1513 -0.1049 -0.0913 0.1529 -0.1881 -0.0782 -0.2822 0.3266 0.3162 0.0949 0.1282 -0.029 -0.0774 -0.0712 -0.0733 0.0067 0.1504 -0.1809 -0.0029 0.0029 -0.2316 -0.1128 -0.0959 -0.0163 -0.2413 -0.0777 -0.1195 -0.2033 0.1615 -0.0972 0.0218 -0.1462 -0.2298 -0.0809 -0.1479 0.2509 0.0165 0.196 -0.011 -0.1951 -0.3146 -0.0791 -0.049 -0.0192 -0.0842 0.1419 -0.0636 -0.13 -0.2527 0.1172 0.0848 0.0634 0.0447 -0.0172 -0.017 0.2877 0.1019 -0.1517
simplistically 0.2755 0.1086 -0.0132 -0.0093 0.0128 -0.1074 0.1296 0.0827 0.0656 0.05 -0.0252 -0.1968 -0.0485 0.0842 0.0075 -0.0281 -0.0655 0.0949 -0.0017 0.2138 -0.0944 0.1298 0.1849 -0.0317 0.1874 -0.0523 -0.1691 -0.0738 -0.016 -0.031 0.0089 0.0345 0.154 0.0607 0.1872 -0.0849 0.0046 -0.0788 -0.0259 0.1878 0.0767 -0.1131 -0.08 0.1806 -0.1753 0.1372 -0.032 -0.0056 -0.1206 0.1381 -0.1037 -0.1521 -0.7704 -0.1717 0.0349 0.1445 -0.0471 -0.3755 0.1214 0.0338 0.0841 0.1045 -0.0292 -0.0102 0.0986 -0.004 -0.0201 -0.0349 0.0186 -0.0502 -0.1628 -0.106 -0.1412 0.2225 0.0906 -0.1127 0.107 -0.0367 0.0344 0.0878 0.0125 0.0379 -0.0963 -0.2304 -0.0039 0.0132 0.0112 -0.1303 -0.4025 0.0611 0.0859 -0.0452 0.0316 0.0337 -0.0121 0.0737 0.0851 -0.0201 -0.1614 -0.0848 0.0612 -0.0403 -0.0707 0.0179 0.2513 0.0427 -0.0901 0.1299 0.224 -0.0005 0.0181 -0.3314 -0.1252 0.1473 0.1367 -0.013 0.0783 0.0348 0.1841 -0.262 -0.0183 0.016 -0.1455 0.0146 -0.0234 -0.0274 0.0383 0.4921 0.0569 -0.0028 0.1399 -0.1086 0.0172 -0.1884 -0.0245 -0.2851 0.0357 -0.0034 0.2294 -0.0118 -0.0564 0.0444 -0.0339 0.0744 0.107 0.0567 0.024 -0.265 -0.1457 0.1382 0.0159 -0.0424 -0.1151 -0.2252 0.1801 0.058 -0.1145 0.092 -0.1122 -0.1661 0.1159 0.1377 0.1293 0.1962 -0.1058 -0.1354 -0.0223 -0.0326 -0.0713 0.0356 0.0876 -0.1843 -0.0918 0.006 0.2348 -0.2006 0.1376 0.0065 -0.1043 -0.0927 0.0254 0.1984 -0.0344 0.0874 -0.052 0.1318 0.023 -0.2501 -0.0461 0.1631 -0.0531 -0.0213 -0.0087 0.0481 0.1603 0.1186 0.0118 0.0566 0.1301 -0.0038 -0.1394 0.2966 0.014 -0.1302 -0.1086 -0.1449 0.0625 -0.1341 0.057 0.0135 -0.1193 -0.1963 -0.1507 -0.0032 -0.0412 0.0993 -0.4035 0.0632 -0.3229 -0.1174 0.1687 -0.033 -0.1526 0.0371 0.117 -0.0966 -0.1079 0.0799 0.1219 -0.0599 -0.0646 -0.022 0.1332 -0.0267 0.0784 -0.0693 -0.0165 -0.1797 -0.0543 0.0255 0.0051 0.008 0.0715 0.0496 0.0577 0.0405 -0.041 -0.0403 -0.0037 0.1541 0.018 -0.2476 0.0521 -0.0706 0.0703 0.0377 -0.0236 0.096 -0.0573 0.0026 0.0223 -0.0788 0.0632 0.0643 -0.3932 -0.146 0.2057 0.0855 -0.0255 0.1173 -0.122 0.157 0.031 0.2305 -0.09 0.0644 -0.0585 -0.102 -0.0206 0.0258 0.1983 0.3266 -0.0027 0.0191 -0.0452 0.1311 0.0819 -0.1308 -0.2237 -0.0563 0.0664 0.1096 -0.0602 -0.1085 -0.1471 0.0363 -0.1217 0.0655 0.1033 0.1081
daylight 0.1396 0.033 -0.1736 0.0812 0.3071 -0.0115 -0.0309 0.1533 -0.1672 0.0228 0.1536 -0.0003 -0.241 -0.0032 -0.04 0.0681 0.1164 0.1435 0.0407 -0.0363 -0.076 0.019 0.0457 0.1966 -0.0089 -0.1279 0.0105 0.0157 -0.0714 -0.0029 0.0186 0.0262 -0.0239 0.0149 0.0669 -0.1034 -0.0336 0.1307 -0.1902 0.104 0.044 0.1203 -0.1861 -0.0647 -0.0615 0.0009 0.1792 -0.091 -0.1815 0.0388 0.0602 0.1488 -0.7558 -0.0047 0.1848 -0.1529 0.2845 0.2144 -0.2053 -0.0853 -0.0973 0.0123 0.0415 0.0303 -0.1575 -0.3463 -0.0239 0.1528 -0.0058 0.0666 -0.0589 0.1002 0.1452 0.0631 -0.2534 -0.0296 -0.0714 0.0607 -0.0078 0.064 -0.0427 -0.0328 0.0732 -0.1482 -0.2404 0.0132 0.0555 -0.2116 0.2541 -0.047 0.1104 -0.1829 0.0964 0.0478 -0.0356 -0.2091 -0.0875 0.2136 -0.164 -0.0581 -0.2144 -0.0651 -0.0746 0.3822 0.1262 0.0922 0.0269 0.0436 0.2432 -0.205 -0.0605 -0.1952 0.0372 0.0518 -0.0892 0.1599 0.1142 0.0004 -0.0052 -0.2274 0.0295 -0.1978 0.1073 0.2025 -0.1837 0.2079 0.1592 0.0505 0.0073 0.0562 -0.2196 0.1135 -0.0015 -0.0887 0.1109 -0.0364 0.1027 -0.1593 0.1141 -0.0836 0.1565 -0.0356 -0.0349 0.194 -0.035 -0.0482 -0.0017 0.1175 -0.095 -0.0006 0.1909 -0.0594 -0.0099 0.1178 0.0202 0.0492 -0.1033 0.1112 -0.0806 -0.0324 -0.0002 0.0132 0.3244 -0.129 0.0343 0.2032 0.1173 0.0378 -0.0165 0.1763 -0.1024 0.0672 0.1075 0.0282 0.0448 0.0587 0.2431 -0.2016 0.0374 0.0909 -0.1642 0.0246 -0.2333 0.0836 -0.2363 -0.0538 -0.0408 -0.0275 -0.2004 0.0417 -0.0054 -0.0805 -0.0119 -0.0072 0.005 0.0574 -0.0742 0.0518 0.1562 -0.0959 0.2265 0.0136 0.0592 0.0015 0.1629 0.1753 0.227 -0.1568 0.2639 0.0637 0.0819 0.1385 0.1578 0.3086 0.0982 0.0706 -0.0595 0.0215 0.0449 0.1151 0.1316 -0.1196 0.0974 -0.0478 -0.1951 0.0193 -0.0539 0.1128 0.1561 -0.0317 -0.0071 0.0008 0.2521 -0.0444 0.1177 -0.0939 -0.0853 -0.1713 -0.2364 0.255 -0.0394 0.1179 -0.1656 0.0748 0.0262 -0.2144 0.0288 -0.2431 -0.0952 0.3338 0.0834 0.1096 0.0831 -0.1423 -0.2343 0.1754 -0.0647 -0.0372 0.1255 -0.1043 -0.0127 -0.0624 0.1077 0.0119 -0.2779 -0.0303 -0.2828 -0.0792 -0.022 0.0751 0.0664 -0.053 -0.072 0.1563 0.2729 -0.0783 0.0262 0.0847 -0.0556 0.1471 0.015 0.0731 0.0128 -0.0148 0.0643 0.1084 -0.0043 0.1069 -0.0258 -0.2005 0.1762 -0.1333 -0.023 0.164 0.1238 -0.0075 -0.0346 0.0853 0.0209 0.1332
weren 0.0774 -0.0268 -0.2187 0.0343 0.0497 0.0431 0.2005 0.0984 -0.0003 -0.0145 0.0147 0.1542 -0.1367 -0.1109 -0.1533 -0.0736 -0.0426 0.0763 0.0845 -0.0511 -0.0201 0.0533 -0.0763 0.0401 0.0155 -0.2134 0.0372 0.1823 -0.1126 0.1101 0.0167 -0.1035 0.262 0.0707 0.0379 0.1231 -0.0434 -0.1175 0.0419 -0.0171 -0.0265 0.0454 -0.0418 0.105 -0.0708 -0.0099 0.0151 0.0646 -0.0521 0.1161 0.2376 0.2004 -0.6718 0.0077 0.0487 -0.1178 0.0389 -0.0038 -0.175 0.048 0.0744 -0.0714 -0.0891 -0.1033 -0.0097 0.0619 -0.0165 0.0595 -0.0906 -0.0838 -0.0244 0.0451 -0.0058 0.4204 0.1778 0.1505 0.0536 -0.0151 0.2453 0.1859 -0.0201 -0.1131 0.1108 -0.2244 0.0093 -0.07 0.0515 -0.091 -0.3029 0.0148 0.0312 0.0191 0.1515 -0.2913 -0.0002 -0.0025 -0.1777 -0.1931 0.0364 0.0883 -0.2877 -0.0164 -0.0844 -0.0609 0.3358 -0.0984 -0.6383 0.0361 0.0333 0.0507 -0.0437 0.0164 -0.0518 0.0795 -0.0284 0.002 0.028 0.0569 -0.0742 -0.2388 -0.1131 -0.0277 0.3339 0.1396 0.0436 0.2977 -0.1185 0.1666 -0.0875 -0.0095 0.086 0.0832 -0.0723 0.0528 0.0877 0.082 -0.0177 -0.0304 0.061 0.0319 -0.0949 0.0321 0.1219 0.3859 0.119 0.0281 0.1864 0.0484 0.0168 -0.0386 -0.1038 0.1183 -0.038 -0.026 -0.0193 -0.0424 -0.1617 -0.0388 -0.0488 -0.0922 0.0654 0.0524 -0.1301 -0.0632 -0.6438 0.0197 0.0579 0.1817 0.1054 -0.0928 0.5474 0.0358 0.1111 0.0161 -0.0673 0.0095 0.3098 0.0523 0.0051 -0.0078 0.1401 0.1131 0.0333 -0.0014 0.0687 0.4275 -0.0827 -0.2372 0.6 0.0174 -0.0331 -0.0373 0.0738 0.0247 0.1259 0.0219 -0.065 -0.0403 0.3752 0.0586 -0.0102 -0.2422 -0.0282 0.005 -0.0277 0.0044 0.0439 0.3479 -0.2829 -0.0278 -0.0335 -0.0807 0.1052 0.1114 -0.1147 -0.0061 -0.2411 0.0305 0.0033 -0.0495 0.2683 -0.1298 -0.0494 0.0064 0.0593 -0.1287 -0.0828 0.0597 0.1783 -0.263 0.1263 -0.0853 0.2758 -0.0811 0.0368 -0.0571 0.0908 -0.04 -0.3092 0.0463 -0.1787 0.0915 0.0402 -0.0337 -0.1497 0.0005 -0.0149 -0.0583 0.0494 0.435 0.0476 0.0162 0.0652 -0.0577 0.4931 0.1913 -0.0472 0.0896 0.1455 0.0692 0.1242 -0.0735 -0.1163 0.0268 -0.7943 0.1299 0.1484 -0.1317 -0.1985 -0.0242 0.0712 -0.0079 0.0512 -0.0238 -0.0213 -0.0615 -0.3082 0.0206 -0.0332 0.0302 -0.1449 0.2957 -0.0927 -0.0912 0.047 0.0202 -0.0228 0.23 0.0203 0.068 -0.0285 0.1303 -0.0597 -0.0054 0.0826 -0.0226 0.0824 0.2646 -0.2832 0.0921
matters -0.0063 -0.0473 0.1134 -0.0449 0.0234 0.1344 0.0347 0.0285 0.0742 -0.0528 0.0333 0.0114 0.0423 -0.0366 -0.0928 -0.1328 0.0576 -0.0591 -0.125 0.1005 -0.0363 -0.0248 0.0534 0.0934 0.0143 -0.0385 0.0149 -0.3141 -0.0291 -0.1136 0.1163 0.1065 0.1108 -0.1671 0.0307 -0.0886 0.0465 0.118 0.1139 -0.0315 0.1885 -0.0708 0.0624 0.0401 -0.0031 -0.0045 -0.0279 -0.0456 0.0125 0.0586 -0.0556 0.0564 -0.5348 -0.0019 0.126 0.0548 -0.0448 0.0707 -0.0534 0.1302 -0.1144 -0.0383 -0.0309 -0.0865 0.1186 -0.0521 0.0855 -0.0332 -0.0681 0.0796 0.0472 -0.0612 -0.0289 -0.2233 -0.0307 0.0517 0.0612 -0.0212 0.152 0.2533 -0.0166 0.1027 -0.0857 -0.2414 -0.0478 0.0323 -0.0926 -0.0801 0.1148 0.14 0.1223 0.0004 0.1066 -0.0827 0.0218 0.0967 -0.0186 0.0133 0.0232 -0.1087 -0.1835 -0.1154 -0.1076 -0.0248 -0.0915 0.0896 -0.1291 -0.0353 0.1916 -0.0159 0.1202 0.2777 -0.0277 0.0575 0.0004 0.032 0.0004 -0.0948 0.0539 -0.4278 0.0457 0.043 -0.0778 0.1188 0.1241 0.203 -0.0754 0.2421 -0.065 0.0558 -0.0165 0.0547 -0.0209 0.0847 -0.0899 -0.0618 0.0399 0.1783 0.0563 0.0376 -0.0464 -0.0012 0.0974 0.389 -0.1366 -0.0524 0.191 0.046 0.0361 -0.0304 0.0254 0.0268 0.033 0.0635 -0.102 0.0628 -0.0227 -0.0627 -0.0648 0.1026 -0.1754 -0.02 0.0376 0.0612 0.1063 -0.0882 0.143 0.0824 0.0158 0.0718 -0.0096 -0.0755 0.145 -0.0186 0.1312 -0.1118 0.212 -0.0388 -0.0368 -0.0181 0.03 0.0124 -0.0764 -0.0229 -0.1145 0.139 0.0073 -0.1708 -0.0109 0.0378 -0.0773 0.0512 -0.0292 -0.0172 0.0235 0.0719 0.0441 0.0121 0.2719 0.0425 -0.0049 -0.0309 0.0553 -0.0673 0.0125 0.045 0.0483 -0.018 0.0567 -0.1157 -0.0038 0.2372 0.0501 -0.0083 -0.0205 -0.2204 -0.1112 -0.0298 -0.0004 -0.3133 0.1098 -0.0188 -0.0416 -0.0287 0.129 -0.023 -0.0035 0.0696 0.0455 -0.0986 -0.1916 0.1183 0.3908 -0.0144 0.1144 -0.0308 -0.0917 -0.0231 -0.2745 0.258 0.1804 -0.1289 -0.0516 -0.1398 -0.1241 -0.0887 0.0693 0.0275 0.1294 0.3154 0.0746 -0.093 -0.0377 -0.0158 0.0862 -0.0607 0.1045 0.0342 -0.0504 0.0187 -0.0283 -0.0771 0.0354 -0.1208 -0.5853 -0.0549 -0.0041 0.0663 -0.0655 0.1916 -0.1924 0.0258 0.0605 -0.1235 0.0188 -0.0378 0.1513 -0.0882 0.1016 0.0366 0.0939 0.0854 -0.0281 0.0388 0.0649 -0.0444 0.113 0.1116 0.1189 0.043 -0.0281 -0.0298 0.172 -0.072 0.0568 -0.1522 -0.0199 0.2295 0.0682 -0.1616
hypocrite 0.1933 -0.0128 0.0313 0.119 0.0158 0.0587 0.0937 -0.1549 0.093 -0.0395 -0.0202 -0.0632 0.0564 -0.0265 0.1793 -0.1717 0.0474 -0.0107 0.2907 -0.1455 -0.217 0.0887 -0.057 -0.1963 -0.1602 -0.1255 0.0093 0.1153 0.08 -0.1898 -0.014 -0.0079 -0.1294 -0.0417 0.1625 0.0222 0.0854 -0.072 0.1018 -0.1354 -0.0318 0.0353 -0.0539 -0.2258 0.1595 -0.1454 -0.0533 -0.0425 -0.1924 -0.0152 0.102 -0.1339 -0.8615 0.1535 -0.0197 -0.0533 0.0247 -0.0362 0.25 -0.0811 -0.0409 -0.0805 -0.0122 -0.1996 0.0215 -0.0926 0.1401 -0.0073 -0.0223 0.0804 -0.0852 -0.2051 -0.1098 0.0782 0.0799 0.1042 0.0383 -0.0273 0.0174 0.1551 -0.0167 0.0793 -0.0851 -0.1965 0.0376 0.0862 -0.0558 -0.0084 0.0183 -0.0136 0.2677 -0.0423 0.0098 -0.0247 0.0367 0.2061 -0.1972 -0.1449 0.1029 0.0029 -0.1359 0.0667 -0.209 -0.0121 0.1047 0.0088 0.0771 0.0041 0.0788 0.2772 0.1797 0.2416 0.1699 -0.0257 0.1247 -0.0328 -0.1119 0.0853 -0.0461 -0.3981 0.2211 0.1381 0.0984 -0.1667 -0.0138 0.1484 0.1941 -0.1214 0.0237 -0.0751 -0.0732 -0.0022 0.0135 0.0975 0.0184 0.1574 0.0002 0.0223 -0.0924 -0.1679 -0.0728 -0.01 -0.0975 0.2645 0.1041 -0.0333 0.0781 -0.0824 -0.3248 -0.1491 -0.0443 -0.0917 -0.1099 0.0574 -0.1012 0.2972 0.147 0.0601 0.1244 -0.0422 0.1379 0.1907 -0.0566 0.2783 0.296 -0.0767 0.1976 -0.0106 -0.0835 -0.1049 0.0812 0.052 0.1953 0.002 0.1331 0.1127 0.1517 -0.1449 0.0497 -0.1687 0.1488 -0.1774 0.2311 -0.1138 0.2123 -0.0737 0.0858 -0.2515 -0.1329 -0.0561 -0.0037 0.1316 -0.0053 -0.2019 -0.1734 -0.1476 0.0219 0.0308 0.1653 -0.0908 0.1244 0.0301 0.0317 -0.1323 0.1166 0.0226 0.1927 -0.2315 -0.1892 0.2017 -0.0663 0.0058 0.1431 0.0341 -0.1298 0.1449 -0.0619 -0.278 -0.1067 0.0712 0.0409 -0.0892 0.1043 0.148 -0.0113 -0.1324 0.1016 0.0792 0.1741 -0.2863 -0.1952 0.0222 0.3883 -0.2822 0.0145 -0.1079 0.1862 -0.3143 -0.2028 0.1687 0.0306 -0.0151 -0.053 0.2012 0.0326 0.1232 0.1659 0.1341 -0.038 0.2923 0.1229 -0.0446 0.0178 0.0458 -0.049 -0.1269 -0.3381 -0.0657 -0.0704 -0.071 0.1005 0.1212 0.0099 0.0991 -0.4795 0.0186 -0.0934 0.0651 -0.3391 0.066 0.0184 0.0043 -0.0062 -0.0516 0.0183 0.121 0.0033 0.0389 -0.0729 0.0631 0.1449 0.0845 -0.0002 -0.0297 -0.0892 0.2468 -0.0631 -0.0521 0.016 -0.2058 0.0176 0.1184 0.0618 -0.0506 0.1378 -0.1084 -0.112 0.2407 0.055 0.1948
malignancy 0.0753 -0.2698 0.0312 0.1047 -0.0794 0.189 -0.0621 0.0186 0.0684 0.3204 -0.0871 -0.1007 0.1323 0.0529 0.1088 -0.0063 -0.1024 0.0346 0.0706 0.0498 -0.5445 0.0071 -0.0305 0.08 0.0138 -0.0465 -0.1427 0.0485 -0.0665 -0.0013 -0.0912 -0.0825 -0.123 0.0253 0.1511 -0.2298 0.0281 -0.1629 -0.0269 -0.0375 0.0159 0.0607 0.0319 0.1054 -0.0355 -0.0544 0.0347 -0.118 0.0584 0.0487 -0.1634 0.106 -0.8065 0.0023 -0.1773 -0.0047 -0.0204 -0.2775 0.1194 -0.2674 0.0604 -0.0835 0.0568 -0.0732 -0.2453 -0.0763 0.2932 -0.0382 -0.0127 0.2054 -0.1868 0.1756 0.1225 -0.0759 0.0174 0.2729 0.1022 -0.1974 0.1101 0.3046 0.0352 0.094 0.06 -0.2262 -0.0279 -0.1734 0.0996 -0.0563 0.208 -0.1075 -0.1342 -0.0068 -0.0462 -0.0729 -0.0305 0.0035 0.0988 -0.0956 0.1677 0.1462 -0.1298 -0.2343 0.0343 -0.1245 -0.0525 -0.0411 -0.11 0.0003 -0.0996 0.1031 0.0134 0.2224 0.0089 -0.1784 -0.0505 0.0151 -0.017 0.0474 0.0585 -0.2697 0.1851 0.0572 0.0791 0.0745 -0.0648 0.1516 -0.1178 0.0372 0.0231 -0.0156 -0.1331 -0.0745 0.0056 -0.1271 -0.115 0.1298 -0.0649 0.07 0.0079 0.041 -0.0939 -0.0158 -0.1008 -0.0507 0.1365 0.1856 0.052 0.09 0.0218 0.1315 0.1643 -0.1538 -0.065 -0.105 -0.221 0.1193 0.0563 0.2718 -0.0518 -0.0939 0.0201 -0.0444 -0.034 -0.1809 0.127 0.0589 0.1242 0.0245 0.0387 -0.0468 -0.004 -0.141 -0.0102 0.0383 0.1713 -0.1368 0.2489 -0.0519 -0.0853 -0.2908 -0.1165 0.1428 0.0968 -0.0201 -0.0423 0.0369 -0.0076 0.0177 -0.3528 0.1609 0.1084 -0.1254 -0.1999 0.0548 0.2642 0.047 0.1015 -0.0538 0.0688 0.0402 -0.1483 0.2209 0.0342 -0.2116 0.0176 0.0723 -0.1353 0.1012 0.1703 0.0304 -0.0283 0.0934 -0.1676 0.0046 -0.0577 -0.1669 0.1542 -0.1688 -0.1036 0.1059 0.0252 0.1965 -0.2738 -0.1185 -0.1728 -0.044 0.1659 0.0506 -0.1543 -0.0963 -0.0283 -0.2005 0.2963 0.0602 0.1535 0.1634 0.0126 -0.1797 -0.137 -0.0406 0.1787 0.0784 -0.0324 0.1316 0.0192 -0.06 0.1109 -0.2221 -0.1965 0.3301 0.1201 0.0341 -0.109 0.1633 -0.1308 -0.1679 0.1037 -0.0367 0.0713 -0.0903 0.0075 0.0153 -0.084 -0.182 -0.5568 0.0236 0.1039 0.1488 -0.1307 0.2416 0.0854 -0.0954 0.0896 -0.0429 -0.064 0.0221 0.0995 -0.0318 -0.0301 0.0831 0.0021 -0.0677 -0.0499 0.0706 0.1317 0.2304 0.1752 -0.1413 0.0117 0.2469 -0.1297 -0.1192 0.0646 0.0028 -0.2564 -0.1031 0.0746 0.0649 0.0264 0.0505
investigators 0.035 -0.1342 -0.0463 0.1388 0.01 0.0017 -0.0204 0.049 0.0034 -0.0547 0.0843 0.0094 -0.091 0.0234 -0.1754 0.0267 0.1061 0.0122 -0.0041 -0.0087 -0.1294 -0.0316 -0.2503 -0.0519 0.1282 -0.1112 0.0363 0.1704 0.0294 -0.1827 -0.079 -0.0278 -0.027 0.0323 -0.2867 0.0019 0.0486 0.0339 -0.0421 0.0984 0.0997 -0.0555 -0.102 -0.0014 0.2383 -0.0209 -0.0428 -0.0151 0.2197 -0.1494 -0.0011 0.1182 -0.6283 -0.1877 0.0766 0.0614 -0.0808 -0.0816 0.0684 0.0092 -0.0673 0.0792 0.0589 0.0328 -0.0803 -0.0523 -0.024 0.1333 0.1575 -0.0045 -0.2056 -0.0593 0.0893 0.0431 0.0758 -0.1135 0.1254 0.0059 -0.0488 0.225 0.0254 0.06 -0.0645 -0.1718 0.0595 -0.0242 0.06 -0.1228 0.0018 -0.0596 -0.0509 -0.1339 -0.0193 0.1855 0.0556 -0.0824 0.0998 -0.2549 0.1044 -0.0641 -0.185 -0.0081 -0.119 0.0291 -0.2331 -0.027 -0.1064 -0.0437 0.0901 0.0423 -0.0113 0.0222 -0.1738 0.0002 -0.0554 0.1542 0.0357 0.0851 -0.1629 -0.3662 0.1156 0.0415 0.055 -0.0167 -0.1253 0.1874 -0.2207 0.0285 0.1093 -0.0956 -0.1718 0.0308 0.1037 -0.114 -0.063 -0.0377 -0.0393 -0.0232 0.0822 -0.1226 -0.2197 0.0022 0.0543 0.0729 -0.0964 -0.0617 -0.0011 -0.0112 0.0404 0.112 -0.0893 0.0712 0.0248 -0.1694 0.054 -0.017 0.1079 0.062 -0.1719 0.0018 0.0474 0.0598 0.0609 -0.3051 -0.0226 -0.0938 0.0988 -0.0483 0.0849 0.1 -0.0787 0.0296 0.0585 -0.064 -0.1091 -0.0711 0.1377 0.1725 0.094 -0.1895 -0.1286 -0.0234 0.1375 -0.0942 -0.0029 -0.0165 -0.0484 0.0426 -0.2266 0.1508 -0.0924 -0.0544 0.1092 0.0194 -0.0236 -0.2109 -0.0111 0.3147 0.2004 -0.2178 -0.0764 0.0605 0.0062 0.0395 0.065 0.1896 -0.0844 -0.1335 0.1465 0.1164 0.0077 -0.1629 0.0674 -0.0193 0.214 0.0041 -0.1567 0.147 -0.2016 -0.0099 -0.1301 -0.0651 0.1467 0.0214 -0.0593 0.0444 -0.144 0.1247 -0.1034 -0.029 -0.0588 -0.0465 0.2992 -0.0096 -0.0437 -0.0282 -0.0508 0.2476 -0.2623 0.1208 0.0127 0.1044 -0.0701 0.1114 -0.1016 -0.1209 0.0063 -0.0273 -0.0674 0.3097 0.1074 0.0073 -0.1061 0.0383 0.391 0.1079 -0.0492 -0.1139 0.1039 -0.0512 -0.0393 -0.0235 -0.1498 -0.132 -0.6774 0.0366 -0.1139 0.1983 -0.0655 -0.0754 -0.0413 -0.0741 0.1621 -0.0879 -0.0868 -0.175 -0.0005 -0.1036 -0.0637 0.1901 -0.001 0.1355 -0.077 0.0525 0.1363 0.0083 -0.0947 0.1365 -0.0369 0.0949 -0.1547 -0.1182 0.0465 0.0616 0.1361 0.0056 0.0368 0.1068 -0.0545 -0.1118
simulated -0.0382 0.0692 0.0835 0.051 0.0501 -0.0961 0.1646 -0.2825 -0.0697 0.1844 0.1725 -0.0194 0.0277 -0.0123 -0.0465 -0.2027 -0.1544 -0.0209 -0.0952 0.2074 -0.0658 0.0153 0.0095 0.1558 -0.0441 -0.1659 0.0541 0.2033 -0.1586 0.0159 -0.0636 -0.0927 0.0594 0.1227 0.0413 0.1495 0.0462 -0.1022 -0.1433 -0.1678 0.1718 0.0492 0.0358 0.1155 -0.1205 -0.0103 -0.0838 -0.0337 -0.114 -0.0831 0.0668 -0.0234 -0.7338 0.0273 0.1388 0.1432 -0.069 0.1783 -0.0361 -0.0361 -0.0363 -0.0153 -0.1023 0.2334 0.0265 -0.1454 0.0007 -0.0847 0.1015 0.0294 -0.1703 -0.001 0.0031 -0.0192 0.0367 -0.1806 -0.1294 -0.0666 -0.1753 -0.0714 0.0035 0.1241 -0.0255 -0.2693 -0.1939 0.1167 0.0954 0.0331 0.021 0.1931 -0.0155 -0.0275 -0.015 -0.0772 -0.0252 -0.064 0.0201 -0.1156 -0.1372 0.0512 -0.1431 0.0474 0.005 0.1281 -0.0522 -0.2937 0.1154 0.0123 0.0891 -0.0261 -0.3613 -0.019 0.0631 0.1398 0.263 0.0377 -0.2049 0.0539 0.07 -0.1603 -0.1328 -0.2003 0.0367 0.165 0.0552 0.1768 -0.1816 0.1459 -0.0435 -0.0837 0.0454 -0.001 0.0512 0.0454 -0.0799 -0.2497 0.1137 0.1768 -0.0935 -0.0986 0.1932 -0.0939 -0.1608 0.1485 0.0386 -0.0855 -0.2001 0.1326 0.0394 0.0296 -0.0921 -0.0987 -0.1862 0.1366 0.0381 -0.0855 -0.1364 0.0399 -0.0521 0.1142 0.1023 0.0489 -0.119 -0.2047 0.1591 0.1217 0.0474 0.0173 0.1081 -0.1562 0.0176 -0.0113 0.003 0.0607 -0.1216 0.0077 0.2649 0.0672 -0.0267 -0.1443 -0.0414 -0.1208 -0.0961 -0.0999 -0.0056 0.1364 -0.1411 0.0084 0.3068 0.0766 0.1152 -0.0784 -0.0029 -0.0316 0.1206 0.1497 -0.1122 -0.0659 0.1497 -0.1597 0.0231 0.1196 0.017 -0.0358 -0.0111 0.1038 0.0726 0.0093 -0.0129 0.2407 0.0391 -0.1714 0.1004 0.1273 0.0632 -0.0146 -0.0346 -0.0964 -0.0053 0.0684 -0.1601 0.0192 0.0264 -0.1539 -0.0726 -0.1415 -0.0142 0.0151 0.0786 -0.1183 -0.0379 0.1195 0.187 -0.0716 -0.0418 -0.0362 0.0325 -0.1009 -0.1978 -0.0269 -0.1229 0.1717 -0.0337 -0.0138 0.0759 -0.0621 -0.0371 0.0134 0.0223 0.3401 0.0476 0.0217 0.0186 -0.0374 -0.1715 0.1975 -0.0996 0.0803 -0.0954 0.0717 -0.1128 0.1335 0.1245 0.0204 -0.0101 0.2065 0.0435 -0.2135 -0.2645 -0.1568 -0.1192 0.0806 -0.036 -0.0224 -0.0882 -0.104 0.163 -0.0475 0.0751 0.0623 0.0729 0.1323 -0.0492 -0.017 0.0819 -0.0299 0.0125 0.012 0.0661 0.1153 -0.0419 0.253 0.0383 0.0825 -0.1255 -0.0663 -0.0997 0.1825 0.0083 -0.116
universal -0.0738 -0.1283 0.0909 0.2101 0.0304 0.1765 0.0606 0.0345 0.0418 0.0709 0.0478 -0.1179 0.0383 -0.0033 0.1401 -0.0464 0.0067 0.0615 0.0805 -0.1702 0.0209 -0.1831 -0.0854 0.111 -0.0197 0.0078 0.0976 -0.1033 0.1182 0.0278 -0.0497 -0.0305 0.0333 -0.0087 0.0129 -0.1144 -0.1332 0.0382 0.0122 -0.0285 0.0125 -0.117 -0.0547 -0.1154 -0.2006 0.0127 0.0878 -0.1989 0.1464 0.0265 -0.0411 0.2201 -0.7141 -0.0453 -0.1986 0.0952 0.1098 -0.2053 -0.0333 -0.1222 0.019 0.0267 0.0168 -0.0336 -0.0352 -0.2452 0.0546 -0.1265 0.019 0.0337 -0.0176 0.0438 -0.0304 0.2027 0.0521 -0.0572 -0.069 0.1615 -0.1525 0.153 -0.0037 -0.0765 0.0299 -0.2196 0.164 0.0708 0.1147 -0.073 0.1627 -0.0702 0.1088 0.053 -0.0779 0.0333 -0.0 -0.0007 0.0903 -0.0299 -0.0563 -0.075 -0.1986 -0.176 -0.0784 -0.0607 -0.096 0.0599 0.1896 0.1195 0.0246 0.0352 0.1087 -0.1045 0.1107 0.0796 0.025 0.1187 0.1512 -0.2548 0.0733 -0.2616 -0.1543 0.0096 -0.0393 0.0772 -0.1219 0.2391 0.0387 0.0275 -0.0294 0.0304 -0.1336 0.0376 0.1914 -0.0209 -0.0768 -0.3453 -0.0785 0.0091 0.093 -0.0097 0.0784 -0.1281 -0.021 0.2298 -0.0175 0.1006 0.009 0.1616 0.0314 0.0154 -0.0214 0.0412 -0.0726 0.0644 0.1432 0.0756 0.0911 -0.0953 0.0355 -0.0968 -0.056 0.0873 0.1016 0.1637 0.1123 0.1395 0.0679 0.2977 -0.0627 0.0222 0.1596 -0.1298 -0.1725 -0.0667 0.1219 -0.0633 0.3093 0.1853 -0.0609 0.1713 0.0055 -0.0201 -0.0119 0.0416 -0.0354 0.0965 0.0089 -0.0357 0.0416 -0.1622 0.0292 -0.0749 -0.0954 -0.045 0.1135 0.1469 -0.1387 0.0535 0.1795 -0.0847 -0.0062 0.1321 -0.1074 -0.0113 0.014 -0.0377 0.0092 0.1639 -0.0968 0.0838 0.0584 -0.0164 -0.108 0.0484 0.0283 0.0198 0.1015 -0.0896 -0.088 -0.1051 0.0601 -0.0993 -0.0709 0.0647 0.081 -0.1198 -0.0684 0.1631 0.114 -0.1618 0.0959 -0.0514 0.2955 0.0317 0.1398 -0.1663 -0.0671 -0.1136 -0.2398 0.1848 -0.0848 0.0607 -0.0342 0.0594 -0.1029 0.1162 -0.1305 -0.0819 -0.1526 0.3984 0.0016 0.0297 -0.1922 -0.1132 -0.1515 0.207 0.0115 0.1054 0.0665 -0.0293 -0.0112 -0.0305 -0.0975 0.1687 -0.0384 -0.0621 -0.1765 -0.0589 -0.2346 0.1628 0.0873 -0.08 0.0577 -0.0563 0.0342 0.065 0.0397 0.0796 0.0717 -0.0748 0.0093 -0.0693 0.0766 0.0252 -0.046 0.0276 -0.0085 0.1145 0.1542 -0.0598 -0.0777 -0.0301 -0.0213 0.0194 -0.1044 0.0913 -0.0081 0.1418 0.0668 -0.0561
kitchens 0.0549 0.1063 0.0527 -0.0079 0.177 0.0422 -0.1287 -0.1315 -0.0539 -0.0803 0.0658 -0.2567 -0.0153 0.0302 0.0116 -0.2277 0.028 -0.1975 -0.0487 -0.13 -0.2218 0.1125 0.0272 0.2317 -0.0375 -0.0008 0.0997 0.0653 -0.0315 -0.001 0.0318 -0.2514 0.0898 0.0606 -0.129 -0.0516 -0.0734 -0.0107 0.0398 0.1747 0.1933 0.0298 -0.0205 -0.0628 -0.0407 0.0328 -0.0279 -0.0835 -0.2998 0.1076 -0.1047 0.0089 -0.7081 -0.1449 -0.063 -0.1425 0.147 0.0412 0.0421 0.2046 0.0382 -0.0221 -0.0265 -0.0174 0.2091 -0.0352 0.2269 0.038 -0.1302 0.4101 0.074 0.1173 -0.0742 -0.0252 -0.06 0.1322 0.2472 -0.0318 0.1116 -0.1688 -0.0171 -0.2473 -0.1809 -0.2255 -0.0428 0.3377 -0.003 -0.0298 0.1617 -0.1501 -0.0698 0.0771 0.0017 -0.0071 -0.0536 -0.0775 0.1707 0.1215 -0.0015 0.1683 -0.0955 -0.0372 -0.3049 0.0324 -0.0141 0.1552 -0.011 0.3354 -0.0239 -0.1447 -0.0934 -0.0055 -0.2391 0.1159 0.0046 0.0891 0.1681 -0.0835 -0.0418 -0.2959 -0.1262 0.1104 0.1493 0.0385 -0.055 0.1272 0.2592 -0.0472 -0.1012 -0.0586 0.0483 0.0785 0.2341 0.059 -0.0766 0.0182 -0.0423 0.014 -0.1048 -0.1159 -0.034 0.1723 0.035 0.056 -0.0543 -0.1076 -0.0542 -0.1455 -0.0014 -0.0084 -0.1181 0.0364 0.0572 0.0235 -0.0792 -0.1326 0.0895 -0.1138 -0.0248 0.1584 -0.062 -0.123 -0.0445 -0.0307 0.1158 -0.0022 0.0756 -0.1316 0.0938 0.1256 -0.0572 0.1791 0.1648 0.0002 -0.1303 0.0266 0.262 -0.1975 0.0268 -0.0654 -0.1224 -0.1266 0.1829 0.1065 0.0145 -0.085 -0.0063 -0.1773 -0.1139 -0.1128 -0.0418 -0.0223 -0.0634 0.0266 -0.0168 0.1878 0.1637 0.1314 0.1462 -0.0338 -0.1443 0.0119 0.011 -0.0331 -0.0874 0.0866 0.0093 -0.1455 0.0278 -0.0199 0.0696 0.085 -0.1116 0.1485 -0.1527 -0.0995 -0.2007 -0.005 0.0383 0.0068 -0.0922 -0.3229 -0.1216 -0.0255 0.1867 -0.0999 -0.1142 -0.1287 -0.1372 0.1619 -0.1638 0.126 0.2672 -0.0703 0.0986 -0.1011 0.0638 0.0586 -0.2068 0.096 -0.0391 0.0816 0.1188 0.1592 0.0768 0.0268 0.0877 0.2313 -0.0755 0.3673 -0.1008 -0.0892 -0.0843 -0.0326 0.1844 0.1139 -0.188 -0.1801 0.1092 -0.0075 -0.1086 0.0053 0.1095 0.1383 -0.5698 0.0727 -0.0932 -0.1721 -0.208 0.0946 0.0282 0.1392 -0.0529 -0.2113 -0.0614 0.0477 -0.1899 0.041 0.0653 -0.0939 -0.0877 -0.0494 0.0962 -0.2821 0.0842 -0.0346 -0.0485 0.1401 -0.0434 0.0353 -0.0484 0.0583 0.0357 0.0323 0.0211 0.1488 0.2028 0.1146 0.0234 -0.1017
tropics 0.2923 -0.0262 -0.142 0.1909 0.0955 0.1093 -0.1721 -0.0326 0.1903 0.0446 0.2185 0.2142 -0.4944 0.0168 -0.0516 -0.1747 -0.0006 -0.1822 0.029 -0.183 -0.4478 -0.1419 0.1418 0.2444 -0.0681 -0.0978 0.0702 0.1508 0.0234 0.113 0.115 0.0029 0.0244 0.2077 -0.0126 0.0192 0.0038 0.1822 0.0806 0.0524 0.0696 -0.1285 -0.1077 -0.0415 -0.1762 -0.1322 -0.0998 0.0111 -0.0889 -0.0101 -0.0543 -0.0461 -0.8339 0.114 -0.1063 -0.1017 0.1959 0.0551 -0.0581 -0.0908 0.1059 0.1744 -0.0664 -0.0721 -0.1791 -0.1024 -0.0712 -0.1102 0.0349 0.0722 -0.1208 0.147 0.0558 -0.1775 -0.0435 -0.0814 0.0893 0.0106 -0.0439 0.0475 0.0077 0.0373 0.0508 -0.2269 -0.1622 0.0862 0.2609 -0.0941 0.0929 -0.1514 -0.0564 0.0244 0.1521 0.0371 -0.1865 -0.2203 -0.021 0.027 -0.0911 0.0396 -0.092 0.094 -0.2232 -0.0276 0.0496 -0.0891 0.0151 0.0428 0.1271 -0.1129 0.0149 -0.0482 0.0363 0.2103 -0.0127 0.1939 0.0131 0.1188 -0.107 -0.275 -0.1207 0.0007 -0.0465 -0.0951 -0.1475 0.1191 0.114 -0.0023 -0.2075 -0.0882 -0.2306 -0.0352 0.1734 0.1075 0.0086 0.1135 -0.0754 -0.0232 0.0717 -0.0169 0.4317 0.1277 -0.0261 0.0447 0.0422 -0.008 0.2328 -0.1518 0.1153 -0.0294 0.0389 -0.1797 -0.0198 -0.0122 0.1301 0.0512 0.232 -0.0018 0.1239 0.0547 0.0706 0.0776 0.0786 -0.07 0.162 -0.1208 0.075 0.0679 0.0853 0.1708 -0.3026 -0.02 0.0714 0.0221 -0.0185 -0.0348 0.2534 -0.0484 0.0376 0.156 -0.0251 -0.1623 -0.0208 0.1007 0.047 -0.0195 0.0694 0.0074 -0.3119 0.095 -0.0175 -0.1323 -0.1221 -0.0524 0.2404 0.1576 0.1489 -0.1619 0.0813 0.07 -0.1436 0.1533 -0.1125 -0.003 -0.0787 -0.0305 0.0124 -0.1505 0.228 -0.0814 0.0089 0.1021 -0.0985 -0.0473 0.1788 0.1247 -0.0793 -0.3354 -0.041 0.0189 -0.0606 -0.1431 0.0576 0.0875 0.1851 0.1069 -0.0403 -0.0413 -0.0916 0.1506 0.1228 -0.1156 0.2619 -0.0061 0.1526 0.093 -0.1655 0.0745 -0.1383 0.09 -0.2471 -0.0839 0.0939 -0.0009 -0.2116 0.071 -0.0171 -0.2703 0.0062 0.2808 0.1406 0.2872 0.1958 -0.1283 0.1238 -0.0749 0.0497 -0.1999 -0.1786 -0.0818 -0.0865 -0.207 -0.2012 0.014 -0.3727 0.2015 -0.0823 0.0608 -0.2554 -0.0025 0.1178 0.0698 0.0698 -0.0298 -0.0918 0.047 0.1131 -0.0159 -0.0313 0.0395 -0.0528 0.0067 -0.1009 -0.0242 0.1376 -0.0129 0.1056 -0.0848 -0.1685 -0.0952 -0.209 -0.0251 -0.0617 -0.099 -0.2333 0.1105 -0.1862 0.0253 0.1195 -0.002
surfaces 0.061 0.1212 -0.1454 0.0839 -0.0706 -0.017 -0.1042 0.122 -0.1033 0.0767 -0.099 -0.0874 0.128 0.0612 -0.0424 -0.0264 0.1128 -0.0195 -0.1599 0.0504 -0.16 0.0012 0.0605 0.1167 0.0477 -0.0688 -0.2369 -0.0244 -0.1178 0.0381 0.0926 -0.123 0.0083 -0.111 -0.0312 0.1462 0.069 -0.0248 0.1211 -0.1903 -0.1283 -0.1006 0.0891 -0.0163 0.0481 0.0781 0.2187 0.0162 0.0023 0.2567 -0.1203 0.0895 -0.603 0.0247 -0.1567 0.1421 0.0455 0.0797 -0.0457 0.0509 0.1317 -0.0817 -0.0244 -0.0042 0.0649 -0.0814 0.0241 -0.1158 0.0109 0.089 -0.0791 0.2263 0.1979 0.0235 -0.1373 -0.1143 0.0533 0.1319 -0.2166 -0.0727 -0.1118 -0.1282 -0.0842 -0.2617 0.093 -0.1289 -0.0556 -0.0555 0.1128 0.0674 0.026 0.025 0.0809 0.0317 -0.0662 -0.1771 0.1106 0.003 -0.0011 -0.102 -0.1589 -0.0656 -0.182 0.1254 -0.0299 -0.1135 -0.0738 0.0721 0.0451 0.0076 -0.1203 0.0255 -0.0403 -0.0596 0.0047 0.0325 0.1182 0.1249 -0.0156 -0.3564 0.0925 -0.0533 0.0384 0.0835 0.0052 0.1602 0.0255 0.1798 -0.0911 -0.0288 0.0032 0.0281 0.1882 0.034 -0.2346 0.016 0.02 0.0202 0.0172 0.0054 0.0417 0.1334 -0.0405 0.2008 0.0759 -0.2725 0.1079 -0.1505 -0.0253 0.0217 -0.2091 -0.0859 -0.0155 -0.1416 -0.1467 0.0101 0.1849 0.0166 0.0069 0.0516 -0.0527 0.1128 0.0142 -0.0355 0.024 0.2071 0.216 -0.0567 0.1935 -0.095 -0.1515 0.0454 -0.0041 0.0151 0.0902 -0.117 0.2189 -0.0241 -0.1184 -0.0404 -0.0115 -0.0863 0.0261 0.0189 -0.0898 -0.0082 -0.1682 -0.0125 -0.0783 -0.069 0.0977 -0.0633 -0.067 0.0274 0.1465 0.0831 0.1559 -0.0131 0.2456 -0.0554 -0.1815 0.0381 -0.2757 0.1535 0.0494 -0.0417 0.0622 -0.103 -0.1461 0.152 -0.1296 -0.0081 0.0981 0.1884 0.0053 0.0463 -0.1562 0.0546 0.0433 -0.0309 -0.1715 0.0607 0.1801 -0.0368 0.0115 -0.2054 -0.0144 0.0177 0.0231 0.0609 -0.1369 0.1939 0.3564 -0.0935 -0.0559 -0.0627 -0.114 -0.0495 -0.2407 0.0755 0.0499 0.083 -0.0677 -0.0052 -0.1312 -0.1037 -0.11 -0.031 -0.0684 0.3877 -0.1802 0.1001 0.2387 -0.0924 0.0273 -0.0981 0.0288 -0.0359 0.1367 0.0184 -0.011 0.0922 -0.013 0.031 -0.6109 0.099 -0.0425 -0.0371 -0.0953 0.0857 0.0373 -0.1048 0.0047 -0.0273 -0.1526 -0.1205 -0.1287 -0.0488 -0.1109 -0.0697 0.0054 -0.1307 -0.1921 0.0567 0.2985 -0.0009 0.0664 -0.0329 0.0434 0.1776 -0.1108 -0.0425 0.1014 0.0949 -0.1646 0.0818 0.0067 0.1508 -0.1553 0.0288
workbooks -0.2021 -0.0144 -0.0938 -0.0202 -0.0903 -0.1361 0.3085 -0.1858 -0.2507 0.1958 0.0947 -0.1459 -0.155 -0.1131 -0.1014 0.0907 0.1104 0.1811 -0.2464 0.0919 -0.3537 -0.0472 0.1031 0.1664 0.0168 0.2296 0.1687 -0.0135 -0.034 0.0547 -0.0874 0.2423 0.2941 -0.2437 -0.0856 0.2327 0.1888 -0.166 -0.1505 0.0583 0.0465 0.0046 -0.0993 0.2077 -0.0691 -0.0513 -0.1814 -0.0688 0.1456 0.0898 -0.0375 0.0247 -0.8057 -0.1183 -0.3628 -0.1263 0.0067 0.0165 -0.1611 0.1945 0.2597 0.0386 -0.0587 -0.3486 0.182 0.0256 0.2401 -0.2582 0.1496 -0.1598 0.1751 0.0065 -0.0256 -0.0204 0.1833 -0.1742 0.024 0.0402 0.2721 -0.325 -0.0266 0.0749 -0.1305 -0.1097 -0.402 0.2291 -0.2187 -0.0978 0.1064 -0.1082 -0.2093 0.0867 0.0495 0.0366 0.108 0.098 0.0913 0.0258 0.0385 0.0124 -0.0534 0.0443 -0.0651 -0.0495 -0.0532 0.018 -0.0064 0.0941 -0.0349 0.2066 0.1061 -0.0707 -0.1838 -0.0301 -0.1701 0.1106 0.0981 0.0903 -0.0505 -0.1595 -0.0308 -0.1065 0.0369 0.1837 -0.055 0.0767 0.2898 -0.0495 0.036 0.0854 0.1397 -0.15 0.1427 0.1814 0.1903 0.0207 -0.1604 0.089 0.0137 0.0668 0.0161 -0.2251 0.0036 -0.1566 -0.0632 0.0561 -0.1479 -0.0424 -0.1642 -0.0464 -0.2931 -0.0309 -0.0426 -0.0719 -0.1649 -0.1028 0.0925 0.0828 -0.213 -0.0847 0.2681 -0.0872 -0.0748 -0.0993 0.1445 -0.0797 0.066 0.1387 0.0286 0.0773 -0.0461 -0.002 -0.0242 -0.1772 0.0555 -0.2051 0.0755 -0.1233 -0.1354 -0.0774 -0.1348 -0.0892 0.07 -0.0528 0.192 0.0893 -0.1073 -0.0869 -0.1011 -0.0352 -0.0445 0.1902 0.1319 0.2567 0.0193 0.0571 -0.0569 -0.1428 0.0565 -0.0899 -0.0711 -0.0533 0.049 0.0532 -0.0339 0.1914 -0.1781 0.007 -0.1178 -0.1079 0.116 -0.0369 -0.1647 0.0826 -0.2482 -0.0837 -0.1675 -0.1337 -0.1264 -0.0508 -0.1458 0.0003 0.0331 0.0015 0.0431 -0.096 0.1622 -0.1056 0.2136 -0.0072 -0.2073 -0.2744 0.0118 -0.084 -0.3146 -0.0043 0.0858 0.0008 -0.1393 -0.03 0.0297 -0.2091 -0.0706 -0.1683 0.1354 -0.0328 -0.0499 -0.0132 0.3053 0.2196 -0.0065 -0.0578 -0.1936 0.0532 0.0468 0.1165 0.1028 0.0212 -0.0909 0.1975 -0.2218 0.2028 0.0076 0.1325 -0.6218 -0.0668 -0.012 -0.1398 0.0273 0.0306 0.2614 0.0512 -0.0121 -0.1759 -0.0787 -0.0935 -0.0094 -0.074 0.0925 -0.0547 0.0257 -0.0747 0.1127 0.1013 0.0333 -0.1587 0.095 -0.1268 0.1854 0.22 -0.0171 0.141 -0.176 0.2189 -0.1997 0.2007 0.098 0.1719 -0.11 -0.0501
rulings 0.0091 0.0975 -0.0036 0.0889 0.0559 0.1297 0.034 -0.0383 -0.0123 -0.1603 -0.0658 0.2015 -0.1171 -0.0436 -0.2488 -0.0447 -0.0649 0.0523 0.2024 0.0286 -0.1834 -0.103 -0.1897 -0.0599 0.1759 -0.1809 0.1573 -0.1573 -0.0501 0.0069 -0.0352 0.0469 -0.0877 0.0714 0.1766 0.0208 -0.1743 -0.072 0.0117 -0.0737 0.0704 -0.188 -0.1249 0.1527 0.3138 -0.0924 0.0483 0.138 -0.0263 0.0732 -0.0083 0.126 -0.6335 0.0293 0.0865 0.0004 -0.0325 -0.1339 -0.1186 -0.0294 -0.0536 -0.0631 0.0133 -0.0513 -0.0856 -0.1141 0.0461 -0.0488 0.0117 -0.0237 0.1139 0.0955 -0.1988 -0.1613 0.0005 0.067 0.0372 -0.0439 0.2648 -0.0892 -0.0143 0.1101 0.0116 -0.2299 -0.0218 0.0085 -0.2957 0.0473 0.0949 0.0501 0.2007 -0.0483 -0.0379 0.1818 0.0398 -0.0105 -0.052 -0.0216 0.1289 0.0179 -0.1349 -0.0335 -0.0525 -0.1162 -0.1035 0.1382 -0.1597 0.0435 0.0821 -0.0839 0.0554 0.1428 -0.0912 -0.1585 0.048 -0.0224 -0.0333 0.038 0.1014 -0.3843 0.0361 0.0067 -0.0134 0.1574 -0.1826 0.1668 0.0456 0.058 0.0229 0.0687 -0.0657 0.0709 -0.063 0.1251 -0.1086 0.0613 -0.0518 0.2415 0.0821 0.0957 -0.0618 -0.1889 0.0717 0.2331 0.0642 0.0657 0.0724 -0.0499 0.1152 0.0426 -0.1222 0.2307 0.0332 -0.0385 0.0341 -0.0983 -0.1496 0.0051 0.0001 0.0698 0.1888 0.1325 -0.0685 -0.071 0.1615 0.1275 0.126 0.246 -0.008 -0.026 -0.0094 0.1954 0.258 -0.0285 -0.0115 -0.3404 0.2599 -0.3154 -0.0307 -0.0032 -0.0281 0.0529 -0.1121 -0.1246 -0.1948 0.0203 -0.1841 -0.2246 -0.1116 -0.1289 -0.0596 0.0077 -0.0413 -0.0281 0.1241 -0.2084 0.043 -0.0344 0.1753 0.2704 -0.039 -0.0439 0.0729 0.2242 -0.1444 -0.1201 0.0209 0.1845 0.1092 -0.2092 -0.0476 0.023 -0.0574 0.1395 -0.226 -0.0009 -0.1483 -0.088 -0.0283 -0.2358 0.0709 -0.0532 0.1882 -0.0257 0.0219 -0.2126 0.0206 0.0858 -0.0992 -0.1892 -0.3246 0.1093 0.3409 -0.0953 -0.014 -0.0739 0.012 0.0109 -0.2744 0.1389 0.1637 -0.0905 -0.001 0.0541 0.0186 0.1528 -0.0391 0.0281 -0.0594 0.362 0.0105 -0.3004 -0.0964 -0.0733 0.1167 -0.1174 -0.1012 -0.1565 -0.0007 0.0231 -0.1975 0.0044 0.0258 0.0226 -0.7833 -0.0332 0.1271 0.0911 -0.0247 0.0772 -0.1282 0.0744 -0.0376 -0.1357 -0.0583 -0.006 -0.0251 -0.0296 -0.0696 0.0773 -0.0951 -0.1438 -0.0716 -0.1338 -0.2169 -0.188 -0.0642 0.0172 0.0043 0.086 -0.0987 -0.1168 0.1828 -0.1278 -0.082 -0.0544 0.0391 0.1918 0.1806 -0.0665
woe -0.1626 -0.0265 -0.0087 -0.0919 0.2667 0.2117 -0.0521 -0.0438 -0.1448 -0.2047 -0.0437 -0.0769 -0.0479 -0.0406 0.336 -0.0288 0.0783 0.0277 0.1416 -0.1478 -0.1528 -0.0376 -0.0291 -0.1599 0.1204 0.1668 -0.0276 -0.1016 -0.0679 -0.0529 0.0125 0.2009 0.1443 0.0929 0.1684 -0.0568 0.283 0.0706 0.1352 -0.1109 0.0729 -0.1387 -0.1574 0.0555 -0.0333 -0.0386 -0.0022 0.0259 -0.2208 -0.0765 0.1367 0.0361 -0.7609 -0.0257 0.0489 -0.1433 -0.0032 -0.1564 -0.0999 -0.0041 0.0136 0.0002 -0.2162 -0.0045 0.3171 -0.1495 0.0025 -0.1098 -0.0387 -0.0516 0.0661 -0.0504 -0.0421 -0.2692 -0.0116 0.0414 0.2453 0.1379 -0.1126 0.2854 -0.0615 -0.0619 -0.0615 -0.2401 -0.107 -0.0089 0.0734 -0.0972 0.2024 -0.1668 0.0713 0.0671 -0.0896 -0.1326 0.0458 0.0772 0.0218 -0.0291 0.09 -0.0849 -0.1774 -0.104 0.1356 -0.177 0.1106 0.3586 0.0864 -0.1328 -0.0178 -0.0799 0.1065 0.2599 0.0553 0.1092 0.1302 0.0908 0.0056 -0.0189 -0.0688 -0.3053 -0.2541 0.0635 -0.1098 0.0007 -0.0403 0.1749 -0.1363 0.0617 0.0531 -0.1372 -0.2193 0.0758 0.1533 0.0211 -0.0493 -0.109 -0.0213 0.1669 0.011 0.1554 0.0273 0.0026 -0.0894 0.2262 0.0869 -0.1191 0.0487 -0.0432 -0.0345 0.126 0.0141 0.0498 0.0121 -0.0103 -0.017 0.02 0.0982 0.3201 0.0233 0.0265 0.0505 0.0336 0.016 0.0678 0.163 -0.0051 0.0515 0.2227 0.1291 -0.0145 0.1132 -0.0418 -0.2344 -0.0874 0.0736 -0.1568 0.1934 -0.0686 0.0073 0.0533 0.078 0.1869 0.0345 -0.1474 0.0706 -0.0707 0.1742 0.0039 0.0126 -0.2428 -0.0612 0.05 -0.1185 -0.1467 -0.0144 0.0676 -0.1654 -0.183 0.2043 0.1426 -0.1419 0.1363 -0.0712 0.0989 0.075 0.1481 0.1621 -0.1553 0.113 0.0666 0.152 -0.0213 -0.1539 -0.1648 -0.0323 0.0444 0.0309 0.0171 -0.1966 -0.0456 0.0469 0.1165 0.0971 0.0513 0.1408 0.0026 -0.1036 -0.0946 0.3267 -0.126 -0.2449 -0.0384 0.2761 -0.1152 0.1005 0.0195 0.0846 -0.0705 -0.1872 0.1387 0.1173 -0.0123 0.104 -0.0212 -0.0654 0.0624 -0.1431 0.0228 0.0397 0.2733 0.0691 0.1159 -0.0127 0.1255 -0.0453 -0.0953 -0.1085 0.1694 0.059 -0.1645 -0.0045 -0.0623 0.0769 -0.0973 -0.219 0.043 0.1009 -0.0605 -0.1544 0.0381 0.196 0.1137 -0.0031 0.1776 0.0748 0.0594 0.0879 -0.0718 0.1316 -0.0269 0.0987 0.1012 0.1208 -0.1394 -0.0331 0.0937 0.0662 -0.0826 -0.0309 -0.0034 -0.183 -0.0267 -0.1887 -0.0316 0.1755 -0.1144 0.0362 0.1674 0.0774 -0.1139
telephonic 0.0116 0.065 0.0456 -0.0869 -0.1809 0.167 0.092 -0.0819 -0.0588 0.2013 0.2511 -0.0729 0.3613 -0.0379 -0.0681 -0.0834 0.1457 -0.0434 -0.2122 0.0716 -0.1247 -0.2242 -0.1607 0.2003 0.0275 0.0486 0.1162 0.0554 0.0343 -0.0261 -0.1176 -0.0348 0.0139 -0.0377 -0.052 -0.0574 0.0161 -0.2595 -0.0648 -0.1341 0.121 -0.1921 0.1843 -0.0392 -0.0995 -0.0631 0.2208 -0.2042 0.0367 0.0057 0.1004 0.0043 -0.8925 0.0342 0.1651 -0.0743 0.1176 0.1151 -0.0755 -0.0827 0.0006 -0.1404 -0.1069 0.0505 -0.0169 -0.1302 -0.0121 0.2305 0.1597 -0.0382 -0.0005 -0.0316 -0.1444 -0.131 -0.1433 -0.1319 0.1836 0.1226 -0.0329 -0.2185 0.0065 0.004 0.0785 -0.0615 0.0683 0.2403 0.1101 0.2197 0.3639 0.0015 -0.1399 0.0634 -0.0168 0.065 0.1141 -0.236 0.1037 -0.1278 -0.0203 -0.1119 -0.0498 -0.1234 0.2399 0.0057 -0.0515 -0.0238 0.0142 0.0354 0.0273 -0.0569 0.0198 -0.1811 -0.2093 0.0114 -0.0611 -0.1942 0.0335 -0.0611 0.0105 -0.0731 0.0743 0.1067 -0.2324 0.1498 -0.1702 0.0939 -0.1566 0.0871 -0.0005 -0.0866 -0.1451 0.1062 -0.0916 -0.056 -0.0017 -0.202 0.2546 0.043 0.0766 -0.2106 -0.0932 -0.1956 -0.0724 -0.0034 0.1078 -0.021 -0.1074 0.2654 0.1351 0.1751 -0.2495 0.0965 -0.1659 0.0504 0.0327 0.0039 0.135 -0.0334 -0.3343 0.0324 -0.0943 -0.0977 0.0631 -0.0053 0.054 -0.0589 -0.1834 0.0596 0.0486 0.2056 0.2139 0.112 0.0341 0.1284 -0.2016 0.1265 0.2764 -0.0381 0.0404 0.1757 -0.0456 -0.1006 -0.1024 -0.0732 -0.1616 0.0179 0.2073 -0.0296 0.0237 -0.0708 -0.0494 0.0097 -0.092 0.0353 0.0814 -0.0071 -0.0866 0.015 0.0996 -0.1393 -0.0141 -0.0656 0.0169 -0.2774 0.0658 0.2849 0.0196 0.1251 -0.0084 -0.1819 -0.0418 0.1447 -0.0674 -0.0788 0.0404 -0.3479 0.0165 0.0482 -0.1617 -0.1398 -0.1017 0.0061 -0.0026 0.0858 -0.0959 -0.1587 -0.1129 -0.0622 0.0053 -0.3034 0.1186 0.1966 0.0227 0.0545 0.2013 -0.1469 -0.2433 -0.1274 -0.1524 0.0734 -0.0124 -0.1104 0.0057 -0.1482 -0.1047 0.1183 -0.0112 -0.1062 0.2404 0.2314 0.1217 -0.2628 -0.0492 0.1119 -0.2916 0.1385 0.1034 0.0035 0.0156 -0.0024 -0.0402 -0.0051 -0.0465 0.0321 -0.2859 0.0124 -0.042 0.086 -0.3801 -0.0183 0.0476 -0.1573 0.1166 0.0691 0.147 0.2052 0.1445 -0.3083 -0.0911 -0.125 -0.4525 0.0311 0.203 -0.1775 -0.0202 0.0258 -0.0637 -0.0092 0.1571 -0.0053 -0.1657 0.0863 0.0732 -0.117 -0.2061 -0.3004 -0.0712 0.1854 -0.0048 0.0706
disinfectant 0.1465 0.0544 -0.0199 -0.0475 0.0274 -0.1931 0.1945 0.0791 0.0697 0.1065 -0.1784 0.1361 -0.0967 0.1087 -0.0188 -0.2106 -0.0062 0.0204 -0.3014 0.0643 -0.3586 -0.0199 0.2946 0.2002 0.0773 0.0043 0.1519 -0.0191 -0.0605 -0.0036 -0.2517 -0.248 -0.3085 -0.0926 -0.1136 0.0562 0.1623 0.3094 0.0624 -0.1059 0.1217 -0.0817 -0.1709 0.1496 0.0734 -0.1493 0.1605 0.1563 -0.1242 0.0757 0.2353 0.3794 -0.9556 -0.1244 -0.2941 0.093 0.2424 -0.0451 -0.1852 -0.0474 0.0076 -0.1459 -0.0868 -0.0589 0.0122 -0.1818 -0.0104 0.1346 -0.1638 -0.3107 -0.1479 0.0019 0.0757 -0.0316 -0.1602 0.3302 0.1251 0.1361 0.0189 -0.0053 0.0962 -0.2366 0.0704 -0.2179 -0.153 0.0173 0.0585 0.0567 0.2233 -0.0865 -0.0502 0.061 -0.048 -0.1377 -0.1619 0.1683 0.0463 0.0162 0.1046 0.2651 -0.1243 0.1496 -0.2167 0.0826 -0.0366 0.0852 -0.0484 0.304 0.1078 0.1016 -0.1147 -0.1676 -0.2408 0.0821 0.0092 -0.0032 -0.0923 0.0637 0.0471 -0.2681 0.0628 0.1235 0.0603 -0.0109 0.2434 0.088 0.1753 -0.2216 -0.0024 0.3631 -0.0819 0.1712 0.1343 -0.0813 -0.2259 0.27 0.1626 0.1482 0.1012 -0.1807 -0.0265 0.1167 -0.2613 0.2126 0.1262 -0.1872 0.1094 -0.1997 0.026 -0.1406 -0.2703 -0.156 0.1173 0.0983 0.3432 -0.0638 -0.0656 0.1436 -0.139 0.0142 0.1272 -0.0824 0.3439 -0.068 0.1436 0.2858 0.2059 -0.1362 0.0095 0.0762 -0.0439 0.0907 0.2749 -0.0392 0.1536 0.1386 0.2121 -0.151 -0.2059 0.0907 -0.2312 0.1238 -0.023 -0.1652 -0.0819 -0.0661 -0.0352 0.0449 -0.2923 -0.0526 -0.1059 0.1345 -0.0375 -0.1343 0.0605 0.1471 0.0398 0.2249 0.045 -0.1198 -0.2316 0.1251 0.1206 0.0303 0.3777 0.2622 0.1614 -0.0071 0.0406 0.068 0.0092 -0.0923 0.0762 0.2235 0.0537 -0.0334 -0.1074 0.1303 -0.0327 0.215 -0.1142 -0.0595 -0.1083 -0.0574 0.0795 -0.172 0.1321 0.0807 -0.2503 -0.1557 -0.0386 0.1945 0.1882 0.0979 0.0514 -0.1104 -0.0234 -0.3766 -0.1715 -0.2468 0.055 -0.0341 0.032 0.018 -0.0691 0.0132 -0.0968 -0.2083 -0.1012 0.3664 -0.2984 -0.0106 0.0025 -0.2145 -0.0722 -0.1902 0.0108 0.1072 0.0254 0.1025 0.304 0.2375 0.0188 -0.046 -0.4287 0.0359 0.0223 -0.0294 -0.1945 -0.2227 0.2232 -0.098 -0.1878 -0.1696 -0.0231 0.1357 -0.2756 0.0689 0.1519 0.0413 -0.1524 0.0161 0.014 -0.1489 0.2472 0.2825 0.0785 0.1909 0.0706 0.1283 0.0076 -0.1794 0.3306 0.2822 -0.0463 0.2268 -0.0334 0.111 -0.037 -0.0209
laminated 0.2014 -0.0102 -0.0201 0.2183 -0.1316 -0.0566 -0.1096 -0.1426 -0.1435 0.1634 0.1738 -0.038 -0.0311 -0.2711 0.0401 0.2299 0.0203 0.0441 -0.2612 0.1144 -0.1741 -0.0583 0.0217 -0.2809 0.0367 -0.0516 -0.0858 0.0325 0.3149 0.1686 -0.0878 -0.0773 0.2723 0.0464 -0.0151 0.0632 -0.005 0.0108 0.0304 -0.0484 0.005 0.0217 -0.0912 0.147 0.0687 0.2358 -0.1647 -0.1063 -0.0638 0.1139 -0.2358 0.1887 -0.9046 0.2757 0.0853 0.1783 0.1709 -0.0664 0.1186 -0.0846 0.3463 -0.1931 0.0586 -0.0001 0.0031 0.0323 -0.0421 0.0459 0.1001 -0.1519 0.0634 0.0811 -0.0617 0.1527 -0.115 0.0359 -0.0832 0.0246 -0.1914 -0.2879 0.0608 -0.0868 -0.019 -0.2726 -0.02 -0.0776 0.0218 0.1406 0.0763 0.0341 0.0611 0.1255 -0.1203 -0.0055 0.2206 0.0539 -0.1356 0.1051 -0.0153 -0.1483 -0.2524 0.0588 -0.0784 0.0164 -0.1589 -0.011 0.1138 -0.1207 0.1615 0.1707 -0.0027 -0.0593 0.089 -0.215 -0.1137 -0.134 0.195 0.4 0.0823 -0.2207 -0.2461 0.0738 -0.1243 0.0454 -0.0992 0.233 0.3667 0.0143 -0.0986 -0.147 0.0353 -0.1637 0.0583 -0.0624 0.0519 -0.1314 0.0749 0.134 -0.1527 -0.0285 0.1085 0.0218 0.1896 0.1298 -0.0051 -0.0568 -0.0826 -0.0627 0.1734 -0.0634 -0.3259 0.0724 0.0387 0.1227 -0.0454 -0.0752 0.2123 0.0129 0.0903 0.029 0.1588 -0.0922 -0.0174 0.0331 0.1998 0.1517 0.0864 0.1355 0.0179 -0.0462 0.0612 -0.0697 0.0237 -0.1094 0.0597 -0.2186 0.2662 -0.2187 0.0959 -0.1948 0.2043 -0.1687 -0.0153 0.0085 0.1753 0.0459 -0.0801 -0.279 0.1092 -0.2134 -0.0942 0.0396 -0.2033 -0.0739 0.1592 0.2738 0.0329 -0.0053 0.0893 -0.0125 0.1046 0.0896 -0.0099 0.1367 -0.0225 -0.094 -0.0042 0.1139 -0.0523 -0.0428 0.0178 -0.1326 0.1174 0.1486 -0.1481 -0.0818 -0.0432 0.0581 -0.2123 0.0582 -0.1447 -0.0342 0.0686 -0.085 -0.0052 -0.4239 -0.035 0.0844 -0.0913 -0.0492 0.0148 -0.0458 0.1258 0.1171 -0.1709 -0.1032 -0.0754 -0.1733 -0.1785 -0.0327 -0.0474 0.214 -0.15 0.0048 0.0186 -0.145 -0.057 -0.1232 0.1792 0.4648 0.1084 0.0531 -0.0942 -0.0568 -0.153 0.0796 -0.0761 0.0721 -0.0221 -0.1745 -0.0221 0.0731 -0.1383 -0.0152 -0.1077 0.0774 0.1129 0.0328 -0.1732 -0.2164 0.0706 -0.0092 -0.053 0.0691 0.1273 -0.0278 -0.0157 -0.0866 -0.1121 -0.0338 -0.1326 -0.0686 -0.0422 0.0151 0.2826 -0.0071 0.0872 -0.2542 0.0031 -0.0465 -0.0976 0.131 -0.0015 0.1634 -0.0364 0.184 -0.0245 0.2055 0.0635 -0.0514
thrive -0.0112 -0.0175 -0.2014 -0.0763 -0.1301 0.0685 -0.0788 -0.0226 0.0271 -0.0787 -0.2774 0.0987 -0.0861 0.0045 -0.1551 0.0293 0.1259 0.0864 0.1083 -0.0328 -0.1478 -0.0467 -0.0443 0.1103 -0.2946 -0.0174 -0.0152 0.1372 0.0133 0.2067 0.0105 -0.1413 0.0795 -0.0241 0.1212 -0.0157 0.1018 -0.0973 -0.0374 -0.1938 -0.0692 -0.0849 -0.1384 -0.1996 -0.2794 -0.0097 -0.1484 0.0167 0.034 0.0204 -0.3234 0.0111 -0.8572 -0.115 0.05 -0.0456 0.0304 -0.0186 -0.0434 -0.0719 -0.015 0.0034 0.1071 0.0076 -0.084 -0.1569 0.1052 0.0196 -0.0385 -0.0694 -0.0483 0.0579 0.1772 -0.053 -0.0744 0.1511 -0.0503 -0.1737 0.0269 0.1918 0.0041 -0.0438 0.1056 -0.1584 -0.0142 -0.043 0.0673 -0.0062 -0.2897 -0.1252 0.1247 0.048 -0.2041 -0.1208 -0.0268 -0.0414 -0.035 0.0184 0.1519 -0.1559 -0.0865 0.0605 0.0213 0.0383 0.0562 -0.0811 -0.013 -0.202 -0.058 -0.1098 0.0941 -0.087 -0.1969 0.14 0.1914 -0.2086 0.0558 0.035 0.0458 -0.3752 -0.0089 -0.1812 0.0283 0.0896 -0.1449 0.1415 -0.0343 -0.1806 -0.1015 -0.0929 0.014 0.1798 -0.0863 -0.0092 -0.0949 0.1734 -0.078 0.0033 0.0215 -0.011 0.0634 -0.0753 0.0249 0.0992 -0.0235 -0.0323 -0.0243 0.1146 0.1257 0.1751 -0.2292 -0.1523 0.1946 -0.0602 0.0269 0.0575 0.0118 0.1103 -0.0087 0.2028 0.0035 0.1157 -0.0598 0.1153 -0.0795 -0.0509 0.0588 -0.1869 0.1298 0.0713 0.406 -0.0487 0.0733 0.2135 -0.1149 0.1748 0.1406 0.221 -0.4088 -0.1022 0.0584 -0.0359 -0.0084 -0.0112 0.057 -0.4649 0.074 -0.0787 0.2439 0.0874 0.0352 0.0833 0.009 0.1705 -0.0315 -0.0322 0.2022 0.0264 0.1937 -0.0127 -0.2345 0.2555 0.1569 -0.0583 -0.0412 0.124 -0.0375 -0.0169 0.218 0.0487 -0.0717 -0.0539 -0.1143 -0.0258 -0.1949 0.0057 -0.067 0.0294 -0.1545 0.1949 0.1979 -0.015 0.0214 -0.1143 0.0619 -0.1288 0.0479 0.1106 -0.0962 0.2464 -0.2003 0.0551 0.2602 0.0328 -0.1082 0.1686 0.1214 -0.0673 -0.1931 0.1242 -0.0864 -0.0379 -0.1057 0.108 -0.1492 -0.0769 0.0644 0.1373 0.0917 0.2828 0.0261 0.3991 0.0808 0.1248 0.0158 -0.0941 0.0822 0.0804 -0.0666 -0.0231 -0.0815 -0.1519 -0.0691 -0.0805 0.0772 0.0444 0.0905 -0.135 0.0126 0.0532 0.042 0.1436 -0.0515 -0.0631 0.025 0.064 -0.0905 0.0609 0.1422 0.0135 0.0827 0.0899 0.0025 -0.1725 -0.0034 0.0186 -0.0272 0.0801 0.1465 -0.0158 -0.0708 0.0961 -0.0122 -0.0299 0.0415 0.109 -0.0092 0.2416 -0.0692 0.0416
unlike 0.0175 -0.1752 0.1229 0.1328 -0.0529 0.1149 -0.0013 0.0604 0.0369 0.0021 -0.0061 -0.0296 0.0327 0.1195 0.0189 0.0705 -0.0151 0.1109 0.0722 -0.0657 0.0901 0.0678 -0.0355 0.0656 -0.0362 -0.0382 0.0255 0.0916 -0.1014 0.0074 0.0262 -0.0845 0.0423 -0.0598 0.0876 0.0567 0.0201 0.0098 -0.0294 -0.0401 -0.0433 0.0689 0.025 0.0398 -0.0425 -0.1139 -0.0111 0.0419 0.0946 0.0831 -0.1538 -0.1379 -0.533 -0.0217 0.1201 0.0437 -0.0431 -0.0967 -0.0875 0.0796 0.0128 0.0423 -0.0248 -0.0622 -0.0396 -0.0305 0.0416 0.0646 0.118 -0.0142 0.0056 -0.04 -0.0889 -0.0818 0.1009 -0.0138 0.0022 0.0936 0.0281 -0.0403 -0.0236 -0.0502 0.0313 -0.3606 -0.0112 0.1384 0.0886 0.0261 0.1085 0.1301 0.0542 0.0831 0.0226 -0.0623 -0.0203 0.009 -0.0135 0.1112 0.0916 0.0982 -0.158 0.0242 0.0474 0.0391 -0.2131 0.0693 0.1496 0.1669 -0.0904 0.0602 -0.0845 -0.2092 0.0446 -0.0408 0.1447 -0.1202 -0.0074 -0.1065 -0.1065 -0.3025 -0.1263 -0.1501 -0.0758 -0.0599 -0.1199 0.0689 -0.0124 -0.017 0.065 -0.0479 0.0381 0.067 -0.0974 -0.0291 0.1444 -0.1849 0.1425 0.0369 -0.0049 -0.0503 -0.0351 0.01 -0.0402 0.2316 -0.0403 0.0625 0.1622 -0.0766 -0.0149 0.0215 -0.1043 0.0376 -0.0793 -0.0426 0.0045 0.0288 0.0507 0.0597 -0.0948 -0.1075 0.0522 0.0552 -0.0595 0.0862 -0.3042 0.1338 0.1046 0.0767 0.0253 -0.0423 -0.0526 -0.0218 0.0034 -0.021 0.1018 0.0212 0.2233 0.0864 -0.0203 -0.0201 0.0677 -0.0987 0.0051 0.083 0.0233 0.1322 -0.0076 -0.3162 0.5101 0.0233 0.1157 0.0278 -0.0081 -0.003 -0.0077 0.0134 0.0849 -0.0634 0.2086 -0.0298 0.0723 -0.0126 0.1172 -0.1054 -0.015 -0.0514 -0.0621 -0.0794 -0.0399 0.106 0.0263 -0.0336 0.0274 0.0473 -0.0429 0.0032 -0.1303 -0.0283 -0.0051 -0.0809 0.0751 -0.0169 0.0856 0.0373 0.059 -0.0994 -0.0442 0.0286 0.1018 -0.0859 -0.1748 0.0212 0.2297 -0.0205 0.0738 0.5706 -0.0008 0.1686 -0.2176 -0.012 -0.0039 0.0311 0.0266 0.0523 -0.1443 -0.0844 0.0458 -0.0841 0.0643 0.3737 -0.0877 0.0486 -0.0712 -0.0232 0.1074 0.0546 0.0281 0.022 0.0549 0.0279 -0.1165 -0.1292 -0.0735 -0.0005 -0.0663 0.0674 -0.1232 -0.0162 -0.0826 0.0665 -0.0237 0.0382 -0.0127 0.0996 -0.0681 0.0363 -0.0527 -0.0633 0.0022 -0.0079 0.11 -0.0629 -0.0252 0.0814 0.0487 0.0296 -0.0144 0.0624 0.0827 0.0442 -0.1211 -0.0519 0.0615 -0.0629 0.0258 -0.0434 -0.0488 0.2155 -0.0165 -0.1123
preemption -0.0483 0.0041 0.0876 0.0004 0.0281 -0.1888 -0.045 -0.3112 0.1203 0.0124 -0.0381 -0.0675 0.1716 -0.0303 0.0042 0.097 -0.1664 0.0043 0.0349 -0.0098 -0.4367 0.0609 -0.1068 0.0649 0.0613 -0.1774 -0.1571 -0.1142 -0.1246 0.1274 0.2824 0.1279 -0.2192 0.0228 0.075 -0.286 -0.1305 0.1377 0.112 -0.1925 -0.2449 -0.1739 0.1462 -0.0899 -0.0459 -0.0837 -0.0908 -0.103 -0.0285 -0.1235 0.0809 -0.0126 -0.8413 -0.0444 0.1752 -0.0033 0.106 0.0167 -0.0099 -0.059 0.1701 -0.0325 -0.1257 -0.1183 -0.237 -0.0611 -0.1096 -0.0353 0.3338 0.1373 0.0349 -0.2877 -0.1296 -0.137 0.1741 -0.0962 0.0907 0.089 0.0209 0.1735 -0.1449 0.0254 0.1729 -0.0778 -0.155 -0.1293 -0.1813 0.2643 0.2244 -0.0237 0.0942 -0.2195 -0.1334 0.0284 0.0998 -0.076 -0.3293 -0.0039 -0.1283 -0.3748 -0.1956 0.1199 0.078 0.1121 -0.188 0.0432 -0.0745 0.0612 0.0972 0.1346 -0.182 -0.0592 0.0763 0.1103 0.2243 0.0869 0.2175 -0.0446 0.3385 -0.1056 -0.1413 0.0524 0.1239 0.0858 -0.0514 0.2293 -0.2527 0.0735 0.0065 -0.0139 0.2211 0.2449 0.1962 -0.1185 0.067 0.0067 0.055 0.0714 0.139 0.0577 0.2395 0.1398 -0.1629 0.0247 0.0696 0.2084 -0.1458 0.0913 -0.1591 0.1309 0.0983 0.1702 -0.063 0.0353 -0.2483 0.1616 -0.358 0.1017 -0.0883 -0.4403 0.0305 0.1036 0.1561 0.0079 0.0194 0.1459 0.0522 0.0122 -0.0662 -0.1603 0.1474 -0.0467 -0.1583 -0.0947 0.012 -0.2497 0.2554 -0.2107 -0.199 -0.0032 0.2685 -0.0741 -0.2977 0.093 -0.2814 -0.0437 -0.0103 -0.0169 -0.2466 -0.082 -0.0853 -0.1387 0.0492 -0.2807 0.0774 -0.1608 -0.1677 0.0069 0.0502 0.2275 -0.2186 0.1035 -0.0438 -0.0183 0.0028 -0.1058 0.0882 0.1773 0.1155 -0.0519 0.1086 0.242 -0.0579 -0.032 0.0368 -0.3494 0.0521 0.1869 -0.1089 -0.058 0.0673 -0.0564 0.1275 -0.0314 -0.1825 -0.0865 -0.0313 0.1197 0.0198 -0.2073 -0.0126 0.1164 0.2178 -0.0408 0.093 -0.0911 0.051 -0.1682 -0.1362 0.1497 0.1682 -0.0965 -0.1019 -0.0742 0.2604 -0.2298 0.198 -0.3868 0.1584 0.0802 0.041 -0.2158 0.0845 -0.0389 -0.0692 0.2896 0.1202 0.0429 0.2462 0.0811 -0.0256 0.0956 -0.1055 -0.1757 -0.4013 -0.1242 0.0035 0.1426 -0.203 -0.0731 0.1449 0.1779 -0.1746 0.059 0.1462 0.0916 0.022 0.1148 0.0245 -0.0952 -0.031 -0.0726 0.0018 0.204 -0.1953 0.1096 0.0334 0.1641 0.0008 0.1654 -0.1396 0.1533 0.1374 0.013 -0.1883 -0.0006 0.1534 0.1206 0.0761 -0.0435
concurring -0.053 -0.2646 -0.0659 0.1028 -0.0492 -0.0075 -0.0325 -0.2958 0.0627 0.0385 -0.0927 0.2142 -0.0465 0.0594 -0.1267 -0.235 -0.1376 -0.0646 -0.1871 0.1384 -0.1675 -0.1537 0.0906 -0.2388 0.1673 -0.1421 -0.1162 0.008 -0.075 -0.0748 0.0643 0.0594 -0.0252 0.0037 -0.053 -0.0709 -0.0455 0.0246 0.2089 -0.1525 -0.0611 -0.0095 0.3309 0.0613 0.0217 0.0989 -0.1861 0.0143 0.0376 0.1368 0.0461 0.3182 -0.7872 -0.0565 -0.1775 -0.0969 -0.0943 -0.1172 -0.1194 -0.0181 -0.032 -0.0443 -0.0351 -0.2231 -0.0202 -0.1694 -0.0291 0.139 0.061 0.2451 0.0176 -0.0509 -0.1992 0.0772 -0.123 -0.074 0.0783 0.2297 0.2314 -0.0776 -0.0655 0.0508 0.2205 -0.1298 -0.0742 -0.1943 0.0063 0.2095 0.0232 0.0511 0.147 0.2224 -0.1057 0.0556 0.0296 0.1047 0.0836 0.2198 0.03 -0.018 -0.1644 -0.0514 0.1877 -0.0347 -0.0825 -0.0341 0.1356 -0.1158 0.0336 -0.1836 0.0138 0.0222 0.1009 0.1158 0.0093 0.0719 0.1512 -0.2354 0.0744 -0.1575 0.1378 -0.0121 0.1922 0.071 -0.0425 0.1379 -0.0972 -0.1044 0.3552 0.0842 -0.0423 -0.0229 -0.0723 -0.0683 0.1084 -0.0695 -0.105 0.1911 0.0226 0.2032 0.2053 -0.1559 -0.1088 0.1541 0.2734 -0.0695 -0.076 -0.1257 -0.1319 -0.0211 -0.0906 -0.1009 -0.2411 -0.0427 0.1362 -0.0067 -0.0516 0.1395 -0.1286 0.1331 -0.0695 0.0618 -0.0239 0.0195 0.1617 0.0242 0.0655 -0.002 0.0474 0.0831 -0.0801 -0.1003 0.1031 -0.1263 0.0258 0.1069 0.2725 -0.086 0.0192 0.196 0.0097 -0.1525 -0.032 -0.0897 -0.1092 0.074 -0.022 -0.1534 0.1415 0.137 -0.0796 -0.032 -0.1148 0.1057 0.1495 0.0084 -0.0724 0.1384 0.1509 -0.1482 -0.0266 -0.0367 -0.0897 0.1054 0.0171 -0.0784 0.0776 -0.0568 -0.0439 0.0615 0.0158 0.2061 -0.1373 -0.0182 -0.0015 -0.0378 -0.3034 -0.0098 -0.1803 0.1333 -0.0417 -0.1731 0.0196 -0.2132 -0.1041 0.2876 -0.115 -0.0673 -0.0501 -0.0237 -0.0316 -0.0948 0.1965 0.0527 0.3041 -0.0721 -0.0672 -0.0977 -0.1534 -0.2856 0.0609 0.0153 -0.1153 0.1065 0.1546 -0.1841 0.0949 0.0259 -0.2701 0.1875 -0.1379 0.0189 -0.0242 0.0131 0.0776 -0.0636 0.0669 -0.0008 -0.0194 -0.0218 -0.1199 -0.1977 -0.1959 0.0311 -0.1445 0.0745 0.0118 0.0205 -0.0898 0.0509 -0.1304 -0.1949 0.0461 -0.0667 0.1124 0.0198 -0.1256 -0.311 -0.1035 0.2195 -0.0701 -0.1135 0.1599 -0.0213 -0.1946 -0.0193 -0.1682 -0.0945 0.0438 -0.1635 -0.0281 -0.0967 0.0845 -0.0058 -0.166 -0.1731 -0.0073 0.1292 0.1556 -0.0877
bliss 0.0822 0.0569 -0.167 -0.0828 0.0598 0.0279 0.1263 0.069 -0.2478 0.1512 -0.0012 0.1484 0.1817 -0.1273 0.1279 -0.0504 -0.1565 -0.142 0.1911 -0.1515 -0.1867 -0.0664 0.1298 0.2572 -0.1523 -0.0306 0.1106 0.0133 -0.0013 0.1044 0.0987 -0.1423 0.1429 -0.0825 0.0857 0.082 0.1647 0.0591 -0.1588 -0.1612 0.0687 -0.0497 -0.3208 0.0411 0.0376 -0.0147 0.0831 -0.2502 -0.2734 -0.1549 0.0019 -0.0029 -0.764 0.048 -0.1409 -0.1398 -0.257 0.0686 -0.0017 0.0177 0.0012 -0.0472 -0.113 -0.2217 0.1472 -0.149 0.0422 -0.0958 -0.0031 -0.074 -0.1592 0.0475 0.009 -0.0443 -0.073 -0.0182 0.1494 -0.0612 -0.0516 0.1582 0.0109 0.2513 -0.179 -0.1892 -0.1856 0.019 -0.065 -0.2138 0.2006 -0.0266 0.0462 0.138 -0.1488 -0.0509 0.1167 0.0105 0.1145 -0.0305 0.0025 -0.2641 -0.122 -0.0383 0.2258 -0.2863 0.1045 -0.0571 0.0186 0.11 0.0074 -0.1812 0.1996 0.1267 0.0322 0.1312 0.0812 0.0264 -0.135 -0.0264 -0.2016 -0.327 -0.1857 0.1253 0.0139 0.0068 -0.0516 0.134 -0.2258 -0.0242 0.031 -0.074 -0.0291 0.1754 0.2389 -0.1183 0.0885 -0.0642 0.2322 0.0019 0.009 -0.1262 0.188 -0.023 0.0659 0.1521 0.0319 0.1592 0.1 0.1182 -0.1055 -0.0605 -0.0081 -0.0035 -0.1376 0.0543 0.1311 0.2031 -0.1565 -0.0082 -0.2319 0.0082 -0.0146 0.1224 0.0853 0.1523 0.2035 0.042 0.118 0.1724 -0.0417 -0.205 0.066 0.0215 -0.1054 0.06 0.0209 0.0467 0.1512 -0.0297 -0.0492 0.0373 -0.0731 -0.0071 0.017 0.0721 0.0738 0.0635 0.2064 -0.1582 -0.0858 0.0168 0.027 -0.0765 -0.2166 0.0495 0.0151 0.2292 -0.037 -0.1619 0.0967 -0.0964 -0.174 0.2291 0.0541 0.0127 -0.1729 -0.0504 0.2106 0.0432 -0.1361 0.1415 0.2463 -0.0708 0.0281 -0.043 -0.1061 -0.0949 0.0487 -0.0006 -0.0599 0.061 -0.1942 -0.1518 0.1809 0.2329 0.1697 0.1493 -0.0234 0.0034 0.2418 -0.0817 -0.1897 0.0658 0.2653 -0.0666 0.1629 -0.1918 -0.1033 -0.2667 -0.1818 0.0058 0.0117 -0.0617 -0.0327 -0.0003 -0.0932 -0.1308 -0.11 -0.0479 -0.1547 0.3515 0.0069 0.1536 0.0573 -0.0239 0.016 0.0252 0.0518 -0.1352 0.0234 -0.0583 -0.2586 0.0319 0.0068 0.099 -0.3705 -0.0946 -0.1723 0.1001 -0.2221 0.0148 -0.2856 0.0361 -0.0807 -0.0168 -0.0648 0.0785 0.0669 0.0712 0.1138 -0.095 0.0812 -0.0623 0.1018 -0.007 0.0261 -0.07 0.1042 0.054 -0.0463 0.0003 0.2269 0.0341 -0.0628 0.1634 0.0349 0.0833 0.1986 0.2075 0.0228 0.2
kilowatts -0.0508 -0.2521 -0.1085 -0.2198 0.1487 -0.4161 0.0365 0.2313 -0.1114 -0.0198 0.2051 -0.1041 0.1394 0.1032 -0.1398 0.0422 0.0586 -0.224 0.0115 -0.0972 -0.4495 -0.1466 0.014 -0.0424 0.0469 -0.0569 -0.0915 0.0829 -0.0721 0.0379 -0.024 0.148 0.0978 -0.0025 0.109 0.1453 0.1806 0.0555 -0.1131 0.1328 -0.0881 -0.0098 -0.0967 0.0114 -0.0255 -0.0793 -0.2265 0.1034 -0.3787 -0.0022 0.0553 -0.1101 -0.9311 0.047 -0.1745 0.1627 -0.0281 0.1861 -0.2518 0.0412 0.2488 -0.0956 -0.2212 -0.0302 0.014 -0.132 -0.1612 -0.0339 0.0381 0.1492 0.2474 0.4068 -0.1118 0.0883 0.0379 0.0153 0.0196 0.0366 -0.0998 -0.2123 0.0307 0.0672 -0.031 -0.1814 -0.1722 0.2229 0.0829 0.1847 0.3778 -0.0193 0.2055 0.0397 0.0953 -0.3649 -0.221 -0.1057 0.0676 -0.3455 0.1161 -0.1186 -0.022 -0.2635 -0.0889 0.1655 -0.4842 0.1855 0.1176 0.0082 -0.1213 0.098 0.0502 -0.1737 -0.1054 0.0562 -0.0987 -0.1467 0.1725 -0.0286 -0.0065 -0.208 0.1429 -0.2697 -0.0208 0.3782 0.0697 0.1433 0.0014 -0.1754 -0.0367 0.1591 0.4127 -0.0654 0.0451 -0.1124 -0.0845 0.2042 0.1081 0.1891 0.0388 -0.1429 0.1206 0.0645 -0.0068 0.0505 -0.144 0.0514 -0.2139 0.0161 0.3241 0.12 0.0997 0.1047 -0.0558 0.1031 -0.1154 -0.1087 -0.1274 -0.0073 0.0933 -0.0226 0.0799 0.0423 -0.0311 -0.1016 0.2166 -0.0905 0.089 -0.0678 0.056 0.4338 -0.0844 -0.1806 -0.0387 -0.0147 0.2255 -0.0166 0.1932 -0.0505 -0.0231 -0.0975 0.0197 0.1563 -0.0721 0.1651 0.0685 0.1865 0.2963 0.284 -0.504 -0.0054 0.1179 -0.024 -0.0892 0.0344 0.009 -0.0835 -0.2192 -0.0795 0.1433 0.0348 0.0786 -0.2033 0.0246 -0.1493 0.2559 -0.2345 0.0426 0.0824 0.1201 -0.0522 -0.148 0.044 -0.0599 0.1548 -0.0623 0.1747 0.1386 0.1301 0.0219 0.1801 0.0325 -0.1671 -0.1623 0.1513 0.0165 0.156 0.058 0.1134 -0.0958 0.0387 -0.1426 -0.1595 0.1075 -0.1514 -0.0751 0.1192 -0.0877 -0.1048 -0.1583 0.0449 -0.281 -0.1974 0.0785 -0.0195 0.0126 -0.2298 0.0756 -0.0105 -0.1111 0.2208 0.0019 -0.4727 -0.0802 0.0283 0.0602 0.1829 0.0036 -0.0688 0.0077 0.0278 -0.1597 -0.0358 0.2486 -0.1544 -0.8857 0.0349 -0.0211 0.0078 0.4963 -0.1205 -0.2407 0.0512 -0.0503 -0.1266 0.2134 0.315 -0.1693 -0.0641 0.1782 -0.4056 0.0516 0.1803 -0.0824 -0.1765 0.0627 0.2548 0.1026 0.1328 -0.1861 -0.1625 0.2815 -0.161 -0.0113 0.0655 -0.0612 -0.0136 0.0705 -0.0269 0.0774 0.2544
practical -0.0676 -0.0904 -0.0635 -0.0338 0.0751 0.075 0.1386 0.0597 -0.0593 0.0507 0.1279 -0.0032 0.0079 0.1234 -0.2067 -0.121 -0.0721 -0.0009 -0.072 0.0918 0.085 0.0671 0.0676 0.2245 -0.0432 0.1608 0.2014 -0.3364 0.0334 -0.0477 -0.0026 0.0229 0.1037 -0.0604 -0.0186 -0.1075 -0.0597 0.0057 -0.0041 0.0397 0.07 -0.1417 -0.0672 -0.0216 -0.1094 -0.0247 -0.0797 -0.1775 -0.0984 0.0063 -0.0147 0.3841 -0.7692 -0.0257 -0.0367 -0.0321 0.0169 -0.0426 0.0735 0.1119 -0.107 0.0574 -0.0089 0.0661 0.0174 -0.0183 0.1065 0.0073 0.0675 0.046 -0.0424 -0.0438 -0.0384 -0.0291 -0.0008 0.0002 0.0001 0.0296 -0.1042 0.1876 -0.0203 0.1447 0.0604 -0.2057 -0.112 0.0147 0.1543 0.0633 0.1588 0.1079 0.2402 0.1736 0.1297 0.0277 0.0644 -0.0271 0.0538 -0.0362 -0.0047 0.0261 -0.2315 -0.0365 -0.1655 0.031 0.0191 0.06 0.1468 0.0817 0.0711 0.1224 -0.0878 -0.1454 -0.0498 0.006 0.0694 0.1588 0.0129 -0.1246 0.0034 -0.3259 0.0305 0.0039 -0.039 0.1573 -0.0504 0.2682 0.1287 0.0047 -0.0483 0.0128 -0.0181 -0.0465 -0.0026 -0.1231 -0.1247 -0.2677 0.0112 0.0473 0.0309 -0.0246 0.1664 0.0897 -0.0215 0.2961 -0.1833 -0.0726 -0.0526 0.1533 0.0848 -0.0181 -0.0158 0.0677 -0.0324 0.1522 -0.0912 -0.0389 -0.1108 -0.0606 -0.0111 0.0423 -0.0575 0.057 0.0195 0.158 0.1847 0.0454 0.105 0.1998 0.1405 -0.0134 0.1105 0.0172 0.1692 0.0264 0.1673 -0.1135 0.3156 -0.029 -0.022 -0.009 -0.0512 0.0273 -0.0702 0.0721 -0.0661 0.1495 -0.0642 -0.091 -0.0053 0.0443 -0.0188 0.0041 -0.0386 -0.009 -0.0162 0.0641 0.0555 0.0511 0.1669 -0.0723 -0.0334 -0.0912 0.0209 -0.0451 0.0292 0.0095 -0.0256 -0.0875 0.007 0.1003 -0.0392 -0.1484 -0.0061 0.0097 0.0019 0.0581 -0.0611 -0.0257 -0.0391 -0.004 0.0001 0.0316 0.0883 0.2116 -0.0471 -0.1102 -0.0402 0.0307 -0.041 -0.354 0.16 0.0147 0.3406 0.1842 0.0006 -0.0642 -0.0953 -0.1519 -0.2582 0.0145 0.0414 -0.0739 -0.0176 -0.0473 0.0003 0.0917 -0.1004 -0.1014 0.1311 0.4122 -0.0724 0.0222 -0.0271 -0.0246 0.0028 -0.0003 0.0353 0.1822 -0.0108 0.004 -0.1558 0.0755 0.1417 0.1783 0.002 0.0544 -0.0175 -0.1518 -0.0707 0.1382 -0.1018 0.1387 -0.0436 -0.1221 0.0789 0.0709 0.1232 -0.0437 -0.0485 -0.1667 -0.0407 0.1971 -0.0415 -0.0946 0.0354 0.0848 -0.1462 0.2349 -0.0594 0.1523 -0.1021 -0.0178 0.0821 0.0754 -0.0525 0.0799 0.0307 0.2193 0.1449 -0.0622
unmanaged 0.2822 0.075 0.1536 0.1426 -0.1095 -0.1217 -0.2721 -0.1785 -0.0634 -0.1366 0.0254 -0.0783 -0.0533 0.0122 -0.1579 0.0701 0.0346 0.0964 -0.0663 0.0188 -0.3593 0.0485 0.0889 0.1333 -0.1076 0.0397 -0.2884 0.1463 -0.1056 -0.1671 -0.2135 0.1752 0.0975 -0.1169 0.2124 -0.0867 0.0054 -0.0989 0.1303 -0.0346 -0.1622 -0.1334 -0.096 -0.0863 -0.3415 0.1656 -0.073 0.2177 -0.1441 0.2351 -0.1103 -0.2209 -0.8883 0.1152 0.3669 -0.0224 0.2018 -0.1184 0.0352 0.2696 -0.0257 0.2637 -0.0578 -0.1452 0.0337 -0.0561 0.1423 0.0707 -0.0421 -0.2197 -0.1643 -0.2042 -0.0403 0.1459 0.1127 -0.0917 0.1016 0.0608 -0.391 0.015 -0.0944 -0.0048 0.0929 -0.1862 0.0926 -0.009 0.156 -0.4077 0.1786 -0.1102 0.0506 0.0009 -0.3308 -0.111 -0.1363 0.1943 -0.0867 -0.0076 0.1885 -0.1002 -0.0834 0.0064 -0.095 -0.1471 -0.0721 -0.1938 0.1474 0.0356 -0.1483 -0.0367 0.0371 -0.1898 -0.0489 0.0245 0.0306 0.0631 -0.0809 -0.1215 -0.0759 0.0319 -0.0698 -0.21 -0.2436 0.1061 -0.2284 0.0841 0.0136 -0.0938 -0.1816 0.0256 -0.1079 -0.1724 0.1538 0.0959 -0.0807 -0.1738 0.0913 -0.0496 0.0951 -0.1227 0.0196 0.0843 -0.0873 0.0148 0.0146 0.0253 0.0849 0.1342 -0.0884 -0.0105 -0.0081 -0.3869 0.0848 -0.1206 -0.0911 0.2535 0.0568 0.3491 -0.4786 0.1034 0.2249 -0.0623 -0.0265 -0.0912 -0.0057 0.0386 -0.0104 -0.0145 -0.0803 -0.0694 0.0771 0.1338 -0.136 -0.1373 -0.307 0.0314 0.2271 0.0648 -0.4019 0.0442 0.1227 0.1897 -0.1343 0.0819 0.0339 0.0792 0.0902 -0.1026 0.0014 -0.0341 0.1169 0.0724 0.1297 -0.072 0.1799 -0.0374 0.2391 0.0069 0.0813 -0.0746 0.2059 0.2962 -0.0292 0.0638 -0.1992 -0.1239 -0.0766 -0.1044 -0.0792 0.1059 0.0406 0.12 -0.2055 -0.0473 -0.0052 -0.2322 0.079 0.0654 -0.1861 0.0787 0.2597 0.0568 0.1077 0.0005 0.1517 -0.1324 0.0995 -0.0654 0.3076 -0.0591 0.094 -0.1557 0.0629 -0.0204 -0.1689 0.1237 -0.1672 -0.1987 -0.077 0.2889 0.1369 0.094 -0.0165 -0.0225 -0.2447 0.1495 0.2584 0.1038 0.4285 0.2409 0.1689 -0.0068 0.0026 0.1057 -0.0166 0.0833 0.1134 0.0455 0.0142 0.1012 -0.0228 -0.044 0.2202 -0.0682 -0.1698 0.0011 0.1299 -0.1204 -0.2492 0.1831 0.0006 -0.0563 -0.1367 -0.2335 0.0847 -0.2065 -0.0285 0.1701 -0.2062 -0.1276 -0.1859 -0.0294 0.255 0.1259 -0.0297 0.3811 0.2652 -0.2445 -0.2182 0.0258 0.0934 0.3133 0.1684 0.1649 -0.2497 -0.0294 0.1285 0.0173 -0.0884 0.1588
multiply 0.2372 0.0132 -0.129 -0.062 0.005 -0.2482 -0.0176 -0.1541 0.0298 0.196 -0.0836 0.0083 0.0366 0.1294 -0.0082 0.1446 -0.0919 0.2554 -0.1527 -0.1271 -0.1697 0.0255 0.1909 0.0282 -0.2334 -0.0935 0.0453 0.0376 0.1147 -0.0887 0.0389 -0.0105 0.0464 -0.0463 0.1282 -0.0343 -0.126 -0.1981 0.2699 0.0459 0.2446 -0.144 -0.0021 -0.0572 -0.1133 0.0714 -0.0113 -0.0214 -0.0206 0.2359 -0.114 0.0788 -0.7888 -0.0371 -0.13 -0.0208 -0.0051 -0.0211 -0.2088 -0.0263 0.0719 0.049 -0.0555 -0.2443 -0.0185 -0.2081 0.0309 -0.1409 0.13 -0.0333 -0.0423 0.1314 0.1913 0.1719 -0.0289 -0.1095 -0.1078 -0.2136 -0.0813 0.1305 -0.013 -0.1376 0.0116 -0.2212 -0.0953 0.025 -0.0381 -0.1323 -0.2806 0.0314 0.1072 0.0266 0.0083 -0.1271 -0.0886 0.0041 -0.0745 -0.0117 0.1259 0.0505 -0.2122 -0.0152 -0.0463 0.0989 -0.0635 0.0265 0.0137 -0.2029 -0.122 0.0288 -0.072 -0.0318 -0.0353 0.0436 -0.0444 0.0753 -0.0122 0.0068 -0.0102 -0.283 0.0841 -0.2176 -0.0022 0.2097 -0.0963 0.2028 -0.063 -0.0972 -0.0368 0.0291 -0.0251 -0.1522 0.1725 0.0499 -0.1006 0.0556 -0.0421 -0.0171 0.2087 0.0779 -0.0819 0.0161 0.1075 0.224 0.1414 -0.1142 0.1177 -0.0585 0.0868 -0.0232 -0.0609 0.0233 0.0371 -0.232 0.3015 0.156 -0.0921 0.0982 -0.0797 0.1298 0.1171 -0.142 0.0079 0.0193 -0.3321 -0.1582 0.099 -0.052 0.1461 0.2301 0.1232 0.0335 0.0483 0.1446 -0.0956 -0.1852 0.2271 0.0833 -0.1815 -0.0986 -0.0343 0.0409 -0.008 0.0166 -0.1767 -0.2157 0.0137 0.0245 0.1438 -0.0711 -0.0595 0.1076 0.0413 0.0314 -0.1519 0.0899 0.008 -0.0627 0.183 -0.0388 -0.0494 0.2954 -0.1045 -0.0816 -0.1287 0.0541 -0.0116 0.0031 0.1059 0.0018 -0.0667 -0.0393 0.1125 0.065 0.0366 -0.0531 -0.0387 0.0882 -0.0212 0.1064 -0.0444 0.0812 -0.086 0.0591 -0.1193 -0.0476 -0.1184 0.0578 -0.0516 0.0369 0.0384 0.0476 0.2651 -0.246 -0.0524 0.0879 -0.1072 -0.0531 -0.171 0.0302 -0.1205 -0.0457 -0.0578 -0.0724 0.1093 -0.0258 -0.0989 0.1874 -0.0155 0.3448 -0.0292 0.1012 0.0307 0.0105 0.0126 0.063 -0.0651 0.1744 0.0518 -0.016 0.0652 -0.1738 0.0121 -0.0531 0.0613 -0.0912 0.1235 0.07 0.0394 -0.0102 0.0572 0.1109 -0.0738 -0.012 0.1749 0.2473 -0.1014 0.0386 0.1582 -0.0345 0.199 0.157 0.0857 -0.2301 -0.152 0.116 0.0947 0.0534 -0.2171 0.1808 -0.2494 -0.1116 0.0261 0.153 -0.0551 -0.0716 0.0627 0.1457 0.1431 0.0018
concern 0.0848 -0.0456 -0.0438 -0.0571 -0.0271 0.0383 -0.0267 -0.0084 -0.0565 -0.1469 0.0392 -0.0659 -0.0096 0.0605 -0.0825 -0.0504 0.0978 0.0201 0.0922 0.0541 0.0429 -0.0389 0.0365 -0.2081 -0.0776 -0.0481 0.0925 -0.0975 0.0041 -0.0994 -0.0871 0.0457 0.0643 -0.0038 0.0099 -0.0875 0.0625 0.1237 0.1452 0.0549 -0.1599 -0.0059 0.1644 0.0477 -0.2133 0.0234 -0.0453 0.0695 -0.0386 0.1825 -0.1326 0.2801 -0.6928 -0.023 -0.0425 0.0919 -0.0095 0.128 -0.0892 -0.106 -0.01 -0.004 -0.1984 -0.1286 -0.0385 -0.0685 0.0613 0.0719 -0.0074 0.0544 0.051 -0.0742 0.0752 -0.1475 -0.007 -0.0161 0.0537 -0.0612 0.0225 0.2855 -0.0056 -0.0201 -0.0573 -0.2913 0.1167 -0.083 0.0268 -0.0254 -0.0003 0.1004 0.0452 -0.0261 -0.057 -0.1077 -0.004 0.0447 0.018 -0.0513 -0.0149 -0.0556 -0.1348 -0.0145 -0.1106 0.0368 0.233 0.0348 0.1262 0.1875 0.0619 -0.0322 0.0438 0.0954 -0.1036 0.1165 0.018 -0.0435 0.039 -0.0856 -0.079 -0.3932 -0.077 0.0683 0.0951 0.0145 -0.072 0.1727 -0.1362 -0.1587 0.0641 0.048 0.0351 -0.0096 0.0308 -0.0031 0.059 0.0598 -0.0689 0.0252 -0.0255 -0.016 -0.0096 0.0678 0.0174 0.2901 0.0419 -0.04 0.1769 0.0981 -0.0027 -0.009 -0.0239 0.0071 0.0055 0.1124 -0.1219 -0.0383 -0.0675 0.0042 0.0061 -0.0354 -0.1156 0.0651 -0.0371 -0.0791 0.1093 -0.0625 0.1596 0.1215 -0.0099 -0.0201 0.0641 0.0759 0.1047 -0.1975 0.1233 -0.3466 0.1907 -0.3114 -0.0376 0.0366 -0.0474 -0.0014 -0.0663 -0.0584 0.0018 0.048 -0.073 0.0142 0.1355 0.0012 -0.1364 0.0131 0.0098 -0.0863 0.0213 -0.0678 -0.0239 0.1026 0.1065 0.0086 0.0153 0.1447 -0.1229 -0.1942 -0.0066 0.0358 0.0231 0.1468 0.044 -0.0223 0.049 0.1384 -0.0257 -0.0085 -0.0264 -0.0513 -0.0528 0.1101 -0.1266 -0.2335 0.0078 0.0015 -0.0463 -0.0092 0.1127 0.1958 -0.0115 0.046 -0.0881 -0.2245 -0.304 0.0047 0.3719 0.0027 -0.0166 -0.0338 -0.0232 0.0139 -0.2387 -0.021 -0.0161 -0.0731 -0.127 -0.0565 0.0561 0.0086 0.0721 -0.0142 0.009 0.3166 -0.0206 0.0278 0.0367 -0.1592 -0.0984 -0.0352 0.1476 0.0591 0.0531 0.0083 0.0927 -0.0793 0.0405 0.0804 -0.1082 -0.0003 0.0233 0.0244 -0.222 0.0196 0.048 -0.0207 -0.0416 -0.0438 0.0046 -0.0683 0.1332 -0.1193 0.0261 -0.084 0.0335 0.1784 0.0139 0.0025 0.0537 0.0043 0.0148 0.1054 0.1545 -0.0173 -0.0172 -0.0878 0.0706 -0.0447 0.0287 -0.0198 -0.098 0.1696 -0.1095 -0.1
reposting -0.1153 -0.0493 0.1174 -0.2895 0.0608 -0.3983 -0.0363 0.1843 0.0102 0.0891 0.0695 0.0568 0.1644 -0.0896 -0.1564 -0.0034 -0.0825 0.133 -0.1558 -0.0328 -0.2459 -0.0753 -0.0328 -0.1691 -0.1542 0.0671 0.0919 -0.2474 0.149 0.2441 -0.1099 0.0359 -0.0367 -0.1552 0.0676 0.1359 -0.0684 -0.1888 -0.017 0.0643 -0.0426 0.0371 0.0007 -0.0603 -0.0505 -0.1459 -0.1621 0.0988 -0.0046 -0.0594 0.2014 -0.1462 -0.8423 0.1054 -0.0178 0.0572 0.0549 -0.1424 0.0599 -0.1332 0.0497 0.0234 0.0211 -0.0823 -0.1082 -0.0838 0.1549 -0.1444 -0.1937 0.1351 -0.0862 0.1825 -0.0326 0.0633 0.0379 0.0872 0.0542 -0.1373 0.0526 0.058 0.0567 -0.0536 -0.0549 -0.2179 -0.1578 -0.2558 0.0169 -0.3212 0.0378 0.1792 0.0488 -0.0882 0.025 -0.1188 0.0414 -0.0154 -0.0905 0.1333 0.1018 -0.1477 -0.028 0.0765 0.2262 0.0234 -0.5145 0.1041 0.0804 0.064 0.0271 0.0491 -0.0677 0.0182 -0.1195 -0.0104 -0.1592 -0.138 0.0141 -0.0754 -0.0862 -0.2411 -0.0405 -0.0288 -0.0025 0.0929 -0.2563 -0.0087 -0.033 0.0099 0.0734 -0.2178 -0.0389 0.0165 0.0484 0.0334 0.1411 0.1423 -0.0021 -0.0098 0.0193 0.0748 0.1106 -0.0131 0.0663 0.1571 0.4411 -0.0753 0.1993 -0.1727 0.0369 0.1565 0.1983 -0.0394 0.0456 0.0123 -0.1317 -0.1406 0.1783 -0.0123 0.1562 -0.0739 0.0899 -0.0582 -0.2207 -0.1436 0.2462 0.0576 0.0531 0.1232 0.1013 -0.0088 0.0104 -0.1137 -0.0492 -0.0877 0.0382 0.0625 0.226 -0.0452 0.1153 0.082 0.1717 -0.1148 0.0886 0.2876 -0.1756 -0.1074 0.1585 -0.3169 0.1288 -0.1296 -0.0956 -0.0134 -0.0397 0.0123 -0.0586 -0.1286 -0.1687 -0.1167 0.1542 -0.1127 -0.01 -0.2092 -0.0134 0.0524 0.026 -0.0103 0.0732 0.0556 -0.1197 -0.1754 0.1612 -0.0951 -0.1063 -0.01 -0.0064 0.046 -0.3068 0.1338 -0.1727 -0.0579 -0.2107 0.063 -0.0524 -0.0457 -0.0755 0.0643 -0.0448 -0.0677 0.0085 -0.1774 0.0029 0.1275 0.1871 -0.0587 0.0418 -0.0092 -0.1617 -0.1237 -0.1414 0.0221 0.1295 0.0056 -0.0652 0.1081 0.163 -0.0332 -0.0087 0.1858 0.3121 0.2582 -0.0399 -0.0545 0.0187 0.1547 -0.1152 0.0099 0.0083 0.0525 -0.03 -0.1118 0.1506 -0.2266 -0.1962 -0.1795 -0.2132 0.0951 0.0854 -0.0049 -0.2444 -0.3276 -0.2181 0.127 -0.1085 -0.1062 -0.1189 -0.0056 -0.0085 0.2417 0.0889 -0.0717 -0.0344 0.0629 0.0772 0.0445 -0.1451 0.0683 -0.0073 -0.0896 -0.044 0.0133 -0.1348 0.0954 0.038 0.1678 0.0204 -0.1439 -0.0282 0.1557 -0.0089 -0.1712
mischief 0.0933 -0.1715 -0.104 -0.0919 -0.0478 -0.0666 0.1869 0.0247 0.0791 0.0489 -0.0499 -0.0696 -0.1061 -0.0264 -0.0869 -0.0174 -0.0797 -0.099 -0.0299 0.0172 -0.1486 0.0573 -0.1112 0.0037 -0.1345 0.1161 -0.101 -0.1221 -0.056 -0.1071 0.2207 0.1027 0.1519 -0.0397 0.1905 -0.0894 0.011 -0.0329 0.1201 0.0845 0.0274 0.0249 -0.0121 0.0752 0.1498 -0.1876 0.0933 -0.198 -0.128 -0.0568 0.0323 -0.0737 -0.7236 -0.0399 -0.0778 -0.0661 0.1688 0.0056 -0.0045 0.0483 -0.0563 -0.0296 0.0862 -0.0144 0.0129 0.0048 0.013 -0.1028 0.0598 0.1687 0.0695 0.1083 0.0131 -0.1356 -0.048 -0.0496 0.2309 0.0606 -0.1882 0.3581 0.0195 0.0697 -0.0196 -0.2041 -0.063 0.0778 -0.0097 0.1164 0.2365 0.0235 -0.0317 0.0401 -0.0952 -0.1123 0.0561 -0.0187 0.1053 -0.1106 0.0022 -0.0579 -0.1966 -0.0579 0.0227 0.033 -0.0586 0.1996 -0.0443 0.0999 -0.0555 0.1526 -0.023 0.1783 0.0041 0.1115 -0.1525 -0.1203 0.0296 0.1123 -0.0568 -0.2989 -0.0908 0.0076 0.1525 0.1192 -0.055 0.1807 -0.1371 -0.0452 -0.0057 -0.0053 -0.1292 -0.0889 0.0051 -0.2215 0.0485 0.0137 -0.0066 0.0663 -0.0308 0.1019 -0.0907 0.2722 -0.0668 0.1744 0.1899 -0.0858 0.0902 -0.1282 -0.0703 0.0333 0.0662 0.0802 0.1173 0.1707 -0.139 -0.0094 0.0617 0.0809 -0.175 0.0778 0.1801 -0.0477 0.0249 -0.0437 0.1017 0.0001 0.0964 0.1414 -0.1083 0.1773 0.0836 -0.0356 -0.168 -0.0333 -0.1837 0.0006 0.2474 -0.2901 -0.0401 0.177 0.1129 0.0465 0.2486 -0.1899 -0.0223 -0.078 -0.1455 0.1141 -0.2073 0.1556 0.0427 -0.0061 0.0904 -0.0952 0.1344 0.0865 -0.0026 -0.0429 0.1105 0.0162 -0.1273 0.0629 -0.0398 0.0624 0.1102 0.2369 0.1278 -0.1157 0.1188 -0.0018 0.0595 -0.0092 -0.0946 0.046 -0.1882 0.0177 -0.0272 0.0921 -0.1618 0.0772 0.0965 -0.0204 -0.0135 0.104 -0.1536 -0.0026 -0.1333 0.0308 -0.0134 -0.0957 -0.2143 0.1376 0.2757 0.0627 -0.0179 0.0067 0.0375 -0.2588 -0.2275 0.3091 0.12 -0.1528 -0.1312 -0.104 -0.0686 -0.2791 -0.0601 0.1017 -0.1407 0.3718 -0.0311 0.3472 0.0036 -0.0363 -0.2021 -0.1151 0.018 0.0832 0.0622 -0.023 -0.0123 0.0814 0.1427 0.0247 -0.3644 0.121 0.2515 -0.0691 -0.1629 -0.0258 -0.1153 0.0072 -0.0469 -0.0111 -0.0857 -0.0136 -0.04 0.0728 -0.0154 -0.0424 -0.1063 0.0365 0.076 -0.1067 -0.137 0.1837 0.1318 0.0838 0.1554 0.0181 -0.0523 -0.236 0.0638 -0.0174 0.0325 -0.3807 0.0802 0.1907 0.0233 -0.0178
wan -0.0442 0.0216 -0.2219 -0.0474 0.0095 -0.0754 0.13 -0.0228 -0.1372 0.0508 0.0519 0.01 0.0252 -0.0027 0.0845 -0.1193 -0.0113 -0.1396 0.0532 -0.0638 -0.0585 -0.0379 -0.1008 0.1135 -0.0731 -0.2821 -0.0353 0.1109 0.1056 -0.137 -0.0167 -0.0501 0.2867 0.023 0.0723 0.0369 0.077 0.0647 -0.1026 0.0503 -0.0149 -0.0798 -0.0835 0.0061 0.1011 0.0253 -0.0004 -0.0712 -0.0142 -0.0732 0.0189 -0.2359 -0.7026 -0.1759 0.0904 -0.0677 0.049 0.1045 0.1159 -0.0664 -0.0244 0.036 -0.0123 -0.061 0.0042 -0.0656 -0.0304 0.1304 -0.1514 0.0917 0.2733 -0.0751 0.1479 0.1629 -0.0794 0.0625 -0.1329 -0.0795 -0.0534 0.1069 -0.0136 0.0565 -0.048 -0.2456 0.0077 0.0698 -0.0016 -0.0969 -0.1753 -0.0182 -0.024 -0.1641 -0.0043 -0.0996 0.1754 0.0488 -0.1898 -0.0828 0.0247 0.1361 -0.1096 0.0693 0.044 -0.0274 0.1572 0.0185 -0.1342 -0.147 -0.0376 -0.0283 0.1933 -0.152 -0.0035 -0.0366 -0.2218 0.078 -0.0637 0.0491 0.0648 -0.2323 -0.088 0.0913 0.125 0.003 -0.282 0.1397 -0.0359 0.0299 -0.0144 -0.1465 -0.0526 0.0039 -0.0185 0.1149 -0.0704 -0.0353 0.0246 0.0409 -0.0393 -0.0974 -0.0042 0.0891 0.0485 0.225 0.1943 0.0021 0.2541 0.0987 0.0451 -0.0586 -0.1729 -0.0925 0.0467 0.2259 0.0757 0.075 -0.0473 0.0911 0.0003 0.0275 0.0729 0.0077 0.0581 0.3009 0.1403 0.2122 0.0759 0.2154 -0.0958 -0.0537 0.0566 0.0592 -0.0387 0.1107 0.1594 -0.0429 0.1903 -0.1012 -0.0411 0.0683 0.0536 0.0114 0.0962 0.062 0.1203 -0.0797 0.1042 -0.1588 0.1658 0.1171 -0.0978 0.2364 0.0842 -0.0126 -0.0296 0.1964 -0.0383 0.0135 0.1021 0.0742 0.0389 0.0076 0.255 -0.0635 0.0975 0.0415 0.1448 0.0531 0.0126 0.1106 0.0011 -0.038 -0.037 0.1496 0.1591 -0.1196 0.2918 -0.0315 -0.1395 -0.0041 -0.0712 -0.1728 -0.0878 0.1772 0.0479 -0.2978 -0.1752 -0.0304 0.2544 -0.2193 0.09 -0.1307 0.2599 -0.0752 0.1263 0.031 0.1352 -0.0125 -0.106 -0.0892 -0.1053 0.0731 0.0364 -0.0626 0.1152 -0.0327 0.2466 -0.0751 -0.1367 0.357 0.0773 -0.0825 0.2081 0.0627 0.3338 -0.1122 -0.1069 0.0953 0.053 -0.0126 0.0419 -0.1518 -0.0046 0.0377 -0.2472 0.0563 0.061 -0.0277 0.0968 0.0088 0.2534 -0.1366 -0.0032 0.0533 0.0344 0.1183 -0.0499 -0.0494 0.1338 0.0221 -0.2894 0.1734 0.0058 -0.0268 0.2358 0.0957 0.0579 -0.0393 -0.0926 -0.0171 -0.1589 0.0014 -0.0533 0.0798 -0.0872 -0.0839 0.0837 0.0922 0.0539 0.0297
superman 0.0318 -0.1828 -0.0163 -0.0005 0.0924 0.0651 0.1182 0.2511 0.1383 0.034 -0.1362 0.1903 0.0155 -0.2026 0.0545 -0.043 -0.1205 -0.0499 0.0228 -0.0174 -0.3068 0.0156 -0.0123 0.1186 0.1569 -0.117 0.0884 0.1168 0.017 0.0808 -0.1103 -0.0061 -0.0918 0.1505 0.2339 0.1016 -0.013 0.1468 -0.1115 -0.0278 0.1579 0.0958 -0.1515 -0.1091 -0.1623 -0.4237 -0.1635 0.016 -0.1061 0.0014 0.1625 -0.0234 -0.7767 0.1269 -0.1289 0.0112 0.21 -0.0773 0.1065 -0.2752 -0.0532 0.0499 0.1246 -0.0285 0.0491 -0.2693 -0.2007 0.1953 0.0465 -0.0072 -0.0888 -0.1205 -0.1155 0.15 -0.2269 -0.0356 -0.1908 -0.1267 -0.1406 0.0589 -0.0426 -0.0643 -0.0974 -0.2424 -0.0372 -0.0739 -0.0086 0.1024 0.2479 -0.009 0.2086 -0.0931 -0.0343 -0.0738 0.0856 -0.3282 0.1318 0.1371 -0.0804 0.1012 -0.057 -0.1213 0.0445 -0.079 0.0165 0.0157 -0.0445 -0.0723 -0.1038 0.1314 -0.1252 0.1686 0.1393 0.0598 -0.0976 0.0314 -0.1044 0.0103 -0.2105 -0.2367 -0.0346 0.0924 -0.0573 -0.0345 0.0238 0.0706 -0.0676 0.0328 0.0727 0.2547 0.0253 0.0237 -0.1606 0.0308 0.0291 -0.0866 -0.0363 0.1299 -0.0927 -0.0988 0.0517 -0.2667 -0.0632 0.139 -0.0763 -0.0755 0.1117 -0.0606 0.213 0.1087 -0.1443 0.011 0.0347 -0.0698 -0.1042 0.2334 -0.1152 0.1556 0.101 -0.2897 -0.0394 0.1343 0.0237 0.2993 0.176 0.1712 0.1123 0.0868 -0.1648 0.0012 0.0884 -0.0541 -0.0218 0.0386 0.0901 0.092 0.2626 0.0827 0.0344 0.0705 0.02 -0.1105 0.0326 -0.1365 0.0474 -0.0926 0.0627 0.0358 -0.2215 0.3075 0.0704 -0.0958 -0.1359 -0.1143 0.0769 0.0069 0.0488 -0.0007 0.1325 0.182 0.1635 0.0257 -0.0681 -0.1805 0.2248 0.0113 0.1517 -0.1658 -0.0165 -0.053 0.013 0.0186 -0.0783 -0.207 0.0841 0.1534 0.0816 -0.0012 -0.1197 -0.0547 0.2171 -0.1383 0.1185 0.079 0.0419 -0.3493 0.0702 0.2404 -0.0342 -0.1608 0.013 -0.0358 0.2427 -0.1729 0.004 -0.1524 -0.0796 -0.0349 -0.1206 0.0723 -0.1372 -0.1939 0.1615 0.1533 -0.0904 0.0877 -0.049 -0.0384 -0.0682 0.3425 0.037 -0.1283 0.1991 0.1339 -0.0161 0.3247 -0.1179 0.0251 -0.2285 -0.0505 0.1698 -0.0008 0.0768 0.1533 -0.3566 -0.0921 -0.051 0.0632 -0.1786 -0.0751 0.0745 0.1561 -0.3028 0.1295 0.0399 0.0758 -0.0363 0.0145 -0.0228 -0.0396 0.0309 -0.0392 -0.0302 -0.1178 0.1953 -0.2947 -0.0499 -0.0905 0.0245 -0.0098 -0.214 -0.3576 0.1149 0.2667 0.1327 -0.0189 -0.0686 0.0955 0.1215 -0.2181
carpenters 0.0183 -0.0366 -0.2573 -0.0297 -0.0383 0.1937 0.139 -0.2753 -0.1747 -0.1145 0.2241 -0.0446 -0.1977 0.0249 0.0309 0.1015 0.1589 -0.293 -0.0778 -0.2077 -0.1946 0.092 0.0043 0.0209 -0.0925 0.0708 0.1338 0.2158 -0.0027 -0.1466 0.2945 -0.0077 0.0914 0.0454 0.0226 -0.0708 -0.1849 -0.0092 -0.186 0.1346 0.0438 0.0608 0.0238 0.2565 0.0032 -0.0175 0.0124 0.0345 -0.1317 -0.0154 0.0642 -0.0928 -0.7868 0.2136 -0.0055 0.0586 0.0757 0.1552 0.1535 -0.3599 0.0993 -0.0551 0.009 -0.2079 0.0854 0.3051 0.262 0.0387 0.0275 0.1728 0.3127 0.0376 -0.05 0.0384 -0.0127 0.0308 -0.0457 -0.1687 0.0829 0.0378 0.1083 0.1575 -0.0375 -0.1976 -0.0262 0.1691 0.0507 0.0838 -0.0258 -0.0867 -0.0572 0.131 -0.0066 0.0159 -0.0839 -0.0982 -0.0097 -0.0037 -0.0769 -0.0171 -0.1959 0.0234 -0.0518 -0.0735 -0.1193 0.1096 0.054 -0.1473 -0.0381 0.1331 -0.3269 -0.0797 -0.0039 -0.0554 -0.2564 0.0511 0.0631 0.0595 0.0045 -0.2487 0.0245 0.0341 0.0889 0.0566 0.1487 0.2464 0.1346 0.004 0.1385 -0.1183 -0.0619 -0.1804 -0.0858 0.0341 -0.1098 -0.0561 -0.0154 0.1007 0.0792 0.0518 -0.0564 -0.0977 -0.0553 0.2123 -0.1018 -0.0857 0.1145 -0.0623 -0.1804 -0.0447 -0.1124 0.0654 -0.1057 -0.0337 0.1711 -0.03 0.0019 -0.0592 -0.068 -0.012 0.0908 -0.1633 -0.1127 0.0192 0.0741 0.0098 0.103 -0.0161 0.167 0.2424 0.0073 0.1196 0.0173 0.2038 -0.0858 0.1871 0.2381 -0.1437 -0.1517 0.0584 0.1888 0.1047 0.2313 -0.0394 -0.0004 0.0327 -0.0206 -0.1256 -0.1013 0.1204 -0.0317 -0.03 -0.0019 -0.1704 0.1771 0.1775 0.2133 0.1567 0.1115 -0.091 -0.1608 -0.1287 0.1141 0.2847 0.0964 0.0121 -0.1213 -0.1445 -0.2063 0.1265 -0.0439 0.1022 0.0663 0.2338 0.0059 0.0558 -0.0396 0.0213 -0.0316 -0.1014 -0.1249 0.1672 0.0302 -0.0205 -0.0469 0.1073 -0.1007 0.2537 -0.2175 -0.0072 -0.0916 0.0402 0.2502 -0.0698 -0.0981 -0.0458 0.0472 0.2058 -0.2526 0.0758 0.0704 0.0938 0.0056 -0.0623 0.0598 0.1286 -0.067 0.0722 0.0867 0.339 0.1263 0.0393 -0.0883 -0.1351 0.3539 0.1692 -0.1532 -0.0546 0.1882 -0.0534 -0.0462 -0.1901 -0.0494 0.1974 -0.5538 0.21 -0.2154 -0.152 -0.1685 0.208 -0.0685 0.2617 0.0297 -0.001 0.3263 0.0974 -0.0814 -0.1737 -0.1558 -0.2008 0.0113 -0.1329 0.0146 -0.0696 0.1619 -0.1013 -0.0823 0.1509 -0.0511 -0.1472 0.0204 0.0902 -0.1152 0.1012 -0.1076 0.06 -0.1553 0.1409 0.0411 -0.1457
announced 0.0529 -0.0088 -0.0142 -0.0409 -0.0655 0.0327 0.0519 0.0797 0.0715 -0.1865 -0.0634 0.0827 0.1018 -0.1705 0.1094 -0.0976 -0.0854 0.1894 0.172 -0.0213 -0.0792 0.0525 -0.0476 0.0406 0.1008 0.0236 -0.0187 0.067 0.0394 0.0445 -0.1693 0.0881 0.117 -0.0456 -0.0464 -0.1155 -0.0743 0.0179 0.0636 -0.0117 0.0313 0.128 0.0702 0.1477 0.04 0.0415 0.0786 -0.042 0.0641 -0.1343 0.115 -0.0242 -0.7306 0.0126 -0.0012 0.0678 0.0393 -0.0523 -0.1514 -0.0077 0.0489 0.02 0.2538 0.0386 0.0219 0.0491 0.0674 0.0209 -0.1095 0.1117 0.035 0.1117 -0.0493 0.0774 -0.0053 -0.146 0.0085 0.1181 -0.0038 -0.1349 0.0684 0.0332 0.1038 -0.3688 0.0044 -0.0069 -0.0228 0.055 -0.4507 -0.031 -0.001 0.1247 0.0946 0.0849 -0.0587 0.0566 -0.1045 -0.0114 -0.017 -0.0839 -0.1104 0.0023 0.0012 -0.0757 -0.0975 0.084 0.0834 0.1122 0.1515 -0.0676 0.1705 -0.0653 -0.0845 -0.0035 -0.1508 0.0469 -0.1077 -0.0268 0.0692 -0.5623 0.0059 0.0738 -0.0126 0.0091 -0.0652 0.1153 -0.0021 0.0887 0.1793 -0.0505 0.0109 -0.0071 0.0008 -0.0357 0.0286 0.1119 -0.0851 -0.1458 -0.1118 0.0075 0.0868 0.0615 -0.1017 0.2293 0.0956 -0.0427 -0.054 0.066 -0.09 0.0479 0.1141 -0.1199 -0.1561 0.0279 -0.0856 0.0314 -0.0813 -0.1032 -0.1512 0.1149 0.1123 -0.085 0.0258 -0.1991 0.6177 -0.0567 0.0802 0.0861 0.1805 -0.2093 -0.0802 0.2043 -0.1428 0.0222 -0.0367 0.032 0.2103 0.0072 0.1594 -0.0051 -0.0709 -0.0569 -0.0154 -0.0649 -0.0208 0.0674 0.1517 0.0061 0.7319 0.0641 -0.1289 -0.0204 0.0339 -0.1195 -0.082 -0.0096 0.0196 -0.1348 0.0814 0.0708 -0.0189 -0.1151 0.0264 -0.0324 0.0005 0.0026 0.0353 0.2621 0.094 -0.0344 -0.0968 0.0397 0.1896 -0.0346 -0.0205 -0.1144 -0.0438 0.0553 -0.0092 0.2104 0.1499 -0.0146 -0.0831 0.2099 -0.0852 -0.2188 0.0607 0.1366 -0.0176 -0.259 -0.0176 0.0027 0.3221 -0.1436 -0.0638 -0.2723 -0.1049 0.2512 -0.2653 -0.1324 0.0478 -0.0349 0.0451 -0.0685 0.1755 0.1972 -0.0802 0.0922 -0.0708 0.2702 -0.0188 0.0629 -0.1793 -0.0781 -0.1686 0.1724 -0.0085 0.0266 0.1374 -0.0819 -0.1691 0.0574 -0.0079 0.0004 0.1261 -0.0124 -0.0309 -0.1004 -0.061 0.0237 0.0201 -0.156 -0.0389 -0.0409 0.0512 -0.1368 -0.1167 0.1079 -0.145 0.0845 0.1603 -0.1176 0.0306 -0.0786 -0.0572 -0.1095 -0.1591 0.1898 0.0504 0.1821 -0.0265 -0.0833 -0.0091 0.0045 -0.0251 -0.1001 0.062 0.0713 0.0786 0.0618
