1000 300
howler 0.0103 0.0038 -0.0241 0.023 -0.0065 -0.0264 0.0037 -0.0782 0.0039 -0.0058 -0.0097 0.0161 -0.0032 -0.0184 -0.0224 0.0329 -0.0244 -0.0192 0.032 0.014 0.0145 -0.0324 -0.0069 0.0061 0.0087 -0.0084 0.0278 0.0227 0.0129 0.0145 0.017 0.0042 -0.0032 -0.0247 -0.0109 -0.0123 -0.0235 -0.0408 -0.0264 -0.0002 -0.028 -0.0274 -0.0186 0.0005 0.0063 0.0639 0.0071 0.0127 -0.0039 0.0577 0.0142 0.0666 0.0455 -0.0132 0.0138 -0.0323 0.0026 -0.0179 -0.0234 0.0246 0.0021 -0.0153 0.0157 0.0182 0.0309 0.0061 0.0024 0.077 0.0469 0.0235 -0.0056 0.0075 0.0115 -0.0023 0.0055 -0.0126 0.026 -0.0462 -0.0273 0.0289 -0.0347 0.014 0.0135 0.0482 0.0302 -0.0023 -0.0043 0.027 0.0251 -0.0188 0.0029 0.0048 -0.0375 -0.0289 0.0391 0.037 -0.0022 -0.0118 0.0123 -0.0024 -0.0335 0.0212 -0.0371 0.0288 -0.0194 -0.0402 0.0238 0.0111 0.0121 -0.0149 -0.0066 0.0221 0.0135 0.0104 -0.0112 0.0405 -0.0092 0.0457 -0.0257 0.0222 0.0412 0.0109 -0.0064 0.0193 0.0589 -0.0312 -0.0114 -0.0266 -0.0102 0.0358 -0.0114 0.0082 -0.0106 0.0117 -0.0231 0.0014 -0.0063 0.0628 0.012 -0.0217 -0.0339 -0.0451 0.0121 -0.0191 -0.0319 -0.0239 -0.0016 0.0607 -0.0246 -0.0401 0.0104 0.033 -0.0056 -0.0094 0.0207 -0.0347 0.0114 -0.0304 0.0267 0.0209 0.0072 0.0225 -0.0453 -0.0226 -0.0213 0.0164 0.0352 -0.033 0.0343 0.0245 -0.0094 0.0114 0.0165 0.0101 0.0188 0.0075 0.0088 -0.016 0.0195 0.0147 0.0119 0.0359 -0.0456 -0.0149 -0.0044 -0.0537 0.0077 0.0212 -0.0069 0.0073 0.0334 0.008 -0.0425 -0.0522 -0.0276 -0.0034 -0.0132 0.0225 -0.0069 0.0074 -0.0826 0.0614 -0.0221 0.0322 -0.0422 -0.0251 -0.0006 -0.0348 -0.0478 -0.0355 0.057 0.0232 -0.0087 -0.0084 0.0197 -0.0491 -0.0245 0.0089 0.0182 0.0008 -0.0208 0.0374 -0.0161 0.0297 0.0288 -0.0253 -0.0067 0.0443 0.0119 0.0143 0.0107 -0.0679 -0.0308 0.0305 0.0002 -0.0306 -0.017 -0.0276 0.0189 -0.0138 0.0341 -0.0325 -0.0297 -0.0126 -0.0373 0.0068 0.0045 0.0287 -0.0189 0.0256 0.0139 -0.0122 0.0071 0.0013 0.0042 -0.0114 0.0379 0.0152 0.0226 -0.0091 -0.0045 -0.0451 -0.0068 -0.0047 0.0062 0.0131 -0.001 0.0173 0.0052 -0.0091 0.0053 0.0522 -0.0324 -0.0199 0.0658 -0.06 0.0009 0.0142 -0.0043 -0.0003 0.0156 0.0115 -0.0002 0.0019 -0.0529 -0.0197 0.0235 -0.0127 0.0264 -0.0104 0.0004 0.0078 -0.0151 -0.0312 -0.0036 -0.0017 0.0115 0.0252 -0.0067 0.0029
sweatshop -0.0198 0.0108 0.0202 0.0162 -0.0057 -0.0249 0.0404 -0.0413 0.0111 -0.0192 -0.0347 -0.0068 -0.0467 -0.0215 -0.0304 -0.0106 0.0517 0.0187 0.021 0.0085 0.0044 0.0243 -0.0306 0.0195 -0.0062 0.0113 0.0071 -0.0026 -0.0094 -0.0201 -0.0001 0.0041 -0.0027 0.001 0.0228 0.0264 0.0127 -0.0024 0.002 -0.0104 0.0014 -0.0458 -0.0195 0.0308 0.0193 0.0117 0.0182 0.0131 0.002 0.0032 -0.0129 0.0061 -0.0135 0.0156 -0.0108 0.0114 0.0291 -0.0417 -0.0084 -0.0181 -0.0322 -0.0162 0.0258 0.0179 0.021 0.0069 0.0289 -0.0232 0.0529 0.0057 -0.0087 0.018 -0.0141 0.0005 0.0147 -0.0213 0.0204 -0.0197 0.0018 -0.0247 0.02 0.0048 -0.0078 0.0224 -0.0183 0.0082 -0.029 -0.0113 -0.0057 -0.0064 -0.0279 0.0192 -0.0282 -0.0078 -0.0017 0.0288 0.028 -0.0106 0.0059 -0.0106 -0.0048 -0.0108 -0.0023 0.01 0.0083 -0.0273 0.0025 0.0038 -0.0172 -0.0352 -0.0212 0.0164 0.0182 0.0106 -0.0186 0.0018 -0.0293 0.013 -0.0267 -0.007 0.0022 -0.035 0.0014 -0.0061 0.0403 0.0015 0.0032 -0.0126 0.0144 0.0336 0.0214 0.0081 0.01 -0.0102 0.0172 -0.0199 0.0096 0.0116 -0.0085 -0.0064 0.0253 0.0338 0.0143 -0.0073 -0.0063 0.0104 -0.0196 -0.021 -0.0024 -0.0288 0.0051 0.0149 -0.0087 -0.0126 -0.002 0.0007 0.0086 0.0091 0.0226 0.0047 0.0186 -0.0264 -0.0287 0.0184 -0.0192 0.0039 0.0166 -0.0357 0.0129 -0.0115 -0.0195 -0.0055 -0.0145 0.0034 0.0121 0.0183 -0.0223 0.0267 0.019 0.0377 0.0093 0.0096 -0.0343 0.0032 -0.0123 0.0041 -0.0186 0.0372 -0.009 0.0091 0.0135 0.0097 -0.0015 -0.0265 0.016 -0.0144 0.0127 0.0247 0.0046 -0.0292 -0.062 0.015 0.001 -0.0254 0.0259 -0.0191 -0.0164 -0.0122 0.0337 -0.0023 0.0415 0.0036 0.0057 -0.0295 0.0078 0.0072 -0.0043 0.0176 0.0165 -0.0156 0.0013 -0.0044 0.0069 0.0311 -0.0257 -0.0099 -0.0036 0.011 -0.0215 0.0169 -0.0195 -0.0086 -0.0053 -0.0062 0.0089 -0.0083 0.0143 -0.0192 0.0543 -0.0039 0.0313 -0.0062 0.0082 0.0177 0.0041 0.0189 0.0041 0.003 -0.011 0.0128 -0.0195 -0.0389 -0.0222 0.0229 0.0093 -0.0022 -0.0089 0.003 0.0205 0.0009 -0.0118 -0.0038 0.0316 0.0048 0.0174 0.0295 -0.0226 0.0037 -0.0312 -0.0096 -0.0314 0.0249 -0.0222 -0.0042 -0.0026 -0.0133 -0.0263 -0.0024 -0.036 0.0266 0.0475 0.0352 0.0169 0.0168 -0.0238 0.0182 -0.0126 -0.0249 0.0053 0.0232 -0.0045 -0.0118 -0.0174 0.0062 -0.0438 -0.023 -0.0029 0.0179 -0.0139 -0.0197
freeloaders 0.0089 -0.0093 0.0122 -0.0073 -0.0226 -0.0019 0.0131 -0.0211 0.0006 -0.0023 0.0034 0.0055 -0.0083 -0.0215 -0.0064 -0.0104 0.0088 -0.0016 0.0204 0.0028 0.0039 0.0024 -0.0297 0.0007 0.0145 0.0104 0.016 0.0 0.0264 0.0129 -0.0033 -0.0086 -0.0213 0.0076 0.0015 0.0059 -0.0023 -0.0007 0.0049 -0.0095 -0.0049 -0.0275 -0.0076 0.0186 0.0048 -0.006 -0.007 -0.0019 -0.0084 -0.0008 -0.0175 0.0047 0.0208 -0.0222 -0.0008 0.0077 -0.0133 0.0114 -0.0225 -0.0206 0.0148 -0.0117 0.0169 0.0096 -0.0172 0.0095 0.0006 0.0168 -0.0104 0.0084 -0.0002 0.0068 0.0446 -0.0116 0.011 -0.0001 0.0032 -0.0203 -0.0113 0.003 0.0035 0.0076 0.0147 0.0549 0.0056 0.0004 0.0062 0.0096 0.0098 -0.0107 0.013 0.0043 -0.0174 0.0171 0.0008 0.0162 -0.0033 -0.0051 -0.0027 0.0032 0.0171 0.005 0.0099 -0.0218 0.0152 0.0115 0.0089 -0.0071 0.0039 -0.0088 -0.0071 0.0406 0.0333 -0.0005 0.0155 -0.006 -0.0159 -0.0042 -0.0131 0.0159 -0.0238 -0.0052 -0.0014 -0.0102 0.0394 -0.0004 0.0007 -0.0165 -0.0023 0.0181 0.0006 0.0365 -0.0005 0.0098 0.0266 -0.0094 -0.0112 0.0242 -0.0259 -0.005 -0.0082 -0.0108 0.0083 -0.0185 0.012 0.0001 0.0038 0.01 0.0009 -0.0106 0.0297 0.0513 -0.0341 0.0034 0.0215 -0.0087 -0.0047 -0.0045 -0.0072 -0.028 0.026 0.0143 0.0007 -0.0187 0.0073 0.0055 0.0188 0.0181 -0.032 -0.0015 -0.0262 0.0201 0.0103 -0.004 -0.0091 0.0225 -0.0094 -0.0024 0.0267 0.0073 -0.0081 -0.0137 -0.0054 0.0013 -0.0111 -0.0176 -0.0078 0.0333 -0.0171 0.0094 0.0201 0.008 -0.0372 0.0163 -0.0036 -0.0159 -0.0156 -0.0092 0.0005 -0.0113 -0.0376 0.0167 0.0087 0.0003 -0.0055 0.0142 -0.0058 -0.0102 -0.0105 -0.0326 0.0117 0.0063 0.0166 0.0112 -0.0043 0.0089 -0.0201 0.0226 0.0088 -0.0109 0.007 -0.0192 0.0054 0.0291 0.0231 -0.0017 0.0131 0.0153 0.0048 -0.0242 -0.0079 0.0182 -0.0304 -0.0092 0.0282 -0.0034 0.0035 -0.0014 0.0027 -0.0054 -0.0005 0.0083 0.0115 -0.0233 0.0075 0.0042 0.0141 -0.0015 -0.0135 0.0116 -0.0065 0.0011 -0.0025 -0.002 0.0013 0.013 -0.0114 0.0048 0.0119 0.0033 -0.0149 0.0176 0.0159 0.0113 0.0226 0.0176 0.0084 0.0059 -0.0008 0.0212 -0.0124 0.0196 -0.0286 -0.0243 0.0039 -0.0184 -0.0023 0.0116 0.0071 0.0051 0.009 0.0154 -0.0035 0.0077 -0.0112 0.0155 0.0032 -0.0105 0.013 -0.0025 0.0066 -0.0045 -0.0112 0.004 -0.0215 -0.0176 -0.0088 0.0076 -0.0246 0.0101
tributes -0.0067 -0.0089 0.036 0.0307 0.0379 -0.0062 0.0163 -0.0416 -0.0013 0.0079 0.0056 -0.017 -0.0119 0.027 0.0131 0.0433 0.0133 -0.0196 0.0126 0.0199 -0.01 0.0263 -0.0144 0.0143 0.0121 -0.0316 -0.0081 -0.0004 0.0182 -0.022 0.0061 -0.0251 -0.0117 -0.0027 0.0316 0.0184 0.0035 -0.0137 -0.0238 0.0067 -0.0226 -0.0127 -0.0007 0.0053 0.0283 0.0326 0.0067 -0.0214 0.0074 -0.0254 -0.0168 0.0035 0.0084 0.0146 -0.0431 0.0207 -0.0191 0.0117 -0.0243 -0.0464 0.0011 -0.0193 0.0712 0.0318 -0.0133 0.0017 0.0019 0.0058 0.0049 -0.0004 0.015 0.0311 0.0313 0.0103 -0.007 -0.0088 0.02 -0.0236 0.03 0.0182 -0.0225 -0.0235 0.0433 0.0006 0.0344 -0.0294 -0.0005 -0.0008 -0.0301 -0.0102 -0.0241 -0.0016 -0.0403 -0.0248 -0.0044 -0.0025 -0.0091 0.0239 -0.0066 0.0145 -0.0064 -0.0153 -0.0149 0.0019 0.0414 -0.0236 0.0049 -0.0446 0.0031 0.0041 -0.0141 -0.0179 0.0264 -0.0245 -0.0101 0.0117 -0.0035 -0.012 -0.0279 0.0112 0.0093 -0.0075 -0.0133 -0.0075 0.0621 0.0207 0.0035 0.0172 0.0326 0.0265 0.0053 0.023 -0.0302 0.0214 0.0176 0.011 -0.0081 0.0398 -0.0106 0.0149 0.0105 -0.0238 0.0211 -0.0226 0.01 0.011 0.0107 -0.003 0.0374 -0.0141 0.0014 0.0041 -0.0033 -0.0026 0.0135 0.0067 0.0241 0.0417 -0.0151 -0.0041 0.0218 -0.0372 0.0179 -0.0056 -0.0349 0.0134 0.0063 0.0164 -0.0136 -0.0095 0.0444 -0.0021 0.036 0.0137 -0.0047 0.0266 -0.0165 -0.013 -0.0119 -0.0055 0.0105 -0.0032 0.0184 -0.0017 -0.0003 0.0006 0.0052 0.035 -0.0019 -0.0067 0.0197 0.0093 -0.0168 0.0214 -0.0213 0.0124 0.0016 0.0016 -0.0106 0.0181 -0.0761 0.0229 0.0322 0.0061 0.0117 -0.0136 0.0048 0.0068 0.0141 -0.0172 0.0229 0.0199 0.0001 0.0265 -0.0044 -0.0058 -0.0129 0.0245 -0.0242 -0.0221 0.0117 -0.0224 0.0111 0.0337 0.0289 -0.0099 0.0025 0.0402 -0.0037 0.0123 -0.0378 -0.0098 -0.015 0.0047 0.0331 0.0136 -0.0215 -0.0003 -0.0026 -0.0063 0.0095 -0.0003 -0.012 -0.0127 -0.0449 -0.005 0.0021 0.0089 -0.0133 -0.0071 0.0478 -0.0224 0.0265 0.0389 -0.0298 -0.0045 -0.0215 -0.0073 0.0106 -0.0131 -0.0149 -0.0048 0.0007 -0.0114 0.042 -0.0139 -0.0011 -0.0046 0.0015 -0.011 0.0198 0.0327 -0.0434 -0.0186 -0.0166 0.0035 -0.009 -0.0017 -0.0075 0.0313 -0.0142 0.0249 0.009 -0.026 -0.0002 -0.0075 -0.0069 0.0391 -0.0188 0.0271 -0.0016 0.0032 -0.0031 0.0033 0.0042 -0.0159 0.0428 0.001 0.0018 0.0149
syntactical 0.008 0.0105 -0.0008 -0.0089 -0.0105 0.0121 0.0025 -0.0247 -0.0213 -0.0093 0.032 -0.0055 -0.0225 0.0115 0.009 -0.003 0.0058 0.006 0.0002 0.0135 -0.0051 0.0046 0.0211 0.0298 -0.0156 0.0153 -0.0124 0.0246 0.0107 -0.0205 -0.0025 -0.0083 0.0126 -0.0427 0.012 0.0138 0.01 0.0065 0.0028 -0.0234 -0.0138 -0.0404 -0.0071 0.0015 -0.0068 -0.0153 -0.0141 -0.0078 0.0137 0.0143 0.0057 0.0085 0.005 0.0027 0.0169 -0.0144 0.0105 -0.0052 -0.0062 -0.014 -0.0056 -0.0117 0.0162 0.0021 0.0094 -0.0041 0.0299 0.0026 0.0074 -0.0028 -0.0071 0.0117 -0.0034 -0.016 0.0095 -0.0403 0.0004 -0.0316 -0.018 -0.0072 -0.0081 -0.0071 -0.0023 0.0044 0.0128 -0.0126 0.0123 -0.0083 -0.001 0.0049 0.008 -0.0098 -0.0233 0.0195 -0.0003 0.0028 0.0049 0.0046 0.0153 0.0267 0.0232 0.0262 -0.0428 0.0273 0.0036 -0.019 0.0076 0.0003 -0.0175 -0.0161 0.0104 0.0079 0.0123 0.0017 -0.0202 0.0098 0.005 0.007 -0.0145 0.0119 0.0078 -0.0133 -0.0083 0.0035 0.0455 0.001 0.0007 -0.0081 -0.0153 0.0255 0.0002 -0.0122 -0.0138 -0.0109 -0.0009 0.0032 0.0087 0.0277 0.0019 -0.0055 -0.0006 0.0 -0.0022 0.014 -0.0038 -0.0165 0.0201 0.0102 -0.0215 0.0033 0.0018 0.0558 0.0076 -0.0093 0.0096 -0.0045 0.0045 -0.0069 -0.0001 0.0143 0.0124 0.0066 -0.0271 -0.0252 0.0061 0.0004 -0.0004 -0.0004 -0.0073 0.0043 0.005 -0.0171 -0.0022 0.0174 -0.0087 0.0161 0.0014 0.016 -0.0114 0.0066 -0.0017 0.0033 -0.0051 -0.0021 0.0171 -0.0217 0.0022 0.0327 0.0175 0.0087 0.0129 0.0217 0.0199 -0.0145 -0.0107 -0.0027 -0.0039 0.0155 -0.0237 -0.0024 -0.0349 0.0001 -0.0035 0.0029 -0.0017 -0.0034 0.0076 -0.0114 -0.0072 0.0059 0.0345 0.0169 0.008 -0.0197 0.0184 0.0096 -0.0085 0.0199 -0.0215 -0.0054 -0.013 0.0027 -0.0071 0.0231 0.0241 -0.018 0.0083 0.0257 -0.0039 -0.0068 -0.0126 -0.0219 0.0031 -0.0061 -0.0083 -0.0073 0.0115 -0.0335 0.0142 0.0028 0.0128 -0.014 -0.0026 0.0087 -0.0628 -0.0048 -0.0169 -0.0037 -0.0002 0.0061 -0.0242 0.0071 0.0106 0.0112 -0.0082 -0.0005 0.0076 0.0157 0.0078 0.0039 -0.0019 0.0011 0.0087 -0.0009 0.0115 -0.0025 -0.0115 0.0159 -0.0039 -0.0099 0.0034 0.0137 -0.0168 -0.0213 0.0202 -0.0388 -0.0018 -0.0084 0.0186 0.0044 0.0484 0.0005 0.0044 -0.0145 0.0092 -0.0051 -0.0051 -0.0003 0.0093 0.0007 0.0009 -0.0064 -0.0059 -0.0205 0.0137 -0.0025 -0.0022 -0.0022 0.0008 0.0109
prescriptions -0.0031 0.0009 -0.0038 -0.0106 0.0181 -0.0176 -0.0045 -0.0231 -0.0107 0.0068 -0.009 -0.0119 0.0153 -0.0039 0.0133 -0.0053 0.002 0.0002 0.0123 0.0024 -0.0167 0.0192 0.0112 0.0074 0.0009 -0.0164 0.0025 0.0136 0.0232 -0.0015 0.0062 0.0007 -0.0063 -0.0199 0.01 0.0096 -0.011 0.0173 0.0063 -0.0185 -0.0009 -0.0204 -0.0123 0.0029 0.0063 -0.002 -0.007 0.0029 0.0078 -0.0001 -0.0149 -0.0173 0.0016 -0.0026 -0.0159 0.0131 -0.0128 0.0192 -0.0103 -0.0113 0.0093 0.0138 0.0402 0.0118 -0.0071 -0.0002 0.0101 -0.0003 -0.0023 -0.0059 0.0002 0.0066 0.0077 -0.0068 -0.005 -0.0043 0.007 -0.013 -0.0229 -0.0081 0.0036 -0.0161 0.0003 0.0162 -0.0115 -0.0071 0.0247 0.0018 -0.0013 -0.015 0.0156 -0.0083 -0.017 0.0069 -0.0156 0.0061 0.0141 -0.0118 0.0124 0.0009 0.0056 0.0012 -0.0047 -0.0111 0.0112 -0.0126 0.0186 -0.0077 -0.0054 -0.0008 0.0159 0.0091 0.0132 -0.0065 -0.0057 0.0056 -0.0054 -0.0011 -0.0175 0.0116 0.0019 0.0143 -0.0017 -0.0228 0.0163 -0.0139 -0.0075 0.0031 0.0175 0.0285 -0.006 0.0151 0.0061 0.019 0.0069 0.0074 -0.0003 0.0187 0.0024 -0.0183 0.0345 -0.0035 -0.0127 0.0233 -0.009 -0.0155 0.0097 0.0208 0.02 -0.0041 -0.0032 0.0204 0.0106 -0.0012 0.0179 0.008 -0.0193 -0.0076 0.012 -0.0059 0.013 0.017 0.0053 0.013 -0.0001 -0.0127 0.0075 -0.0189 -0.0109 -0.0095 -0.0122 -0.0111 0.0035 -0.0039 -0.0218 0.0034 -0.0201 -0.0047 -0.0003 -0.0043 0.0066 -0.0031 -0.017 -0.0015 0.0019 -0.0004 0.0165 0.0172 -0.0111 -0.0165 0.0065 0.019 -0.0161 -0.0062 -0.0132 -0.0088 -0.008 -0.0021 -0.0012 0.003 -0.0359 0.0117 -0.0033 0.0049 0.0097 -0.0002 0.0265 0.0032 -0.0014 -0.0001 0.028 0.008 0.0049 0.0313 0.0015 -0.0167 -0.0002 -0.0071 -0.0185 -0.0119 0.0014 0.0119 -0.0097 0.0242 0.0279 -0.006 0.004 0.0031 0.0018 -0.0043 -0.0044 -0.0085 -0.0188 -0.0039 0.0112 0.0124 0.0038 -0.0265 0.0115 0.0146 0.0057 0.0136 -0.002 -0.0073 -0.0105 -0.0064 -0.0105 -0.01 -0.0064 0.0119 0.0124 -0.001 0.0042 0.0126 -0.0108 0.0019 0.0075 -0.001 0.0047 -0.0007 -0.0004 -0.0006 -0.0068 -0.0123 0.0137 -0.0021 0.0024 0.0052 0.0042 0.0052 -0.0108 0.0151 -0.0258 -0.0126 -0.0047 -0.0057 -0.0175 0.0011 -0.0051 0.0008 0.0114 0.0047 -0.0164 0.0085 0.0059 0.0162 -0.0197 0.024 -0.0001 -0.0074 -0.0035 -0.0042 0.0118 -0.0007 -0.0109 0.0006 -0.0027 -0.0044 -0.004 -0.0128
striptease -0.0114 -0.0055 0.0071 0.0097 0.0042 -0.0108 0.028 -0.0326 0.0087 -0.0159 0.0144 -0.0184 -0.0087 -0.0106 -0.0358 -0.003 0.0187 -0.0089 0.0124 0.0043 0.0247 -0.0359 -0.0082 0.0125 0.0031 0.009 0.011 0.0182 -0.0234 -0.0194 -0.0045 -0.0112 -0.0057 -0.0237 0.0218 0.0045 0.0093 0.009 -0.0136 0.0145 0.0316 -0.0532 -0.0075 0.006 0.0007 -0.0024 0.0363 -0.0107 -0.0191 -0.01 -0.017 0.0077 0.0139 -0.0034 -0.0245 -0.032 -0.0096 -0.0191 -0.0214 0.0099 -0.0116 0.0003 0.0259 -0.0063 -0.0083 0.014 0.0196 0.0096 0.0204 -0.0 0.0047 0.0084 0.0038 -0.0005 0.0054 0.0093 0.0036 -0.0168 -0.0029 0.0017 -0.0183 -0.0077 -0.0235 0.0054 -0.0243 0.0078 -0.0152 0.001 0.0264 0.0211 -0.0237 0.0022 -0.0321 0.0013 0.0259 0.0279 -0.0066 0.0163 0.0063 0.0155 -0.0026 0.0203 -0.028 0.0092 -0.0065 -0.0198 0.0128 -0.0125 -0.0089 0.005 -0.0071 0.0083 0.0232 -0.0001 0.0242 -0.0139 -0.0003 0.0176 -0.0229 0.0066 -0.0003 0.0039 0.0089 0.0084 0.0318 0.0013 0.0129 -0.0128 -0.0105 0.0233 0.0047 0.0043 -0.0092 -0.0139 0.0032 -0.0189 -0.0137 0.0145 0.018 -0.0037 0.0074 0.0076 0.0086 -0.0071 -0.0055 -0.0141 -0.018 -0.018 0.016 -0.01 0.0065 0.0326 -0.0186 0.0073 -0.0186 0.0169 -0.0186 0.0164 -0.0094 0.0104 0.0095 0.0251 -0.019 0.0125 -0.0052 0.0445 0.0067 0.0087 0.0034 0.002 0.0097 -0.007 -0.0003 0.0154 0.0127 0.0166 -0.0248 0.0185 -0.0028 -0.006 0.0208 -0.0014 -0.0065 -0.0126 -0.0158 -0.0166 -0.0107 0.0294 -0.0006 0.0081 0.0073 0.0169 -0.0084 -0.0212 0.0179 -0.0021 0.0127 -0.0227 0.002 0.0061 -0.0549 0.0303 -0.0028 -0.0046 0.026 0.0104 0.0047 0.0051 0.0012 -0.0012 0.0386 -0.003 0.0224 -0.0095 0.0179 0.0024 -0.0115 0.0201 0.0006 0.008 0.0068 -0.0275 -0.0088 0.046 0.0065 -0.0009 0.0202 0.0282 -0.0255 0.0247 0.0022 -0.0131 -0.0082 -0.0216 -0.0122 -0.0093 0.017 -0.0199 -0.0063 0.0022 0.0221 -0.0219 -0.0347 -0.0015 -0.0207 0.0131 -0.0272 0.009 -0.0205 0.0025 0.0131 -0.0035 -0.0045 -0.0094 0.0 0.0381 -0.014 0.0121 0.0199 -0.0031 0.029 0.0156 0.0168 -0.0125 -0.0067 -0.0063 0.0006 -0.006 -0.0034 -0.0211 0.0109 0.0249 -0.0366 -0.0125 -0.0222 -0.0203 0.0002 -0.0174 0.025 -0.0106 0.0286 0.0182 0.0008 0.0088 -0.0125 0.0123 -0.0032 0.0222 0.0015 -0.0053 0.0133 -0.0056 -0.0064 -0.009 -0.0155 0.0088 0.0054 0.0148 0.0037 0.0019
innovators -0.015 -0.0346 -0.0034 0.0199 -0.0326 0.0031 0.0021 -0.0233 0.0175 0.0022 0.0154 0.007 0.0153 -0.0235 0.0126 0.0237 0.0185 0.0164 0.0227 0.0069 0.0003 0.0276 0.0009 0.0225 -0.009 -0.0029 0.0019 -0.0135 0.0326 -0.0002 0.0025 -0.0231 -0.0101 0.0046 -0.0027 0.0159 0.0107 -0.0085 -0.0013 0.0104 -0.0223 -0.0407 -0.0186 -0.006 -0.002 -0.004 0.0045 0.0152 -0.0174 -0.0307 0.0028 0.0059 -0.0116 0.012 -0.0131 0.0215 -0.0031 0.0178 -0.0012 0.0078 0.0115 0.0006 0.0131 0.0031 0.0266 0.0191 -0.008 -0.0024 0.008 -0.0128 0.0084 -0.0048 0.0297 0.0108 0.0047 0.0145 -0.0059 -0.0297 0.0049 -0.0026 -0.0052 0.0248 0.0145 0.018 -0.0007 -0.0146 -0.0029 -0.0019 0.0116 -0.0006 0.016 0.0021 -0.0234 -0.0024 0.0086 0.0206 0.0192 -0.0293 -0.0196 0.0066 0.0158 -0.0351 0.032 -0.0072 0.0114 -0.0059 0.0091 0.0179 0.0048 0.0106 0.0054 0.0377 0.0111 0.0113 -0.0138 -0.0025 -0.0288 0.009 -0.0098 0.0116 -0.0169 -0.0295 -0.0067 -0.0129 0.0388 0.0 -0.0177 -0.0081 0.0155 0.027 0.0033 0.0465 -0.0257 -0.0012 0.0278 -0.0042 0.0042 0.0059 -0.0187 0.0043 0.0241 -0.0078 0.0087 -0.0054 -0.0023 0.0008 0.0024 0.0103 0.0013 -0.0146 0.0328 0.0293 0.0043 0.0006 0.0336 -0.0088 0.0294 0.014 -0.0045 -0.0058 0.014 0.0137 0.0132 -0.0006 0.027 0.0064 -0.0064 -0.0008 0.0085 -0.0173 0.0115 0.0338 0.001 0.0023 0.0082 0.0162 -0.013 0.0139 -0.0261 -0.0012 0.0174 -0.0077 -0.0033 -0.0205 -0.0233 -0.0255 -0.026 0.0387 -0.0163 0.0056 -0.0158 0.0278 -0.0261 -0.0118 -0.0135 -0.0022 0.0064 0.0051 0.0198 -0.016 -0.0416 0.022 -0.0072 0.0065 0.0144 -0.0116 0.0061 0.0095 -0.0191 -0.0278 0.007 -0.0023 0.0312 0.018 -0.0193 0.0088 -0.0034 -0.0022 -0.012 -0.0202 -0.0015 -0.0196 0.0146 0.0258 0.0115 0.009 0.0224 0.0189 0.0019 -0.0073 0.0045 0.0113 -0.0199 -0.0017 0.0248 0.0036 0.0007 -0.0143 0.0039 0.017 -0.0011 -0.001 0.0004 0.0036 0.0152 -0.0195 -0.0139 -0.0081 0.0114 -0.0179 0.0093 0.0132 0.001 -0.0138 -0.0047 0.0207 -0.0129 0.0181 -0.0014 0.011 0.0077 0.0073 0.0252 0.011 0.0047 0.0172 0.0183 -0.0 -0.0001 -0.0005 0.0053 0.0254 -0.0389 -0.0094 0.0085 -0.0101 0.0172 0.0205 -0.0085 0.0 0.015 -0.0093 -0.0105 -0.0067 0.0014 -0.027 -0.0223 -0.0297 0.0158 0.0086 -0.0116 -0.0093 -0.0257 0.0015 -0.0033 -0.012 0.0051 0.0285 0.0061 -0.0099
fussy -0.0068 -0.029 -0.0211 -0.0127 -0.0193 0.0329 -0.0368 -0.0396 -0.0069 0.0198 -0.0047 0.0003 0.0122 -0.0154 -0.0328 0.0272 0.039 0.0421 0.0322 -0.0036 0.0062 0.0031 0.0187 0.0483 0.0152 0.0057 0.0549 0.0382 0.0634 -0.0292 -0.0082 -0.0383 -0.0038 -0.0254 0.0076 0.0032 -0.006 0.0242 0.0184 -0.02 -0.0221 -0.0967 -0.0275 -0.0161 -0.0336 -0.0041 0.0161 -0.0074 0.0121 -0.0184 0.0103 0.0044 0.0079 -0.0105 0.0208 -0.0111 0.0061 -0.0284 -0.0193 -0.0071 0.0299 -0.0077 0.0214 0.0004 -0.0038 0.0293 -0.0213 -0.0222 -0.0174 -0.0814 0.0152 0.0006 0.0266 -0.0722 -0.0067 -0.0113 -0.0104 -0.0263 -0.015 0.0078 -0.0254 -0.0186 0.018 0.0279 0.0046 -0.0219 0.0173 0.0275 -0.0108 0.0048 0.0051 -0.0445 -0.059 -0.0267 0.0321 0.0129 -0.0224 0.0186 0.0106 -0.0001 0.0127 0.0579 -0.0289 0.021 0.0049 -0.0572 0.0023 -0.0241 0.0154 0.0059 0.0488 0.0286 -0.0032 0.0112 -0.0208 -0.0269 -0.009 0.0432 -0.0289 -0.0335 0.0284 -0.0073 0.0007 -0.0027 0.0766 -0.0171 0.0173 0.0303 -0.0088 0.0233 -0.0497 0.0549 -0.0202 -0.0267 -0.024 -0.058 -0.0139 0.067 0.0061 -0.0142 0.0385 0.0036 0.0039 0.0254 -0.0127 0.0047 0.0013 0.0254 -0.0164 -0.0225 -0.0161 0.0178 -0.0058 0.0153 -0.0018 -0.0108 0.0009 0.0221 0.0299 -0.0384 0.0148 -0.0169 -0.0159 -0.0082 0.0067 -0.017 0.0003 -0.0234 -0.0017 0.0256 -0.0573 0.0014 -0.0237 -0.0028 0.0291 0.0364 -0.0369 0.0332 0.0044 -0.0329 -0.0338 -0.0095 0.0053 -0.0212 0.0002 -0.0863 0.0189 0.0814 -0.0233 -0.043 0.0194 0.0338 -0.0121 -0.0456 0.011 -0.0011 0.0244 0.021 0.0073 0.009 -0.0647 0.0123 0.0168 -0.0457 0.0043 0.0255 -0.0695 -0.0194 -0.0202 -0.0413 -0.0092 0.016 0.007 0.038 0.0568 -0.017 -0.014 -0.0006 -0.0755 -0.0075 0.0267 0.0468 0.0182 0.0348 0.0051 0.0021 0.0468 0.0681 0.0058 -0.017 -0.0079 -0.01 -0.0276 0.0027 0.0521 -0.0029 0.0362 -0.0108 0.0529 -0.0231 0.0973 -0.0246 -0.0464 0.0063 -0.0447 0.012 -0.0068 -0.0114 -0.0194 -0.0474 -0.0356 -0.0159 -0.052 0.0361 0.0255 0.0063 0.0206 -0.025 0.0049 0.0246 0.0148 -0.0165 0.0226 0.0052 0.0005 0.0134 -0.0488 0.0152 -0.0146 -0.0248 0.0039 0.0449 -0.0535 0.0039 0.0724 -0.0736 -0.0009 -0.0042 0.0491 -0.0473 0.0511 0.0133 0.0268 -0.0021 -0.03 0.0298 -0.044 -0.0282 0.039 0.0015 -0.0313 -0.0032 -0.0062 -0.02 -0.0017 -0.0256 -0.0147 0.0611 -0.0363 0.0129
firming -0.0043 0.0155 -0.0304 -0.0146 -0.0057 0.0196 -0.0088 -0.0317 -0.0078 -0.0039 -0.0187 -0.0257 -0.0087 0.0183 0.0029 -0.0131 0.015 0.0068 0.0251 -0.007 0.0239 0.0159 0.0109 0.0295 0.0288 -0.009 0.0147 0.0154 0.0323 0.0059 -0.001 0.0112 -0.0127 -0.033 -0.0141 0.0186 -0.0209 0.0024 -0.0014 0.0099 0.0129 -0.0354 -0.0358 -0.0053 -0.0122 -0.0223 -0.0145 0.0271 -0.0342 -0.033 0.0028 0.0012 -0.0171 0.0108 -0.0146 -0.0132 0.0041 0.0024 -0.0021 0.0061 -0.0041 0.0282 0.0029 0.0037 0.0131 -0.0192 0.0111 -0.0094 -0.0169 -0.0286 -0.0134 0.0056 0.0019 -0.0022 -0.0183 0.0027 -0.0159 -0.0547 -0.0477 -0.0267 0.0056 -0.0338 -0.0043 0.0106 0.0008 0.0091 0.0062 -0.0217 -0.0028 -0.0003 0.0166 0.0111 -0.032 0.0197 0.0098 0.0133 -0.025 -0.0121 0.0026 -0.0205 0.0081 -0.0038 -0.0092 0.0126 -0.0115 -0.0231 0.0046 -0.017 0.0103 0.0027 -0.0048 0.0404 0.0287 -0.0029 0.017 -0.0357 -0.0007 -0.0115 -0.0219 0.0128 -0.0008 0.005 0.0124 0.0135 0.004 0.0193 -0.0108 -0.0355 0.0006 0.0362 0.0562 0.0291 -0.0116 0.0138 -0.0299 0.02 -0.0213 0.0152 0.0083 0.0223 0.014 0.0319 -0.0064 -0.0054 -0.0023 0.0038 0.0161 -0.0085 0.0125 0.0118 0.0035 0.0245 0.0335 -0.0112 -0.0132 0.0128 0.0074 -0.0267 -0.0019 0.0578 0.0286 -0.0148 -0.016 0.0002 -0.0035 -0.0192 -0.0199 -0.0292 -0.0064 0.0077 -0.0001 -0.0033 -0.0303 0.0028 -0.0022 0.0243 -0.0167 -0.0065 -0.0149 0.0048 -0.0478 0.0055 0.0163 -0.0262 0.017 -0.0363 0.0278 0.0541 -0.0027 0.0215 -0.0173 0.0038 -0.0144 -0.0319 0.0159 0.0042 -0.0047 -0.0295 0.0067 -0.0096 -0.0722 -0.0053 0.0032 0.0427 0.0034 -0.0106 0.0256 0.0058 0.0286 -0.0238 0.0179 0.0132 -0.0007 -0.0239 -0.0368 0.0116 0.0229 0.0023 -0.0091 -0.0244 -0.0001 -0.0017 0.012 0.0305 0.0089 0.0132 -0.0253 0.0042 -0.0111 -0.0313 0.0197 -0.0083 -0.0348 -0.0258 -0.0055 -0.0045 -0.0125 0.0019 -0.0035 -0.0129 0.0273 0.0237 -0.0091 -0.0127 -0.0339 -0.0003 -0.0311 0.0055 -0.005 -0.0348 0.0255 -0.0475 -0.0026 0.0108 0.021 -0.0022 0.0006 0.0104 0.0018 -0.0118 0.0097 0.0216 0.0031 0.0301 0.0053 0.0088 0.018 0.0125 -0.001 0.0241 0.0006 0.022 -0.0491 -0.0165 0.0208 -0.0211 0.0143 -0.0067 -0.014 0.0007 0.0419 0.0182 0.013 0.0262 0.0202 -0.0054 0.0181 0.0009 0.0005 0.0322 0.0084 -0.0145 0.0042 0.0139 -0.0141 -0.0039 0.0044 -0.0096 -0.0092 -0.0112
simplistically 0.0065 0.005 -0.0033 0.008 0.0012 0.0062 -0.0067 -0.021 0.0032 0.0052 -0.0024 -0.013 0.0093 0.0021 -0.0025 0.0052 0.0144 0.0067 0.0054 0.0038 0.008 0.0099 0.0074 0.0204 -0.0173 -0.0075 0.0025 0.0011 0.0211 0.0048 -0.0007 -0.0079 -0.0011 -0.0072 -0.0061 -0.0016 -0.0042 -0.0097 0.0022 -0.0054 -0.0046 -0.0352 0.0014 0.0073 -0.0043 -0.0014 -0.0024 -0.0105 0.0 -0.0129 0.0057 0.011 0.005 -0.0053 -0.0275 0.0124 0.0032 -0.0009 -0.0063 -0.0026 -0.0009 -0.0064 0.0001 -0.0194 0.0005 0.0003 0.0083 0.012 0.0163 0.0038 -0.0023 -0.0079 -0.0033 -0.0134 -0.0105 -0.0044 -0.005 -0.0088 0.0034 0.0054 0.0119 -0.0141 -0.008 0.0183 -0.0019 0.0022 -0.0035 0.009 -0.0024 -0.0048 0.0032 -0.0066 -0.0074 -0.0029 0.0029 -0.0111 -0.0056 -0.0206 -0.0001 -0.0027 0.0039 -0.0146 -0.0127 0.0005 -0.0139 -0.0232 0.0012 0.01 0.0012 -0.0107 -0.0096 0.0324 0.0002 -0.0141 -0.0044 -0.0011 -0.0056 -0.0053 0.0018 0.0051 -0.0098 -0.0177 0.0042 -0.0025 0.0119 0.0005 -0.0061 -0.0079 0.006 0.0099 -0.0083 0.0201 0.0114 0.0096 -0.0026 -0.0038 0.0091 -0.0041 0.0075 0.0036 0.0008 -0.0164 0.0051 0.0167 0.0006 -0.0149 0.0002 -0.0061 0.0019 0.0057 0.0175 0.0169 -0.0112 -0.0061 -0.0092 0.0006 -0.0056 -0.0085 0.0017 0.0031 0.0169 -0.0033 0.0022 -0.007 0.0057 0.005 0.0072 0.0109 -0.0003 -0.0026 -0.0003 -0.0008 0.0026 0.0024 -0.0071 0.004 -0.015 -0.0049 0.0053 0.0031 -0.0039 -0.0022 0.0082 0.0041 0.0125 0.0138 0.0011 0.019 -0.0043 -0.0052 0.0125 0.0207 -0.025 -0.0069 0.001 -0.001 0.0014 0.0009 -0.0129 0.0124 -0.0271 0.0047 0.019 -0.0149 0.0068 0.014 -0.0055 -0.0079 0.0018 -0.0515 -0.0178 0.0018 0.0256 -0.0034 0.0145 0.0102 0.0065 0.0034 -0.0312 0.0014 -0.0046 0.0061 -0.0017 0.0187 0.0035 -0.0095 0.0094 0.0165 0.0204 0.0104 0.0106 -0.0113 0.0042 0.0014 0.0012 -0.0016 0.0032 -0.0048 -0.0026 -0.0054 0.0339 0.0137 -0.0048 0.0113 -0.0079 0.0013 -0.0111 0.0059 0.0057 -0.0247 -0.0084 0.0063 -0.0007 0.0035 0.0125 0.0065 -0.0094 -0.0011 0.0126 -0.0002 -0.0063 -0.0034 -0.0023 0.02 0.0 -0.006 -0.0064 -0.0236 0.0071 0.0037 -0.0165 0.0154 -0.0116 -0.0012 0.0167 -0.0258 0.0045 0.0069 -0.0001 0.0037 -0.0022 0.0058 -0.012 0.0071 -0.0008 -0.0005 0.0 -0.0045 -0.0025 0.0034 -0.0012 -0.0032 0.0249 0.0013 0.0078 -0.0101 0.0146 0.0042 0.0107 0.0046
daylight 0.003 -0.0076 -0.0054 -0.0172 -0.012 -0.0044 0.0316 -0.0343 0.0336 0.0077 -0.0159 -0.0068 0.009 -0.0055 -0.0074 -0.0117 0.0168 -0.022 0.0081 0.0076 0.012 -0.0129 0.0058 0.0114 -0.0169 -0.0017 0.0049 0.0042 0.0149 0.0279 0.0086 -0.0033 -0.0213 -0.0377 0.0192 0.0083 0.0101 0.0201 -0.0204 -0.0014 0.0092 -0.0273 0.007 -0.0123 -0.0073 -0.014 0.011 -0.0004 -0.0043 0.0246 0.0172 0.0277 -0.022 0.0156 -0.0308 0.0012 0.0201 -0.0234 -0.0195 -0.0244 -0.0048 0.0138 0.0315 -0.0266 -0.0137 0.0242 -0.0378 -0.039 -0.0114 0.0362 0.0183 0.036 -0.0075 0.031 -0.0191 0.0031 0.0154 -0.013 -0.0138 0.0335 -0.003 -0.0072 0.0172 0.0089 0.0282 0.0166 0.0358 0.0092 0.0053 -0.0161 -0.0245 -0.0051 -0.0281 0.0007 0.0173 0.005 -0.0045 0.0306 -0.0103 -0.0239 0.0194 -0.0062 0.0239 0.033 0.0049 -0.0082 -0.0037 0.0208 0.0078 0.0039 -0.0036 0.0195 0.011 -0.0036 -0.0157 -0.0278 -0.0176 0.0265 -0.0127 -0.0141 0.0006 -0.0022 -0.0159 0.0094 -0.0038 0.0021 0.012 -0.0321 0.0124 0.0246 0.0086 0.0085 0.0282 0.0289 -0.0121 -0.0329 0.0199 -0.0031 0.0122 0.0175 0.0135 -0.0062 -0.0221 0.028 0.0068 0.0028 0.0005 -0.0321 0.006 -0.0275 0.0099 0.0197 -0.013 -0.0185 0.0089 0.0043 -0.0147 -0.0098 -0.0047 0.0199 0.0142 -0.0091 -0.0076 0.0095 -0.0034 0.0028 0.0011 -0.0421 -0.0009 0.0205 -0.0112 -0.0301 0.0024 0.0327 0.0254 0.0242 0.001 -0.0019 -0.0082 -0.0116 -0.0087 0.0267 -0.0237 -0.0197 -0.0366 -0.0139 0.0024 0.0411 0.0122 0.0106 0.0317 -0.0056 -0.0017 -0.0121 0.0086 -0.0243 -0.0057 0.0029 -0.0033 0.0086 -0.0567 0.0288 -0.0182 -0.0034 0.0234 0.0166 0.0014 0.0054 -0.0194 -0.0165 0.0256 -0.0142 -0.0079 -0.0102 0.0368 -0.0126 -0.007 -0.0104 0.004 -0.0377 0.0008 0.0216 -0.0244 0.03 0.0096 -0.0029 0.01 0.0204 0.029 0.0036 0.0009 -0.0442 -0.0122 -0.0019 0.0106 -0.0272 0.0094 0.0145 -0.008 -0.0229 0.0261 0.0093 -0.0085 -0.0045 -0.0295 0.0068 -0.0146 -0.0256 0.0243 -0.0237 0.0221 -0.0179 -0.0166 0.0059 0.0074 -0.0067 0.0364 0.0154 0.0018 0.0228 0.002 0.0091 -0.0079 -0.0215 -0.002 -0.0135 -0.003 0.0014 0.0045 0.0151 -0.0107 0.0299 -0.0363 -0.0104 -0.0065 -0.031 0.0149 0.0012 0.0107 -0.0059 0.0289 -0.0105 0.0097 0.0039 -0.0069 0.0099 -0.0091 0.0271 0.0211 0.0176 0.0137 -0.0013 0.0053 -0.0226 0.0109 0.0069 -0.0108 0.0004 -0.0073 0.0146
weren -0.0076 -0.0381 0.0025 0.0142 -0.0146 0.0491 -0.0132 -0.0277 0.0212 0.0035 -0.0288 -0.0324 -0.0143 -0.0208 -0.0114 0.0206 0.0823 0.0138 0.0162 0.0208 -0.0079 -0.0104 0.0082 -0.0041 -0.016 0.0092 0.0354 -0.008 0.0928 0.0115 -0.0246 -0.0224 0.0031 -0.0179 0.0035 -0.0112 -0.0053 -0.0116 -0.0242 -0.0215 -0.0405 -0.0531 -0.0034 0.007 0.01 -0.0555 0.0243 0.0009 0.0401 -0.0057 0.0236 -0.0424 -0.0057 0.0146 -0.0324 0.0134 -0.0351 -0.0265 -0.0221 0.0133 0.0084 -0.0114 0.0439 -0.0139 -0.0002 0.032 0.0147 -0.0306 0.0042 0.0079 -0.0043 0.0247 -0.0277 0.0066 0.0032 0.0128 -0.0051 0.0359 -0.0196 -0.0165 0.0176 0.0316 0.0557 0.0424 0.0064 0.0027 0.0065 -0.0165 -0.0044 -0.0319 -0.0465 0.0446 -0.0507 -0.0389 0.0137 -0.0074 0.0019 0.0235 -0.0175 0.0123 0.0138 -0.0003 -0.0059 0.0283 0.0286 -0.0268 0.0188 0.0031 0.0287 0.0112 -0.0013 0.0305 0.0026 -0.0336 0.0126 0.0348 -0.0041 -0.0152 -0.0133 -0.0174 -0.0058 0.0058 -0.0137 0.0325 0.0625 0.0057 -0.0106 0.083 -0.0183 -0.0125 -0.0346 -0.0067 -0.0075 -0.0002 -0.0107 0.001 -0.0098 -0.0067 -0.0347 -0.0065 0.0217 0.0111 -0.0291 -0.0243 0.0689 -0.0254 0.0 0.0334 0.0037 -0.012 -0.0204 0.0263 -0.0138 -0.0208 0.0349 -0.0163 0.0213 -0.0291 -0.0034 -0.0512 0.0141 0.0147 0.023 -0.0072 0.0167 -0.008 -0.0117 0.0111 0.0184 -0.0052 0.0135 -0.0175 0.0016 0.0423 0.0127 0.0359 -0.0352 0.0234 0.0453 -0.0257 0.0735 0.0333 0.006 -0.0388 0.0243 -0.0114 0.0068 0.073 -0.0083 0.0058 -0.0003 0.0972 -0.0704 0.0071 0.0321 0.0099 -0.0087 0.0031 -0.0204 0.0228 -0.0624 0.0501 -0.0141 0.0291 -0.0005 0.0082 0.0118 -0.0213 0.0173 -0.1448 0.0239 0.0087 0.0423 -0.0096 0.0118 -0.007 -0.0292 -0.0052 -0.0312 -0.0206 0.0224 0.0047 -0.0109 0.0523 -0.0359 -0.0002 0.0021 0.0387 0.0094 -0.0768 -0.002 0.0206 -0.0729 0.0155 -0.034 0.0099 0.0133 -0.0047 -0.0194 0.04 0.0729 0.0109 0.0152 0.0269 -0.0698 0.0058 -0.0083 -0.0152 -0.0024 -0.0336 -0.0244 -0.0181 0.0135 0.0146 0.0236 0.0073 0.0114 -0.0425 0.0302 0.021 0.0023 -0.0116 0.0128 -0.0007 0.0365 0.0111 0.0066 0.0151 -0.0218 0.0354 0.0204 0.0272 -0.072 0.0013 0.0258 -0.0976 -0.0396 0.0426 -0.0009 0.0229 -0.1216 0.0032 0.0259 0.0643 -0.0313 -0.008 0.039 -0.0371 -0.0223 0.0237 0.0023 0.0026 -0.0358 0.0332 0.0324 0.0077 -0.0067 0.0055 -0.0164 -0.0293
matters 0.0018 -0.0325 0.0199 -0.0098 -0.0025 -0.0043 -0.0046 -0.0332 0.0123 0.0133 -0.0188 -0.034 -0.0004 -0.0029 0.0091 0.0052 0.0493 0.0101 0.0287 0.0251 -0.0073 0.0151 0.063 0.0381 -0.0085 0.0202 -0.005 -0.0103 0.045 -0.0232 0.0105 -0.0031 -0.0175 -0.02 0.0184 -0.0145 -0.0202 0.0151 -0.0118 0.0023 -0.0061 -0.038 -0.0076 0.0152 -0.0075 -0.0358 -0.0036 -0.0116 -0.0064 -0.0072 -0.0058 -0.0035 0.0179 0.0204 -0.0205 0.0264 -0.0317 0.0006 -0.0185 -0.0184 0.0085 0.0043 0.0403 -0.0055 0.018 -0.0084 -0.0048 -0.0104 -0.0002 -0.0003 0.0157 -0.0125 -0.0022 -0.0058 -0.0118 0.0047 0.0072 -0.0098 0.0176 -0.004 -0.0207 0.0179 -0.0149 0.0267 -0.0211 0.0043 0.0188 -0.0059 0.0267 -0.018 0.0365 -0.0082 -0.029 0.0193 -0.0131 -0.013 -0.0091 0.0006 -0.0132 0.0005 -0.0044 0.0143 -0.0003 0.0004 0.0178 -0.0145 0.0106 -0.0006 0.0179 -0.0061 -0.0122 0.0371 0.0292 -0.0075 -0.006 -0.0012 0.0016 -0.0075 -0.0251 -0.0048 0.0136 0.0044 -0.0045 0.0021 0.0553 -0.0045 -0.0244 -0.0547 -0.0049 0.0384 -0.0036 0.0171 0.0033 0.0192 -0.0214 -0.0136 -0.002 0.0151 -0.0166 0.0097 0.0231 -0.0023 0.0003 0.018 -0.0135 -0.0034 0.0068 -0.0108 -0.0244 -0.0119 0.0159 0.0314 0.0065 -0.0405 -0.0131 0.0225 -0.0016 -0.0127 -0.0137 0.0029 0.0195 0.0045 -0.0135 0.0001 0.0046 0.0203 0.0043 0.0032 -0.0182 -0.0019 -0.0018 0.0053 0.0062 0.0043 -0.0003 0.0265 -0.0059 0.0298 -0.0062 -0.0039 0.0024 0.0016 0.0074 0.0028 0.0071 -0.018 0.0026 0.046 0.0446 0.002 -0.0099 0.019 -0.0394 -0.0228 0.0042 0.0031 0.0114 0.0039 -0.0083 0.0137 -0.0508 0.0146 0.0088 -0.0118 -0.0165 -0.0053 -0.0206 -0.0078 0.0079 -0.0198 0.0063 -0.0108 -0.0131 -0.002 0.0315 -0.0178 0.0194 -0.0166 -0.055 -0.0183 -0.0018 -0.0088 -0.0072 0.0369 0.0068 -0.0003 0.0191 0.0395 -0.0125 0.0027 -0.0099 -0.0238 -0.0463 0.0096 0.0187 0.0032 -0.0195 0.0003 0.0178 -0.0313 -0.0209 -0.01 -0.0177 -0.0003 -0.0112 0.0075 -0.0054 -0.0027 -0.002 -0.0023 0.0046 0.0113 0.0016 0.0078 -0.0005 -0.0162 -0.004 0.0322 0.0044 -0.0107 -0.0217 -0.0155 -0.0088 -0.0322 0.0015 0.0114 -0.0026 0.0153 -0.0184 0.0026 -0.0107 0.0425 -0.0444 -0.0123 0.0362 -0.0215 0.0023 0.0107 -0.0121 -0.024 0.0113 0.0099 0.0137 -0.0197 0.016 0.0174 0.0304 0.0139 -0.0222 0.023 0.0029 -0.0099 -0.0244 -0.002 -0.0012 -0.0099 -0.0189 0.0161 0.0125 0.014
hypocrite -0.0029 -0.0101 0.0055 -0.0048 -0.0252 -0.0296 0.0076 -0.0316 -0.0159 0.0001 -0.0084 0.0242 -0.0051 -0.0165 -0.0056 -0.0208 0.0113 -0.0202 0.0037 -0.01 -0.0035 0.0102 -0.0025 0.0102 -0.0189 -0.0058 0.0206 0.0077 -0.0084 0.0035 -0.0109 -0.0171 -0.0138 -0.0119 -0.0075 -0.0182 -0.012 0.0019 -0.0151 0.0166 -0.0034 -0.0349 -0.0048 0.0193 -0.008 0.0217 -0.0201 -0.0009 0.0124 0.0212 0.0053 -0.0062 0.0312 -0.0069 0.0154 -0.0058 -0.0153 0.0041 -0.0413 -0.0007 -0.0081 -0.0049 0.0153 -0.0131 -0.0199 -0.0005 -0.0006 0.0297 0.0306 -0.0036 0.0171 -0.0011 0.0144 -0.0096 0.0077 0.0052 0.0214 -0.0159 0.0049 0.0298 -0.011 -0.0122 -0.017 0.0499 0.0106 -0.0023 -0.0233 0.0294 -0.0044 -0.0237 -0.0133 -0.0056 -0.0271 -0.028 0.022 0.0161 0.0109 -0.0011 -0.0061 0.0092 -0.0088 0.0035 -0.0035 0.0244 -0.0184 -0.0324 0.0167 -0.0033 -0.0165 0.0092 -0.0091 0.009 0.0225 -0.0412 0.0083 -0.012 -0.0094 -0.0077 -0.0059 -0.0284 0.0056 0.0148 0.0002 -0.0061 0.0516 -0.0072 0.0049 -0.0124 -0.0137 0.0208 0.0023 0.0065 0.0151 0.0048 -0.0268 -0.0042 -0.0042 0.0416 -0.0196 -0.0238 -0.0172 0.0064 -0.0113 -0.0048 0.0059 0.0098 0.0145 -0.0008 0.0275 -0.0187 0.0104 0.0084 -0.0207 -0.0135 -0.0202 0.0023 -0.0059 0.0042 0.0131 -0.0376 0.0206 0.0076 -0.0301 -0.0253 -0.0135 -0.0118 -0.0035 0.0131 -0.0189 -0.0036 -0.0228 -0.0227 -0.0052 0.01 -0.011 0.0223 0.0086 -0.0049 0.0308 -0.0101 -0.0124 0.0188 -0.0018 -0.001 0.0087 -0.008 0.0202 0.0291 -0.0083 -0.0048 0.0121 0.007 -0.018 0.0172 -0.0164 0.0003 0.0011 0.0084 -0.012 -0.0065 -0.035 0.0196 0.0192 -0.001 0.0126 -0.0122 0.0032 -0.0313 -0.0088 -0.0142 0.001 -0.0001 -0.0119 0.0062 0.0038 0.008 0.0097 -0.0028 0.0073 -0.0237 -0.0076 0.006 0.0059 0.0272 0.0089 0.0151 0.0112 0.0332 -0.0065 0.0038 0.0095 -0.0166 -0.0006 -0.0215 0.0165 0.0214 0.0185 -0.0525 0.013 -0.0118 0.0477 -0.0022 0.0038 0.0022 -0.0317 -0.016 0.0294 0.0053 0.0004 0.0084 -0.0086 -0.017 -0.0186 -0.0072 0.02 0.0002 -0.0033 0.0009 -0.0016 0.0078 -0.0292 0.0092 -0.0048 0.0031 -0.0006 -0.0001 0.0065 -0.0118 -0.0073 0.0014 -0.0015 0.0272 -0.0319 -0.0061 0.0516 -0.03 0.0009 -0.0167 0.0096 0.0069 0.0034 0.0237 -0.0083 -0.0243 -0.022 0.0079 -0.0175 -0.0136 0.0195 0.0062 0.0165 -0.0104 0.002 0.0112 0.002 0.0019 -0.0039 0.0244 -0.0303 -0.0223
malignancy -0.0187 0.0029 0.01 -0.0221 -0.0083 0.0057 -0.0049 -0.0164 0.0014 -0.0156 0.0244 -0.0113 0.0177 -0.0155 -0.0244 -0.0209 0.0117 0.0209 0.0063 -0.0004 0.0021 0.0069 -0.0027 0.0165 -0.0082 0.0076 -0.0036 -0.0023 0.0 0.0001 -0.0031 0.0134 -0.0064 -0.0099 0.0004 0.0062 -0.0389 0.006 0.0213 0.0138 -0.0163 -0.0176 -0.0004 -0.0217 0.003 -0.0074 0.0174 0.002 0.0161 -0.0064 0.0123 0.0268 -0.0261 -0.0004 -0.0072 -0.0029 -0.0022 0.0112 0.0105 0.0157 0.002 -0.0082 -0.0069 -0.0262 -0.0169 -0.0103 0.0071 0.0299 0.0255 -0.0169 -0.0091 -0.0094 0.0002 -0.0043 -0.0198 -0.0056 -0.001 0.0067 -0.006 -0.0117 -0.0 0.0204 -0.0395 0.0181 -0.0075 -0.0068 -0.0018 0.0176 -0.0232 0.0146 -0.0088 -0.0211 -0.021 0.0023 -0.0194 0.0091 -0.0086 0.0085 -0.009 0.0206 -0.0039 0.0101 -0.013 -0.0081 0.0108 -0.0101 0.0149 -0.009 -0.0126 -0.0001 0.0093 0.0215 0.0093 -0.0019 -0.0112 0.02 0.0152 0.0007 -0.0217 0.0031 -0.0068 0.0068 0.0227 -0.0017 0.0142 0.0011 0.0013 -0.0274 0.0047 0.0185 0.0052 -0.007 0.0106 0.0134 -0.0117 -0.002 -0.0001 0.0377 0.0206 -0.0127 0.0087 -0.0034 -0.0183 -0.0087 -0.0143 -0.0132 0.0127 -0.0032 0.0084 0.0171 -0.004 0.0068 0.0048 -0.0254 0.0112 0.0166 0.0157 -0.018 -0.0146 0.0084 0.0094 -0.01 -0.0491 -0.007 -0.0197 -0.0284 -0.0104 -0.0002 -0.0263 -0.0064 -0.0162 -0.0016 -0.0093 -0.0062 0.0078 0.0214 0.0307 -0.022 -0.0032 0.0012 0.0031 0.0141 0.0222 0.0219 -0.0058 -0.0072 0.004 0.0318 0.0009 -0.0005 0.0039 0.0031 -0.0128 -0.0109 -0.0155 0.0068 0.0068 0.0142 0.0063 0.0132 -0.0502 0.014 -0.0202 -0.0186 0.0038 0.0059 0.0309 0.001 -0.0243 0.0026 0.0353 -0.0113 0.01 0.0176 0.0388 0.0048 -0.0067 -0.0005 0.0024 -0.0214 -0.0113 -0.0044 -0.0035 0.0105 -0.0089 0.0291 0.0056 0.0038 0.002 -0.0221 -0.0058 0.0011 -0.0334 0.0037 0.0308 -0.0211 0.0025 0.0004 -0.0061 -0.012 0.0139 -0.0067 -0.0234 0.0061 -0.0155 0.0003 -0.0039 -0.0108 0.0196 -0.0067 -0.0013 0.0018 -0.0079 -0.0213 0.0017 0.0098 -0.0206 -0.0009 0.0269 -0.0155 -0.0006 -0.0101 -0.01 -0.014 -0.0091 -0.0074 -0.0024 0.0343 0.0111 0.0093 -0.0206 0.018 -0.0213 -0.01 -0.0003 -0.0303 0.0186 -0.0122 0.0008 -0.01 0.017 0.0204 -0.0172 0.0171 0.0085 -0.0031 0.0068 0.0099 -0.011 -0.0008 0.0412 0.0036 -0.0135 0.0158 0.0116 -0.0126 0.0046 -0.0029 -0.0092 -0.0095
investigators -0.0102 -0.0181 -0.0097 -0.0027 -0.0166 -0.0126 0.0106 -0.0169 0.0087 0.006 -0.0109 -0.003 -0.0023 -0.0213 0.0006 0.0051 0.0124 0.007 0.0072 0.0156 0.0081 0.0029 -0.0003 0.015 -0.0092 0.0001 -0.0127 0.0153 0.0069 0.0067 -0.0043 0.0051 -0.0026 -0.0027 -0.0008 0.0125 0.0003 -0.0017 0.0011 0.0034 -0.0182 -0.0137 0.0075 -0.0024 0.0161 0.0102 0.013 0.001 -0.0037 -0.0122 0.0075 0.0071 -0.0145 0.012 -0.0015 0.0043 -0.012 0.0029 -0.0048 0.0035 0.0074 0.0035 0.0222 -0.012 0.0126 0.0015 0.0132 -0.0063 -0.0104 0.0111 0.0023 0.0038 0.034 0.0042 0.008 0.0131 0.0097 -0.0071 0.0041 -0.0154 -0.0088 0.0176 0.013 0.0005 -0.0025 -0.0025 0.0204 -0.0117 0.0094 -0.0017 -0.0067 0.0059 -0.0156 -0.0169 0.0125 0.0066 0.001 0.0029 0.0012 -0.0091 -0.0096 -0.0169 0.0052 0.0001 0.0094 -0.0087 -0.0051 -0.0175 0.0042 0.01 0.0032 0.029 0.0142 -0.0 -0.0015 0.0014 -0.0069 -0.013 -0.004 0.0025 0.0062 -0.0128 0.0023 0.0068 0.0282 -0.0002 -0.0014 -0.0052 0.0064 0.0322 0.006 0.0453 0.0027 0.0007 0.0087 -0.017 -0.0009 0.0252 0.006 -0.0054 0.0022 0.0144 -0.0075 -0.0083 -0.0105 -0.0035 -0.0062 0.0071 0.0059 -0.0096 0.0191 0.0179 0.0132 -0.0032 0.0196 -0.0038 -0.0012 -0.0141 -0.0004 0.0085 0.0153 0.0012 0.0183 -0.0117 0.0073 0.0032 -0.0062 0.0151 -0.0064 -0.0134 0.0053 -0.0172 0.0029 0.0062 -0.001 0.0013 -0.0125 0.003 -0.019 0.0073 -0.0075 0.0024 0.0049 0.0126 -0.0142 -0.0155 0.0125 0.0195 0.0022 0.0138 -0.0024 0.0309 -0.0285 -0.004 0.0066 0.0115 -0.0039 0.0255 -0.0045 -0.001 -0.0243 0.0205 -0.0228 -0.0007 0.0144 -0.0053 0.0028 -0.0014 -0.0077 -0.0167 -0.001 0.0079 0.0143 0.0102 -0.0374 -0.0076 -0.008 -0.0045 -0.0083 -0.002 -0.0174 -0.0109 -0.0205 0.023 0.0272 -0.0004 -0.0099 0.0153 -0.0038 0.0011 -0.0193 -0.0089 -0.0015 -0.0006 0.0051 0.0023 -0.0057 0.005 -0.0123 -0.0026 0.0067 -0.0028 -0.0014 -0.0056 0.0055 0.0009 -0.005 -0.0205 -0.0104 -0.0034 0.0041 0.0177 -0.0034 -0.017 -0.0026 0.0159 0.0051 0.0107 -0.0089 0.0001 -0.0046 -0.002 -0.0071 0.0069 -0.0083 -0.009 -0.0095 0.0167 -0.0081 0.0006 -0.0121 0.0116 -0.0327 -0.0024 0.0019 0.0052 0.0057 0.0065 0.0184 0.0079 -0.0108 0.0019 0.0043 0.0009 0.0099 0.0015 -0.0186 -0.0302 -0.0154 -0.0033 -0.002 -0.0029 -0.0005 -0.0054 -0.006 -0.0027 -0.0028 0.0007 -0.0021 0.0013
simulated -0.0069 0.0091 0.0173 0.0049 0.0226 -0.0233 0.0138 -0.0386 -0.0051 0.0069 0.0066 -0.0173 -0.0047 0.0172 -0.0029 -0.0007 0.0242 0.0302 0.0064 0.0147 -0.0012 -0.0075 0.001 0.0222 -0.0011 -0.0128 -0.0164 -0.0046 0.0272 0.0189 -0.0152 0.0023 0.016 -0.0139 0.0129 -0.012 0.0125 -0.0211 0.0037 0.0097 -0.0264 -0.008 -0.0082 -0.0158 -0.0181 0.0105 0.027 -0.0052 0.0315 0.0052 0.0045 0.0035 -0.0061 -0.0122 -0.0251 -0.0148 0.0064 -0.0039 0.0031 -0.0217 -0.003 0.0029 0.0687 0.0056 0.0149 -0.0009 0.0092 0.0302 -0.01 0.0085 0.0076 0.0019 0.0117 0.022 0.0221 -0.0029 0.0039 -0.0085 -0.0324 -0.0201 0.0213 -0.0016 -0.0072 0.0022 0.0074 -0.015 -0.007 -0.0013 0.0175 -0.0129 -0.0186 -0.0015 -0.0195 -0.0115 0.0207 0.0084 0.0072 -0.006 0.0285 -0.0058 0.0007 -0.0152 -0.0175 0.0047 0.0304 -0.0258 0.0135 -0.0094 -0.0278 0.0085 -0.0264 0.0201 0.0053 -0.0037 0.0325 -0.0148 0.0036 0.0047 -0.0199 -0.0359 0.0109 0.0079 -0.0004 -0.0063 0.0173 0.0069 0.0132 -0.025 -0.0071 0.0052 0.0127 -0.0088 0.0074 -0.0022 0.0215 -0.0001 0.0167 0.0065 0.0076 -0.0096 -0.0016 0.005 -0.001 0.0033 0.0022 -0.0054 -0.0239 -0.0172 0.0156 0.0119 0.0179 0.0098 0.0114 -0.0083 -0.0085 -0.0093 -0.0394 0.0021 -0.0072 -0.0231 0.0039 0.0024 -0.0136 0.0029 0.0071 0.018 0.0043 0.0136 0.0197 0.003 0.0001 -0.0184 -0.0138 -0.0164 -0.0016 0.0183 -0.0101 -0.0042 -0.022 -0.0013 0.0233 0.0182 -0.0225 -0.006 0.012 0.0384 -0.0302 0.0269 0.0188 0.0026 0.028 0.001 -0.009 -0.0282 0.0085 -0.0053 -0.0128 0.0315 0.0097 0.0024 -0.0494 0.0223 0.0137 0.0191 0.0075 -0.002 0.0025 0.0109 0.0147 -0.0056 0.034 0.0139 0.0131 0.0013 0.0062 0.0041 0.0051 -0.0001 0.0029 -0.0133 -0.0108 0.0015 -0.0229 0.0304 -0.0236 -0.0132 0.0072 0.0294 -0.0208 -0.0069 -0.0173 -0.02 -0.0205 0.0042 0.0068 0.0042 0.0231 0.0098 0.0021 -0.0172 0.0523 0.0241 -0.0012 0.002 -0.0624 0.0226 0.0104 0.009 0.0108 0.0002 0.0142 -0.0009 0.0109 -0.0035 -0.0049 0.007 0.0143 0.0026 0.0054 0.0007 0.0124 0.0098 0.0036 0.0126 -0.002 -0.0188 0.017 0.0042 0.0055 -0.0066 -0.014 0.0256 -0.0377 -0.0138 -0.0264 -0.005 0.0039 0.0118 0.0128 -0.0062 -0.0003 0.0095 -0.0096 0.0226 -0.0142 -0.0157 -0.0213 -0.012 -0.0146 0.0086 -0.0172 -0.0 -0.0142 0.006 0.0202 0.0194 0.012 -0.0159 0.0039 0.0055
universal 0.007 -0.0027 0.012 0.0087 -0.0343 -0.0106 0.0062 -0.0312 0.0261 -0.0017 0.0014 -0.0048 0.0064 -0.0023 -0.002 -0.0175 0.0185 0.0153 0.0291 0.0124 -0.0126 0.0103 0.0298 0.0176 0.0075 -0.0051 0.0028 -0.0047 0.0196 -0.0032 -0.005 -0.0002 -0.0006 -0.028 0.011 0.0177 -0.0049 0.0067 -0.0009 -0.0009 -0.0 -0.0198 -0.0214 0.0025 -0.0064 -0.0218 -0.0175 -0.0137 0.0002 0.0035 0.0155 -0.001 -0.0088 -0.0022 -0.0076 0.0205 0.0171 -0.0034 -0.0053 -0.0032 -0.0029 -0.0142 0.0107 0.0101 -0.0006 -0.0108 -0.0157 -0.0033 -0.0039 0.0113 -0.0061 -0.0 -0.0047 -0.0121 -0.0087 -0.0059 -0.0051 -0.0225 -0.0034 0.0248 0.0019 0.0024 0.0055 0.0207 -0.0038 0.0108 -0.0014 -0.0059 -0.024 0.01 -0.0014 -0.005 -0.0285 -0.0074 -0.0115 0.0159 0.003 -0.0072 -0.0155 0.0124 -0.0124 -0.0068 -0.0087 -0.0124 -0.0169 -0.0291 0.0081 -0.0029 -0.0171 -0.0081 0.0158 0.0263 0.013 -0.0089 0.0001 0.0012 -0.0021 0.0146 -0.015 0.0172 -0.0028 -0.0058 -0.0219 0.0097 0.0204 0.0045 -0.0049 -0.0184 0.0235 0.0081 -0.0197 -0.0103 -0.0099 -0.0021 0.0033 -0.0017 0.0004 0.0053 -0.0048 -0.0091 0.0112 -0.0076 0.0159 0.0104 -0.0067 -0.0012 -0.0105 0.0038 -0.0064 0.0166 0.0067 0.0278 -0.0157 -0.019 0.0175 0.008 -0.0093 0.0012 0.0091 -0.0062 0.0026 -0.0082 -0.038 -0.0175 0.0024 -0.0211 0.0053 -0.0051 -0.0089 -0.0111 -0.0074 0.0064 0.0015 0.021 -0.0271 0.0194 -0.0117 0.0158 -0.0033 -0.0041 0.0082 -0.0031 -0.0075 0.0023 0.0024 -0.0022 0.0203 0.0362 -0.0023 -0.0045 0.0127 0.0229 0.0256 -0.0173 -0.0062 -0.0133 -0.0092 -0.0058 0.0062 0.0068 -0.0547 0.0279 0.0003 -0.0063 0.005 0.002 0.0196 -0.0183 -0.0081 -0.0108 0.04 -0.0021 -0.0066 0.0171 0.0078 -0.0087 -0.0077 -0.0085 -0.0075 -0.0255 0.0084 -0.0088 -0.0055 0.034 0.002 0.0023 0.0243 0.0209 0.0113 -0.0182 0.0056 -0.013 -0.0251 -0.0068 0.0046 0.0093 -0.0134 0.0101 0.0003 -0.015 0.0398 0.0036 0.0025 0.0049 -0.0306 -0.0098 0.006 -0.0084 -0.0166 -0.0083 0.0117 -0.0016 -0.012 0.0099 0.0132 0.0187 -0.0029 0.0027 0.0134 0.0018 -0.0052 -0.0052 -0.001 -0.01 0.0092 0.0048 0.0137 0.0001 0.0086 0.0091 -0.0128 0.0216 -0.0309 -0.0102 0.0042 -0.0156 -0.0086 -0.0003 0.0164 0.0083 0.0494 -0.0016 -0.0055 -0.0178 -0.0108 -0.0093 -0.0248 0.0083 0.0049 0.0216 0.008 0.0078 0.0179 -0.0308 0.001 0.0122 0.0095 -0.0009 -0.0038 -0.0065
kitchens 0.0001 -0.0362 0.0104 -0.0205 0.0033 0.0004 -0.0116 -0.0201 0.01 0.0107 -0.0105 -0.0418 -0.0305 -0.0278 -0.0013 -0.0081 0.0422 0.0049 0.0175 0.0055 0.0249 0.0352 0.0098 0.0145 -0.0095 -0.0299 -0.005 -0.0078 0.013 -0.0145 0.0007 -0.0284 0.0106 0.0081 0.0328 0.0082 0.0124 0.0205 0.0109 -0.0129 -0.0241 -0.0049 -0.0075 0.0283 0.0077 -0.019 0.0062 -0.0134 -0.0067 0.0175 0.0061 0.0118 0.0078 -0.0036 -0.0338 0.0022 0.0065 -0.01 -0.0206 -0.0258 -0.014 -0.0091 0.0376 -0.013 0.0249 0.0151 -0.0176 -0.0227 -0.0128 0.0041 0.0299 -0.0379 0.0082 -0.0392 -0.0115 -0.0085 -0.0088 -0.0271 -0.022 0.0299 0.0046 -0.002 -0.0023 0.0234 -0.0101 0.0292 0.0053 -0.0205 0.0108 0.0207 -0.0352 -0.0008 -0.032 0.0197 -0.0034 0.0522 -0.0266 0.0335 0.0001 -0.0199 0.0139 0.0214 0.01 0.0348 0.0447 -0.0274 -0.0072 0.0091 -0.0109 0.0169 0.0055 0.0376 0.0232 0.0353 0.0095 -0.0404 0.0009 -0.0021 -0.0117 -0.0384 -0.03 -0.0042 0.0169 -0.0112 -0.0021 -0.0166 -0.0039 -0.0236 0.0175 0.0288 -0.0117 0.0238 0.0154 -0.0426 0.0029 -0.0219 -0.0259 0.0202 -0.0088 -0.0233 0.0059 -0.0021 0.0077 0.0092 0.009 -0.0285 0.0121 0.0283 0.0006 -0.0083 0.0121 0.046 0.0147 0.0015 0.0281 -0.0038 -0.0244 0.0232 0.0088 0.0023 0.0119 0.0041 0.0063 0.0157 0.004 -0.0082 -0.0171 -0.0102 0.0246 -0.0017 0.0139 0.0017 -0.0106 -0.002 -0.0124 0.0153 -0.009 0.0428 -0.0127 0.0256 0.0287 0.0006 0.0101 -0.0357 -0.007 0.0159 -0.0002 0.0459 0.0028 -0.0055 0.0086 0.0118 -0.0041 -0.0292 0.0023 0.0293 -0.0161 0.0018 0.0098 -0.0138 -0.0509 0.028 -0.0355 0.0208 -0.0016 -0.0175 0.0046 -0.0102 -0.0211 -0.0163 0.037 -0.002 0.0105 0.0023 0.0078 -0.0194 -0.0096 0.0062 0.0111 -0.0135 0.0204 -0.01 0.004 0.0295 -0.0012 -0.0069 -0.002 0.0175 0.0037 -0.0109 -0.0188 -0.0006 -0.0195 -0.0021 0.0024 0.0185 0.0132 -0.0077 -0.0083 0.0032 0.011 -0.011 0.0136 -0.005 0.0196 0.0282 -0.0024 -0.0024 0.0053 0.0121 -0.0118 -0.0038 -0.048 0.0057 -0.0121 0.0221 -0.0056 0.0027 -0.0096 0.0123 0.0108 -0.0022 0.0196 -0.0083 0.0023 -0.0012 0.0106 0.0054 -0.0215 0.0073 -0.0199 0.0184 -0.0367 -0.0102 0.0004 -0.0034 -0.0019 0.0096 -0.0052 0.0256 0.0086 0.0117 0.0101 0.006 -0.0139 0.0256 -0.0092 -0.0342 0.0085 0.0226 0.0162 0.0116 0.0009 0.021 -0.0095 0.0202 -0.0014 0.0571 -0.0065 0.0052
tropics -0.0059 -0.0245 -0.0074 -0.0334 -0.0055 -0.0019 0.0053 -0.0349 -0.0017 0.011 -0.0298 -0.0558 -0.0105 -0.0246 0.0212 0.0034 0.0279 0.0027 0.0095 0.0277 -0.0226 -0.0022 0.0012 0.0318 0.0188 -0.0505 -0.006 -0.0058 0.0222 0.0239 0.0079 0.0162 0.0236 -0.0143 -0.0111 0.0104 0.0192 -0.0378 -0.0212 0.0083 0.0124 -0.0353 0.0036 -0.0265 -0.0057 -0.0205 0.0115 -0.0223 0.0069 -0.0134 -0.0241 0.0173 -0.0036 -0.004 -0.0377 0.0034 -0.0009 -0.0212 -0.0173 -0.0142 -0.0077 0.0138 0.0499 -0.023 -0.0113 -0.0101 0.0022 -0.0272 0.0268 0.0173 0.0277 0.0068 -0.0285 -0.0021 -0.0042 -0.0027 -0.0145 0.0009 -0.0161 0.0272 -0.0137 0.0207 0.0335 0.0256 -0.0061 -0.0066 0.0077 -0.0072 0.0122 -0.0096 -0.0253 -0.0029 -0.0284 0.0261 0.0057 0.0175 0.0026 0.0073 -0.0503 -0.023 0.0265 -0.0063 -0.0226 -0.0455 0.0421 -0.0351 -0.0066 -0.0119 -0.0006 -0.0055 -0.0119 0.0201 0.0059 0.0396 -0.0133 0.0013 -0.0124 0.0272 -0.0325 -0.0151 0.0223 -0.0195 -0.015 -0.0249 0.0158 0.0251 0.0086 -0.0496 -0.0157 0.0381 0.0164 0.0282 -0.0002 -0.0252 0.0 -0.0077 0.0109 0.0344 0.0179 0.0176 0.0195 -0.0059 0.0158 -0.0123 0.0085 -0.026 -0.0087 0.0019 -0.0243 -0.0283 0.0357 0.0408 -0.0273 0.0109 0.0481 0.0005 -0.026 0.0149 0.0004 -0.0032 0.0021 -0.0249 -0.0097 -0.0045 -0.0119 -0.0068 -0.0193 -0.0261 0.0109 0.023 -0.0038 0.0008 -0.005 -0.0025 -0.0314 0.0133 0.002 0.0115 -0.0024 -0.0224 0.0086 0.0557 -0.0152 -0.0464 -0.0017 -0.0102 0.0319 0.0178 -0.0362 0.0385 0.0314 0.0262 -0.0444 -0.0265 -0.0206 -0.0107 0.0078 0.0127 -0.0042 0.0188 -0.0521 0.0025 -0.0091 -0.0184 0.0192 0.0255 -0.0084 -0.0279 -0.0146 0.017 0.0244 -0.0084 -0.0063 -0.0249 0.0211 0.0134 0.0036 0.0093 0.0072 -0.0243 -0.0203 0.0173 0.0144 0.0316 -0.0045 0.0163 0.0075 0.0301 0.0044 0.0195 0.0198 -0.0132 -0.0411 0.026 0.0072 -0.012 -0.0223 0.0298 0.0181 -0.0034 0.0053 -0.0215 0.0071 -0.0224 -0.004 0.0447 -0.0086 -0.0166 0.0055 -0.0061 0.0035 -0.0156 -0.0057 -0.0479 -0.0261 0.0265 0.0104 -0.0113 0.0399 -0.0041 0.0172 -0.0107 -0.035 -0.0387 0.0097 -0.0089 0.0051 0.0097 -0.0094 -0.011 -0.0233 0.0362 -0.0359 0.0028 0.031 -0.0452 -0.0255 -0.0447 -0.0179 0.026 0.0084 0.0168 -0.0072 -0.011 -0.0213 -0.0084 -0.0215 -0.0343 0.0115 0.0166 -0.0175 0.0212 -0.0242 -0.0258 -0.012 -0.0299 -0.0181 0.0356 0.0222 -0.012
surfaces 0.0024 -0.002 0.0318 -0.0022 0.0124 0.0144 -0.016 -0.0368 0.0084 -0.0167 0.0056 -0.0262 -0.0117 -0.003 -0.0203 -0.0275 0.0198 0.0366 0.0255 -0.0095 0.03 0.008 0.0396 0.0269 0.0188 -0.0179 -0.0074 0.0011 0.0407 -0.0048 -0.0079 -0.0041 0.0222 0.0043 0.0108 0.0009 -0.0159 -0.0127 0.0074 0.0026 0.0034 -0.0466 -0.0011 0.0064 -0.0181 -0.0162 0.0191 -0.0071 -0.0068 -0.0207 0.0096 -0.007 -0.0048 0.003 -0.0336 -0.002 -0.0075 0.0056 -0.0035 -0.0035 0.0136 -0.0008 0.0643 -0.01 0.0353 -0.03 0.0047 -0.005 0.0119 0.0202 0.0118 0.0008 0.0049 -0.0034 0.016 -0.0058 -0.0111 -0.0086 -0.0193 -0.0196 -0.0024 -0.0253 -0.0041 0.024 0.0179 -0.0013 0.0257 -0.0123 -0.0096 0.0199 -0.0191 -0.031 -0.0252 0.0281 0.0218 0.0251 -0.0177 0.0107 0.0288 -0.034 0.017 -0.0055 -0.003 0.025 0.0253 -0.0366 0.0142 0.0029 -0.0073 0.0201 0.0238 0.0222 0.0309 0.0022 0.0019 -0.0045 -0.001 0.013 -0.0188 -0.0098 -0.0001 0.0116 -0.0198 -0.0059 0.0301 -0.0338 0.0177 -0.0268 0.001 0.0273 0.0147 0.0205 0.0068 -0.0088 -0.0007 -0.0018 -0.0006 0.028 -0.0133 0.0067 -0.005 0.0163 0.027 -0.0212 0.0137 -0.0109 0.0142 -0.0191 -0.0049 0.006 -0.0002 0.0247 0.0085 -0.0207 -0.0139 -0.0018 -0.0163 0.0049 -0.0039 0.0256 0.0109 -0.0137 0.0057 -0.0086 -0.002 -0.0146 -0.0104 0.0004 0.0334 -0.0078 -0.0185 0.0115 -0.0222 -0.0087 0.0193 0.0147 0.0012 0.0077 -0.0173 -0.0188 0.0029 0.0148 0.0029 -0.0223 0.0035 0.0039 0.0114 0.0317 0.0097 0.0048 -0.0072 -0.0018 -0.0265 0.0034 -0.0114 -0.0208 -0.0051 -0.0079 0.0061 -0.01 -0.0624 0.0232 0.0144 -0.012 0.0087 0.0257 0.0108 0.0095 -0.0121 -0.0085 0.0343 0.0021 0.0198 0.0094 -0.0061 0.0047 -0.0066 0.0091 -0.0167 -0.0201 -0.0183 0.0054 -0.0058 0.0279 0.0078 0.0248 0.001 0.0138 -0.0242 0.0018 -0.0117 -0.0081 -0.0463 -0.0174 0.0054 -0.0043 -0.0096 0.0066 -0.0412 -0.012 -0.0194 0.0034 0.0016 -0.0012 -0.0041 0.0239 -0.0014 -0.0073 -0.0057 -0.0213 -0.0048 0.0006 -0.0041 0.0054 -0.0123 0.0212 0.0004 0.0041 -0.0128 -0.0137 0.0005 0.0257 -0.0299 -0.0314 -0.0106 -0.0229 0.0119 0.0008 -0.0105 0.0033 -0.0045 0.0307 -0.0403 -0.0127 0.0185 -0.0157 0.0001 0.0253 -0.002 0.0076 -0.0028 -0.0045 -0.0061 -0.0011 -0.0006 0.0107 -0.0103 0.0074 -0.02 0.0007 -0.0237 -0.0097 -0.0134 -0.0281 0.0092 0.0004 0.0023 0.0213 0.0139 -0.0017
workbooks 0.0095 -0.0099 -0.0035 -0.0066 0.0172 -0.0105 -0.0093 -0.0294 -0.0144 -0.0121 0.0137 -0.0243 -0.0008 -0.0215 0.0256 -0.0115 0.0279 0.038 0.0238 -0.0272 -0.0258 0.023 -0.0163 0.0212 -0.0307 0.023 -0.0127 0.029 0.0339 0.0153 0.0153 -0.0055 0.0118 -0.0217 0.0286 0.0266 0.0023 -0.005 0.0074 -0.0185 0.0179 -0.0381 -0.0153 0.0177 0.0155 -0.0057 0.0032 0.0071 0.0106 0.0066 -0.0216 0.0051 -0.0134 0.0052 -0.0343 0.0208 -0.0156 -0.0305 -0.0171 -0.0122 0.0024 -0.0121 0.0455 0.0206 0.0195 -0.013 0.0225 -0.0008 -0.0159 -0.0111 0.0036 -0.0253 0.0084 0.0106 0.0103 -0.0017 0.0343 -0.0366 0.0094 -0.0153 -0.0116 -0.0262 -0.0104 -0.0026 -0.0061 -0.0072 0.0324 -0.0012 0.0132 0.0027 -0.0015 -0.0144 -0.0234 0.0223 0.0094 0.0243 0.0215 0.0046 0.0146 0.001 0.0056 0.0223 0.0134 0.0029 0.0204 -0.0054 0.0085 0.009 -0.0172 -0.0205 -0.0047 0.032 0.0195 -0.0057 -0.0214 -0.0145 -0.0072 -0.0043 -0.0153 -0.0162 0.003 -0.0016 0.0132 -0.0235 0.0279 0.0038 -0.0125 0.0219 0.0042 0.0334 -0.0356 0.0112 0.0035 0.011 0.0153 -0.0012 0.0363 0.0122 0.0222 -0.0139 0.0065 0.0263 -0.0192 -0.0121 0.0029 -0.0394 -0.004 0.0106 0.0192 -0.0085 0.0011 0.0283 0.011 -0.0092 0.0103 0.0074 -0.0041 0.0216 0.0196 -0.0116 0.0274 0.0047 0.009 0.0104 0.0173 -0.0172 0.0051 -0.0179 0.0131 -0.0022 0.0072 -0.0001 0.0104 -0.0077 -0.0445 0.0115 -0.0134 0.0073 -0.0153 0.0206 0.0283 -0.0255 -0.0008 -0.01 0.0178 0.0178 -0.0056 0.0362 -0.0065 -0.0012 -0.0266 0.0216 -0.0319 -0.0131 0.011 -0.0125 -0.0047 0.0005 0.0032 0.0146 -0.048 0.0089 0.0245 0.0162 0.0135 -0.0063 0.003 -0.011 0.0096 -0.0268 0.036 0.0231 0.023 0.0163 -0.0167 -0.0229 -0.0088 0.0058 -0.0178 0.0071 0.0078 0.0124 0.0034 0.027 0.0152 -0.0247 0.0158 0.0038 -0.0012 -0.0015 0.0274 0.0003 -0.0013 0.0151 0.0225 0.0249 0.0202 -0.0056 -0.0308 -0.0011 0.0032 0.0142 0.0264 -0.0266 0.0046 0.0193 0.0055 -0.0036 0.0199 0.0223 0.0133 -0.0207 0.0103 0.0176 -0.0216 -0.0165 0.0037 -0.0135 -0.0115 0.0076 0.02 0.0162 -0.0009 -0.014 0.0104 -0.0096 0.0119 -0.0151 0.0065 0.006 0.0139 0.0151 -0.0299 -0.0125 -0.0189 0.0032 -0.0168 0.0147 0.0018 0.0213 -0.0041 0.0228 0.0272 0.0072 -0.015 0.0189 0.0067 0.0149 -0.0225 0.003 -0.0075 0.0088 -0.0113 0.0123 0.0032 0.003 0.0086 -0.0186 0.0122 0.0104
rulings 0.0012 -0.0055 -0.0026 0.0074 0.0108 -0.0457 0.0038 -0.0315 0.0059 -0.0011 0.0276 -0.0378 -0.0094 -0.0098 0.0034 0.0279 0.0085 0.0019 0.013 0.0158 0.0167 -0.007 0.0227 0.036 0.0115 0.0063 -0.0034 0.006 0.0457 -0.0198 0.001 -0.042 0.0022 -0.0366 0.0126 0.0244 -0.0104 0.0063 0.0048 -0.0021 -0.0051 -0.0392 -0.0114 0.0316 0.0013 0.0301 0.0086 0.0212 -0.0025 0.0117 -0.0031 -0.005 0.0316 0.0254 -0.0216 0.0041 0.024 0.0118 -0.002 0.0102 -0.0057 0.023 0.0592 -0.0077 0.02 -0.0073 0.0049 -0.002 0.0054 0.0124 0.0152 -0.0248 -0.0119 0.0067 0.0124 0.0058 0.0188 -0.0167 0.002 0.0014 0.0027 0.004 0.0046 0.0148 -0.0006 0.0178 0.0294 -0.0093 0.0195 -0.0008 -0.0076 -0.0158 -0.0316 0.006 -0.0142 0.0058 -0.0124 -0.0157 0.0096 -0.0004 -0.0122 0.0018 0.0096 -0.0339 0.0075 -0.0102 0.0316 -0.0214 0.0056 0.023 -0.027 0.0008 0.0268 -0.004 -0.0197 0.0049 0.008 -0.0319 -0.0165 -0.0024 0.0254 0.0103 0.0438 0.0189 0.0316 0.0038 -0.0271 0.0312 0.0037 0.0679 -0.0068 0.0325 -0.0119 0.0162 -0.0205 -0.0181 -0.0135 0.0225 -0.0236 -0.032 0.0212 -0.0096 -0.0114 0.0232 -0.0094 -0.0139 -0.0039 0.0185 -0.0187 -0.0168 -0.0102 0.028 0.0092 -0.0325 0.0291 -0.0096 0.0098 -0.0336 0.0151 0.0301 0.0287 0.0109 0.0122 0.0011 0.013 0.0327 0.0303 -0.0036 0.0064 -0.0104 0.0079 0.0039 0.024 0.0105 -0.0375 0.0211 0.0054 0.0052 -0.0203 -0.0389 0.0133 0.0042 -0.0055 -0.0107 0.0166 0.016 0.003 0.0513 0.0332 -0.0143 -0.0247 0.0368 -0.0413 0.002 -0.0145 0.0182 -0.0181 -0.0095 -0.0172 -0.0113 -0.0569 0.0168 0.0169 -0.0098 -0.031 0.0224 0.022 -0.0085 0.0148 -0.0256 0.0413 0.0309 0.0112 0.0099 -0.0007 -0.0043 0.015 -0.0083 -0.0578 -0.0561 -0.0052 -0.027 0.0177 0.0286 0.0415 0.0111 -0.0228 0.0302 -0.0213 -0.0003 0.0257 -0.0345 0.0042 0.0109 0.0239 -0.0047 -0.01 0.003 0.0545 0.015 0.0103 0.0034 -0.0038 0.0121 0.0026 0.0122 0.0081 -0.0344 0.0206 0.011 0.0018 -0.0348 0.0245 0.0166 -0.0105 -0.0089 -0.013 0.0097 -0.0323 0.0048 -0.02 0.022 -0.0084 -0.0229 0.0077 -0.002 0.0029 -0.0045 -0.0163 -0.0196 0.0114 0.0339 -0.0553 -0.0063 0.013 -0.007 -0.0334 0.0161 -0.0229 -0.0242 0.024 -0.0012 0.0013 0.0115 0.0065 0.0124 -0.0293 0.0207 -0.0191 0.0223 -0.0044 -0.0451 0.0289 -0.0208 0.0129 -0.0258 -0.0306 0.0166 0.0117 0.0167
woe -0.0085 -0.0538 0.0257 -0.007 -0.0714 -0.0176 -0.0366 0.0054 0.0591 -0.002 -0.0363 0.0004 -0.0586 0.0174 0.0183 -0.1035 0.0477 -0.0772 0.0003 -0.0531 -0.0138 -0.0245 -0.0863 -0.014 0.0884 -0.0713 0.0388 -0.0119 0.0281 -0.0929 0.0212 0.0037 -0.0814 -0.0609 -0.0258 -0.0039 -0.0735 0.0706 -0.0529 -0.0374 0.0014 -0.0417 -0.0079 0.0642 -0.0589 0.0583 -0.0484 -0.004 -0.0075 -0.02 0.0101 0.0083 0.0235 -0.052 -0.0004 -0.0259 0.0192 -0.0003 -0.0091 -0.0347 -0.064 0.0114 -0.0116 -0.0002 0.0883 0.0381 -0.037 0.0623 0.0238 -0.0351 0.0071 -0.0314 0.0025 -0.0256 -0.0342 -0.0397 0.0278 0.0004 -0.0273 -0.0626 -0.0477 0.0358 -0.0223 0.0745 0.0249 0.0058 0.0283 0.0154 -0.0317 -0.0222 -0.0421 0.0431 -0.0383 -0.0539 -0.0081 -0.0193 0.0051 -0.0297 -0.03 0.0827 -0.0351 0.0053 -0.0358 0.0029 0.0584 -0.022 0.0148 -0.0167 0.0257 -0.0518 -0.0137 0.0877 -0.0007 -0.0037 -0.0256 0.046 -0.0102 0.0148 0.0165 0.0007 0.0005 -0.0434 0.0353 0.0289 0.0979 0.0116 -0.0278 -0.0365 -0.0003 0.0844 -0.0043 -0.006 -0.0568 0.0016 0.0374 -0.0582 0.0461 0.0875 0.0278 -0.0304 0.0134 -0.0297 -0.0313 -0.0366 -0.0488 -0.0502 0.0173 0.0502 -0.0631 -0.0242 0.0267 0.0256 -0.0039 0.0043 0.0745 -0.1323 0.0151 -0.0075 -0.0108 -0.0698 0.0684 0.0128 -0.0637 0.0294 -0.0033 -0.0068 0.0187 -0.0131 -0.0106 0.01 -0.0624 0.0172 0.0145 0.0146 0.0164 0.0906 0.0258 -0.0952 0.056 -0.026 -0.0028 0.0101 -0.0958 -0.0731 -0.0122 -0.0325 -0.0157 0.1673 -0.012 0.0842 -0.0674 0.0029 -0.0663 -0.0153 0.0128 0.0564 -0.0247 0.0398 -0.0145 0.0035 -0.0741 -0.0085 0.0694 -0.0933 0.0517 -0.023 0.0064 -0.037 0.0543 0.0109 0.0082 -0.0054 -0.0081 0.0865 0.0535 -0.0915 0.025 -0.013 0.0315 -0.0255 0.0169 -0.0347 0.0173 0.0057 0.0474 -0.0218 -0.007 0.0301 0.0549 0.0113 0.0158 -0.017 -0.023 -0.0275 0.0988 0.0114 -0.0486 -0.0699 0.0276 -0.0851 -0.0009 0.0366 0.0146 -0.0539 -0.0204 -0.0157 0.0727 0.0173 -0.0612 0.0696 0.0265 -0.0129 0.0299 0.0458 -0.0178 0.0235 0.0068 0.0945 0.0733 0.0041 0.0285 -0.0178 -0.0123 0.003 0.018 -0.0062 0.0572 0.0391 -0.0131 -0.0157 -0.0193 0.0059 -0.0568 -0.0206 0.1407 -0.0689 0.0101 -0.0242 -0.0427 0.0397 0.045 0.021 0.0521 -0.0514 -0.0196 0.0388 0.0478 0.0461 -0.0042 0.0008 0.0866 0.0247 -0.0309 0.0099 -0.011 -0.0466 0.0881 0.0543 0.0439 0.0678
telephonic -0.0018 0.0089 -0.0068 0.0051 -0.0021 -0.0027 0.0051 -0.0236 0.0092 0.0021 0.0143 -0.0082 -0.0074 0.0147 -0.0054 -0.0008 0.0232 -0.0086 0.0214 0.0166 -0.0159 -0.0031 0.0221 0.0226 -0.0012 0.0106 -0.012 0.0089 -0.0027 -0.0063 -0.0131 0.0022 -0.026 -0.0366 0.0242 0.0076 -0.0073 0.0223 0.0253 0.001 -0.0126 -0.026 0.0068 0.0054 0.0098 0.0069 -0.0031 -0.0065 -0.0269 -0.0081 -0.0069 -0.004 0.0125 0.0008 -0.0008 0.0156 -0.0093 -0.0051 0.0026 0.007 -0.0223 0.0122 0.0176 0.0033 -0.0104 -0.0041 -0.0106 0.0196 -0.0196 -0.0109 -0.0083 0.0008 0.0142 -0.0057 -0.0111 0.0165 0.003 -0.0189 -0.001 0.0029 -0.0184 -0.0132 -0.0033 0.0119 0.0002 -0.0282 -0.0012 0.002 -0.0116 -0.0172 -0.0039 -0.0039 -0.0264 -0.0035 0.0004 0.0137 -0.0027 -0.0045 -0.0125 -0.0056 0.0134 0.0145 -0.0219 0.0036 0.0203 -0.0384 0.0144 0.0002 0.0089 -0.0084 0.0007 0.0134 0.0227 0.02 -0.0302 0.0067 -0.0091 -0.0057 -0.0145 -0.0196 0.0145 0.0187 0.0061 0.0218 0.0273 -0.0009 0.0115 0.0161 0.0091 0.0258 0.0089 -0.0024 -0.0196 -0.0009 0.0086 -0.0033 0.0238 0.0002 0.0039 -0.0011 0.0281 -0.0043 0.0089 -0.0055 -0.0186 -0.0042 -0.0319 -0.0008 0.0011 0.0139 0.0024 0.0466 -0.0119 0.0025 0.0044 -0.0028 -0.0101 -0.0048 0.0128 0.014 0.0137 0.0195 -0.0174 0.0108 0.0105 -0.0075 0.0204 0.0006 0.0084 0.0098 0.001 0.0222 0.0016 0.0191 0.0041 0.0021 -0.0008 0.0082 -0.0088 -0.0044 0.0163 0.0029 -0.0035 0.0108 -0.0064 -0.0004 -0.0271 0.0348 0.0004 0.0011 -0.0032 -0.0008 0.0363 -0.0029 0.0025 -0.0034 -0.0024 0.0095 0.0031 0.0127 -0.0415 0.0064 -0.0322 0.0236 0.0155 -0.0104 -0.0014 0.0064 -0.0259 0.0054 0.0584 0.0087 0.002 0.0187 0.0075 -0.004 0.0081 -0.021 0.0014 -0.0017 -0.0069 -0.0071 -0.0013 0.0252 -0.0027 -0.002 0.0141 0.0213 0.0013 -0.0092 -0.0051 -0.0316 -0.0002 -0.0163 0.0087 0.0078 0.0043 0.0192 0.0022 -0.0174 0.0241 0.0095 -0.0009 -0.0185 -0.0459 -0.0028 -0.0003 0.0007 -0.0142 0.0069 0.0199 -0.0092 0.0164 0.0005 -0.0104 0.0153 -0.0061 -0.0063 -0.0155 -0.0064 -0.0018 -0.0038 0.0029 -0.0019 -0.0077 -0.0108 0.0096 0.0057 -0.0163 0.0032 -0.0279 0.0233 -0.0211 0.0031 -0.0144 -0.0331 0.0117 0.0264 0.001 -0.0001 0.0435 -0.0191 -0.0229 -0.0058 -0.0134 0.0077 -0.014 0.0018 0.0016 0.0019 0.0163 0.0086 -0.0153 -0.001 -0.0089 0.009 -0.0115 -0.0204 0.0162 0.0053
disinfectant 0.0045 -0.0029 0.017 0.0198 0.0059 -0.0137 0.0002 -0.0209 0.0088 -0.0287 0.0051 -0.0014 0.0072 -0.021 -0.0154 -0.0235 0.0254 -0.001 0.0055 -0.0007 0.0147 -0.001 0.0052 -0.0034 -0.0189 -0.015 -0.0036 0.0023 0.0162 0.0278 -0.0087 -0.0196 -0.0026 -0.0091 0.0136 -0.0145 -0.0188 -0.021 0.0259 0.0149 0.0128 -0.0365 -0.0084 0.0052 0.0126 -0.0084 -0.0015 0.0046 0.0025 0.0156 0.0089 0.0224 0.005 -0.004 -0.0059 0.024 0.0199 0.0147 -0.0118 0.0034 0.0032 -0.0073 0.0194 -0.0146 -0.0318 0.0131 -0.0036 -0.0018 -0.0002 -0.0016 0.0259 0.0158 0.0287 0.0135 -0.0321 -0.0187 -0.0062 -0.0093 -0.0095 -0.0007 -0.0023 -0.0122 -0.0043 0.0138 0.0021 0.0113 -0.01 -0.004 -0.0085 -0.0044 -0.0178 -0.001 -0.0191 -0.0139 0.0029 0.0241 0.0005 0.0076 0.0221 -0.0141 0.0032 0.0071 0.0121 -0.0064 -0.0093 -0.0257 0.018 -0.0235 -0.0244 0.0312 0.0094 0.0323 0.0128 0.0076 0.0043 -0.0102 0.0069 -0.0031 -0.0247 -0.0142 -0.037 -0.0063 0.0005 -0.0232 0.0412 -0.0136 0.0002 -0.0259 -0.0069 0.0037 0.0064 -0.0062 0.0118 -0.0246 -0.0053 -0.0111 -0.0176 0.0146 0.0178 -0.0063 0.0066 -0.0077 0.0054 -0.0202 -0.0002 -0.0236 -0.001 -0.0184 0.0139 -0.0144 0.0094 0.0227 0.0217 -0.0132 -0.0009 -0.0157 -0.0088 -0.015 0.0065 0.024 0.0203 -0.0223 -0.0149 0.0186 0.017 -0.0097 -0.0136 -0.0221 0.0097 -0.0185 -0.0188 0.0105 -0.0148 0.0124 0.0158 0.0024 -0.0104 0.0196 -0.0084 0.0074 0.0058 0.0223 0.0031 -0.0259 -0.0219 -0.0044 0.0172 0.0228 -0.0055 -0.025 0.0132 0.0265 0.0159 -0.0044 0.0239 -0.019 0.0176 -0.0078 0.0015 -0.0092 -0.0437 0.0038 -0.0001 0.025 -0.0009 -0.0052 -0.0071 -0.0132 -0.0061 -0.0 0.0304 -0.0006 0.0175 0.0273 0.0193 0.0119 -0.0151 -0.0188 -0.0115 -0.0132 0.0134 0.0065 0.0058 0.0199 0.0022 0.0252 -0.0137 0.0015 0.0097 -0.017 0.0083 -0.0039 -0.0043 -0.0343 -0.0081 -0.013 -0.0199 -0.0209 0.0022 -0.0167 0.0096 0.0017 0.0318 -0.0124 -0.0059 0.0339 0.0006 0.0017 -0.0203 -0.0025 0.0015 0.0038 -0.0277 0.0105 -0.0009 -0.0112 0.024 -0.0051 0.0027 -0.0058 0.0028 0.0196 -0.0213 0.0105 -0.0167 -0.0145 -0.0015 0.0004 -0.0214 -0.002 -0.0225 0.0162 -0.0191 -0.0054 -0.0008 -0.0207 0.0024 0.0055 -0.0186 -0.022 0.0309 0.0078 -0.0273 0.0108 -0.0141 0.0193 -0.011 0.0156 0.0128 -0.0056 0.0077 0.0157 -0.0109 0.0137 -0.0066 0.0012 0.0135 0.0079 0.0103 -0.0008
laminated -0.0074 0.0229 0.0107 -0.0036 -0.0002 -0.027 -0.0261 -0.031 -0.0133 0.0141 0.0033 0.0034 0.0172 0.0198 -0.0133 -0.0199 0.0033 0.0209 0.0083 -0.0047 0.0145 -0.0006 -0.0137 0.017 0.0059 -0.0148 -0.0084 0.0163 0.046 0.0139 0.0184 -0.0127 0.0117 0.0147 0.0179 0.0052 0.0048 0.0067 0.021 0.0056 0.0119 -0.0228 0.0172 -0.0168 0.0019 0.0102 0.0162 0.018 0.0089 -0.0057 -0.0127 0.0182 0.0043 0.0105 -0.0235 0.0057 0.0132 -0.0317 -0.019 -0.0007 -0.0088 0.0035 0.0795 0.0187 0.0251 -0.002 -0.0104 0.0302 0.0247 -0.0024 -0.0073 -0.0161 0.021 -0.0016 0.0134 0.0084 -0.0075 -0.0122 -0.0006 -0.0077 0.0039 -0.0534 0.0011 0.0211 -0.0087 -0.0132 0.0154 0.006 -0.017 -0.0007 -0.0167 0.0071 -0.0217 -0.0017 0.015 0.0321 0.0181 0.0284 0.0285 -0.0147 -0.0008 0.0132 0.0195 0.0152 -0.001 -0.0371 0.0204 -0.0071 -0.008 0.0174 0.0205 0.0059 0.019 0.0043 -0.0207 -0.0159 0.0037 0.0157 -0.0169 -0.0042 0.01 0.0096 -0.009 -0.0185 0.0349 0.002 0.0049 0.0113 0.002 -0.0061 -0.0002 -0.0149 -0.0011 -0.0153 -0.0164 0.0268 0.0182 0.0116 -0.0127 0.0079 0.0346 0.0147 -0.0176 -0.0141 -0.0037 -0.0127 0.0011 -0.015 -0.0116 0.012 -0.0089 0.0259 0.026 -0.0122 -0.0008 -0.0001 -0.0052 -0.0103 -0.0016 -0.0067 0.0128 -0.0264 -0.001 0.007 -0.0132 -0.0159 0.0245 -0.0126 0.0125 0.0194 -0.0093 0.0274 -0.0062 -0.0047 -0.0308 0.013 -0.0075 -0.0202 -0.0055 -0.0061 -0.0195 0.0083 -0.0039 0.0016 0.0186 0.0232 -0.0003 0.0539 0.0108 -0.0051 -0.0086 0.0046 0.0062 0.0129 0.0045 0.0134 0.0145 -0.0276 0.0015 0.0174 -0.0356 0.0041 0.042 0.0084 0.0191 0.0031 0.0013 -0.0059 -0.0268 -0.0077 0.0458 0.0088 0.0232 0.0144 0.0099 -0.0004 -0.0029 0.0197 -0.0051 0.0071 0.0183 0.0331 -0.0199 0.0215 -0.0152 0.0074 0.0186 0.0037 -0.0005 -0.0237 0.0091 -0.0123 0.0026 0.0114 0.001 -0.0022 0.0073 0.009 -0.0201 -0.0097 0.0346 0.0007 -0.0043 0.0185 -0.0488 0.0005 0.0222 0.0139 -0.0069 0.0012 0.005 0.0068 -0.0075 0.0068 -0.0087 -0.0037 0.0227 -0.0449 0.0247 -0.0133 -0.0125 0.0173 -0.0049 0.0226 0.0358 -0.0045 0.0192 -0.0059 -0.0201 -0.0311 0.0039 0.0209 -0.0221 0.0117 -0.0185 -0.0115 0.0026 0.0163 -0.012 0.0233 0.0094 0.0165 -0.0008 0.0218 -0.0042 -0.0041 -0.0417 -0.0146 -0.0395 -0.0135 -0.0048 0.0121 0.0219 -0.019 0.0029 0.0023 0.0173 -0.0206 -0.0012 -0.0186
thrive -0.0131 0.0025 0.0158 -0.0151 -0.032 -0.0053 0.0023 -0.0258 0.0023 0.0162 -0.0257 -0.0209 -0.0165 0.0075 -0.0131 0.0013 0.0497 0.0131 0.0332 0.0234 -0.0026 0.0097 0.01 0.0417 -0.0346 -0.0001 0.0178 0.0079 -0.0461 0.0178 0.0073 0.0158 -0.0004 0.0155 0.0057 -0.0187 0.0257 -0.0155 0.0005 -0.0016 -0.0082 -0.003 -0.0049 0.0123 0.0143 0.0162 -0.002 0.0141 0.0533 0.0251 0.0189 0.0311 -0.0027 -0.0258 -0.0783 -0.0216 0.0006 0.0259 -0.0208 -0.0037 -0.0025 -0.0001 0.0198 -0.0314 0.0334 -0.0319 0.008 -0.0218 0.0271 -0.0646 0.0444 0.0093 0.0469 0.0561 0.0101 0.0064 -0.0194 0.0038 -0.0508 0.0051 0.0186 -0.0057 0.0095 0.0487 0.052 -0.0194 -0.0251 -0.0094 -0.0076 0.0021 -0.0223 -0.0108 -0.0533 -0.0115 -0.0133 -0.0226 0.0181 0.0191 0.0099 -0.0055 -0.0029 -0.0032 0.0205 -0.007 0.0208 -0.0154 0.0126 -0.013 0.0113 0.0153 -0.0165 0.0426 0.0338 0.0259 -0.0157 0.0139 -0.0132 -0.0047 -0.0077 0.009 -0.023 -0.0323 -0.0051 -0.0348 0.027 -0.018 0.0097 -0.0124 0.0145 0.0173 0.0208 0.0191 0.0209 -0.0051 0.0182 0.0195 -0.0242 0.0215 0.0193 0.0103 0.0401 -0.0322 -0.0131 -0.0323 0.0061 0.0342 0.0257 -0.0134 -0.0213 0.01 0.0078 0.0495 0.0213 -0.0119 0.0105 -0.0133 0.0296 0.0447 0.0138 -0.0499 0.0384 -0.0051 -0.0211 0.0156 0.0111 -0.0138 0.0063 -0.0054 -0.0116 0.0186 -0.0079 0.0446 0.0122 -0.0002 -0.0102 0.0276 0.0105 0.0315 -0.0089 -0.0045 0.0001 0.0244 -0.0232 -0.0147 0.0014 0.0193 0.001 0.076 -0.0498 0.0112 -0.034 -0.0085 -0.0169 -0.007 -0.0299 -0.0029 -0.0008 -0.0014 0.0133 -0.0146 -0.0782 0.0219 -0.04 -0.0418 -0.0039 0.0109 0.0287 -0.0045 0.019 -0.0032 -0.0277 -0.0106 0.0295 0.0126 0.0089 0.0159 0.0109 0.0142 -0.0082 0.0194 0.0401 -0.0081 0.0063 0.0265 -0.0097 -0.0146 0.0165 0.0321 -0.0201 0.0027 -0.0003 -0.074 -0.0245 0.0207 0.0108 0.0122 0.0124 0.0061 -0.0115 0.0009 0.0939 -0.0058 -0.0032 0.0578 -0.0227 0.003 -0.0078 -0.0391 -0.0022 0.0121 0.0021 0.0051 -0.0274 0.0102 -0.0284 0.0531 0.0119 0.0248 0.0057 0.0329 0.005 0.0285 0.0069 -0.0522 -0.013 0.0216 0.0437 -0.0282 0.0095 0.0462 0.0069 0.0287 -0.0585 -0.0416 0.0105 -0.0744 0.0007 -0.0046 -0.0458 0.0157 -0.0514 0.0071 0.0235 -0.0021 -0.0048 0.0046 0.0525 -0.0249 -0.0394 -0.0052 -0.0031 0.0405 -0.032 -0.0207 -0.0036 -0.0295 0.0121 0.0178 -0.0052 0.0052
unlike 0.0046 0.0037 0.0391 0.0169 -0.0144 -0.0103 0.0056 -0.0367 -0.0007 0.0051 -0.0217 0.0209 0.0122 -0.0002 -0.0163 -0.0113 0.0767 0.0268 0.0544 0.01 -0.0074 -0.01 0.0127 0.0138 0.001 -0.0046 0.0254 -0.0015 0.0468 -0.0011 -0.0204 -0.0051 -0.0075 -0.0249 0.0339 -0.0131 0.0032 -0.0105 -0.0132 0.0027 -0.0037 -0.0277 0.0044 0.0001 -0.0031 0.0135 0.0055 -0.0026 -0.0041 -0.0026 -0.0095 0.0067 0.0097 -0.0125 0.0122 -0.0098 -0.0031 0.0085 -0.0192 -0.0119 -0.0068 -0.0028 0.0223 0.0015 0.0038 0.0021 0.0009 0.0029 -0.013 -0.0157 -0.0156 -0.0099 0.0351 -0.0027 -0.0138 0.0044 0.0011 0.0216 -0.011 0.0077 0.0211 0.0097 -0.0086 0.0509 0.01 0.0093 0.0167 0.0086 0.0042 -0.0103 -0.0095 0.0213 -0.0361 -0.0401 0.0174 0.0085 -0.0006 -0.0275 0.019 -0.0021 0.0102 -0.0154 -0.0034 0.0006 -0.0039 -0.0325 -0.0089 -0.0052 0.0038 0.0118 -0.0151 0.0404 0.0265 -0.0204 -0.0338 -0.0186 -0.0094 -0.0061 -0.0167 0.0099 0.0134 0.0052 -0.0076 -0.0108 -0.0045 -0.0143 0.0042 0.0098 -0.0089 0.0141 -0.0396 0.026 -0.01 0.0018 -0.0128 -0.0079 0.0148 -0.0076 -0.0044 -0.0155 0.0105 0.0041 0.0119 -0.0108 0.0108 0.0137 0.0248 0.0044 0.0064 -0.012 0.0096 -0.0302 0.0008 -0.0148 0.0041 0.021 -0.0278 0.0179 -0.0089 -0.0229 0.0109 0.0079 0.0033 -0.0087 0.018 0.0169 0.0073 0.0176 0.0146 0.0205 0.0107 0.0028 -0.011 0.0033 -0.013 0.0292 -0.0025 0.0326 0.0077 -0.0232 0.0085 -0.0038 -0.0117 -0.0156 0.0225 0.0009 0.0069 0.0561 0.0043 0.0007 0.0134 0.0698 -0.0787 -0.0089 -0.022 0.0084 -0.0129 -0.0028 -0.0226 0.0201 -0.0368 0.0243 -0.0176 -0.019 0.0016 -0.0091 0.0149 -0.0078 -0.0056 0.0159 0.0251 0.0058 0.0254 -0.0023 0.0212 0.0058 -0.0048 -0.0078 -0.0037 -0.0207 -0.0002 0.0119 0.001 0.0416 -0.0153 0.0091 0.0329 0.0377 0.0102 0.0033 0.0075 -0.058 -0.0355 0.0044 0.0117 -0.0034 -0.0122 0.0087 0.0014 0.0075 0.0236 0.0049 0.0134 0.0211 -0.0611 -0.0111 0.0041 -0.033 0.0173 -0.005 -0.0107 0.0147 0.0149 0.0238 -0.0208 0.0345 -0.014 0.015 0.015 0.0179 0.0061 -0.0095 -0.0192 0.0074 0.0193 0.0093 0.0058 0.0421 -0.007 0.0257 -0.0059 0.0307 -0.0408 -0.0085 0.0579 -0.0325 0.0033 -0.0072 0.0159 -0.01 -0.0264 0.0036 0.0246 -0.0028 -0.0296 0.0014 -0.0031 -0.0393 -0.0026 -0.0057 0.004 -0.0016 0.0041 -0.0195 0.0253 0.0111 -0.0082 0.0042 -0.0168 -0.0028
preemption -0.0102 -0.0147 -0.0034 0.0244 -0.0073 -0.0054 -0.0093 -0.0353 -0.0043 -0.0015 -0.018 -0.0014 -0.0084 0.0341 -0.0288 0.0066 0.0269 -0.0004 0.0099 -0.0068 -0.0046 -0.0072 0.0166 0.0241 0.0078 0.0127 -0.0058 -0.0185 0.0007 0.004 -0.0043 -0.0253 -0.005 -0.0301 -0.0031 -0.007 -0.0009 0.0071 0.0167 -0.007 -0.015 -0.0412 -0.0004 0.0082 -0.0196 0.0013 0.0043 0.0199 -0.0101 0.0016 0.018 0.0172 0.0199 -0.0103 -0.0149 -0.0152 0.0059 0.0352 0.0043 0.0123 -0.0137 0.0191 0.0169 0.0143 -0.0161 -0.0314 -0.0077 0.0216 -0.0171 0.0118 0.0073 -0.0008 -0.0142 0.0032 0.0156 -0.0053 -0.0031 -0.006 -0.0013 0.0239 0.0043 0.0011 0.0121 0.0072 0.0121 0.0249 0.009 0.0046 0.0056 0.0154 0.0071 0.0012 -0.0214 -0.005 0.0116 0.0006 -0.0201 -0.0201 -0.024 -0.0024 -0.0158 -0.0096 0.0006 0.0005 -0.0053 -0.0143 -0.0016 0.0224 -0.0096 -0.0438 -0.0189 0.0027 -0.0028 0.0139 0.0124 0.0001 -0.016 0.036 -0.0157 0.0135 -0.0288 0.0243 0.0031 -0.0099 0.0254 0.0099 -0.0003 -0.0207 -0.0026 0.0392 -0.0039 -0.0137 0.0026 0.0354 -0.0037 -0.0009 -0.0019 -0.0032 -0.0207 0.0043 0.0172 -0.0017 -0.0301 0.0163 -0.0095 -0.0101 0.0114 0.0069 0.0019 -0.013 0.0093 0.0146 -0.0005 -0.0244 0.0006 0.004 0.0198 -0.007 0.0123 -0.0023 0.0192 -0.0053 -0.0285 0.002 0.0075 -0.0044 0.021 0.0124 0.0162 -0.0111 -0.0117 0.0126 0.0162 0.0007 -0.0111 0.0154 -0.014 -0.0145 -0.0064 -0.007 0.0042 -0.0097 0.0195 -0.0002 0.008 -0.0017 0.0169 0.0265 0.0157 -0.0008 0.0155 0.0118 -0.0193 0.0108 0.0036 0.0044 0.0288 0.0189 0.0012 0.0048 -0.0636 0.005 -0.0051 0.0053 -0.0 -0.0198 0.0356 -0.0127 0.0138 -0.0033 0.0326 0.0184 0.0042 0.0007 0.0097 0.0297 0.017 -0.0146 -0.0061 -0.0427 0.0074 -0.0005 -0.0108 0.0248 0.0275 -0.0107 0.0119 0.0199 -0.0076 -0.0007 -0.0261 -0.0226 -0.0109 -0.0182 0.0139 -0.0227 -0.0082 0.0163 0.0227 -0.0046 0.0271 -0.0022 -0.0204 0.0096 -0.0226 -0.0095 0.005 -0.0138 0.0287 -0.0009 0.0108 -0.008 0.0043 0.0238 0.0225 0.0085 0.0121 0.0124 0.0139 0.0179 0.0167 0.0029 -0.0116 -0.0082 0.0034 0.0043 0.0006 0.0155 0.0024 -0.0026 -0.0132 0.0237 -0.0254 -0.0085 -0.0059 -0.0093 -0.0127 0.0254 0.0051 -0.0281 0.0249 -0.027 -0.0029 0.0124 -0.0057 -0.0155 0.0112 0.0188 0.018 -0.0213 0.0174 -0.0095 0.0166 -0.0064 0.0337 -0.0029 -0.0051 -0.0268 -0.0177 -0.0011
concurring -0.0018 -0.0016 -0.013 0.0063 -0.0146 -0.0061 0.0071 -0.0336 -0.0209 0.0123 -0.0105 -0.0274 -0.005 0.0203 -0.0013 0.0046 -0.0256 0.0091 0.0104 0.0197 -0.0272 -0.0157 -0.0072 0.0123 -0.022 0.0071 -0.0082 0.0056 0.0159 -0.0047 -0.0016 0.0005 -0.0006 -0.009 0.0008 0.0035 -0.0135 -0.014 0.0026 0.0143 -0.0165 -0.0035 -0.0124 -0.0006 -0.0218 0.0042 0.0092 0.0133 0.0085 0.0251 0.019 0.0109 0.0002 0.0254 0.0104 -0.0072 -0.0028 -0.0056 -0.015 0.0086 -0.0138 0.0141 0.021 -0.0262 0.0083 -0.0209 -0.0083 0.0171 0.0186 0.0121 -0.0142 -0.0026 0.0402 -0.0204 0.0027 -0.0221 0.0133 -0.015 -0.0008 0.0153 -0.0041 -0.0072 0.009 0.0081 0.0086 0.0058 0.0107 0.0188 -0.0079 0.0069 0.0205 -0.0045 -0.0207 -0.0033 -0.0144 0.0092 -0.0065 -0.0098 0.0037 0.018 -0.0042 -0.0067 -0.0041 -0.0105 0.005 -0.0165 -0.001 -0.0092 -0.0058 -0.0104 -0.0017 0.006 0.0064 -0.0063 0.0053 -0.0039 -0.0007 -0.0049 0.0059 0.003 0.0111 0.0032 -0.0021 -0.0025 0.0255 0.0027 -0.0085 0.0078 0.0054 0.0258 0.0205 0.0247 -0.002 0.0066 -0.0076 0.0048 0.0049 0.0421 -0.01 0.0016 0.0141 -0.0048 -0.0104 -0.024 -0.0014 -0.0192 0.0088 -0.0103 0.0072 0.0101 0.0017 0.0052 -0.0014 -0.0139 0.0149 0.0067 -0.0036 -0.0094 -0.0094 -0.0027 0.0036 -0.0048 0.0125 0.0093 0.0105 0.0168 0.0089 -0.0109 -0.0034 -0.005 0.0146 -0.0078 0.0106 0.0127 0.0014 0.0004 0.0303 -0.0103 -0.0047 -0.0195 -0.0069 -0.0096 0.004 0.0158 -0.0069 -0.0067 0.0249 0.0297 0.0087 -0.0041 0.008 0.0298 -0.0238 -0.0069 -0.0086 -0.0044 0.0037 0.0012 -0.0043 0.0093 -0.039 0.018 -0.0297 0.0201 0.0012 -0.0069 0.0137 -0.0137 0.0216 -0.0099 0.0164 0.0142 0.0206 -0.0139 -0.0077 0.0141 0.0134 -0.0114 -0.012 0.0215 -0.009 0.0049 0.0103 0.0341 0.0131 0.02 0.0148 0.0435 0.0177 -0.0134 -0.0089 -0.0185 -0.0025 0.0001 0.0071 -0.0094 0.0006 -0.0028 0.0042 -0.0133 0.0255 -0.0091 -0.0174 0.0061 -0.0423 0.0208 -0.002 -0.0009 -0.0035 0.0049 0.0257 0.0103 0.0021 0.0062 0.0126 -0.0137 -0.0172 0.0077 0.0053 0.0044 -0.0001 0.0024 -0.0175 0.0151 -0.0335 -0.0097 0.0082 0.0156 -0.0099 0.0091 0.0057 0.0241 -0.0194 -0.0028 0.0072 -0.0262 -0.0064 0.0035 -0.0042 -0.0188 -0.0015 0.0172 -0.0138 -0.0146 -0.0066 0.0001 -0.0076 -0.0065 0.0161 0.0187 0.01 -0.0183 0.0064 0.0172 0.0107 0.0037 -0.0004 0.0121 0.0088 0.0073
bliss -0.0213 -0.0045 -0.0093 -0.0116 -0.0494 -0.0053 0.0062 -0.0557 0.0534 -0.0039 0.0026 -0.0432 -0.036 -0.0169 -0.0347 -0.0272 0.0415 -0.0091 0.0086 0.0051 -0.0116 0.0281 -0.0378 0.0227 -0.0063 -0.0346 0.0267 0.0479 -0.0198 -0.0022 0.025 0.0206 -0.0148 -0.0054 0.0007 -0.0061 -0.0388 -0.0153 0.0133 0.0105 -0.007 -0.0368 -0.0361 0.0472 -0.0131 0.0052 0.0202 -0.014 0.0075 0.0283 0.0061 -0.0214 -0.0237 -0.0451 -0.0177 -0.0208 -0.027 -0.0415 -0.0182 -0.0067 0.0343 0.0115 0.0253 0.0131 0.0319 -0.0085 -0.0424 -0.0178 -0.0245 0.0146 0.0203 0.0333 0.0188 -0.0249 -0.0193 -0.0153 -0.0537 -0.0068 -0.0415 0.0026 0.0074 -0.0027 0.0282 0.0497 -0.0104 0.0117 0.0325 -0.0053 -0.0206 -0.0224 -0.0096 -0.011 -0.0356 -0.0671 0.0213 0.0165 0.0374 -0.0159 -0.0276 0.0383 0.0141 0.0441 -0.002 -0.0371 0.0247 -0.0512 -0.0088 -0.0036 0.0066 -0.0668 -0.0119 0.0203 0.0005 -0.0334 0.0051 0.0126 -0.0556 0.0212 -0.0062 0.0059 0.0211 0.0312 -0.0392 0.0066 0.0455 -0.0059 0.0248 -0.0378 -0.0204 0.0516 0.017 -0.0154 0.0286 -0.032 -0.0356 -0.1124 0.0136 0.0531 0.0227 -0.0224 -0.0053 -0.0222 0.0277 0.0167 0.0011 0.0053 -0.0098 0.0052 0.014 0.0264 -0.0129 -0.026 -0.0126 0.041 0.0327 -0.0215 -0.0164 0.0341 0.0167 -0.0613 0.0435 -0.0239 -0.0669 -0.0163 0.0216 0.0279 -0.0282 0.0031 0.0133 0.004 -0.0118 0.0551 -0.0079 -0.011 -0.0172 0.0412 0.04 -0.0136 0.0051 -0.0313 -0.0166 0.0127 0.0025 -0.0603 0.0226 0.0056 -0.0044 0.0773 0.007 0.028 0.0531 0.0211 -0.0058 0.0159 -0.0202 -0.0103 0.0285 0.0443 0.0152 -0.0215 -0.0996 -0.0119 -0.03 0.0068 0.0213 -0.021 0.0232 0.0147 0.0285 -0.0081 0.0364 0.0046 -0.0418 -0.0025 0.0561 -0.0243 0.0096 -0.0214 0.0222 -0.0326 -0.0316 -0.0581 -0.0059 0.0335 0.0355 -0.0085 0.0135 0.0507 0.0074 0.0015 0.06 -0.0415 -0.036 0.0139 0.0082 -0.0016 0.0038 -0.0402 -0.0247 -0.0281 0.0373 -0.0103 -0.0278 -0.0058 -0.0624 -0.0149 -0.0055 -0.0032 0.0261 0.0076 0.0319 -0.0292 0.0127 0.0299 0.0417 0.0147 0.0318 0.0254 0.0539 0.0109 -0.0186 0.0306 0.0202 -0.0009 -0.0139 -0.0085 0.0247 0.0325 -0.0018 -0.0002 -0.013 0.0425 -0.0432 -0.0084 0.0276 -0.0688 0.0024 0.0246 -0.0023 0.0038 0.0024 -0.0124 0.0081 -0.0382 0.0121 -0.0044 0.0098 0.0363 -0.001 0.0177 0.0355 -0.0411 0.0013 0.0005 0.0146 -0.0129 0.0644 0.0355 -0.0127 0.0634
kilowatts 0.0211 -0.0207 -0.0118 -0.0106 -0.0014 0.0146 -0.0111 -0.0375 0.0331 0.0117 -0.0155 -0.0264 0.0038 0.0099 -0.005 0.0096 -0.0046 -0.015 0.0239 0.0037 0.0242 -0.0053 -0.0021 0.0012 0.037 -0.0374 0.001 -0.014 0.0658 -0.0026 -0.008 -0.0232 -0.0277 -0.0174 0.0112 -0.0218 0.0055 0.0127 0.0092 -0.0075 -0.0166 0.0014 0.0338 0.0151 0.0047 -0.0031 0.0 -0.0029 -0.0364 0.0154 0.0199 0.0331 -0.0057 0.0413 -0.0218 0.0054 0.0115 0.0015 0.0065 0.0129 0.0142 0.0313 0.0208 -0.0151 -0.0073 0.0021 -0.0008 -0.0097 0.0044 -0.0282 0.0369 0.0035 0.0285 -0.0019 -0.0425 -0.0172 -0.0281 0.0106 -0.0231 -0.0095 -0.0034 -0.0354 0.0046 0.0007 -0.0032 0.0165 -0.0168 0.0096 0.0192 -0.038 -0.0129 0.0154 -0.0234 0.023 -0.0233 0.0175 0.0042 -0.018 0.0165 -0.0032 0.0135 0.0172 -0.0092 -0.0038 0.0048 0.0211 -0.0144 0.0142 0.0131 -0.0019 0.0229 0.0358 0.0083 -0.0056 0.0326 -0.0345 -0.0246 0.0293 0.0008 -0.0038 -0.0289 0.0024 0.0006 -0.0152 0.0356 0.0118 -0.0187 -0.0437 0.0187 -0.0443 -0.0254 0.0458 0.0179 -0.0189 0.0166 -0.0248 0.001 0.03 -0.0085 0.0049 0.0092 -0.0011 0.0064 -0.0096 0.0002 -0.0099 0.0049 0.0046 -0.0198 -0.0033 -0.0054 0.0189 -0.0314 -0.0059 -0.0021 0.0016 0.0289 0.0308 -0.0073 0.0037 0.0042 0.0227 0.0178 0.0124 0.0101 -0.0012 0.0072 -0.0021 -0.0033 0.0173 -0.0061 0.0125 0.0146 -0.0056 0.0166 0.0158 0.0099 0.0248 -0.0192 0.0547 -0.0017 -0.0076 -0.0135 0.0026 -0.0084 -0.0108 -0.0379 0.0503 0.0335 0.0006 0.0326 0.0121 0.001 -0.0049 0.0092 -0.0141 0.0029 0.032 0.0049 0.0168 -0.0226 0.0123 -0.0176 0.0024 0.0329 -0.0055 0.0266 0.0328 -0.0439 -0.0374 0.0337 -0.0471 -0.0276 -0.0063 0.0204 0.0101 -0.0049 -0.0188 0.0065 -0.0011 -0.0117 0.0204 0.032 0.0386 0.0383 0.0041 0.0045 0.0239 0.0413 -0.0473 -0.0005 0.0007 -0.0152 0.0062 -0.0088 -0.0032 0.0401 -0.0133 0.0 -0.0117 -0.017 0.0 -0.0228 -0.0218 -0.0195 -0.0038 0.0128 -0.0077 0.0442 0.0107 -0.0015 -0.0021 -0.0114 -0.024 0.0238 -0.0057 0.026 0.0035 -0.037 0.0044 -0.0069 0.0108 0.027 -0.0659 -0.0098 -0.0086 0.0329 -0.0152 0.0188 -0.0049 0.0193 0.0271 -0.0271 -0.022 -0.0321 -0.0403 -0.0204 0.0057 0.0292 0.0108 -0.027 0.0256 -0.0045 0.0333 -0.0056 0.0038 -0.0021 0.0291 0.0081 0.021 -0.0082 0.0213 -0.0182 0.0058 0.0137 0.0443 -0.0115 -0.0389 0.0116 0.0047
practical -0.0157 -0.0068 0.0054 -0.0069 -0.0146 -0.0096 0.0024 -0.03 -0.0156 -0.0003 -0.0046 -0.016 -0.0006 -0.0154 0.0146 -0.0103 0.0176 0.0067 0.0129 0.0182 -0.0037 0.0157 0.0219 0.0207 0.0038 0.006 -0.0108 -0.0016 0.0195 0.005 0.0001 -0.021 0.0062 -0.0519 0.0245 0.0072 0.0014 0.0001 0.0027 0.0039 0.0132 -0.0269 -0.0038 -0.0005 -0.0101 -0.0309 -0.0032 -0.0123 0.0013 -0.0017 -0.0105 -0.0089 -0.0249 0.0116 0.0004 0.0068 -0.0007 0.0023 -0.0035 -0.0063 0.0051 0.0049 0.0357 0.0105 0.0148 -0.0063 0.0006 -0.0008 -0.002 -0.0046 0.0105 0.0087 -0.0038 0.0134 -0.0101 -0.0059 -0.0181 -0.0313 -0.0003 0.0003 0.0007 0.0164 0.0069 0.0164 -0.0137 0.0085 -0.0007 0.0112 -0.0094 0.0115 0.0046 -0.0145 -0.0304 -0.001 0.0039 0.0001 -0.0047 -0.0083 0.0043 0.0026 -0.0009 0.0005 -0.0023 -0.0071 -0.0112 -0.032 0.0264 0.0001 -0.0134 -0.007 -0.0048 0.016 0.0132 0.0105 -0.0027 -0.004 -0.002 0.0051 -0.0236 -0.0142 -0.0003 -0.013 -0.0109 0.0027 0.0344 0.0018 -0.0113 -0.0106 0.0111 0.0123 0.0005 0.0087 0.0077 -0.0109 0.0028 -0.0023 0.0116 0.0119 0.0118 0.0021 0.0124 -0.0017 0.0049 0.0145 -0.0033 -0.0012 -0.0096 0.0039 -0.0025 -0.003 0.0168 0.0506 -0.015 -0.0307 0.0086 0.0061 0.0007 -0.0191 0.0093 -0.0046 0.0107 0.0084 -0.011 0.0197 0.0089 0.0062 0.0198 0.007 -0.0016 0.0051 0.019 0.0107 0.0067 0.0092 -0.0014 0.021 -0.0095 0.0132 -0.0181 0.0107 0.0034 -0.0046 -0.0049 -0.0264 0.0148 -0.0225 0.0002 0.0223 -0.0012 -0.0124 0.0038 0.0391 0.0283 -0.0254 -0.0042 0.0068 -0.0032 0.0213 -0.0135 0.0125 -0.0396 0.0237 0.0076 0.0024 -0.0051 -0.0147 -0.0047 0.0138 -0.0011 -0.0047 0.0186 -0.0038 -0.0102 -0.0047 0.0216 0.01 0.0131 -0.0218 -0.0427 -0.0139 0.0075 0.0013 -0.0153 0.0299 0.0182 -0.0025 0.0119 0.0263 0.0036 -0.0021 0.006 -0.0388 -0.0245 -0.0034 -0.0019 0.0051 0.0113 -0.0085 -0.0273 0.0 0.0341 0.0104 0.0036 0.0087 -0.0777 0.0239 -0.0113 -0.0138 0.0089 -0.0074 0.0003 0.0216 -0.0005 -0.006 -0.0118 -0.0131 0.011 0.0241 0.0025 0.0107 0.0071 0.0162 -0.0132 0.0008 0.0009 0.0003 0.0062 0.0141 -0.0037 0.0002 -0.0098 0.0205 -0.033 -0.0119 0.0271 -0.058 0.0027 0.0071 0.0076 -0.0039 0.025 0.0154 -0.0182 -0.0135 0.0035 -0.0029 0.0021 -0.0001 -0.001 0.0096 0.0004 -0.0028 0.0111 -0.0076 0.0055 0.0094 -0.007 -0.0024 -0.0116 0.0085
unmanaged 0.0091 0.0235 -0.0337 0.0113 -0.005 0.0037 -0.0046 -0.0344 -0.0033 -0.0061 -0.0396 0.0028 -0.0054 -0.013 0.0036 0.0027 0.0128 -0.0029 0.025 -0.0082 -0.0211 0.0091 0.0044 0.0136 -0.0325 0.0116 0.0145 -0.0011 0.0259 0.0141 0.011 -0.004 -0.0056 0.0248 0.0199 -0.0138 0.0058 0.0001 0.0154 0.0118 0.0013 -0.0154 0.0051 0.014 -0.0408 0.0009 0.0149 -0.0069 0.0173 -0.0011 0.0026 0.0247 0.0133 -0.011 -0.0469 -0.0123 -0.037 0.0203 -0.0103 -0.0293 0.0424 -0.0086 0.0491 -0.0114 0.0226 -0.0039 0.0194 0.0064 0.0115 -0.0086 0.0013 0.0147 0.011 0.0186 -0.0077 0.014 -0.0088 -0.0119 -0.0012 0.0002 -0.0032 -0.0102 -0.007 0.0184 0.0453 -0.0117 0.0044 0.0146 -0.0233 -0.0204 0.0045 0.0204 -0.0273 -0.0129 -0.0156 0.0367 -0.0016 -0.0063 0.0029 0.0142 -0.0061 0.0139 -0.0107 0.0209 0.0394 -0.0211 0.0249 -0.0107 0.0036 -0.0249 -0.0104 0.035 0.0214 0.0108 -0.0095 0.0092 -0.015 -0.0056 -0.0164 0.0142 -0.0118 0.0059 -0.0005 0.004 0.0357 -0.0035 -0.0053 -0.0022 0.0131 -0.0043 -0.0196 -0.0063 0.0012 -0.004 0.0058 -0.0135 0.0069 0.0163 -0.0072 0.0147 -0.0205 -0.0062 -0.0127 -0.0174 0.02 -0.0164 0.0141 0.0237 0.0009 -0.0162 0.0286 0.0376 0.0069 -0.0082 0.0165 0.0196 0.0044 0.0203 -0.0042 -0.0203 0.0094 0.0213 -0.0139 0.0088 -0.0005 0.0165 0.0185 0.0182 -0.0054 0.0226 -0.0239 0.004 -0.0154 0.0086 -0.0292 0.0173 0.0053 -0.007 -0.0207 0.0193 0.0089 0.0133 0.0202 0.0142 0.0221 0.0124 -0.0139 0.0368 -0.0154 -0.0095 0.0008 -0.0154 0.0056 0.0109 -0.0061 -0.0282 0.0277 -0.0001 -0.0004 0.0067 -0.0465 -0.0002 -0.011 -0.0192 -0.0003 -0.0039 -0.0128 -0.0007 -0.0216 -0.0029 0.0245 0.0033 -0.0052 0.0204 0.0079 -0.0016 -0.0076 -0.0008 -0.0005 -0.0248 0.0133 -0.0034 -0.0149 0.0178 -0.0172 -0.0177 0.012 0.018 0.0001 -0.0052 -0.0006 -0.0162 -0.0117 -0.0039 0.0143 0.0096 0.0115 0.0236 0.0063 0.0069 0.0362 0.0036 0.0129 0.0088 -0.0495 0.0268 0.0018 -0.0097 0.0114 0.0101 -0.0328 -0.01 -0.0026 -0.0025 -0.0081 0.0306 -0.0083 -0.0214 0.0345 -0.0014 0.0049 -0.0034 -0.015 0.0154 -0.0079 -0.0068 -0.0041 -0.0164 0.0345 0.0121 -0.0187 0.0234 -0.0252 -0.0156 -0.0144 -0.006 0.0184 0.0058 -0.0006 0.0076 0.0082 -0.0197 -0.0113 0.0181 -0.0178 0.0059 -0.001 -0.0311 -0.0012 -0.0311 0.0259 0.0076 -0.002 0.0031 0.0091 -0.0107 -0.0147 0.0341 0.0334 -0.0061
multiply -0.0018 0.0338 0.0196 -0.0089 -0.0048 0.0278 -0.0207 -0.026 -0.0009 -0.0282 0.0029 -0.0127 0.0157 -0.0018 -0.0298 0.0023 0.0048 -0.0006 0.0205 0.0063 0.0006 0.0124 0.0017 0.0299 0.0003 -0.0002 0.0034 0.0008 -0.0055 0.0195 -0.0044 0.0159 -0.0026 0.0021 0.0173 -0.0281 -0.0057 0.0107 0.0177 -0.0045 0.0077 -0.0164 -0.0336 -0.0032 -0.0038 0.0103 -0.0082 -0.0035 0.0013 0.0049 -0.0027 0.0188 -0.0037 0.0021 -0.0603 0.0521 -0.0033 0.0064 -0.0134 -0.0071 -0.0064 0.0042 0.0615 -0.0333 0.0161 -0.0011 0.0303 0.004 -0.0111 -0.0327 0.0284 -0.0274 0.0288 0.0166 0.0113 -0.0089 0.0127 0.0024 0.0023 -0.0169 0.0055 -0.0122 -0.0235 0.0324 0.0166 -0.0055 -0.0039 0.0082 0.0097 0.0245 -0.0131 -0.0081 -0.0256 -0.009 -0.0204 -0.0331 -0.0019 0.0073 0.0039 -0.017 0.0054 -0.0235 0.0226 -0.0016 0.0022 -0.0146 -0.019 -0.0206 0.0058 -0.0121 0.0053 0.0321 0.0188 -0.029 0.0279 0.0324 0.0083 0.0209 -0.0085 -0.0202 -0.0327 0.0124 -0.0002 0.0005 0.0203 0.004 -0.011 -0.025 0.0211 0.0158 0.0109 0.0131 -0.0021 -0.0021 0.0104 -0.0056 -0.0282 0.0325 -0.0035 0.0124 0.0255 -0.0165 -0.0114 0.0065 0.0063 -0.0002 0.0062 -0.0147 -0.0107 -0.0115 0.004 0.0437 -0.0173 0.0059 0.019 -0.0003 0.0091 0.0214 -0.0253 0.0046 -0.0031 0.0096 -0.0229 -0.0037 0.0153 -0.0197 0.0079 0.0045 -0.0092 0.0171 -0.0098 0.004 -0.0037 0.0001 -0.0281 0.0179 0.023 -0.0129 -0.003 0.0202 0.0086 -0.0059 -0.0122 0.0023 -0.0127 -0.0052 0.0035 0.0387 0.0306 -0.0003 -0.006 -0.0127 -0.0231 -0.0005 0.0023 -0.0217 -0.0046 0.0446 -0.0144 -0.0038 -0.0476 -0.0082 -0.0048 0.0071 -0.0042 -0.0064 0.0228 -0.0147 0.0082 -0.0311 -0.0056 -0.0023 0.027 0.0001 0.024 0.0113 -0.0024 0.0121 -0.0062 0.018 0.0184 0.0199 0.013 0.0227 0.0095 -0.0112 0.0287 0.0285 0.0163 -0.0014 -0.0013 -0.0272 -0.0177 -0.0066 0.0224 -0.0187 0.006 -0.0259 -0.0132 -0.03 0.0633 -0.0074 0.0139 -0.0212 -0.0519 0.0217 0.0029 -0.0165 0.0097 -0.0241 0.0096 0.0049 -0.0079 0.0124 -0.0161 0.0184 0.0291 0.0197 0.0314 0.0232 -0.0043 0.0143 0.0149 -0.0158 -0.0192 0.0 0.0213 0.0039 0.0179 0.0173 0.0016 0.0352 -0.033 -0.0153 0.0005 -0.0185 0.0099 0.0005 -0.0271 -0.012 -0.007 0.0016 -0.0173 -0.0139 0.0309 0.0327 -0.0089 -0.0072 -0.0164 0.0102 -0.0269 -0.0028 -0.0244 -0.0089 0.0109 -0.0237 0.0244 0.0172 0.0152 -0.002
concern -0.0012 -0.0032 0.003 -0.0182 -0.0321 0.0225 -0.0269 -0.0446 -0.0098 -0.002 -0.0313 -0.0062 0.011 -0.0006 -0.0042 -0.0037 0.0192 0.0257 0.0243 0.0063 -0.0065 -0.001 0.0653 0.0297 0.0024 0.0087 -0.0036 -0.0023 -0.0027 -0.0127 0.0029 0.0017 0.0055 -0.0342 -0.0194 -0.0156 -0.0158 0.0062 -0.001 -0.0121 0.0059 -0.0205 0.0042 0.0002 0.004 0.0089 0.0117 0.0085 0.0108 0.0214 0.034 -0.0077 0.002 0.007 0.0134 -0.0087 -0.0095 0.0124 -0.0176 -0.0017 0.0136 0.0101 0.0319 -0.0054 0.0192 -0.0091 -0.0073 -0.0054 0.0044 -0.0063 0.0114 0.0111 0.0049 -0.0052 -0.0083 -0.0031 0.0196 -0.015 0.0183 -0.0168 -0.021 0.0296 -0.0065 0.0257 -0.004 0.0179 -0.0077 -0.0009 -0.0297 -0.0025 0.0034 0.0138 -0.0449 -0.0363 -0.0029 -0.0072 -0.0026 -0.0142 -0.0241 0.0075 -0.0241 -0.0099 -0.0085 0.0051 0.0068 -0.0226 0.001 -0.0129 -0.0035 -0.0125 0.0135 0.024 0.0249 -0.0015 0.0038 0.0036 -0.0041 -0.0197 -0.0239 -0.0084 -0.0025 0.0133 0.0026 -0.0189 0.035 0.0011 0.0066 -0.0239 0.0114 0.0427 0.0074 0.0007 0.0118 0.0284 0.0133 0.0171 0.0044 0.0695 0.0013 0.0342 0.0182 0.0096 0.0018 0.0004 -0.0266 -0.0145 0.001 -0.0102 -0.006 0.0041 0.0272 0.0213 0.0023 -0.0354 0.0056 0.0142 0.0007 0.0027 -0.001 -0.0127 0.0201 0.0099 -0.0184 0.0055 0.006 0.005 0.0159 0.0084 -0.0106 -0.0046 0.0091 -0.0117 0.0052 0.0072 -0.007 0.0097 -0.0137 0.014 -0.0021 0.0046 0.0004 0.0168 0.0189 -0.0224 -0.0063 -0.0238 -0.0002 0.0304 -0.002 -0.0249 0.0055 0.0557 -0.0239 -0.0105 0.0134 -0.0047 0.0144 0.0056 -0.0163 0.0018 -0.0453 0.0021 0.0086 -0.0134 -0.0065 -0.0105 0.0121 -0.0181 0.0122 0.0023 0.0089 0.0025 -0.0234 -0.007 0.0057 -0.0022 0.0045 -0.0147 0.0012 -0.0317 -0.0027 -0.0074 -0.0247 0.0529 0.0404 0.0024 -0.0122 0.0653 0.0115 -0.0354 -0.0051 -0.042 -0.0457 -0.0095 0.0367 0.0142 0.0021 0.0202 0.0133 -0.0328 0.0464 0.0046 0.0007 0.0155 -0.0529 0.0114 -0.0182 -0.0039 0.0012 -0.0109 0.0268 0.0125 -0.005 0.0005 -0.0027 -0.0247 -0.0228 0.0263 0.0055 -0.0085 -0.0111 -0.0229 -0.0128 -0.0068 0.0144 0.0083 -0.0235 0.0181 -0.0125 -0.0237 0.0025 0.0397 -0.0526 -0.0088 0.0782 -0.0589 -0.0015 0.0229 0.0045 0.0007 0.0094 -0.0022 0.0079 -0.006 0.019 0.0003 0.0265 0.0155 -0.0023 0.0043 -0.0065 -0.0065 0.0016 -0.0125 -0.0145 -0.017 -0.0156 0.0157 -0.0017 0.0011
reposting 0.0269 0.0201 -0.0126 -0.0055 -0.0001 0.0259 -0.0046 -0.026 -0.018 -0.01 -0.0092 -0.036 0.0012 0.0072 -0.0278 -0.0043 -0.009 -0.0105 0.0053 -0.025 0.0004 0.0215 0.0007 0.0011 -0.0171 0.0059 0.0058 0.0241 0.018 -0.0015 0.0161 -0.0082 -0.0086 -0.0251 0.0052 -0.0319 -0.0111 -0.0012 -0.0251 0.0099 -0.0117 -0.0175 0.0087 0.0135 -0.0021 0.0196 -0.002 0.0044 -0.0161 0.0055 0.0099 -0.0062 0.0149 0.0121 -0.0175 -0.0148 0.0021 -0.0005 -0.0203 0.0194 0.0132 -0.0008 0.0192 0.0079 0.0054 0.0112 0.0142 0.0431 0.0073 0.0018 -0.008 0.0065 0.048 -0.0237 0.0124 0.0041 0.0064 -0.0253 0.0005 -0.0025 0.0017 -0.0329 0.0027 0.0244 -0.01 0.0185 -0.009 -0.007 0.009 0.0048 0.0041 -0.0051 -0.0055 -0.0196 0.0001 -0.0025 0.0059 0.0064 0.0064 0.0069 -0.0141 -0.0124 -0.0188 0.0054 -0.0013 -0.0183 -0.0017 -0.0118 0.0203 0.0007 -0.0131 0.0025 0.0218 -0.0082 -0.0072 0.0035 -0.0025 -0.0127 -0.0172 -0.0163 -0.0205 0.0015 0.0031 0.0088 0.0122 0.0183 0.0101 0.001 0.0088 0.054 -0.0172 0.0181 0.0011 0.0039 0.0161 0.0069 0.0 0.0022 0.0031 -0.005 -0.0024 0.0159 -0.0042 -0.0333 -0.0204 0.0247 0.0122 -0.0168 0.01 -0.0156 -0.0063 -0.0054 0.0011 -0.0222 0.0168 0.0026 -0.0167 0.013 0.0116 -0.0035 0.0028 -0.0004 -0.0012 -0.0005 -0.0021 -0.0047 0.0014 0.0165 -0.025 0.0064 0.009 0.0098 0.0058 -0.0178 0.0097 0.0243 -0.0121 -0.0148 0.005 -0.0074 0.0106 0.0214 -0.0097 0.0039 -0.0172 0.0005 -0.003 0.046 -0.0029 0.0127 -0.0027 0.0096 -0.0276 0.0093 -0.0109 0.0034 0.0166 -0.0276 -0.0248 0.012 -0.0408 0.0146 -0.0131 0.0129 0.0056 -0.0127 0.0015 0.0209 0.0189 -0.0145 0.0061 0.0144 0.02 -0.0005 0.0029 -0.0111 0.0151 -0.0185 0.0012 -0.0083 0.0015 0.0095 0.0086 0.0259 -0.0042 0.0081 0.0227 0.0367 -0.0096 0.0164 -0.0054 -0.0196 0.0179 0.0092 0.012 -0.008 0.0124 0.0298 0.0059 -0.0327 0.0457 -0.0031 0.0006 -0.0156 -0.0376 0.0162 -0.012 0.0064 -0.0283 0.0144 0.015 -0.0042 0.0294 0.0111 0.0345 -0.0092 -0.016 -0.0181 -0.0018 -0.0062 -0.002 0.0043 0.0044 0.013 0.0036 -0.0049 0.0237 -0.002 -0.0153 0.0097 0.0095 0.0227 -0.0133 0.002 -0.0261 -0.0137 -0.0084 -0.0137 -0.0272 0.0012 0.0112 -0.0254 0.0141 0.0123 0.0067 -0.0035 -0.019 0.0197 -0.0267 0.0239 0.0098 -0.0155 0.0113 0.0063 -0.0056 -0.0067 -0.0092 -0.0319 -0.0086 -0.017
mischief -0.0145 0.0263 0.0066 -0.0081 0.001 -0.0322 -0.0049 -0.0326 0.0018 0.0082 -0.019 0.0098 0.0124 -0.022 -0.0105 -0.0108 0.0088 -0.0094 -0.001 -0.0288 0.0097 0.0072 -0.0033 0.0177 -0.0103 -0.0085 0.0137 -0.0066 0.0165 -0.0113 0.0106 -0.0254 -0.0323 -0.0295 -0.0033 0.0109 -0.0011 0.0004 0.0035 -0.0184 -0.0136 -0.0218 -0.0049 -0.0123 -0.0231 0.0122 0.0112 0.0174 -0.0021 0.0036 0.0069 0.0284 -0.0001 -0.0252 0.0057 -0.0126 -0.0034 -0.0111 -0.0062 -0.0149 -0.007 0.019 0.0077 -0.0262 0.0188 0.0082 -0.0107 0.0297 0.003 0.0044 0.0258 -0.0076 0.0222 -0.0093 -0.0066 0.0071 0.0116 0.0047 -0.0117 -0.0331 -0.034 0.0098 -0.0067 0.0011 0.0391 0.0017 -0.0031 0.0233 -0.0074 -0.0001 0.0049 -0.009 -0.034 -0.0378 0.0125 0.0071 0.0052 0.0074 -0.0011 0.0071 0.0188 0.0111 -0.011 -0.004 0.0293 -0.0112 -0.0011 0.0067 -0.0158 -0.0013 0.0102 0.0136 0.0117 0.0132 0.0064 0.009 0.0115 -0.0094 -0.034 -0.0006 -0.0084 0.0029 0.0084 -0.0053 0.0354 0.0117 0.0076 -0.0384 -0.0273 0.0184 0.0014 -0.0121 -0.0105 0.0272 0.0276 -0.0218 -0.0026 0.0259 0.0162 -0.009 0.0199 -0.0117 0.0008 -0.023 -0.0147 0.0199 0.0204 0.0081 0.0023 -0.0096 0.0177 0.0202 -0.0118 -0.0334 0.0258 -0.0227 0.0252 0.0073 -0.0298 -0.0073 0.0197 0.0107 -0.0393 0.0014 -0.0032 0.002 0.0279 0.0228 -0.0081 0.0171 0.0061 -0.0002 0.0159 0.0077 -0.01 0.0179 0.0189 0.0055 -0.0 -0.002 -0.016 -0.0012 -0.0056 -0.0148 0.0004 -0.0061 0.0011 0.0245 0.0196 -0.0026 -0.01 0.0288 -0.0048 -0.0057 -0.0081 0.0292 0.0215 0.0186 -0.0084 0.0058 -0.0605 0.0102 0.0145 0.0087 0.0017 0.0156 0.0051 0.02 -0.0023 0.0021 0.0329 0.0101 -0.0013 0.0067 0.0315 -0.0115 -0.0406 -0.0086 -0.0073 -0.0399 -0.007 0.0105 -0.0304 0.0146 0.0167 -0.0105 0.0054 0.0523 0.002 -0.0076 -0.01 -0.0117 -0.0155 -0.0252 0.0039 -0.0034 -0.0109 -0.0263 -0.01 -0.0259 0.0258 -0.0197 -0.0183 0.0064 -0.0273 0.0255 -0.0261 -0.0207 -0.0111 0.0053 -0.0099 0.0028 0.0064 -0.0092 -0.0035 0.015 0.0004 0.0341 -0.0019 0.0025 0.0015 -0.0126 -0.0106 0.0125 -0.0441 -0.0 0.0014 0.0218 -0.0027 -0.0143 -0.0112 0.025 -0.0367 -0.016 0.0154 -0.0468 0.0295 -0.0078 -0.0245 0.001 0.0148 -0.0235 0.0081 -0.0324 0.0091 0.0149 0.0172 0.0085 0.0137 0.032 0.0048 0.0088 -0.0354 -0.0007 -0.0063 -0.0054 0.0005 -0.0117 -0.0044 0.0018
wan 0.0051 0.0217 -0.0 0.0025 -0.029 -0.0204 0.0236 -0.0787 0.0124 -0.0216 -0.014 -0.0034 0.01 0.0047 -0.0054 -0.0311 0.0596 -0.0308 0.0336 -0.0238 -0.0111 -0.0119 -0.0279 0.0498 0.0333 -0.0172 0.0457 0.0121 -0.0287 -0.036 -0.0076 -0.0311 -0.0239 -0.0033 -0.061 -0.0514 0.0621 0.0191 -0.0002 0.0298 0.0344 -0.0286 -0.0216 -0.0171 -0.0012 -0.0418 -0.0144 -0.0438 -0.0161 -0.0129 0.0766 0.005 -0.0177 0.016 -0.0328 -0.0152 -0.0451 -0.0068 -0.0458 0.0035 0.054 0.0194 0.0126 -0.0651 0.0102 0.043 -0.0211 -0.0541 -0.0118 -0.0097 -0.0022 -0.0513 0.0383 -0.0157 0.0441 -0.0841 0.012 -0.0199 0.0074 -0.0373 -0.0447 -0.0294 0.0401 0.0669 -0.0085 -0.0147 -0.0411 0.0752 -0.0692 0.0226 -0.0503 -0.0234 -0.0802 -0.0594 0.1009 0.0734 0.0527 0.0026 0.0068 0.0262 0.0102 0.0153 0.0465 0.0208 0.0059 -0.0802 -0.0184 -0.0819 0.0302 -0.0085 -0.0352 -0.0185 -0.0045 -0.0308 0.0062 -0.0159 -0.0586 -0.011 -0.0115 -0.0364 -0.0303 -0.0012 -0.0294 0.0169 0.1168 0.0789 -0.0204 0.0693 -0.0515 0.01 -0.0555 0.0283 -0.0566 0.0062 -0.0121 -0.0357 0.0002 0.0687 0.0385 0.0053 0.0515 0.0015 -0.0139 0.0365 0.0479 0.0012 -0.0013 0.0265 -0.0178 0.0093 -0.0326 0.0874 0.0479 -0.0109 -0.0336 -0.0196 -0.0266 -0.0294 -0.051 -0.0095 0.0065 -0.0191 0.007 -0.0014 -0.0765 0.0241 0.025 -0.0022 -0.0372 0.0566 -0.0972 -0.0087 -0.0393 0.0552 -0.0006 0.0495 0.0088 0.0381 -0.0197 -0.0261 -0.0025 0.0259 -0.0369 -0.0526 -0.0108 -0.0888 0.0125 0.072 -0.0587 0.044 0.0136 0.0337 -0.0392 0.0118 0.0179 0.0417 0.0004 0.0438 -0.0134 0.0292 -0.0642 0.0309 0.0026 -0.0119 0.0184 0.0099 0.0208 0.0213 0.0392 -0.0831 -0.0067 -0.0406 -0.0435 0.058 0.0703 -0.0418 0.0035 0.0319 -0.0261 0.0568 0.017 -0.005 -0.0218 0.0799 0.0562 0.0314 0.0869 0.0788 0.038 -0.0225 -0.0155 -0.0719 -0.0367 0.0216 -0.0124 -0.0175 0.0082 0.0013 0.0229 -0.0329 0.1737 0.0198 -0.0213 -0.0364 -0.0333 -0.0403 -0.0177 0.0087 0.0072 -0.0336 0.028 -0.0684 -0.0013 0.0464 0.0666 0.0201 0.0282 -0.0302 0.0426 0.0147 -0.0339 -0.0143 0.0292 -0.033 0.062 0.0232 -0.006 0.0053 -0.0029 0.0535 -0.0082 0.0686 -0.0458 -0.0158 0.0306 -0.0663 0.0208 0.0035 0.0004 -0.0099 -0.0484 0.0015 0.0304 -0.0245 -0.089 0.0329 0.0231 -0.0327 -0.024 -0.04 0.0234 -0.027 0.0234 0.0153 0.0036 0.0016 -0.0116 0.048 -0.0028 -0.0356
superman -0.0254 -0.0076 0.0241 0.0079 -0.0019 -0.0417 0.0126 -0.0315 0.0251 0.019 0.0018 0.0436 0.0162 0.0097 -0.0203 -0.0365 0.0289 0.001 0.0069 0.0057 0.0138 0.0053 -0.0166 0.0121 0.0223 -0.0262 0.0245 -0.0132 0.0043 0.0179 0.0044 -0.0148 0.0037 0.0108 -0.0026 -0.0184 0.0045 -0.0458 -0.0086 -0.0022 0.0102 -0.0427 0.0207 0.0047 0.0275 0.0148 0.0421 0.0046 0.0044 -0.0074 0.0103 -0.0011 0.0106 0.0048 0.0104 0.0185 0.0263 -0.0155 -0.013 0.0132 -0.0273 0.0049 0.0167 -0.023 0.0011 -0.0122 0.0003 0.0027 0.0007 -0.0227 0.0201 -0.0207 0.0192 -0.018 -0.0037 0.0046 -0.0108 -0.0259 -0.0011 0.0179 0.0097 -0.005 0.009 0.0287 0.0136 -0.0072 -0.0156 0.0066 0.0162 0.0263 0.0056 0.0035 -0.0394 -0.0106 0.0344 0.0291 0.006 -0.0285 0.0035 0.0394 0.0079 -0.0121 0.0073 -0.0151 -0.0275 -0.0463 0.0053 -0.0203 0.0076 0.0146 -0.0091 0.0043 0.0085 -0.0213 0.0048 0.0068 -0.0171 -0.0124 -0.0155 0.0175 0.0279 -0.0256 0.0078 0.0093 0.0372 -0.0051 0.0109 -0.0082 0.0025 0.0152 -0.0232 -0.0151 0.0073 0.0116 -0.0335 -0.0196 0.0269 0.0037 -0.005 -0.0087 0.0018 -0.01 -0.0112 0.0477 0.0034 0.0011 -0.0019 -0.0364 -0.0049 0.0019 0.0009 0.0201 -0.0308 -0.0037 -0.0007 -0.0084 0.0091 -0.0085 0.0237 -0.0159 0.0142 0.0131 -0.0266 0.0126 0.0015 -0.019 0.0073 0.011 0.0082 0.0158 -0.0045 -0.0229 -0.0278 -0.0118 -0.0065 0.0331 -0.0153 0.0007 0.0093 0.0121 0.0084 -0.0085 -0.0185 -0.0315 -0.0097 -0.031 0.0004 0.0427 0.012 -0.0006 0.0068 0.0207 -0.0018 -0.001 -0.0024 0.0065 -0.0219 -0.0254 -0.0097 0.0094 -0.051 0.0207 -0.0012 0.0035 -0.0162 -0.0227 0.0079 -0.0063 -0.0184 -0.0224 0.0331 0.0043 -0.0068 -0.0057 -0.0144 0.0142 -0.0086 0.0135 0.0066 0.0151 0.0018 0.0064 -0.0061 0.0342 0.0197 0.0067 0.0009 0.032 0.001 -0.0077 -0.0005 -0.0091 -0.0287 -0.0093 -0.0017 -0.0167 -0.0111 -0.0081 0.0083 0.0119 0.0315 0.0324 -0.0224 0.0058 -0.0254 0.009 0.0146 0.0198 -0.0191 0.0072 0.0164 -0.0169 0.0036 0.0043 0.0239 0.0256 0.0076 0.002 0.0368 -0.0126 -0.004 -0.0184 0.011 0.0218 -0.0066 0.0084 0.0164 0.0043 0.0165 -0.0051 -0.0005 0.025 -0.0232 0.0021 0.0075 -0.0165 0.0089 -0.0106 0.0201 0.0015 0.017 -0.0097 0.0082 -0.0268 -0.0125 -0.0074 0.0074 -0.0193 0.0067 0.0017 0.0237 -0.0237 -0.0179 -0.0091 -0.0075 0.0152 0.0105 0.0105 0.0017 -0.0329
carpenters -0.0033 -0.0168 0.0056 -0.0154 -0.0329 -0.0408 0.0016 -0.0292 0.0159 0.0022 -0.0081 0.0009 -0.0034 -0.0009 0.0074 0.002 0.0276 0.0174 0.0042 -0.0101 -0.0176 0.0055 0.0036 0.0073 0.0139 -0.0375 0.0099 0.0066 0.0211 0.0061 -0.0096 0.0001 0.0238 0.026 0.0036 0.0203 0.0046 0.0327 -0.0206 -0.0218 -0.0128 -0.02 -0.0024 -0.0032 -0.0123 0.0112 -0.0213 0.0089 -0.0115 -0.0039 -0.0124 -0.0061 -0.0077 0.0247 -0.0099 0.0012 0.0107 -0.011 -0.0133 -0.0313 -0.024 -0.0047 0.0274 0.0105 0.0133 0.0119 -0.0113 -0.0174 -0.0126 -0.0083 0.0078 -0.009 0.0398 -0.0318 0.023 -0.003 -0.0007 -0.0249 -0.0254 -0.004 -0.0129 0.0084 0.0055 0.0082 -0.0266 -0.0194 0.0291 -0.0103 -0.0129 0.0084 0.0052 -0.0027 -0.0257 -0.0113 0.0029 0.0412 -0.0084 0.025 0.0191 -0.0127 0.0238 -0.0092 0.0329 0.0337 0.006 -0.0128 0.0266 0.0343 -0.0294 0.002 -0.0018 0.0183 0.0204 0.0165 0.0038 -0.0018 -0.0162 0.0119 0.0004 0.0044 -0.0024 -0.0155 -0.005 0.0022 0.0385 0.0111 -0.002 -0.0095 0.0027 0.0207 0.0087 0.0417 -0.0058 -0.0038 -0.0061 0.0153 0.001 0.0041 -0.0135 0.0063 -0.0037 0.0054 -0.0124 0.0058 -0.0054 -0.0329 0.0098 -0.0164 0.0004 -0.0371 0.0303 0.0168 -0.0225 0.0094 0.0163 -0.014 -0.0035 -0.0163 0.0009 -0.015 0.0146 0.0127 0.0063 0.0028 0.0081 -0.0049 -0.0039 0.0022 0.0041 0.0124 0.0282 -0.0045 -0.006 0.0139 0.0063 0.0097 -0.0065 0.02 -0.0012 0.0303 0.0111 0.0036 -0.0037 -0.0088 -0.0164 -0.0171 0.0043 0.0414 -0.0115 -0.0075 -0.0157 0.0377 -0.0305 -0.0073 -0.0065 0.0101 0.0027 0.022 0.0094 -0.0164 -0.0274 -0.005 -0.0063 0.0222 0.0348 0.0016 0.0033 0.0162 -0.0005 -0.0256 0.0201 0.0024 0.0429 0.0059 -0.0148 0.0051 -0.0149 0.0324 -0.0131 0.0127 0.0274 -0.0201 -0.0025 0.027 0.0117 -0.0172 0.0223 0.0207 -0.0031 -0.005 -0.0096 0.0005 -0.0078 0.0138 -0.0081 -0.0315 -0.0055 0.0135 -0.0104 0.0308 0.0053 -0.0061 -0.0142 -0.018 0.0123 0.0032 -0.0011 0.0129 0.0109 0.0002 -0.0108 0.016 -0.0086 0.0048 0.0054 -0.0109 -0.0027 -0.0008 0.0109 -0.0186 -0.0062 -0.0022 0.0183 0.0094 0.0052 0.0155 -0.0008 0.0136 -0.0364 -0.0328 0.0005 0.0192 -0.0332 0.0027 -0.0123 0.0064 0.0038 0.0067 0.0028 -0.0008 -0.0128 0.0326 -0.0126 0.0105 -0.015 0.027 -0.0001 -0.0456 0.0076 0.0292 0.001 0.0099 -0.0107 0.008 -0.0073 0.0166 -0.0027 0.0018 -0.0029 -0.0187
announced -0.0001 0.0082 -0.0025 0.0078 0.0123 0.0084 0.0196 -0.043 0.0105 0.0092 -0.0099 -0.0131 0.0006 0.0268 0.0062 0.0027 -0.0016 -0.0085 0.0136 0.0129 0.0083 -0.0046 0.004 0.0172 0.006 -0.0159 -0.011 0.0005 0.028 -0.0067 -0.01 -0.0011 -0.0105 -0.0034 0.0056 0.0115 -0.0078 0.0043 0.001 -0.0053 -0.0136 -0.0175 -0.0186 -0.0033 0.0171 0.0429 -0.0053 0.0087 0.0371 -0.0016 0.0073 -0.0082 0.0041 0.0059 -0.0111 -0.0 0.0121 -0.0071 -0.0246 0.0174 -0.0024 0.0068 0.0605 0.0237 0.0169 0.0142 0.0052 0.0006 -0.0153 0.008 -0.0093 0.0127 0.0095 0.0091 0.0185 0.0279 -0.0025 -0.0053 -0.0158 0.0013 0.0136 0.0076 0.007 0.0049 -0.0068 0.0167 -0.0116 0.0001 -0.0057 -0.0062 -0.0152 -0.0003 -0.0348 -0.0181 0.0082 0.0127 0.0056 -0.0048 -0.0151 0.0158 -0.0104 0.0098 0.0149 0.0054 -0.008 -0.0182 -0.0146 -0.0128 -0.0155 -0.0092 0.0094 0.0165 0.0399 0.0075 0.016 -0.02 0.0046 -0.0049 0.0013 -0.014 -0.0025 0.002 0.0068 0.0381 0.0218 0.0163 -0.012 0.0093 0.006 0.0232 0.0138 -0.019 -0.0054 0.0002 -0.0094 0.0085 0.0032 0.0296 -0.0112 0.0255 0.0167 0.0058 0.0025 -0.0163 -0.0147 0.0041 -0.0076 0.0021 -0.0029 0.0037 0.0086 -0.0056 0.0009 -0.0223 -0.0044 0.0113 0.0006 -0.0108 -0.0213 0.0033 0.0126 -0.0089 0.0043 0.0021 0.0033 0.0019 0.012 0.0108 -0.0045 -0.0015 0.0238 -0.0155 -0.0104 0.0159 -0.0099 -0.0003 -0.0013 -0.016 -0.0503 -0.0007 0.0135 -0.0054 0.0021 0.0202 -0.0081 0.0142 0.0012 0.0302 -0.0008 -0.0028 -0.0221 0.0226 -0.0251 -0.0028 -0.0105 -0.0045 -0.0248 -0.0084 0.0049 -0.0035 -0.0327 0.038 0.0057 0.0283 -0.0034 0.004 0.0057 -0.016 -0.0189 -0.0379 0.0192 0.0234 0.0031 -0.0055 -0.0192 -0.0324 -0.0052 -0.0141 0.0215 -0.0203 -0.0008 -0.0177 -0.0061 0.0438 -0.005 -0.0037 -0.015 0.0266 -0.0003 0.0052 -0.0112 -0.07 -0.0427 -0.0089 0.0135 -0.0005 -0.0072 -0.0284 -0.003 0.0128 0.0677 -0.0117 0.0176 -0.0037 -0.0372 -0.0145 -0.0101 -0.011 0.0047 -0.014 0.0162 -0.0238 0.0318 0.0031 -0.0085 -0.0054 -0.0141 -0.0106 0.012 0.0046 -0.0165 0.0165 -0.0045 0.0169 -0.019 0.0055 0.0035 -0.0133 0.0095 -0.0226 0.0144 0.0186 -0.0412 0.0339 -0.012 -0.0186 -0.0067 0.0023 -0.0087 -0.0031 -0.0574 -0.0057 0.0174 0.0058 0.0207 -0.0132 -0.0081 -0.0141 0.0007 0.0128 0.0181 -0.0061 0.0391 0.0023 0.0107 0.0045 0.0109 -0.0026 -0.0144 0.011
